tree
version=v3
num_class=1
num_tree_per_iteration=1
label_index=0
max_feature_idx=31
objective=regression
feature_names=precip temp lag1precip lag2precip lag3precip lag4precip lag5precip lag6precip lag7precip lag1temp lag2temp lag3temp lag4temp lag5temp lag6temp lag7temp sum2precip sum3precip sum4precip sum5precip sum6precip sum7precip sum15precip sum30precip mean3temp mean5temp mean7temp mean15temp mean30temp mean60temp mean30templag30 sum30precilag30
feature_infos=[0:100.16] [-21.5:24.32] [0:100.16] [0:100.16] [0:100.16] [0:100.16] [0:100.16] [0:100.16] [0:100.16] [-21.5:24.32] [-21.5:24.32] [-21.5:24.32] [-21.5:24.32] [-21.5:24.32] [-21.5:24.32] [-21.5:24.32] [0:163.62] [0:204.65000000000001] [-1.3877787807814457e-17:219.59] [-6.9388939039072284e-18:229.85999999999999] [-1.3877787807814457e-17:230.09] [-6.9388939039072284e-18:230.09999999999999] [0:290.81999999999999] [0.67000000000000015:427.45999999999998] [-18.460000000000001:24.16] [-18.286000000000001:23.672000000000001] [-16.657142857142858:23.418571428571429] [-13.659333333333333:21.892666666666667] [-8.6319999999999997:19.630666666666666] [-5.6303333333333336:18.201499999999999] [-8.6319999999999997:19.630666666666666] [0.67000000000000015:427.45999999999998]
tree_sizes=10530 10756 10681 10694 10668 10656 10621 10619 10671 10679 10748 10683 10664 10695 10794 10766 10659 10830 10717 10834 10894 10879 10874 10832 10863 10967 10920 10944 11057 10966 10880 10881 10990 10964 10913 11043 11030 11067 10825 11033 11119 11117 11037 11093 11019 11162 11080 10977 11151 11171 11283 11208 11377 11153 11303 11232 11204 11081 11259 11251 11248 11405 11209 11287 11202 11434 11361 11260 11373 11247 11431 11396 11316 11082 11169 11391 11317 11388 11440 11300 11311 11460 11326 11298 11195 11293 11439 11328 11053 11392 11264 11510 11302 11305 11192 11237 11302 11311 11554 11369 11450 11425 11532 11360 11390 11503 11357 11298 11512 11289 11294 11523 11311 11220 11275 11618 11216 11402 11614 11427 11668 11690 11533 11559 11351 11476 11390 11355 11252 11433 11627 11647 11515 11730 11441 11498 11389 11406 11544 11666 11425 11597 11174 11544 11621 11568 11610 11393 11621 11269 11367 11569 11617 11370 11481 11489 11479 11419 11748 11548 11441 11460 11633 11785 11671 11683 11634 11611 11475 11622 11339 11528 11544 11476 11409 11217 11628 11472 11520 11531 11593 11563 11525 11430 11628 11661 11411 11619 11384 11793 11436 11530 11878 11385 11626 11409 11792 11633 11662 11585

Tree=0
num_leaves=120
num_cat=0
split_feature=18 17 2 2 22 22 21 30 30 16 21 25 2 29 22 1 29 2 22 2 22 9 29 1 19 30 29 22 19 22 10 31 22 1 24 23 31 22 6 23 30 12 30 11 2 30 13 19 23 30 5 0 2 11 12 21 29 23 15 23 30 23 9 8 5 23 18 4 4 12 28 24 3 21 2 9 4 1 29 9 9 9 1 21 23 16 24 28 5 29 8 31 30 19 8 21 23 23 22 22 24 24 12 1 28 26 16 31 1 23 30 24 28 23 17 23 15 25 17
split_gain=1.66797e+06 333385 313511 143678 97111 75790.8 75165.1 38038.1 37594.3 36679.4 34142.5 33866.9 33522.8 27465.8 26122.4 25547 60063.7 24971.9 24477.2 22287 21522.8 21290.8 20677 24407.3 19315.4 18706.8 16065.9 15380.7 14528.3 11743.7 11619.4 10070 10048.8 10038.2 9554.1 9283.54 8766 8082.28 8040.04 7700.66 7708.26 7582.68 6967.32 6923.72 6896.61 6721.31 6601.42 6444.8 6282.19 6157.38 6099.63 6058.99 5736.79 5673.27 5399.63 5244.94 5201.17 5014.63 8343.38 4681.81 4633.52 4477.76 4468.29 4449.55 4036.43 3929.36 3790.39 3739.84 4905.55 3648.82 3442.61 3445.4 3426.66 3412.74 3285.53 3406.99 3209.54 3127.42 3124.12 3119.91 2998.8 2983.26 2829.31 2793.02 2788.88 2765.22 2746.32 3073.93 2720.03 2703.2 2682.19 2667.82 2966.65 3799.2 2632.2 2561.59 2554.31 2531.49 2510.64 2477.24 2442.28 2367.69 2524.09 2359.25 2345.94 2244.31 2185.15 2168.5 2139.15 2135.72 2119.01 4021.78 2429.38 2058.84 1991.73 1928.04 1909.55 1883.72 1855.81
threshold=56.510000000000005 82.15000000000002 10.675000000000002 15.365 218.09 84.625000000000014 50.170000000000009 6.3370000000000006 -1.5848333333333331 46.25500000000001 103.84500000000001 1.1130000000000002 31.050000000000004 -2.5774166666666662 146.04000000000005 1.5750000000000004 3.1339166666666673 26.585000000000004 154.87500000000003 17.845000000000002 97.425000000000011 5.1050000000000013 4.507083333333334 -0.11499999999999998 32.970000000000006 -1.3528333333333331 -0.99708333333333321 142.30500000000004 116.325 180.47000000000003 13.445000000000002 51.38000000000001 105.82000000000001 1.0000000180025095e-35 4.741666666666668 222.40500000000003 114.53500000000001 48.265000000000008 6.0550000000000006 205.69000000000003 0.4955 15.715000000000002 12.024500000000002 -0.92499999999999993 29.795000000000005 7.6111666666666675 2.3150000000000004 14.260000000000003 290.80000000000001 -1.3528333333333331 7.455000000000001 51.155000000000008 42.800000000000004 3.4950000000000006 3.5750000000000006 29.385000000000005 -1.1810833333333333 148.43500000000003 5.1650000000000009 185.29500000000004 6.9611666666666681 354.90500000000003 9.2150000000000016 3.1550000000000007 4.3450000000000006 144.60000000000005 84.680000000000021 18.195000000000004 19.405000000000005 0.48500000000000004 10.468333333333335 -0.29166666666666657 11.635000000000003 99.79000000000002 4.7750000000000012 11.845000000000001 0.76500000000000012 2.1250000000000004 8.0585000000000004 2.1250000000000004 0.31500000000000006 1.6450000000000002 10.385000000000003 20.040000000000003 277.16500000000008 60.375000000000007 -0.19499999999999998 6.796333333333334 18.365000000000006 10.6745 1.1250000000000002 166.47500000000002 15.745500000000002 67.095000000000013 19.830000000000002 26.615000000000006 141.48000000000005 45.555000000000007 54.535000000000011 190.36000000000004 5.8416666666666677 8.7216666666666693 15.315000000000003 9.9550000000000018 -1.4319999999999997 -1.8235714285714284 35.985000000000007 112.98000000000002 8.0350000000000019 68.230000000000004 5.8596666666666675 0.94833333333333347 1.8175000000000001 208.87000000000003 47.030000000000008 77.065000000000012 14.095000000000001 9.8710000000000022 6.5550000000000006
decision_type=2 2 2 2 2 2 2 2 2 2 2 2 2 2 2 2 2 2 2 2 2 2 2 2 2 2 2 2 2 2 2 2 2 2 2 2 2 2 2 2 2 2 2 2 2 2 2 2 2 2 2 2 2 2 2 2 2 2 2 2 2 2 2 2 2 2 2 2 2 2 2 2 2 2 2 2 2 2 2 2 2 2 2 2 2 2 2 2 2 2 2 2 2 2 2 2 2 2 2 2 2 2 2 2 2 2 2 2 2 2 2 2 2 2 2 2 2 2 2
left_child=2 3 5 13 9 7 19 11 21 -3 -11 55 18 -2 28 80 53 32 33 57 60 105 23 -21 45 34 54 66 63 31 59 -22 78 -5 95 -16 83 -9 91 70 -41 88 84 -25 98 86 -34 97 85 76 -40 74 -31 56 -23 109 -17 110 81 -19 -14 99 -55 -12 -58 -46 96 82 -69 -49 71 -26 -38 -68 -29 -76 -45 -51 106 -57 -8 -59 -48 115 104 -37 -10 118 94 -39 -62 92 93 -33 101 -13 -15 -27 -24 117 -28 -35 -103 -44 -20 -7 -18 -87 -93 -1 111 -4 -113 -47 -32 -36 -90 -42 -88
right_child=1 4 6 12 -6 8 15 37 24 10 14 25 20 27 35 16 17 30 42 22 29 26 44 43 39 47 100 51 -30 52 114 38 46 41 36 48 72 89 50 40 61 -43 103 49 65 113 67 69 -50 77 -52 -53 -54 62 -56 79 64 58 -60 -61 90 -63 -64 -65 -66 -67 73 68 -70 -71 -72 -73 -74 -75 75 -77 -78 -79 -80 -81 -82 -83 -84 -85 -86 107 87 -89 116 -91 -92 108 -94 -95 -96 -97 -98 -99 -100 -101 -102 102 -104 -105 -106 -107 -108 -109 -110 -111 -112 112 -114 -115 -116 -117 -118 -119 -120
leaf_value=12.577587281400808 21.833370719036374 18.772279725359464 13.243677845361772 14.588942925865055 37.129517944433779 13.442287624071769 14.024709974068488 12.569449685307118 13.250980185617838 18.399130598903447 26.308665817364997 13.490644995982448 19.785717949563068 13.529925197351014 21.169576079830225 17.259302189200568 15.287973590970457 17.170970309384085 22.205745995241223 13.876596748858624 15.934927151303 18.701059401392264 13.421037388855094 20.272263606396567 13.549353735950985 12.79676440031896 17.865968246414365 15.344285696232502 34.307769062389305 22.715020043095581 15.213945162157929 19.454580061055303 20.029302668064048 18.323680509648604 13.551424685606149 22.44124965842812 15.685336739534126 13.176904585014858 24.317960655932165 18.161357029067954 14.852994989328591 15.479016327812374 17.467518336754353 17.370064673412024 14.283210688869632 13.047060676805737 16.311879796746346 14.957529469008632 28.858841334250954 14.074571723525475 21.364237528594899 19.80204091594511 27.415205259304358 16.408250447201056 22.589820847610149 13.202698755277032 19.719370430720829 14.461502480315092 14.033348233519321 19.718613304195181 15.527096358658401 17.575952827248503 20.024494961466146 30.235657743384479 21.984204361464528 17.743299135663278 19.122535517415017 19.541555952938644 15.965583624042875 13.644558784960065 13.585026931317529 14.568146783559351 18.88582711290238 14.772294531485162 16.48707694171188 19.044378496574836 20.434912443804823 16.966200826944686 14.41205032208474 14.83997547946112 15.255053705678323 16.897462704009961 15.08677169380846 15.162802050238998 22.497994065182972 23.630503677195925 13.953033626828896 13.52064570064333 18.840369727229643 12.829829521610998 18.816029399833457 18.287498205370131 18.910761396292713 22.027010413501493 19.662405082964423 14.33914826528606 14.853213145029056 13.305274982977249 14.530718815975282 15.958457969166382 15.080455086433908 16.127797098353877 18.936773801214528 19.966322475187347 19.963518235492387 15.049855160732857 17.749403575648792 25.773601399983335 20.442267062208572 12.894174803110564 13.372609996203137 15.144091764387859 13.9778541799822 13.525418788434358 16.996913873277187 14.507390786547463 21.451627451656272 14.117881859731929 14.737354580128304
leaf_weight=516 9.9999999999999982 13.999999999999998 65 12.999999999999998 8.9999999999999982 14.999999999999998 53 1889 94 8.9999999999999982 12.000000000000005 167 10.000000000000002 26 8.9999999999999982 5.9999999999999991 30 13.999999999999998 8.9999999999999982 28 4.9999999999999991 11.000000000000002 41 14.999999999999998 66 166 6.0000000000000027 21 5.9999999999999991 8.9999999999999982 15.999999999999998 9.9999999999999982 5.9999999999999991 46 58 5.9999999999999991 64 456 18 8.9999999999999982 85 13.999999999999998 11.000000000000002 9.0000000000000018 7.0000000000000027 461 56 31 5.9999999999999991 7.0000000000000027 21 8.9999999999999982 5.9999999999999991 10.000000000000002 8.9999999999999982 317 20 9.9999999999999982 114 35 10.999999999999998 6.9999999999999991 8.9999999999999982 5.9999999999999991 24 12.999999999999998 4.9999999999999982 9.0000000000000018 12.999999999999998 549 202 152 4.9999999999999991 5 26 9.9999999999999982 9.9999999999999982 20 96 17 57 23 49 41 15.999999999999998 8.9999999999999982 93 117 11.000000000000002 979 4.9999999999999991 9.0000000000000018 6.9999999999999991 39 12.999999999999998 70 91 744 91 15.999999999999998 15.999999999999998 17.000000000000004 5.9999999999999991 9.9999999999999982 23 61 5.9999999999999991 24 22 691 158 40 65 171 19 59 5.9999999999999991 112 76
leaf_count=516 10 14 65 13 9 15 53 1889 94 9 12 167 10 26 9 6 30 14 9 28 5 11 41 15 66 166 6 21 6 9 16 10 6 46 58 6 64 456 18 9 85 14 11 9 7 461 56 31 6 7 21 9 6 10 9 317 20 10 114 35 11 7 9 6 24 13 5 9 13 549 202 152 5 5 26 10 10 20 96 17 57 23 49 41 16 9 93 117 11 979 5 9 7 39 13 70 91 744 91 16 16 17 6 10 23 61 6 24 22 691 158 40 65 171 19 59 6 112 76
internal_value=13.8356 19.4754 13.4459 18.3301 25.41 13.1932 15.193 13.0146 13.8776 24.3657 25.2658 13.2858 19.7204 15.8167 26.0581 16.2588 16.6789 16.0514 18.6636 14.4071 20.9186 15.9083 15.3293 16.7545 13.7333 13.6113 18.0358 15.5049 29.2902 21.4744 17.8204 21.1171 15.4906 17.6874 14.2641 24.6216 14.8101 12.7295 21.3227 14.2347 14.784 18.0438 20.4462 18.0756 14.4948 13.4118 16.2129 13.408 25.312 17.3593 22.7275 16.963 24.5951 19.8531 20.451 12.8731 20.5113 13.9391 14.5106 18.9907 17.7975 14.6458 18.1212 27.6177 20.9547 16.5323 14.7472 16.0326 17.4285 13.7147 13.9352 14.2597 15.9173 16.9474 16.5147 17.1974 18.9831 16.2165 14.7628 13.286 14.6623 16.1593 15.7402 14.3265 21.2288 24.7664 13.8031 13.9846 18.4065 12.9401 16.5549 20.693 21.1781 21.502 18.1255 13.7413 14.5591 13.2125 14.186 14.5495 15.8401 17.836 16.8606 18.6574 20.5941 14.7326 15.6982 25.1891 19.8167 12.7588 13.683 13.9715 14.4221 13.1765 16.1818 14.0335 19.762 14.4351 14.3057
internal_weight=0 680 9842 570 110 8598 1244 6819 1779 101 87 3495 367 203 78 528 418 349 195 716 172 118 241 89 1661 1954 42 193 24 146 84 131 265 126 464 54 227 3324 126 649 229 113 69 61 152 1012 133 1490 45 46 39 66 15 69 20 1541 50 475 147 49 26 220 19 18 44 20 127 127 22 580 420 218 69 10 57 36 19 27 132 334 110 33 105 158 48 39 380 286 99 1435 16 87 56 49 82 237 117 910 132 213 22 69 23 21 32 76 36 33 31 1207 328 170 105 632 35 117 17 197 169
internal_count=10522 680 9842 570 110 8598 1244 6819 1779 101 87 3495 367 203 78 528 418 349 195 716 172 118 241 89 1661 1954 42 193 24 146 84 131 265 126 464 54 227 3324 126 649 229 113 69 61 152 1012 133 1490 45 46 39 66 15 69 20 1541 50 475 147 49 26 220 19 18 44 20 127 127 22 580 420 218 69 10 57 36 19 27 132 334 110 33 105 158 48 39 380 286 99 1435 16 87 56 49 82 237 117 910 132 213 22 69 23 21 32 76 36 33 31 1207 328 170 105 632 35 117 17 197 169
is_linear=0
shrinkage=1


Tree=1
num_leaves=120
num_cat=0
split_feature=17 2 18 23 21 22 2 16 23 30 30 24 29 17 1 29 16 2 28 1 28 30 23 7 28 5 22 29 1 6 9 19 9 18 20 27 23 20 1 9 18 20 11 19 13 1 11 17 2 1 20 31 9 28 24 16 30 16 2 8 30 7 23 28 14 7 26 22 0 22 23 22 21 2 3 23 14 13 27 1 27 2 22 18 23 30 23 30 29 4 22 1 23 24 24 29 2 13 30 2 5 1 11 1 14 17 10 30 1 24 13 23 3 3 1 30 24 9 19
split_gain=1.30185e+06 278348 228739 82137 76229.6 69858.9 52124 34860.4 31006.9 29703.7 28866.9 27345.5 22730.6 22071.7 21676.3 20673.9 17433.7 17347.7 16260.4 21581.8 14740.7 14473.9 14013.9 13523.6 13207.6 15712.4 13030.5 12350.9 23018.7 11960.8 10805.4 10658.2 10006.2 9885.57 9469.2 9389.77 9299.1 8281.39 7844.78 7781.39 7127.78 7063.6 6142.25 5939.7 5779.52 5511.22 5366.22 5336.38 5304.32 5299.33 5231.07 5175.08 5141.37 4931 4603.12 4569.54 4546.61 4510.88 4501.69 4246.01 4226.5 4157.24 4003.31 5659.82 3833.14 3815.58 3750.24 3562.2 3525.48 3433.46 3352.59 3226.43 3188.8 3112.49 3088.63 3070.03 3063.17 3059.85 2988.27 2934.43 2862.34 2806.74 2785.73 2766.01 2677.29 2617.79 2589.36 2523.04 2511.03 2506.68 2503.11 2438.49 3277.34 3660.46 4791.8 2437.7 2395.17 2367.42 2291.48 2229.53 2226.62 2198.93 3142.9 2121.03 2108.6 2056.06 2055.28 2031.51 2001.7 1937.32 1908.07 1882.28 1874.14 1870.91 1870.05 1827.13 2957.42 1782.27 1761.08
threshold=50.060000000000009 10.675000000000002 91.730000000000018 354.90500000000003 50.170000000000009 84.625000000000014 15.365 49.435000000000009 185.29500000000004 6.3370000000000006 -1.5848333333333331 0.62833333333333352 -0.99708333333333321 29.335000000000004 1.1450000000000002 5.5469166666666672 19.680000000000003 17.845000000000002 5.4745000000000008 -0.11499999999999998 -0.36616666666666658 -0.20433333333333323 329.89500000000004 1.0000000180025095e-35 13.816666666666668 15.115 169.35000000000005 1.6113333333333335 2.3950000000000005 4.1150000000000011 5.4650000000000007 80.90000000000002 5.2650000000000006 43.170000000000009 77.965000000000018 15.716000000000003 234.49500000000003 21.485000000000003 1.5750000000000004 16.085000000000004 16.575000000000003 15.665000000000001 14.295000000000002 57.285000000000004 16.905000000000005 6.5050000000000008 -0.92499999999999993 65.340000000000018 26.585000000000004 1.8150000000000002 15.885000000000002 112.98000000000002 1.2250000000000003 9.8321666666666676 -0.60999999999999999 29.325000000000003 -2.2088333333333332 25.035000000000004 28.660000000000004 31.220000000000002 1.1548333333333336 2.8750000000000004 136.63500000000002 6.796333333333334 1.4550000000000003 5.2550000000000008 10.94214285714286 66.310000000000016 9.8650000000000002 68.155000000000015 208.87000000000003 34.985000000000007 31.405000000000005 4.5150000000000006 2.4650000000000003 222.40500000000003 1.1250000000000002 -0.42499999999999993 10.619666666666669 1.0750000000000004 9.9483333333333359 5.4650000000000007 180.47000000000003 62.905000000000008 171.89000000000001 5.1803333333333343 95.055000000000021 13.098000000000001 0.38691666666666674 20.225000000000005 127.25000000000001 14.075000000000001 186.15000000000003 9.9183333333333348 11.575000000000001 8.3500833333333357 24.195000000000004 12.915000000000001 7.7381666666666673 29.795000000000005 3.1750000000000003 1.8750000000000002 2.9550000000000005 11.405000000000003 12.925000000000002 71.335000000000022 3.9250000000000003 4.3188333333333349 -0.70499999999999985 0.54500000000000015 10.095000000000001 144.03000000000003 7.1750000000000007 20.250000000000004 12.405000000000003 0.63483333333333347 1.1016666666666668 9.2950000000000017 29.405000000000005
decision_type=2 2 2 2 2 2 2 2 2 2 2 2 2 2 2 2 2 2 2 2 2 2 2 2 2 2 2 2 2 2 2 2 2 2 2 2 2 2 2 2 2 2 2 2 2 2 2 2 2 2 2 2 2 2 2 2 2 2 2 2 2 2 2 2 2 2 2 2 2 2 2 2 2 2 2 2 2 2 2 2 2 2 2 2 2 2 2 2 2 2 2 2 2 2 2 2 2 2 2 2 2 2 2 2 2 2 2 2 2 2 2 2 2 2 2 2 2 2 2
left_child=1 5 6 7 17 9 12 26 27 11 23 72 64 37 108 29 -10 62 19 -19 38 32 35 30 25 36 89 28 109 83 81 90 50 76 78 43 45 107 -18 60 71 -11 49 -17 55 -9 -21 -24 59 -35 -13 86 -48 54 -39 -45 -54 95 -31 85 -36 87 115 79 -2 112 -38 -53 -59 -20 -55 -23 -1 -25 -75 -26 -22 -42 101 -64 -70 -7 -62 -16 -43 -29 118 -33 -81 -4 -14 92 97 -94 113 -51 106 104 -50 -71 -67 -15 -103 -28 -57 -37 -58 -12 -8 -6 -92 -56 -30 -95 -101 116 -3 -63 -34
right_child=2 4 3 -5 8 10 14 24 16 41 13 21 31 34 15 22 20 18 69 46 33 40 47 73 75 -27 103 48 65 58 -32 61 51 42 39 105 66 53 -40 -41 77 84 -44 44 -46 -47 52 -49 98 57 -52 67 56 70 111 91 96 68 -60 -61 82 117 63 -65 -66 100 -68 -69 80 99 -72 -73 -74 74 -76 -77 -78 -79 -80 88 -82 -83 -84 -85 -86 -87 -88 -89 -90 -91 110 -93 93 94 -96 -97 -98 -99 -100 114 -102 102 -104 -105 -106 -107 -108 -109 -110 -111 -112 -113 -114 -115 -116 -117 -118 -119 -120
leaf_value=-0.97805776319954763 8.897137832635309 -0.44782571006880173 4.6402130551245193 22.303324568766211 0.12172021595603431 0.61702666873757661 0.89846769592041631 10.538782115498352 1.4705955637995252 -1.1183289818650517 -0.14254034630101967 -0.47507971159770851 0.30788129349668325 0.23074585138019937 4.1850047765526472 2.6000890533062635 3.6491745435889293 -0.049911702333824678 -0.087323848364249473 5.6787882948022466 4.6816624006698611 -0.80674764390193399 5.3019978390963569 0.77089634424845088 6.8351101035271142 17.26289877322235 7.359109306149576 1.4098859715865395 6.68494157433914 6.6483669181632958 6.5527734290211495 0.24656317801280012 -0.0066559221133468838 1.4554755794939249 4.7689249254095074 1.1869531279049237 8.3922603240697473 -0.35250228135614886 7.7622346135684337 6.30789588186245 0.98931101550258682 -0.84383750500875709 1.8774692435409921 2.6718087116479396 6.6292175509836655 15.145634014398194 -0.093615797862746319 10.09947702681427 3.6564440088061332 4.7532867637726977 0.36063289501746881 1.1973828189656686 5.5350044020723184 -0.4579589153667159 0.005143659845089887 4.3747630582709496 4.0192117993209173 5.556517626236527 10.167244100678889 4.2158924681739807 1.0259798936990532 5.6988489715965249 0.151084189931847 0.065791490357168442 4.8415296813186641 4.497467478500651 10.913047970820237 3.3728330836286307 4.9373300050220363 0.79346265451348452 0.13104041928164786 -0.39165867361142348 -0.5292412854221783 4.0438554877061827 1.1584125972473684 9.3416493772853855 1.8773861423951335 -0.1049095317603338 0.14242805177260556 3.8603581102480531 2.5317452824870266 3.6480627347698569 3.4433531878510237 6.4662475523839005 -0.40200358305452999 0.44470495824980305 1.0725730346220368 3.5369032296175478 1.5482225768193303 1.50238104841053 3.2664813271820772 2.5763208930708488 4.7374993918554971 6.8014038649987008 4.8862927832593499 1.5107916678797086 4.3584792251927471 2.9008812881157069 1.667384367589418 4.008004222578303 1.5401107094490338 3.6200415986261367 1.1331116657210227 10.070395881532669 6.7637355466852194 3.9964524618328854 1.4639030265490993 -0.73947883578086071 2.9386863734301709 1.74478663940888 0.82687421588903365 0.69030836051742051 4.0527510923637013 9.2614673567527781 1.0683404018197773 -0.35240729273980581 1.0320856438725061 3.2835153481130153 1.4876707416913149
leaf_weight=1119 5.9999999999999982 36 12.000000000000002 6.9999999999999991 22 9.0000000000000053 15.000000000000002 5.9999999999999991 58 1976 100 262 54 31 9.9999999999999982 15.999999999999998 10.000000000000002 31 67 14.999999999999998 5.9999999999999991 507 4.9999999999999991 74 10.000000000000002 5.9999999999999991 12.000000000000002 56 15.000000000000002 7.0000000000000027 12.999999999999998 7.0000000000000018 123 7.9999999999999991 5.9999999999999991 13.000000000000002 14.999999999999998 113 18 5.9999999999999991 40 1120 15.999999999999998 13.999999999999998 25 8.9999999999999982 5.9999999999999991 8.9999999999999982 12.999999999999998 4.9999999999999991 172 80 11.999999999999998 364 73 35 6.0000000000000027 50 18 4.9999999999999991 38 9.0000000000000018 17 123 7 12.000000000000002 18 11.999999999999998 16.000000000000004 66 212 532 273 9.0000000000000018 11.999999999999998 21 54 310 103 7.9999999999999991 11.999999999999998 7.9999999999999991 7.9999999999999991 28 229 128 57 6 35 4.9999999999999991 8.0000000000000018 5.9999999999999991 45 15.000000000000002 18 8.9999999999999982 9.9999999999999982 12.999999999999998 21 5.9999999999999982 4.9999999999999991 7.9999999999999991 59 5.9999999999999991 5.9999999999999991 4.9999999999999991 15.999999999999998 377 11.999999999999998 19 9.9999999999999982 233 4.9999999999999991 5.9999999999999991 6 217 39 7.9999999999999991 11.999999999999998
leaf_count=1119 6 36 12 7 22 9 15 6 58 1976 100 262 54 31 10 16 10 31 67 15 6 507 5 74 10 6 12 56 15 7 13 7 123 8 6 13 15 113 18 6 40 1120 16 14 25 9 6 9 13 5 172 80 12 364 73 35 6 50 18 5 38 9 17 123 7 12 18 12 16 66 212 532 273 9 12 21 54 310 103 8 12 8 8 28 229 128 57 6 35 5 8 6 45 15 18 9 10 13 21 6 5 8 59 6 6 5 16 377 12 19 10 233 5 6 6 217 39 8 12
internal_value=0 -0.311394 5.50829 9.90563 1.3102 -0.550336 4.22742 9.18243 2.33529 -0.724538 0.0901554 -0.485073 2.07656 -0.0346258 4.99797 5.29118 3.27186 0.504162 1.31781 2.50641 3.78398 -0.217532 4.77556 1.81813 10.4702 11.5822 6.05503 1.52007 2.79534 7.18181 3.99746 1.4856 0.211689 3.38477 0.967692 4.54262 10.8721 -0.210985 6.29328 2.29302 -0.439405 -0.976534 4.0194 4.77556 4.96576 13.3029 3.72558 8.38609 1.07401 4.36211 -0.143876 0.755052 3.13962 -0.01762 0.289701 4.70256 3.58051 4.61487 9.18196 0.830451 1.82976 3.35017 0.0913446 0.523123 6.71335 4.92454 9.76724 1.48114 4.96416 0.530868 -0.241174 -0.594209 -0.890036 1.12992 2.39503 8.53309 2.15781 0.0201442 0.585259 1.46065 3.90637 2.0434 1.44639 5.86592 -0.768834 0.738456 0.407136 1.76518 1.97839 3.71732 0.708697 4.89999 5.00102 5.46108 6.29598 2.66883 2.84758 4.28538 2.42791 1.06188 3.62766 1.05068 1.43006 8.26287 4.72437 1.96737 2.16081 -0.614334 1.80523 0.873873 1.91114 0.526854 6.02689 7.50428 2.53817 -0.179256 0.321728 4.56222 0.126173
internal_weight=0 9959 563 127 1279 8680 436 120 563 6824 1856 3499 115 1731 321 294 262 716 241 96 204 2107 231 125 85 54 35 301 78 63 30 102 718 176 259 217 48 1472 28 58 1389 3325 116 199 183 15 65 14 223 100 434 284 50 995 419 158 44 92 25 189 52 30 475 183 13 37 33 92 78 145 576 1039 1392 95 21 31 60 350 201 60 28 17 46 38 1349 184 192 13 43 17 72 144 138 84 39 14 32 54 34 78 17 98 67 18 41 18 22 477 27 41 18 306 20 21 12 292 75 17 135
internal_count=10522 9959 563 127 1279 8680 436 120 563 6824 1856 3499 115 1731 321 294 262 716 241 96 204 2107 231 125 85 54 35 301 78 63 30 102 718 176 259 217 48 1472 28 58 1389 3325 116 199 183 15 65 14 223 100 434 284 50 995 419 158 44 92 25 189 52 30 475 183 13 37 33 92 78 145 576 1039 1392 95 21 31 60 350 201 60 28 17 46 38 1349 184 192 13 43 17 72 144 138 84 39 14 32 54 34 78 17 98 67 18 41 18 22 477 27 41 18 306 20 21 12 292 75 17 135
is_linear=0
shrinkage=0.117742


Tree=2
num_leaves=120
num_cat=0
split_feature=18 17 2 2 23 20 22 21 23 30 2 30 25 16 29 22 9 22 19 29 12 1 22 29 1 22 30 28 19 2 1 30 24 28 1 1 24 31 23 7 2 23 18 30 31 30 12 20 19 18 18 0 23 6 14 12 24 22 23 23 28 18 3 30 29 25 25 22 23 16 1 21 23 28 8 31 0 28 5 11 10 30 9 28 18 17 2 9 22 22 23 29 9 2 8 5 8 10 4 19 28 29 23 21 27 18 5 18 28 9 21 4 21 2 23 29 24 23 23
split_gain=1.01611e+06 202306 189297 86854.3 64956.2 49122.2 45491.9 24250.4 24211.9 23482.6 21295.9 20338.1 19334.3 19200 16624.3 15826.7 15695.4 15028.5 14154.9 13746.5 13664.8 13598 13156.4 10982.3 31344.3 10563.4 10560.6 9531.28 9522.2 7679.25 7407.74 7187.66 10602.1 8135.6 6418.02 6409.7 6329.3 6228.52 6125.54 5973.33 5663.33 5618.33 5545.35 5421.24 4982.14 4920.87 4844.7 4692.66 4606.15 4309.82 4299.35 4228.73 4018.79 3966.72 3836.4 3699.23 3499.21 3368.24 3361.67 3317.94 3230.67 3201.35 3143.25 3010.94 2975.6 2921.05 2896.24 2824.34 2771.1 2738.48 2654.66 2647.45 2636.72 2607.64 2464 2329.16 2230.09 2201.67 2180.48 2155.7 3206.4 2167.13 2032 2018.4 2013.48 1975.45 1943.37 1929.24 1911.63 1898.68 1889.36 1811.8 2005.18 1781.49 1747.08 1744.71 1699.28 1709.22 1640.59 1614.97 1541.81 1538.93 1533.38 1494.51 1488.21 1454.92 1440.49 1601 1413.03 1394.68 1375.74 1371.35 1875.19 1363.33 1353.43 1339.2 1326.4 1297.05 1294.3
threshold=56.510000000000005 82.15000000000002 10.125000000000002 15.365 354.90500000000003 39.165000000000013 75.705000000000013 103.84500000000001 185.29500000000004 -1.5848333333333331 31.050000000000004 6.4366666666666674 1.5460000000000003 54.830000000000005 -2.6983333333333328 154.87500000000003 5.1050000000000013 146.04000000000005 32.660000000000004 -0.99708333333333321 8.1750000000000025 1.3950000000000002 97.425000000000011 1.6113333333333335 2.2250000000000005 135.59000000000003 -0.20433333333333323 2.4898333333333338 116.325 24.870000000000005 13.345000000000001 5.8596666666666675 1.1016666666666668 3.7551666666666672 5.3650000000000011 1.0000000180025095e-35 6.3916666666666675 51.38000000000001 271.69500000000011 1.0000000180025095e-35 24.870000000000005 205.69000000000003 40.880000000000003 6.745166666666667 166.47500000000002 0.56566666666666676 15.715000000000002 60.060000000000009 80.90000000000002 73.890000000000015 8.9250000000000025 51.155000000000008 92.15000000000002 9.3850000000000033 -6.6849999999999996 3.5750000000000006 0.46166666666666673 104.92500000000001 222.40500000000003 72.02500000000002 11.744333333333335 84.680000000000021 2.7050000000000005 6.9611666666666681 3.7243333333333335 -2.3099999999999996 -0.66499999999999992 33.865000000000002 354.90500000000003 49.435000000000009 0.39500000000000007 31.145000000000003 166.96000000000004 13.114666666666668 3.1550000000000007 99.335000000000022 2.6750000000000003 9.6301666666666677 0.20500000000000004 14.815000000000003 13.785000000000002 -2.7478333333333329 1.5650000000000002 10.535166666666669 30.575000000000006 3.3850000000000002 26.585000000000004 -0.41499999999999992 106.60500000000002 190.36000000000004 203.93500000000003 3.8114166666666671 6.5950000000000006 20.280000000000005 0.34500000000000003 18.365000000000006 19.830000000000002 14.505000000000001 3.1950000000000007 74.470000000000013 3.1478333333333337 6.6885833333333347 97.805000000000021 15.725000000000003 11.445333333333336 45.350000000000009 30.310000000000006 86.970000000000013 -1.0000000180025095e-35 4.4700000000000015 125.57000000000001 0.14500000000000005 87.990000000000023 2.0750000000000006 106.11000000000001 3.3107500000000005 4.491666666666668 141.48000000000005 176.08000000000001
decision_type=2 2 2 2 2 2 2 2 2 2 2 2 2 2 2 2 2 2 2 2 2 2 2 2 2 2 2 2 2 2 2 2 2 2 2 2 2 2 2 2 2 2 2 2 2 2 2 2 2 2 2 2 2 2 2 2 2 2 2 2 2 2 2 2 2 2 2 2 2 2 2 2 2 2 2 2 2 2 2 2 2 2 2 2 2 2 2 2 2 2 2 2 2 2 2 2 2 2 2 2 2 2 2 2 2 2 2 2 2 2 2 2 2 2 2 2 2 2 2
left_child=2 3 6 14 7 31 11 39 23 16 15 12 59 -9 -2 35 66 28 43 55 21 -10 63 24 82 61 36 75 74 57 37 32 -4 34 54 -5 52 -24 58 -3 101 60 86 56 53 -43 95 -42 83 -32 102 79 103 69 -34 108 -11 -25 -19 -1 87 117 84 -12 85 -61 -8 116 89 78 -31 -33 100 -72 -15 -23 -49 114 -39 80 81 -27 -7 -17 -26 -58 115 -20 -59 105 -45 92 -89 -35 -65 96 97 111 -64 -80 -38 -22 -13 -14 -97 -47 107 -50 -18 -56 -60 -37 -113 -52 -69 -29 -28 -16 -73
right_child=1 4 5 10 -6 8 9 13 20 18 22 50 26 17 25 48 19 38 41 -21 40 27 30 29 62 51 67 42 -30 70 49 71 33 93 -36 46 72 44 -40 -41 47 45 -44 90 -46 68 -48 76 106 -51 113 -53 -54 -55 109 -57 64 88 110 65 -62 -63 98 94 -66 -67 -68 77 -70 -71 73 118 -74 -75 -76 -77 -78 -79 99 -81 -82 -83 -84 -85 -86 -87 -88 91 -90 -91 -92 -93 -94 -95 -96 104 -98 -99 -100 -101 -102 -103 -104 -105 -106 -107 -108 -109 -110 -111 -112 112 -114 -115 -116 -117 -118 -119 -120
leaf_value=-0.97172107933813279 7.1936351679346089 6.2514942611295714 -0.33993902344090798 0.48747443025119946 20.000147127853204 -0.0094681702236512726 -0.37964132550575674 4.5811336741662823 1.0416696938683201 -0.5115648441445978 4.7081923712993605 -1.1021610991452973 -0.47990059361327908 9.7635131512845952 -0.27016731239815173 5.1560177626771742 4.8655714011376698 5.777079005588023 -0.21910728900177476 1.2553485810845222 2.4139808378017271 4.5581949796680439 1.5920521874440765 0.26961088032064301 3.1199056293088594 3.8520657118604218 -0.92998795709295401 3.594473932872007 16.153800745648194 -0.28195724338942768 6.9284467707499493 -0.47086287623470957 4.5946235528627399 0.20471344223669019 3.8434320685983518 4.2742124907565122 1.0675860695359944 2.9141225837664555 10.572649677645723 1.1887358712364851 1.2559265994995774 3.4149958516659629 4.5316890273597625 -0.67157705284113045 4.7518915704844975 0.29667696519037756 1.1980903024455218 2.3989856806705681 4.9824553345201759 10.7932833462677 -0.80626727552752986 4.7725822828032181 0.51763727640981416 7.750139750772477 0.91134714631159663 6.9519341586873367 0.053600602250994937 2.7269812261126876 9.3481453121597262 -0.87355619468892531 -0.32815641524309652 3.0520683596426967 3.8859941451248168 1.1507569832208371 -0.15939043529233629 -0.43737978357207191 0.93213751470391526 -0.32687175700046472 2.9171138974032043 6.7687442481170654 2.75476679114727 -0.060563591662765842 2.0553991665174007 1.2244996247352049 12.685793211445619 6.7993623862964627 4.6689415486693804 -0.71569168527503868 4.8645733139417642 0.46194555171700297 4.9119571161750795 1.7648954762331881 1.3817814321179636 3.0562060471009764 5.5044457700915865 0.95406053399854007 4.2135315087446212 0.68299951646985746 0.96862551009808984 1.7755628658967577 -0.28589650129600741 0.25451026320557407 2.4525815208186148 1.5642981486261256 3.6921565987273537 3.4552308947509571 4.5479065231350759 0.98384037141253466 1.2738776011111927 6.62796016772604 0.32803024375144063 1.1956315348241411 -0.89253312336461366 0.084692294093941717 5.6623349849547076 1.0850375328813175 7.2543486652320865 6.673149645353222 2.5328870428581989 2.2058247482605138 7.7205951463733671 2.3166659683148891 3.7692770626341345 -0.52990733899894205 0.037247859252262559 1.4503671267227969 -0.49705171915366886 0.68709595118337785 0.64774278621437331
leaf_weight=661 6.9999999999999991 5.9999999999999982 97 12.999999999999998 6.9999999999999991 43 35 11.999999999999998 24 164 10.000000000000002 971 193 12.000000000000005 26 11.000000000000002 8.9999999999999982 8.9999999999999982 81 29 17 10.000000000000002 4.9999999999999991 198 5.9999999999999991 7.999999999999992 148 5.0000000000000027 5.9999999999999991 6.9999999999999991 12.000000000000002 171 4.9999999999999991 81 20 13.999999999999998 65 4.9999999999999991 14.999999999999998 7 13.999999999999998 8.9999999999999982 30 626 40 172 13.999999999999998 9.0000000000000018 22 5.9999999999999991 657 8.9999999999999982 121 21 50 8.9999999999999982 59 9.9999999999999982 12.000000000000002 369 210 6.9999999999999991 9.9999999999999982 9.9999999999999982 178 503 70 318 6.9999999999999991 27 38 96 20 26 5.9999999999999991 18 18 122 18.000000000000004 9.9999999999999982 5.9999999999999991 50.000000000000007 22 14.999999999999998 27 79 5.9999999999999991 46 60 15.999999999999998 245 165 10.999999999999998 15.999999999999998 5.9999999999999991 8.0000000000000018 12.999999999999998 4.9999999999999991 4.9999999999999991 11.999999999999998 98 93 964 98 8.9999999999999982 40 8.9999999999999982 11.999999999999998 6.0000000000000027 14.999999999999998 18 28 22 397 255 21 291 80 57
leaf_count=661 7 6 97 13 7 43 35 12 24 164 10 971 193 12 26 11 9 9 81 29 17 10 5 198 6 8 148 5 6 7 12 171 5 81 20 14 65 5 15 7 14 9 30 626 40 172 14 9 22 6 657 9 121 21 50 9 59 10 12 369 210 7 10 10 178 503 70 318 7 27 38 96 20 26 6 18 18 122 18 10 6 50 22 15 27 79 6 46 60 16 245 165 11 16 6 8 13 5 5 12 98 93 964 98 9 40 9 12 6 15 18 28 22 397 255 21 291 80 57
internal_value=0 4.40189 -0.304134 3.50974 9.02488 1.00504 -0.507804 8.27898 1.66521 -0.0558433 4.59069 -0.67164 -0.468342 8.96561 1.55551 3.74833 1.32862 9.64015 -0.159612 2.98038 2.55879 3.53186 5.54568 1.14132 2.14656 1.35415 -0.198427 4.19592 12.0917 0.806238 5.98024 0.226518 0.658919 1.17704 1.98329 2.96337 0.203296 5.66573 8.55059 3.52539 1.82415 0.247984 3.38164 -0.387999 5.83133 0.713089 3.24821 3.00524 5.18174 8.21673 -0.893507 2.36272 -0.052638 6.35154 1.45183 5.06479 -0.0702811 0.5178 7.77288 -0.772767 0.0267642 0.613343 4.42852 3.10548 0.15874 -0.621954 0.494878 -0.409208 0.609612 5.87782 1.89499 -0.152501 0.779497 2.1331 10.7376 5.99895 3.91229 -0.261527 5.19053 2.06963 2.32083 2.05278 0.461416 3.94459 5.07089 0.569081 2.30348 0.272749 1.21982 0.538767 -0.563091 0.45221 1.0245 0.428975 2.10378 3.53813 3.31307 3.08042 3.01529 5.56993 0.622945 1.38392 -0.997726 -0.289763 4.6237 0.445424 5.92979 5.57917 3.9325 1.21007 8.37162 3.24421 2.95581 -0.702173 -0.164829 1.8627 -0.643007 0.452296 0.203315
internal_weight=0 680 9842 570 110 1325 8517 103 717 2266 367 6251 3262 90 203 195 158 78 2108 53 265 114 172 452 113 196 1729 90 24 339 146 608 284 187 90 126 595 128 54 13 151 757 62 1351 123 244 113 41 69 18 2989 83 412 83 70 24 480 268 39 1533 513 113 48 26 316 872 105 1134 235 62 71 324 183 64 18 28 27 695 35 74 64 58 65 26 33 138 32 303 70 228 871 222 57 97 16 99 82 69 15 30 163 110 1935 291 17 212 43 34 15 65 30 64 50 1054 573 26 439 106 153
internal_count=10522 680 9842 570 110 1325 8517 103 717 2266 367 6251 3262 90 203 195 158 78 2108 53 265 114 172 452 113 196 1729 90 24 339 146 608 284 187 90 126 595 128 54 13 151 757 62 1351 123 244 113 41 69 18 2989 83 412 83 70 24 480 268 39 1533 513 113 48 26 316 872 105 1134 235 62 71 324 183 64 18 28 27 695 35 74 64 58 65 26 33 138 32 303 70 228 871 222 57 97 16 99 82 69 15 30 163 110 1935 291 17 212 43 34 15 65 30 64 50 1054 573 26 439 106 153
is_linear=0
shrinkage=0.117742


Tree=3
num_leaves=120
num_cat=0
split_feature=18 17 2 2 2 6 20 20 30 24 23 20 2 16 29 22 15 1 22 22 29 1 30 22 29 31 15 22 24 2 22 30 9 28 2 30 29 24 1 31 21 23 12 1 9 6 2 31 26 1 0 8 19 29 18 5 23 2 15 22 28 14 22 4 23 23 18 30 3 30 23 22 23 1 28 22 2 14 26 4 0 0 9 2 31 1 25 15 10 5 4 1 15 31 2 25 17 13 23 27 1 23 2 8 31 28 1 30 4 12 21 31 10 26 9 23 23 17 1
split_gain=790916 157470 147687 67605.5 53259.3 51469.5 39011.8 36795.6 21009.1 21625.1 18417.5 17715.5 16576.3 15416.5 12970.5 12380.6 10489.5 14220.1 10240.7 8924.89 8791.61 23558.1 8739.49 8417.63 13882.4 8106.37 7674.44 7486.16 6955.02 6531.31 5993.65 5936.04 8366.31 6213.09 5810.36 5465.05 5049.85 8564.34 5034.43 4903.66 4765.71 4590.04 4224.17 4150.67 4135.96 4067.85 3937.91 3836.1 3631.37 3617.41 3479.53 3385 3205.91 3174.19 3058.66 2949.05 2942.9 2934.4 2926.12 2797.35 2758.4 2748.94 2696.27 2679.93 2590.59 2562.6 2491.86 2467.86 2446.64 2343.65 2330.82 2320.35 2246.15 2066.33 2029.73 2028.05 2026.16 1874.92 1984.33 1823.73 1810.89 1737 1706.41 1677.78 1673.65 1655.67 1640.29 2278.78 1654.05 1610.76 2650.85 2448.75 1837.38 1607.53 1525.6 1709.33 1505.51 1495.65 1440.72 1440.48 1468.08 1434.43 1395.91 1359.89 1348.28 1290.98 1289.29 1285.48 1277 1243.99 1217.18 1189.67 1188.52 1185.9 1166.71 1151 1135.49 1126.5 1121.32
threshold=56.510000000000005 82.15000000000002 10.675000000000002 15.365 65.680000000000021 1.0000000180025095e-35 33.565000000000005 39.165000000000013 -1.1279999999999999 4.741666666666668 183.94000000000003 104.99500000000002 31.050000000000004 46.25500000000001 -2.5774166666666662 157.64500000000001 5.4150000000000009 1.5750000000000004 97.425000000000011 102.30500000000002 1.6113333333333335 2.2250000000000005 7.9395000000000016 79.495000000000019 -0.99708333333333321 151.39500000000004 1.9150000000000003 135.59000000000003 0.54500000000000015 22.410000000000004 180.47000000000003 5.8596666666666675 1.6450000000000002 4.3825000000000012 24.870000000000005 1.9493333333333336 3.7243333333333335 1.0216666666666669 -0.58499999999999985 51.38000000000001 16.950000000000006 145.03500000000003 15.715000000000002 1.3950000000000002 6.285000000000001 6.0550000000000006 4.0850000000000009 106.88500000000002 -0.55785714285714272 12.325000000000001 51.155000000000008 31.220000000000002 80.90000000000002 1.0000000180025095e-35 34.125000000000007 7.455000000000001 222.40500000000003 42.800000000000004 20.185000000000006 218.09 7.7105000000000006 14.365 123.97500000000001 16.235000000000003 95.055000000000021 158.76500000000001 84.680000000000021 5.1803333333333343 2.7050000000000005 6.9611666666666681 143.41000000000003 169.35000000000005 41.545000000000009 0.39500000000000007 13.114666666666668 92.445000000000007 18.070000000000004 16.945000000000004 11.42714285714286 4.8750000000000009 38.570000000000007 28.925000000000004 1.5650000000000002 2.1850000000000005 106.50000000000001 2.3950000000000005 11.722000000000003 0.45500000000000007 14.425000000000002 6.3650000000000011 0.56500000000000006 4.1050000000000013 14.095000000000001 154.99500000000003 16.435000000000006 8.5490000000000013 43.140000000000008 -1.0000000180025095e-35 127.21500000000002 9.9483333333333359 -0.32499999999999996 114.43000000000002 15.570000000000002 0.34500000000000003 97.695000000000007 6.4060000000000015 5.8350000000000009 3.3511666666666673 3.1950000000000007 2.8550000000000004 23.515000000000004 80.180000000000021 16.675000000000004 -2.6628571428571424 3.6350000000000002 246.27500000000003 277.16500000000008 53.715000000000011 4.455000000000001
decision_type=2 2 2 2 2 2 2 2 2 2 2 2 2 2 2 2 2 2 2 2 2 2 2 2 2 2 2 2 2 2 2 2 2 2 2 2 2 2 2 2 2 2 2 2 2 2 2 2 2 2 2 2 2 2 2 2 2 2 2 2 2 2 2 2 2 2 2 2 2 2 2 2 2 2 2 2 2 2 2 2 2 2 2 2 2 2 2 2 2 2 2 2 2 2 2 2 2 2 2 2 2 2 2 2 2 2 2 2 2 2 2 2 2 2 2 2 2 2 2
left_child=2 3 6 14 11 -6 8 31 9 48 20 25 15 -13 -2 38 17 -12 69 36 21 82 28 47 97 56 -15 66 101 59 39 32 85 43 51 44 37 113 -5 -20 72 110 89 93 96 86 -46 98 -1 54 77 67 115 -19 -31 -47 -3 -32 71 112 70 63 -56 -28 -50 -39 -16 102 79 -14 -42 99 -30 -36 -75 -33 84 78 109 -23 -27 -65 -9 -38 -45 -4 87 -41 -88 90 -40 117 94 -34 -91 -96 -21 -25 -11 100 -37 -10 -22 -71 -89 -72 -55 114 -70 -29 -24 -78 -18 -8 -74 -17 118 -92 -54
right_child=1 4 7 12 5 -7 19 10 22 23 16 13 18 26 27 52 29 53 30 35 34 68 41 24 -26 80 61 50 40 49 57 75 33 -35 73 58 83 65 42 45 60 -43 -44 76 46 55 -48 -49 64 -51 -52 -53 116 106 62 -57 -58 -59 -60 -61 -62 -63 -64 81 -66 -67 -68 -69 108 103 105 -73 107 74 -76 -77 111 -79 -80 -81 -82 -83 -84 -85 -86 -87 88 104 -90 92 91 -93 -94 -95 95 -97 -98 -99 -100 -101 -102 -103 -104 -105 -106 -107 -108 -109 -110 -111 -112 -113 -114 -115 -116 -117 -118 -119 -120
leaf_value=-0.69905143602759356 5.5070270253485685 4.2908237914195988 -0.34836909255900628 0.24042057927470314 22.9293806147213 8.8509040053141277 -0.72770689824778145 -0.030949367546696759 -0.8404754367779621 0.061152944323656873 0.98528630747473489 2.7432587017066479 4.153839726096419 12.577099696752168 0.39904130490670658 2.0785307524265755 1.2869382469635111 6.1570488322928627 1.4046006436706637 0.64117359792164896 0.54145332764448528 3.8121737367417974 -0.92793950133560521 3.8386450317445266 0.72144268075457563 3.5802020805391317 7.9661438283723651 0.21956779245612384 -0.91667773140900133 0.95784540601080503 6.1609041302973431 -0.27736271617331132 0.57021252294977065 0.39486711190945589 -0.24875901649662258 -0.16323120485991874 -0.45972479011793393 0.61986338101720329 3.7905892303201223 5.6911101090515137 -0.15770774968127754 -0.55899690229603727 1.0239862897887166 1.2616680172615087 0.98268955910699118 7.2694398963453297 4.0668821969813349 1.2546510877571295 -0.35685845585817078 0.94055633435291119 4.2106483370390579 3.4976978173474125 5.8389125023509951 3.5540170922239138 2.1506684053848057 5.2156330725002285 7.6572454673508972 9.5224592609195717 3.0895887662909889 3.5836070581466677 -0.48769569745918961 6.2599153083754224 3.979993580900997 8.6042811731681841 0.34021428150768729 1.7593629069533971 2.6927115247142792 0.16432938493953864 3.4284490559791565 1.0152644483466291 0.55985723935881571 1.047994788116269 -0.59552190409202854 2.4304147429860583 1.0803244459025221 0.46275159658484721 4.8294425289390563 3.3412505383001458 0.52058568566831287 5.6317436460865018 0.79263526408685836 11.437439674806974 1.2797366582686425 -0.10332690194372968 3.0000945043154239 1.8535550788683226 6.264117590087281 5.4496207673088071 4.6606899167830429 4.9801958728883715 3.580248032241141 1.2289235179248359 5.2051593969264989 2.6813944982907691 1.1570101804733905 3.4366281805397434 2.7569988304674817 6.1333987545705178 1.1907795177803862 -0.0085741013230594635 0.57670783981598872 -0.52459678955534117 1.5983600051363287 3.2574342484010539 3.5262513148718782 -0.28256864267952192 5.2383827575308484 -0.62048682015533374 1.1238886029792261 2.1951578836714467 -0.71457313414694823 2.7828361012846576 -0.0051568202822739424 -0.10016162049819922 -0.21095261130723481 4.0080879966262248 6.0175840457791034 1.7894295121982575 4.2293001710495952
leaf_weight=304 9.9999999999999982 6.0000000000000027 89 10.999999999999998 5.9999999999999991 8.9999999999999982 57 40 731 120 20 6.9999999999999991 10.000000000000002 5.9999999999999991 106 6.0000000000000027 96 14.999999999999998 4.9999999999999991 69 41 21 1700 7.0000000000000009 26 6.9999999999999982 33 4.9999999999999991 178 7.9999999999999991 8.9999999999999982 244 30 75 6.9999999999999991 49 470 114 23 11.999999999999998 422 852 14.999999999999998 17.000000000000004 11.000000000000002 18 11.999999999999998 75 239 12.999999999999998 8.9999999999999982 4.9999999999999991 9.0000000000000018 21.000000000000004 15.999999999999998 21 8.9999999999999982 5.9999999999999991 4.9999999999999991 6.9999999999999991 245 8.9999999999999982 37 5.9999999999999982 107 36 6.9999999999999991 174 9.9999999999999982 9.9999999999999982 119 44 161 38 26 65 6.9999999999999991 8.9999999999999982 19 11.999999999999998 6 6 21 300 13.999999999999998 4.9999999999999991 14.999999999999998 5.9999999999999991 22 6.0000000000000027 16.000000000000004 19 8.9999999999999982 5.9999999999999991 6.0000000000000027 19 4.9999999999999991 8.9999999999999964 18 298 154 274 30 5.9999999999999991 32 32 8.9999999999999982 384 4.9999999999999991 38 474 8.9999999999999982 10.999999999999998 156 341 14.999999999999998 15.999999999999998 6.9999999999999991 18
leaf_count=304 10 6 89 11 6 9 57 40 731 120 20 7 10 6 106 6 96 15 5 69 41 21 1700 7 26 7 33 5 178 8 9 244 30 75 7 49 470 114 23 12 422 852 15 17 11 18 12 75 239 13 9 5 9 21 16 21 9 6 5 7 245 9 37 6 107 36 7 174 10 10 119 44 161 38 26 65 7 9 19 12 6 6 21 300 14 5 15 6 22 6 16 19 9 6 6 19 5 9 18 298 154 274 30 6 32 32 9 384 5 38 474 9 11 156 341 15 16 7 18
internal_value=0 3.88361 -0.268325 3.09649 7.96227 14.4823 -0.441814 0.930759 -0.569962 -0.0416553 1.51111 6.93279 4.05017 7.9722 1.37236 3.307 2.30821 3.59756 4.89272 0.0490369 1.04212 1.95575 -0.650821 0.877254 2.40068 4.44562 8.58225 1.15813 -0.504272 1.86242 5.27611 0.2242 0.64831 1.17159 0.731885 0.397925 -0.150196 0.211837 2.65125 5.02083 -0.370726 -0.790638 2.87224 1.87345 1.21276 5.16434 2.59183 0.57686 -0.402151 2.72379 2.02965 0.464929 4.64924 4.75857 3.10382 6.16354 6.31068 7.50553 0.254217 1.30329 -0.157038 8.13838 3.42774 8.51407 -0.14129 0.893343 0.541127 0.403036 3.90709 2.73983 -0.0156577 0.228204 -0.535009 1.67187 1.88194 -0.121675 2.60216 1.75319 1.52266 4.47384 2.29363 10.0209 0.42027 -0.320868 2.04676 -0.231245 4.71641 4.27662 5.31073 3.13627 2.77451 2.21808 3.72414 0.922076 3.29417 2.88952 0.784135 5.12944 0.208496 0.156207 0.398102 -0.754355 0.988034 1.85608 3.82994 0.38133 4.05933 -0.45833 2.66026 1.96544 -0.881419 3.67823 1.15411 -0.268096 -0.334291 3.45679 5.2316 3.03522 4.76584
internal_weight=0 680 9842 570 110 15 8598 1244 6818 905 683 95 367 67 203 195 253 65 172 1780 430 109 5913 255 42 28 60 193 2887 188 146 561 252 158 321 647 1133 363 131 131 1882 3026 120 83 97 126 23 213 650 74 80 250 64 45 61 39 15 15 550 114 818 54 53 45 346 150 113 245 48 26 573 545 1064 71 64 309 47 71 62 33 13 12 61 770 31 94 87 50 37 105 65 42 40 36 31 25 74 16 138 501 203 1005 71 16 38 151 30 886 15 43 2174 16 107 213 502 21 43 23 27
internal_count=10522 680 9842 570 110 15 8598 1244 6818 905 683 95 367 67 203 195 253 65 172 1780 430 109 5913 255 42 28 60 193 2887 188 146 561 252 158 321 647 1133 363 131 131 1882 3026 120 83 97 126 23 213 650 74 80 250 64 45 61 39 15 15 550 114 818 54 53 45 346 150 113 245 48 26 573 545 1064 71 64 309 47 71 62 33 13 12 61 770 31 94 87 50 37 105 65 42 40 36 31 25 74 16 138 501 203 1005 71 16 38 151 30 886 15 43 2174 16 107 213 502 21 43 23 27
is_linear=0
shrinkage=0.117742


Tree=4
num_leaves=120
num_cat=0
split_feature=17 18 18 23 2 19 2 23 16 22 29 24 2 30 9 23 30 22 28 22 22 30 30 29 20 11 23 23 22 14 1 19 16 5 30 9 29 31 29 11 29 1 5 9 18 30 1 24 10 1 9 9 16 14 22 9 21 8 23 9 19 1 16 13 16 28 23 30 26 17 1 18 11 11 23 26 30 23 2 23 4 2 2 23 12 23 23 5 3 24 22 23 14 3 23 0 21 5 28 22 0 14 0 12 29 23 23 29 0 31 8 26 26 1 1 23 14 19 29
split_gain=615842 138996 109528 45208.8 41385.9 28133.8 24665.3 20916.6 16843.4 14251.1 12792.5 26115.2 13760.5 11390.6 13919 10857 9308.23 9000.86 8763.96 8164.1 8116.15 7232.64 6758.78 6446.64 6339.53 6199.34 6148.21 5556.59 5197.76 5029.62 9575.94 4932.13 4707.99 5103.29 4688.22 5398.81 5632.26 4575.36 4544.36 4506.44 4147.36 4051.78 3926.11 4402.1 3780.4 3702.33 3672.03 3503.44 3565.35 3479.01 3297.17 3186.74 3175.8 3100.72 3075.58 2915.84 2859.32 3359.2 2690.17 3040.81 2675.61 2953.12 2658.57 2622.9 2600.19 2534.76 2313.41 2390.49 2255.17 2240.13 2198.65 2148.19 2113.88 2042.18 2037.69 2011.55 1983.59 1872.62 1707.83 1701.47 1637.05 1631.94 1583.83 1468.79 1850.72 1461.51 1382.23 1362.74 1334.22 1310.68 1306.38 1300.03 1279.52 1270.01 1166.97 1159.85 1144.92 1133.05 1115.1 1093.99 1083.72 1080.44 1075.62 1059.29 1040.8 1026.98 1013.93 1011.87 1006.02 991.711 990.246 980.214 977.686 977.522 952.35 1051.56 940.436 922.736 904.319
threshold=50.060000000000009 31.975000000000005 91.730000000000018 354.90500000000003 14.315000000000003 18.125000000000004 28.040000000000003 190.74500000000003 42.030000000000008 93.90000000000002 3.7243333333333335 1.656666666666667 18.070000000000004 -0.35666666666666658 4.3750000000000009 202.68000000000004 0.14133333333333339 97.425000000000011 16.004833333333337 77.875000000000014 139.34 0.30483333333333335 -2.8556666666666666 -2.6983333333333328 84.165000000000006 14.385000000000003 192.82500000000002 166.96000000000004 29.615000000000006 12.575000000000001 0.39500000000000007 108.48 64.850000000000009 0.15500000000000003 5.6555000000000009 1.9950000000000003 1.7051666666666669 141.06500000000003 8.6730000000000018 4.0750000000000011 -0.17666666666666664 2.3950000000000005 17.795000000000005 16.085000000000004 46.220000000000006 0.63483333333333347 1.8150000000000002 -0.82166666666666655 -3.4349999999999996 3.9450000000000007 3.2350000000000008 10.415000000000001 42.935000000000009 -2.7049999999999996 105.82000000000001 -0.93499999999999994 73.100000000000009 4.7150000000000007 192.82500000000002 11.415000000000001 86.475000000000009 12.915000000000001 25.035000000000004 12.125000000000002 64.850000000000009 12.736333333333336 354.90500000000003 6.5480000000000009 -0.35499999999999993 41.595000000000006 7.5450000000000008 102.61000000000003 -2.3149999999999995 8.3150000000000031 178.51000000000002 12.080000000000002 6.745166666666667 171.89000000000001 3.9250000000000003 113.48500000000001 7.3550000000000013 20.640000000000004 1.7550000000000001 156.30500000000004 10.785000000000002 109.87000000000002 252.80500000000004 4.3450000000000006 11.075000000000001 7.0283333333333351 50.260000000000005 178.51000000000002 0.31500000000000006 1.0000000180025095e-35 82.305000000000021 24.395000000000003 48.980000000000011 0.17500000000000002 3.0800000000000005 190.36000000000004 4.2750000000000012 3.9850000000000008 23.070000000000004 10.885000000000003 -1.3731666666666664 143.41000000000003 93.085000000000022 5.6275833333333347 5.6700000000000008 121.71500000000002 0.075000000000000025 10.120714285714287 -1.5785714285714285 10.455000000000002 9.2850000000000019 103.13000000000001 4.9750000000000005 34.870000000000012 14.640916666666667
decision_type=2 2 2 2 2 2 2 2 2 2 2 2 2 2 2 2 2 2 2 2 2 2 2 2 2 2 2 2 2 2 2 2 2 2 2 2 2 2 2 2 2 2 2 2 2 2 2 2 2 2 2 2 2 2 2 2 2 2 2 2 2 2 2 2 2 2 2 2 2 2 2 2 2 2 2 2 2 2 2 2 2 2 2 2 2 2 2 2 2 2 2 2 2 2 2 2 2 2 2 2 2 2 2 2 2 2 2 2 2 2 2 2 2 2 2 2 2 2 2
left_child=1 5 6 8 15 13 9 29 86 101 11 47 19 14 68 34 87 52 20 85 31 108 70 -11 45 44 65 89 -15 30 -6 -10 40 -34 35 112 51 60 55 41 100 -32 75 69 73 -25 -46 105 -49 -42 -14 -37 -8 -29 -41 -30 95 -58 -22 64 72 -62 -48 88 -60 81 67 -51 -1 99 -21 -61 -26 -18 107 -23 -39 -40 111 -50 110 90 -24 -36 -85 104 -4 116 -56 106 -12 -69 -84 -52 -70 -47 -31 -43 -99 -44 -19 -2 -82 -59 -13 -7 -16 114 -17 -55 -78 -28 -3 -27 115 -57 -9 -80 -66
right_child=2 4 3 -5 7 10 17 16 18 23 26 12 50 28 27 21 25 32 -20 22 58 42 82 24 37 113 78 53 38 96 39 -33 33 -35 83 36 -38 76 77 54 49 97 43 -45 46 56 62 48 79 66 93 -53 -54 109 63 74 57 103 59 71 61 -63 -64 -65 118 -67 -68 91 94 -71 -72 -73 -74 -75 -76 -77 80 -79 117 -81 102 -83 92 84 -86 -87 -88 -89 -90 -91 -92 -93 -94 -95 -96 -97 -98 98 -100 -101 -102 -103 -104 -105 -106 -107 -108 -109 -110 -111 -112 -113 -114 -115 -116 -117 -118 -119 -120
leaf_value=-0.67964419437572632 1.5539552827370822 -0.54499658682603058 2.1259605701252262 16.029174171558335 0.25167829633781513 -0.60942487657491173 0.71881526366546999 2.7724645744688017 7.0510755155424123 6.3541678121149063 -0.51073815849285986 0.78807413970434625 5.0971032716606519 -0.79375858346388972 -0.15540574312141467 1.969159120339292 2.9551737068934441 4.8924130073328032 2.0940123233674766 2.8341970584434355 9.0833261968643182 0.97320408103757738 0.7259809204013109 3.161516232972045 4.461633019086074 1.9194368070825945 0.30710025574871869 3.8283305238675118 -0.66178060380097725 -0.14491217347656743 1.3925566830236011 11.40918331949946 3.9326700441144111 6.7866709838575918 -0.25465219334785605 1.5000216851879224 0.4602001076814044 0.17285974552186012 -0.75721756914666427 0.87520549335241493 2.0397209883811782 2.5166243934070147 0.69056647489250278 4.7256953158447264 0.68950110175754986 0.98463582580640574 1.3275117828462601 2.6987689924863814 -0.29054916464436326 4.794714776916611 1.2134251239983194 3.8899914345635729 2.9851904204331454 0.4934747524181366 0.75820383232508326 -0.46420812396064171 0.83788446001153793 1.3521460000384036 5.2940837334786988 6.6632937120823845 5.5431546736403003 2.5468208681923388 3.7390010614710429 3.5356822060526851 6.3784831565371691 -0.59028093495708844 6.2070110726116186 2.0329946819640416 -0.45587982400687832 3.1632177574056475 5.5590252871913908 9.0696834011484775 1.5380492716229204 1.3298721533879154 0.15709121956011224 0.18138252776039451 2.9853459958618545 -0.45965266889610379 0.24693897834094294 0.32427676601051314 2.046426793311606 0.71047783690100119 2.4952561925051158 0.79284154581948563 -0.057712447387532624 0.85337222071733598 4.137263588567861 5.779377271098042 3.0214179660433391 0.54903735135346232 -0.19854846278243732 3.6375667069424211 1.126912163915134 3.1148953710559937 -0.011997394781439503 -0.61341481504279427 0.74102967671839004 4.2760273313413615 2.3195275669960211 2.096341488558159 7.130251535275649 0.058089878273305112 3.5743805028007247 3.2782688423781794 0.0808897843648336 -0.068422404104669751 0.54500047007140484 -0.50780567576198776 3.5252129798757674 1.8147672623733442 0.95596306938966702 -0.21842709617887399 0.16159260913247053 0.66897881466503362 0.077430771793470188 -0.10615350602015547 4.9588776197017665 0.87005130783367279 7.8713855880124415
leaf_weight=380 7.9999999999999991 35 10.000000000000002 6.9999999999999991 68 257 11.999999999999998 5.0000000000000018 5.9999999999999991 5.9999999999999991 268 37 9.9999999999999982 1705 108 9.0000000000000018 17 5.9999999999999982 4.9999999999999991 13.000000000000002 5.9999999999999991 91 42 20 6 12.999999999999998 68 7.9999999999999991 381 39 20 8.9999999999999982 15.999999999999998 19 258 55 116 4.9999999999999991 1098 55 14.999999999999998 11.999999999999998 33 5.9999999999999991 6.9999999999999991 17.000000000000004 6.9999999999999991 6.9999999999999991 130 25 7.0000000000000027 8.9999999999999982 30 13.999999999999998 13.000000000000002 281 21 5.0000000000000027 30 12.000000000000002 19.000000000000004 5.9999999999999991 67 13.999999999999998 15.000000000000002 546 5.9999999999999991 7.9999999999999991 186 7.9999999999999991 5.9999999999999991 8.9999999999999982 7.9999999999999982 29 129 87 4.9999999999999991 400 123 120 9.0000000000000018 23 18 50 122 78 8.9999999999999982 11.999999999999998 4.9999999999999991 125 606 56 20 15.999999999999998 147 9.9999999999999982 42 21.000000000000004 4.9999999999999991 9.9999999999999982 6 41 22 19 131 60 39 329 15.999999999999998 18 9.9999999999999982 178 121 26 102 191 6 45 8.9999999999999982
leaf_count=380 8 35 10 7 68 257 12 5 6 6 268 37 10 1705 108 9 17 6 5 13 6 91 42 20 6 13 68 8 381 39 20 9 16 19 258 55 116 5 1098 55 15 12 33 6 7 17 7 7 130 25 7 9 30 14 13 281 21 5 30 12 19 6 67 14 15 546 6 8 186 8 6 9 8 29 129 87 5 400 123 120 9 23 18 50 122 78 9 12 5 125 606 56 20 16 147 10 42 21 5 10 6 41 22 19 131 60 39 329 16 18 10 178 121 26 102 191 6 45 9
internal_value=0 -0.214173 3.78853 6.8314 0.826729 -0.400057 2.9022 1.72543 6.29486 2.0907 -0.0956041 0.255326 1.01525 -0.551662 -0.196605 0.403658 2.6918 3.86865 6.89988 0.795539 7.15019 1.06108 1.69841 2.55683 2.43164 2.38423 -0.27551 0.459301 -0.630504 1.10418 1.4045 9.66594 4.27821 5.48198 0.180513 0.510036 0.949413 3.13422 -0.534884 1.94513 3.93286 2.74905 0.858527 1.70898 2.78296 1.74433 3.26706 -0.245112 0.0779502 3.70612 3.31222 1.83611 2.33765 1.75503 1.40919 -0.383412 1.35067 1.92541 6.68431 6.49239 4.09423 4.82403 3.51089 2.32698 6.02486 -0.390264 3.96924 3.81838 -0.483621 1.35408 3.69467 7.6946 2.79101 1.93053 -0.280643 0.58619 2.4001 -0.677761 0.124465 0.00456728 2.64219 -0.268514 1.2243 -0.0769747 0.189542 0.432188 3.07868 4.91166 1.38687 0.268753 -0.294277 3.437 1.77508 2.53619 -0.259932 0.392765 0.314465 3.46299 3.89978 1.01749 6.01133 0.302313 3.13078 2.87699 0.236639 -0.507027 0.0304163 -0.343176 2.96503 1.2367 1.63242 -0.0731594 0.00306298 1.0858 -0.248815 -0.319317 3.96505 0.413844 6.93832
internal_weight=0 9959 563 127 1509 8450 436 483 120 237 2809 952 378 5641 1025 1026 189 199 101 345 96 260 99 188 182 166 1857 312 4616 294 213 15 157 35 766 336 180 90 2911 145 122 58 235 57 127 92 81 574 257 110 33 64 42 40 87 1413 72 45 81 75 39 25 74 32 54 1443 95 89 713 51 19 21 14 46 1032 178 51 1498 414 250 46 897 80 430 172 246 19 23 18 272 874 64 38 23 333 27 81 38 26 43 12 49 31 24 168 317 147 903 25 32 15 246 156 39 574 472 11 168 24
internal_count=10522 9959 563 127 1509 8450 436 483 120 237 2809 952 378 5641 1025 1026 189 199 101 345 96 260 99 188 182 166 1857 312 4616 294 213 15 157 35 766 336 180 90 2911 145 122 58 235 57 127 92 81 574 257 110 33 64 42 40 87 1413 72 45 81 75 39 25 74 32 54 1443 95 89 713 51 19 21 14 46 1032 178 51 1498 414 250 46 897 80 430 172 246 19 23 18 272 874 64 38 23 333 27 81 38 26 43 12 49 31 24 168 317 147 903 25 32 15 246 156 39 574 472 11 168 24
is_linear=0
shrinkage=0.117742


Tree=5
num_leaves=120
num_cat=0
split_feature=18 17 2 2 2 4 21 22 2 20 16 30 29 9 30 1 1 29 2 20 9 29 15 23 22 20 30 22 22 14 30 31 13 23 10 29 1 2 23 10 1 25 28 31 23 2 17 14 4 25 4 21 26 9 11 2 5 23 9 23 26 2 30 29 23 1 12 25 31 18 9 14 6 10 26 22 23 8 31 8 1 25 12 24 16 31 21 30 7 13 17 26 30 18 1 12 16 23 15 9 9 1 6 31 23 28 3 31 4 0 17 17 23 31 29 1 3 22 22
split_gain=480597 96258.1 93387.3 41442.9 37310.2 36600 27250.9 20825.7 12929.4 12386.6 10734.5 10435.1 10098.5 11911.8 8516.56 11370.3 8499.76 8467.27 7838.11 6892.08 6349.9 6342.56 5975.91 5635.01 5434.4 4978.51 4967 4113.1 4107.31 4035.34 3975.4 3854.58 3698.84 3553.43 3499.15 3402.47 10213 3292.14 3203.21 3189.06 3104.01 3048.27 3008.28 2904.89 2890.16 2814.66 2628.64 2621.93 2569.87 2556.05 2458.29 2417.36 2274.2 2255.59 2228.66 2194.21 2165.8 2144.63 2135.03 2079.88 2074.61 2050.23 2051.81 1905.79 1794.65 1739.4 2760.77 2238.69 1694.37 1606.33 1579.48 3222.81 4344.31 1556.44 1526.67 1453.45 1447.98 1421.46 1398.9 1394.34 1390.97 2320.6 1358.37 1355.68 1350.65 1347.64 1329.5 1288.13 1282.63 1279.64 1275.11 1204.76 1148.06 1126.34 1107.68 1101.39 1244.65 1071.45 1056.81 1055.58 1140.13 1032.95 1029.64 979.153 1107.5 1005.68 969.633 960.927 1199.31 1091.62 985.083 945.979 936.428 909.574 938.674 897.592 896.204 872.287 862.562
threshold=56.510000000000005 78.530000000000015 8.4550000000000018 65.680000000000021 15.365 3.3750000000000004 41.605000000000011 75.705000000000013 24.870000000000005 104.99500000000002 46.25500000000001 -1.5848333333333331 7.0380833333333337 4.0050000000000008 1.0000000180025095e-35 1.8750000000000002 1.0000000180025095e-35 -2.6983333333333328 32.275000000000013 39.860000000000007 5.0250000000000012 -0.99708333333333321 1.9150000000000003 155.60500000000005 134.47500000000002 84.165000000000006 -0.083833333333333329 135.59000000000003 86.760000000000005 12.265000000000002 6.8488333333333342 119.43500000000002 -2.2549999999999994 65.420000000000016 12.215000000000002 3.7243333333333335 1.3950000000000002 17.525000000000002 168.90000000000003 13.365 0.39500000000000007 -1.4429999999999998 9.8321666666666676 99.335000000000022 98.335000000000022 42.800000000000004 33.440000000000005 13.775 20.825000000000003 -0.66499999999999992 3.1950000000000007 79.920000000000016 16.43214285714286 11.295000000000002 3.3850000000000002 32.275000000000013 30.310000000000006 120.24500000000002 1.2250000000000003 157.94000000000003 11.695714285714287 18.070000000000004 3.1108333333333338 1.3562500000000002 173.24000000000004 -0.42499999999999993 1.885 1.7190000000000001 157.00000000000003 84.680000000000021 -0.69499999999999984 -0.33499999999999996 12.845000000000001 3.1050000000000004 10.414285714285716 49.115000000000002 103.13000000000001 6.7150000000000007 112.98000000000002 0.59500000000000008 0.71500000000000008 10.487000000000002 3.5750000000000006 -1.0499999999999998 27.340000000000003 189.17000000000004 5.9700000000000015 8.4295000000000027 1.0000000180025095e-35 4.5050000000000008 28.200000000000006 -0.19928571428571423 -1.8976666666666666 11.755000000000001 15.875000000000002 2.8550000000000004 42.030000000000008 196.23000000000002 12.455000000000002 15.805000000000001 17.095000000000002 4.2950000000000008 1.155 224.19000000000003 118.05000000000003 6.5910000000000002 43.820000000000007 127.54500000000002 15.180000000000001 8.9350000000000005 63.030000000000008 6.5550000000000006 141.48000000000005 44.935000000000009 3.611333333333334 4.2950000000000008 3.8750000000000004 134.47500000000002 119.25000000000001
decision_type=2 2 2 2 2 2 2 2 2 2 2 2 2 2 2 2 2 2 2 2 2 2 2 2 2 2 2 2 2 2 2 2 2 2 2 2 2 2 2 2 2 2 2 2 2 2 2 2 2 2 2 2 2 2 2 2 2 2 2 2 2 2 2 2 2 2 2 2 2 2 2 2 2 2 2 2 2 2 2 2 2 2 2 2 2 2 2 2 2 2 2 2 2 2 2 2 2 2 2 2 2 2 2 2 2 2 2 2 2 2 2 2 2 2 2 2 2 2 2
left_child=2 4 7 9 17 -5 35 12 14 31 -11 20 13 33 15 91 32 -2 25 42 83 54 -12 70 30 29 44 69 80 107 64 53 -6 -1 37 36 58 65 -21 40 -30 -35 49 82 78 85 74 48 -24 -13 -33 94 60 -3 -22 75 73 -14 -4 -32 95 76 101 -42 -20 -25 67 -67 -60 112 -16 72 -72 -27 -40 -37 -38 -47 -15 -53 -10 -82 -17 -9 -65 -26 -28 -73 -39 -78 -45 -8 -80 -43 -48 -29 -97 -36 -75 -41 -101 -63 -31 104 -88 -106 -52 109 -109 -18 -111 -23 -19 -51 -115 -90 -61 -68 -118
right_child=1 3 6 5 16 -7 8 11 28 10 22 19 57 26 23 43 18 27 24 38 21 111 47 34 45 56 86 52 39 102 59 50 -34 41 97 55 61 88 46 99 63 93 -44 90 -46 77 51 -49 -50 113 106 79 -54 -55 -56 -57 -58 -59 68 116 -62 62 -64 84 -66 66 117 -69 -70 -71 71 87 -74 98 -76 -77 89 -79 92 -81 81 -83 -84 -85 -86 -87 103 -89 115 -91 -92 -93 -94 -95 -96 96 -98 -99 -100 100 -102 -103 -104 -105 105 -107 -108 108 -110 110 -112 -113 -114 114 -116 -117 118 -119 -120
leaf_value=-0.69771573918652829 5.0527249309027669 5.5563512249715412 -0.49526366067260469 6.8679132277258557 3.773507217875383 18.739841151892854 -0.34583963307898341 -0.26459966041980676 -0.37897869091446401 1.9182623826665923 10.025036625028992 -0.47828677588676288 -0.73261037665959872 -0.061704639141745947 -0.44949039662466644 2.6344902350290291 3.068045387661599 -0.32096687681600505 3.5386068011947631 -0.13417978653646973 1.6211274053431084 0.20247177495873248 6.2676635570135257 -0.051529029437449574 4.5298298363745202 4.1844903799624324 -0.44409476230266032 0.079189207913823126 0.35875423574688237 0.42710928695134148 0.87224026228453522 1.3679361172318794 0.17428855569098953 -0.60096475819418516 0.12068399187935881 -0.43677027248350414 0.43451849139053572 0.93519262084253552 0.47387263426509307 1.1037819219958886 4.7476834769527434 -0.36896459630562528 -0.44881664735738747 2.4887032568718337 0.85703252708437438 4.6737652125852565 0.7567097217313995 4.9352668276735949 8.8851587651073451 -0.57527965120582014 4.8032644997825633 3.0471835667938554 3.7332058447796821 3.1985863483647026 4.3061110317966085 2.1355383473190903 5.1012108574824016 -0.51540693799907811 0.20225963722946191 3.4820398930900573 0.35938557487708134 0.83019669207505642 4.1589060535331726 1.0536484795075773 5.0563892715168315 1.1248594286132492 0.61646987632368244 3.3991879510771432 2.4612114080599024 2.1501347108643176 0.62855785215340831 0.5916870942296768 4.4587619370139127 2.474913849763023 -0.01228146963684428 0.014498584530261142 1.8491803204849107 6.7849966454749104 0.94128866069782269 1.1261735875863099 2.238865336549785 0.56630080049925091 0.78044959670141545 0.66203821539529262 3.0851493914916039 2.4049864831207084 -0.23839090301688784 -0.021295877628644686 1.570451252599655 0.42935911171021651 4.0618493941354332 0.90818315796223825 0.07047109857291356 -0.098169319383405063 -0.80980762453126909 1.6274260859904461 3.1635387631389618 0.84272580360153027 3.5478231610438491 3.0285793374586967 1.0108563951323957 2.5225319450462917 1.8351265044546683 0.70076414232095896 0.36908892958856043 -0.28448300366754409 2.7634888477844237 3.330385062547061 1.9501352080545447 0.37106408621845249 2.4270265435651774 1.5482137050950409 0.50459290577664806 0.3917341869759921 -0.0083950348335234438 2.5986977074905533 1.1982620799413377 1.4216568882104068 2.9049596002678575
leaf_weight=822 6.9999999999999991 15.000000000000002 99 8.9999999999999982 5.0000000000000027 5.9999999999999991 13.999999999999998 33 6.9999999999999991 7.9999999999999991 5.9999999999999991 159 1657 188 38 14.000000000000002 8.0000000000000018 25 27 307 6.0000000000000027 15.000000000000002 39 20 24.000000000000004 15.999999999999998 230 4.9999999999999991 5.9999999999999991 18.000000000000004 7.9999999999999991 12.000000000000002 19 576 58 146 32 12.999999999999998 171 24 8.9999999999999982 491 722 9.9999999999999982 100 7.0000000000000027 59 18 5.9999999999999991 27 5.9999999999999982 10.000000000000002 5.9999999999999991 8.9999999999999982 14.999999999999998 5.9999999999999991 8.9999999999999982 1017 58 21 21 10.000000000000005 5.9999999999999991 4.9999999999999991 18 12.000000000000002 66 11.999999999999998 4.9999999999999991 6.9999999999999991 13.000000000000002 81 5.9999999999999991 35 188 307 33 11.999999999999998 43 10.999999999999998 23 23 8.9999999999999982 65 49 4.9999999999999991 402 115 18 11.999999999999998 25 44 41 376 6.9999999999999991 39 8.9999999999999982 56 20 11.000000000000002 5.9999999999999991 9.9999999999999982 11.999999999999998 20 94 50 7 32 11.999999999999998 6.9999999999999982 6 13.999999999999998 80 126 229 34 6.0000000000000027 26 12.999999999999998
leaf_count=822 7 15 99 9 5 6 14 33 7 8 6 159 1657 188 38 14 8 25 27 307 6 15 39 20 24 16 230 5 6 18 8 12 19 576 58 146 32 13 171 24 9 491 722 10 100 7 59 18 6 27 6 10 6 9 15 6 9 1017 58 21 21 10 6 5 18 12 66 12 5 7 13 81 6 35 188 307 33 12 43 11 23 23 9 65 49 5 402 115 18 12 25 44 41 376 7 39 9 56 20 11 6 10 12 20 94 50 7 32 12 7 6 14 80 126 229 34 6 26 13
internal_value=0 3.02733 -0.209163 5.76626 2.31084 11.6167 0.623031 -0.367231 1.07641 5.06978 6.00105 -0.0533694 -0.478447 -0.344822 0.851844 1.77119 3.06029 1.03039 3.22253 -0.123424 0.900886 1.98061 6.47442 0.664089 3.87581 2.69616 -0.0394023 0.883739 2.01876 2.11987 3.35067 3.60636 0.924126 -0.502318 0.99645 0.0926277 0.428553 1.29199 0.158522 2.42902 2.91771 -0.391011 -0.29152 2.9369 0.315773 4.89327 0.360001 6.13626 6.61666 -0.0815972 2.58317 0.940655 1.52855 4.67219 3.53897 -0.101316 3.38051 -0.650002 -0.154284 2.60531 1.34979 1.34525 2.24926 3.16142 4.14572 0.962559 1.1374 2.26202 0.381542 0.423163 0.25028 0.37396 1.8381 3.1624 0.219285 -0.130943 1.04 6.00717 0.11678 2.04094 1.16728 1.40258 1.909 0.350007 2.89705 4.16348 -0.205389 0.232029 1.98125 1.47056 3.61238 0.605488 0.516247 -0.251526 0.590564 1.74222 1.91545 0.475371 2.86506 1.60659 2.31644 1.67636 0.990316 -0.108388 -0.138027 0.142154 3.70492 2.6412 2.95395 1.9859 1.31997 0.85214 0.308031 0.083517 0.133623 2.24277 2.95192 0.844023 2.366
internal_weight=0 680 9842 141 539 15 1571 8271 847 126 77 2164 6107 3433 684 116 340 199 316 2016 148 50 69 568 141 175 1168 192 163 95 93 49 24 2265 315 724 265 201 753 110 69 1443 1263 58 372 48 446 63 45 541 25 87 80 24 21 459 80 2674 162 48 74 103 26 63 45 136 116 24 63 112 253 215 19 71 359 453 77 19 272 21 53 46 23 98 54 29 796 196 65 45 35 58 84 867 66 53 48 114 55 41 17 20 30 566 546 144 13 65 44 21 13 29 105 382 355 52 40 92 19
internal_count=10522 680 9842 141 539 15 1571 8271 847 126 77 2164 6107 3433 684 116 340 199 316 2016 148 50 69 568 141 175 1168 192 163 95 93 49 24 2265 315 724 265 201 753 110 69 1443 1263 58 372 48 446 63 45 541 25 87 80 24 21 459 80 2674 162 48 74 103 26 63 45 136 116 24 63 112 253 215 19 71 359 453 77 19 272 21 53 46 23 98 54 29 796 196 65 45 35 58 84 867 66 53 48 114 55 41 17 20 30 566 546 144 13 65 44 21 13 29 105 382 355 52 40 92 19
is_linear=0
shrinkage=0.117742


Tree=6
num_leaves=120
num_cat=0
split_feature=17 17 21 6 23 3 18 2 2 30 24 2 30 15 22 22 9 16 10 10 23 21 28 12 26 18 21 30 1 14 5 30 3 29 2 23 1 23 22 22 2 28 31 20 2 18 1 16 23 26 2 29 2 2 16 16 23 12 1 31 30 28 1 14 28 16 11 18 1 23 9 27 9 14 24 4 14 30 24 6 31 23 9 29 10 29 26 18 23 29 5 9 28 23 28 9 14 23 16 2 31 27 4 1 31 9 31 31 28 23 31 17 6 31 4 24 1 2 8
split_gain=374155 96486.5 60562.5 45214.4 23249.2 19402.7 19230.9 18206 12622.7 7907.67 9648.83 7896.4 7592.42 7516.4 7150.02 7143.11 6809.21 5903.97 5861 5562.45 5498.22 4821.27 6040.23 4679.81 4514.43 4512.24 4228.83 4257.92 4208.45 6118.58 4163.13 4118.48 3619.95 3554.98 3515.35 3109.86 3072.5 3061.51 3031.38 2862.3 2619.9 7995.71 2264.07 2208.89 2085.36 1959.51 2037.23 1856.01 1777.39 1716.9 1669.04 1908.88 1668.23 1651.79 1611.43 1554.64 1539.71 1491.72 1468.41 1454.77 1453.86 1449.98 2017.73 1440.67 1437.34 1855.54 1416.55 1588.89 1383.91 1354.1 1324.93 1288.97 1277.37 1246.5 1223.74 1216.79 1193.83 1181.83 1573.05 1160.44 1158.88 1156.81 1144.62 1175.03 1120 1119.4 1111.87 1100.3 1095.73 1215.83 1095.42 1093.27 1239.29 1086.34 992.219 982.372 977.307 975.238 1950.23 971.323 962.481 947.517 933.554 932.13 923.992 897.547 886.42 883.457 999.007 882.782 876.909 874.569 876.579 864.191 843.481 843.425 1539.51 833.381 829.181
threshold=52.670000000000009 26.190000000000001 120.81500000000001 0.015000000000000001 190.74500000000003 34.795000000000009 17.040000000000003 31.050000000000004 21.460000000000004 4.8943333333333348 3.3983333333333339 17.525000000000002 -0.9538333333333332 2.9150000000000005 97.425000000000011 108.50500000000001 2.2450000000000006 60.375000000000007 13.895000000000001 0.20500000000000004 145.91000000000003 66.735000000000014 -1.9821666666666664 10.785000000000002 1.7792857142857146 97.865000000000009 51.065000000000005 -1.8036666666666665 -0.42499999999999993 13.445000000000002 17.795000000000005 -0.083833333333333329 37.445000000000007 -2.6983333333333328 18.365000000000006 93.085000000000022 3.6750000000000003 145.03500000000003 190.36000000000004 48.760000000000012 18.070000000000004 1.110166666666667 111.32500000000002 42.235000000000007 14.675000000000002 39.220000000000006 1.1450000000000002 42.935000000000009 122.34500000000001 12.16357142857143 3.4250000000000003 -1.25125 13.745000000000003 47.725000000000009 6.6950000000000012 45.440000000000005 150.48000000000002 17.785000000000004 12.855000000000002 106.88500000000002 2.3410000000000006 11.878666666666669 -0.32499999999999996 1.2850000000000004 0.9251666666666668 32.610000000000007 9.8950000000000014 56.510000000000005 2.1250000000000004 178.51000000000002 8.2250000000000032 -3.1279999999999997 1.0650000000000002 11.925000000000002 7.0283333333333351 24.435000000000006 3.2150000000000003 9.6921666666666688 1.1683333333333337 15.075000000000001 112.98000000000002 159.72500000000005 -0.93499999999999994 8.4617500000000003 12.865 -0.049749999999999996 2.2250000000000001 27.285000000000004 67.425000000000026 10.007166666666668 0.38500000000000006 -1.8549999999999998 6.5910000000000002 162.38500000000002 0.9251666666666668 4.6650000000000009 13.775 219.29500000000002 60.375000000000007 16.220000000000002 45.490000000000009 9.6156666666666677 6.955000000000001 2.2250000000000005 116.08000000000003 4.9450000000000012 69.330000000000027 218.11000000000004 7.1786666666666674 196.23000000000002 64.435000000000016 33.890000000000008 14.890000000000002 112.98000000000002 10.675000000000002 10.778333333333334 3.3850000000000002 7.5850000000000009 13.310000000000002
decision_type=2 2 2 2 2 2 2 2 2 2 2 2 2 2 2 2 2 2 2 2 2 2 2 2 2 2 2 2 2 2 2 2 2 2 2 2 2 2 2 2 2 2 2 2 2 2 2 2 2 2 2 2 2 2 2 2 2 2 2 2 2 2 2 2 2 2 2 2 2 2 2 2 2 2 2 2 2 2 2 2 2 2 2 2 2 2 2 2 2 2 2 2 2 2 2 2 2 2 2 2 2 2 2 2 2 2 2 2 2 2 2 2 2 2 2 2 2 2 2
left_child=1 6 7 5 11 -4 9 15 13 10 39 26 16 24 47 34 103 32 45 -19 40 -17 -23 52 -6 38 77 36 72 43 49 35 75 54 -2 74 105 88 53 106 58 -42 111 115 55 -10 -47 -9 94 -15 59 -52 91 60 -18 118 -36 97 82 -37 95 62 -29 68 114 81 76 -68 -64 107 102 -41 -13 -27 -12 -5 -48 78 -3 -34 -38 -66 -14 -84 -72 -80 -26 -54 -11 -90 -55 -22 110 -58 -35 -16 104 -46 99 -99 -50 -39 -62 -8 -21 -28 -1 108 -33 -25 -93 -32 -113 -76 -45 116 -30 -105 -24
right_child=2 4 3 17 8 -7 12 14 18 37 31 28 20 30 25 21 33 19 -20 96 23 22 44 109 86 73 27 61 29 -31 42 69 79 48 56 50 80 101 -40 71 41 -43 -44 64 57 46 66 -49 100 -51 51 -53 87 90 -56 -57 93 -59 -60 -61 70 -63 63 -65 65 -67 67 -69 -70 -71 84 -73 -74 -75 113 -77 -78 -79 85 -81 -82 -83 83 -85 -86 -87 -88 -89 89 -91 -92 92 -94 -95 -96 -97 -98 98 -100 -101 -102 -103 -104 117 -106 -107 -108 -109 -110 -111 -112 112 -114 -115 -116 -117 -118 -119 -120
leaf_value=-0.69777472342827784 0.034142667870051047 -0.35454700591625582 7.7383909370231647 3.3270641176834093 0.7879450988405331 17.207357724784085 -0.11082463719836266 0.30060981236586126 1.5645308689030892 -0.72844798586407877 -0.15151436526862866 -0.50772191046610526 -0.4834130955755585 0.82996354772174652 3.2945378825110558 -0.18528456566793866 4.1446550546148275 8.9769004428783425 0.82225447603904822 4.5634558790870647 -0.35650624233860373 5.3260621687622072 0.6619828510257999 -0.25209760922138569 4.2161398003644308 5.9383277361891169 0.38141916280098376 -0.19554343650451292 0.11563087817238023 0.2161336831883662 3.5255170594205207 -0.15297180792548296 0.82925492127124456 1.1495077331993948 0.72940659356904991 0.27009864881801632 1.5895210477099915 -0.17274119292358742 6.0661446853975294 -0.60999926926564452 4.6156478370687486 0.0063640233172892035 1.0541244592290537 1.8482472299551524 2.1701547380709094 0.58584180965407373 2.7095205317882538 2.3514393325597926 2.9438472175647101 0.17241552262823986 3.0696329380588283 0.90152377459908284 0.67967563507760043 3.0447109220906245 1.8967678186222852 2.5463470545524598 3.4153704681081773 0.67968085541707668 -0.58781788220123266 1.1049890478821089 2.740908655029525 -0.024979821950775881 0.69443889660087577 0.55287135430243073 0.61899642016203338 2.0914440967880803 1.7113668103600093 3.2340749363102965 2.4478886104714648 0.29827363836344029 3.8119092780162811 -0.13067699360906496 0.6234607857008575 3.9303141797356607 0.079067750288486699 5.0037959601637523 3.8386281107555615 -0.37145664926539806 1.1149959051673879 3.144958082048225 3.3057331759961128 1.8587105626727582 -0.038652410304737733 -0.35321907522748608 2.6654217823539939 0.16830694574380264 2.6899536439592251 1.9460036004025885 -0.42972529135386894 -0.62831440404641192 4.8284803459759518 0.084785551995274627 0.20098341304329934 1.2508006824282218 0.15398401751446888 4.8947890881612137 4.4221237333657477 3.6018936964678003 4.4108125532838915 2.2772747581275357 1.3263532004405654 -0.42888861620122321 1.0344620519028049 0.21671391636615273 5.9893772671253203 2.1154979244036771 -0.47699476852841738 0.60499154019502011 -0.4828301048120649 0.07087127719245194 0.80804412891120503 0.7994040140242149 2.8405962729600902 0.81481321720749655 3.2491468939587667 0.11467926816615169 1.7874123293280602 1.6740316528035402 2.0035262238930489
leaf_weight=377 39 79 5.9999999999999982 9.0000000000000018 18 6 114 7.9999999999999991 18 687 165 31 199 121 13.000000000000002 10.999999999999998 7.0000000000000027 5.9999999999999991 29 9.0000000000000018 28 8.9999999999999982 22.000000000000004 278 8.9999999999999982 15.000000000000002 24.000000000000004 43 11.999999999999998 71 9.0000000000000018 408 5.9999999999999982 23 10.000000000000002 93 10.000000000000002 276 5.9999999999999991 95 5.9999999999999991 40 30 11.000000000000002 42 4.9999999999999991 21 26 5.9999999999999991 101 8.0000000000000018 19 26 7.0000000000000027 11.999999999999998 13.999999999999998 8.9999999999999982 5.9999999999999991 200 42 10.000000000000002 111 13.000000000000002 119 30 49 19 19 11.999999999999998 75 21 429 25 5.9999999999999991 53 18 34 133 20 6 11.999999999999998 15.999999999999998 417 272 27 129 25 14.999999999999998 683 1142 14.999999999999998 29 177 4.9999999999999991 35 8.9999999999999982 15.999999999999998 9.9999999999999982 9.9999999999999982 33 34 729 7.9999999999999991 17.000000000000004 21 4.9999999999999991 761 17 185 203 117 4.9999999999999982 7 38 12.999999999999998 14.999999999999998 21 7.9999999999999991 8.9999999999999982
leaf_count=377 39 79 6 9 18 6 114 8 18 687 165 31 199 121 13 11 7 6 29 9 28 9 22 278 9 15 24 43 12 71 9 408 6 23 10 93 10 276 6 95 6 40 30 11 42 5 21 26 6 101 8 19 26 7 12 14 9 6 200 42 10 111 13 119 30 49 19 19 12 75 21 429 25 6 53 18 34 133 20 6 12 16 417 272 27 129 25 15 683 1142 15 29 177 5 35 9 16 10 10 33 34 729 8 17 21 5 761 17 185 203 117 5 7 38 13 15 21 8 9
internal_value=0 -0.157319 3.13355 5.67956 0.722433 12.4729 -0.309075 2.47795 1.40588 -0.41509 -0.266104 0.402493 -0.0147801 0.998312 3.39719 1.79153 0.589076 4.78374 2.3194 5.60507 -0.0918041 2.19664 2.36568 0.130306 2.29571 3.77648 0.19001 0.482259 0.915632 1.13172 0.751187 0.00388728 3.68865 1.25095 0.724095 0.29514 1.47638 -0.53222 3.48897 -0.445285 -0.262794 0.607575 1.71048 1.52098 2.18319 2.69368 2.90108 1.86889 0.965176 0.530809 0.698856 1.54393 0.432279 3.3484 2.72494 1.51654 1.84527 2.48021 -0.299592 0.529842 3.12027 0.312124 0.512223 0.72357 1.79294 1.58726 3.02556 2.47272 1.53609 -0.17384 2.84396 -0.217577 -0.00272964 5.36461 0.0396626 4.44489 3.40751 -0.0925247 0.0701855 1.98711 2.52564 1.0502 -0.234677 -0.162835 3.16701 0.295379 3.09394 1.14297 -0.601704 -0.553993 4.26092 0.349264 0.410446 2.64231 0.548761 3.94919 5.16526 2.59393 2.92976 2.58533 1.56898 -0.358544 1.98249 0.0319596 5.5616 0.680398 -0.550135 -0.231887 -0.255879 -0.115793 0.664383 2.64814 1.9901 0.386302 2.60707 0.846738 1.17949 0.683056 1.05146
internal_weight=0 10019 503 103 1474 12 8545 400 470 6282 2765 1004 2263 325 171 229 256 91 145 52 2007 166 155 873 52 137 710 349 294 238 273 1103 39 117 63 418 51 3517 116 1662 1134 46 51 167 146 116 98 34 98 222 162 27 392 110 19 45 24 101 1088 135 88 298 187 144 119 95 93 38 25 685 66 524 56 21 256 27 55 361 228 12 22 46 888 689 48 149 34 41 2512 1825 22 351 323 14 58 22 46 95 53 43 40 1005 18 139 30 29 1138 610 593 481 146 21 12 91 24 48 33 25 31
internal_count=10522 10019 503 103 1474 12 8545 400 470 6282 2765 1004 2263 325 171 229 256 91 145 52 2007 166 155 873 52 137 710 349 294 238 273 1103 39 117 63 418 51 3517 116 1662 1134 46 51 167 146 116 98 34 98 222 162 27 392 110 19 45 24 101 1088 135 88 298 187 144 119 95 93 38 25 685 66 524 56 21 256 27 55 361 228 12 22 46 888 689 48 149 34 41 2512 1825 22 351 323 14 58 22 46 95 53 43 40 1005 18 139 30 29 1138 610 593 481 146 21 12 91 24 48 33 25 31
is_linear=0
shrinkage=0.117742


Tree=7
num_leaves=120
num_cat=0
split_feature=18 2 2 19 15 21 21 2 18 30 24 1 29 20 16 5 2 2 1 3 15 13 1 21 22 29 24 1 28 28 24 31 22 23 17 10 2 30 9 9 22 18 22 12 31 27 9 15 23 18 27 23 22 15 8 3 5 25 12 11 23 11 31 30 23 28 23 23 23 8 24 17 23 24 30 1 0 3 31 28 11 9 2 23 23 2 0 12 2 14 22 16 2 8 22 2 2 7 10 5 19 16 6 28 29 6 31 18 3 30 22 7 30 22 18 8 23 31 2
split_gain=291663 60925.5 56020.9 38358.4 44779.1 16166.6 13985 13232.8 11570.8 8649.72 8607.61 8353.48 12026.3 7308.57 6419.08 6252.05 5155.76 4183.49 4158.88 3762.15 4270.94 3706.16 4195.87 3603.87 3555.13 3220.86 3510.72 2891.45 2883.16 2811.06 2758.55 2519.45 2403.79 2296.54 2270.78 2219.32 2098.69 2094.02 2079.4 2032.51 2008.74 2144.68 1917.88 1893.63 1874.44 1775.28 2227.2 2834.66 2802.41 1774.17 1678.47 1675.14 1671.65 1919.76 1667.07 2400.11 1581.8 1574.28 1557.18 1543.95 1460.13 1511.43 1419.1 1332.83 1330.89 1315.38 1304.2 1276.98 1265.37 1263.46 1198.6 1179.12 1172.96 1196.2 1118.99 1118.89 1114.53 1075.82 1066.59 1061.32 1055.35 1054.72 977.28 944.026 917.91 908.194 907.264 903.252 900.483 893.524 912.931 870.663 847.404 989.063 870.11 824.687 915.37 807.707 804.436 800.676 796.325 788.177 772.372 765.106 751.732 751.167 728.294 706.464 703.746 777.258 692.798 679.344 665.279 659.609 653.481 650.889 649.12 643.606 640.589
threshold=55.360000000000007 31.050000000000004 8.4550000000000018 126.52500000000002 10.775 47.635000000000012 40.000000000000007 14.485000000000001 97.865000000000009 -1.1279999999999999 4.741666666666668 0.50500000000000012 3.1339166666666673 89.655000000000015 53.705000000000005 10.125000000000002 26.585000000000004 17.845000000000002 1.1450000000000002 1.4150000000000003 0.19500000000000003 7.5850000000000009 -0.11499999999999998 7.4050000000000002 138.02000000000001 9.6875000000000018 0.35500000000000004 1.5750000000000004 10.080333333333334 0.37500000000000006 0.54500000000000015 167.25000000000003 104.92500000000001 115.61500000000001 82.15000000000002 13.445000000000002 43.820000000000007 6.3370000000000006 5.8550000000000013 0.20500000000000004 135.59000000000003 84.680000000000021 122.73500000000001 15.715000000000002 120.93500000000002 14.701000000000002 0.80500000000000016 4.9850000000000012 127.76500000000001 35.240000000000009 -2.1256666666666661 180.74500000000003 154.87500000000003 14.095000000000001 0.34500000000000003 34.795000000000009 13.345000000000001 0.54300000000000015 4.4350000000000014 16.135000000000002 207.12000000000003 0.80500000000000016 89.445000000000007 -2.6294999999999997 97.375000000000014 6.4060000000000015 173.24000000000004 185.29500000000004 191.66000000000003 1.4850000000000001 6.828333333333334 36.630000000000003 189.74000000000004 1.9333333333333336 3.9953333333333338 5.035000000000001 3.7650000000000001 37.445000000000007 216.24000000000004 7.3238333333333339 1.385 0.49500000000000005 51.490000000000009 129.14000000000001 52.225000000000001 4.2750000000000012 24.690000000000001 -1.3549999999999998 29.160000000000004 6.0150000000000006 43.835000000000001 23.995000000000005 6.245000000000001 1.0000000180025095e-35 157.64500000000001 21.655000000000005 16.220000000000002 0.015000000000000001 8.9550000000000018 0.26500000000000007 54.550000000000011 27.075000000000003 0.10500000000000002 10.8635 0.38691666666666674 12.725000000000003 85.295000000000016 20.385000000000005 0.94500000000000006 1.0841666666666667 15.255000000000001 0.76500000000000012 11.117333333333335 75.705000000000013 42.560000000000009 3.1550000000000007 43.330000000000005 106.50000000000001 41.155000000000008
decision_type=2 2 2 2 2 2 2 2 2 2 2 2 2 2 2 2 2 2 2 2 2 2 2 2 2 2 2 2 2 2 2 2 2 2 2 2 2 2 2 2 2 2 2 2 2 2 2 2 2 2 2 2 2 2 2 2 2 2 2 2 2 2 2 2 2 2 2 2 2 2 2 2 2 2 2 2 2 2 2 2 2 2 2 2 2 2 2 2 2 2 2 2 2 2 2 2 2 2 2 2 2 2 2 2 2 2 2 2 2 2 2 2 2 2 2 2 2 2 2
left_child=2 7 6 8 -5 17 9 14 18 10 50 81 27 39 40 59 32 45 -3 44 70 22 -19 110 37 26 -8 -13 30 38 -25 34 79 74 52 67 56 66 100 -9 41 108 114 72 84 46 -4 48 87 -34 -1 115 53 -15 -10 -56 86 -24 -51 -16 80 -62 -44 117 106 -35 -20 -18 89 -23 -21 91 73 -41 78 101 -53 -36 116 98 107 -7 -38 -30 -12 103 99 -48 -71 90 -59 102 93 -87 -94 96 -74 -75 -14 -26 -28 -65 -60 -42 -50 -77 -52 -31 -2 -110 -11 -45 -112 -40 -27 -39 -32 -29 -37
right_child=1 3 5 4 -6 11 25 13 54 23 19 12 16 31 15 -17 35 21 24 20 -22 69 57 28 36 42 29 63 83 60 33 -33 49 65 77 118 82 51 113 43 85 -43 62 111 -46 -47 47 -49 104 58 64 76 -54 -55 55 -57 -58 68 71 -61 61 -63 -64 75 -66 -67 -68 -69 -70 88 -72 -73 95 97 -76 105 -78 -79 -80 -81 -82 -83 -84 -85 -86 92 -88 -89 -90 -91 -92 -93 94 -95 -96 -97 -98 -99 -100 -101 -102 -103 -104 -105 -106 -107 -108 -109 109 -111 112 -113 -114 -115 -116 -117 -118 -119 -120
leaf_value=-0.51804843626487962 -0.96501265916910173 0.13943292299763263 -0.35781036061864313 17.427159387081147 4.2955425662250519 -0.22511882851980941 -0.16094655862739232 -0.25519071314181946 4.1094669387632372 -0.61820429118391074 -0.47551699204443371 0.93910425597362912 0.61937317324317498 0.99306581106320324 -0.40093711535412357 4.9208461856933017 1.2759917261585363 -0.060748366419942794 2.7418020863029788 1.9382061810351126 0.71206656281575653 -0.092679799623150802 3.1609971703634896 -0.45166638926856439 4.063805403995322 -0.32653475732414056 0.481071100452653 0.61907203231843466 -0.58218032861250724 0.20575453223050366 -0.58947463626135788 1.8710346136913509 0.48627804533486296 0.18552048675442451 5.3461079038176225 0.73333879226411347 5.9180267638950319 0.84051264650732116 1.0771613857415956 2.576799865257311 1.3684338827394276 2.0678417136598166 1.6969202798910052 0.16757056807067389 0.90727555963993856 -0.46704179118257622 1.1168895337704663 -0.01645369189264357 1.9449927009281609 2.4874238586768223 -0.41927631482810002 1.8976620999071374 3.3725615547212757 3.3118092460833868 6.1917078103958136 4.1043151267638684 4.6400816973275498 -0.14283875100215021 2.311175299658335 2.2701472684797284 2.4723192509413399 0.54606087639903478 0.095377949962112726 1.0200462333482077 0.21027245081613066 -0.18179172345179551 4.0018437496324539 2.5744512622781182 2.7488007390181277 0.46471235028492608 3.9189427753602342 0.64177622663881639 2.5925151628724326 0.15509836814142433 -0.4118514987590795 2.9535778457351078 3.1800996466621401 3.3107062822534563 0.6242032939040203 0.23143335472511867 0.065519592876550056 0.46682140520219395 4.1828848120813689 -0.39003472476148782 0.25782464146467549 2.8951301121703468 1.4215335573225092 0.1370847562432988 1.9179444991806924 2.3420940851243377 1.2833531524107114 1.9849364659704323 0.45971708379048215 0.82974283114261627 1.5928390547486129 2.4674339536002794 1.0136953829975337 1.4221275888225169 1.9109004558099325 2.7364415841457368 1.9406782209893227 2.6004008823810958 0.67505619705084619 0.0839301789302309 0.99498841735458121 4.2593904451427465 -0.054823792152593691 0.90167945795592919 1.1904025496781989 0.1431711189912469 -0.40954426190399257 1.6650199177195442 -0.58254996176570706 2.6867838079568229 0.04698121872691282 2.4055083735057452 -0.14931288405704038 2.2322614546670199 2.0698758287896792
leaf_weight=215 6.9999999999999991 6.9999999999999991 123 5.9999999999999991 8.9999999999999982 74 274 7.9999999999999991 22 866 30 18 26 11.000000000000002 6.0000000000000018 9.9999999999999982 14.999999999999998 26 31 8.0000000000000018 35 78 8.9999999999999982 716 9.0000000000000018 446 38 5.9999999999999991 634 42 52 25 62 303 8.9999999999999982 29 6.0000000000000027 14.000000000000002 5.0000000000000027 9.9999999999999982 10.000000000000002 8.9999999999999982 7.9999999999999991 14.000000000000002 56 93 14.999999999999998 290 17 12.999999999999998 161 17 37 8.9999999999999982 21 11.999999999999998 8.9999999999999982 7.9999999999999991 5.0000000000000027 6 5.9999999999999991 96 186 4.9999999999999991 124 244 18 35 8.9999999999999982 38 8.9999999999999982 41 8.0000000000000018 8.9999999999999982 465 19.000000000000004 21 5.9999999999999991 23 150 323 52 18 804 112 8.9999999999999982 4.9999999999999991 100 6.9999999999999991 7.9999999999999991 28 25 17 4.9999999999999991 21 45 13.999999999999998 31 8.9999999999999982 21 5.9999999999999991 35 20 18 36 8.9999999999999982 144 39 10.999999999999998 92 740 5.9999999999999991 528 11.999999999999998 76 4.9999999999999991 435 7.9999999999999991 5.9999999999999991
leaf_count=215 7 7 123 6 9 74 274 8 22 866 30 18 26 11 6 10 15 26 31 8 35 78 9 716 9 446 38 6 634 42 52 25 62 303 9 29 6 14 5 10 10 9 8 14 56 93 15 290 17 13 161 17 37 9 21 12 9 8 5 6 6 96 186 5 124 244 18 35 9 38 9 41 8 9 465 19 21 6 23 150 323 52 18 804 112 9 5 100 7 8 28 25 17 5 21 45 14 31 9 21 6 35 20 18 36 9 144 39 11 92 740 6 528 12 76 5 435 8 6
internal_value=0 2.29755 -0.167256 3.77474 9.54819 0.483005 -0.289028 1.49674 3.40778 -0.362856 -0.0219105 0.923092 1.12588 2.09827 0.838055 2.74653 0.858779 0.15381 2.95332 0.564467 1.45574 0.611338 1.19473 -0.415318 3.06652 0.0288569 0.185111 2.29043 -0.344664 0.352342 -0.261079 2.88938 0.659532 -0.171421 3.24297 1.68155 3.731 2.64025 1.10741 1.56904 0.627068 0.32035 -0.154676 1.67556 0.330395 0.0105774 0.0870293 0.206495 0.591347 0.984813 -0.249542 2.15504 2.90377 2.0365 4.90338 5.43266 3.24791 1.72123 1.28202 0.934605 0.261316 0.65937 0.161421 2.58706 -0.114975 0.0216737 3.20467 2.18491 1.47674 0.193948 2.98683 1.10982 1.85655 1.425 -0.279752 2.80245 2.60638 4.53195 -0.159308 0.367658 0.160817 0.0604438 4.61667 -0.47475 0.102893 1.08331 2.88992 0.264885 0.690771 1.21654 0.966422 1.49361 1.37442 2.15749 1.08592 2.1786 1.58781 1.13705 0.95148 3.13465 0.680108 2.40286 1.00228 0.542682 1.29971 3.3733 -0.247207 0.540829 0.177373 0.255011 -0.537026 0.616805 -0.481584 2.21337 -0.272153 1.25235 -0.196312 1.54089 0.962459
internal_weight=0 714 9808 251 15 1547 8261 463 236 6704 894 662 536 242 221 22 436 885 181 250 52 211 88 5810 174 1557 841 100 3676 567 2238 97 351 1522 72 85 68 106 61 145 199 119 716 137 198 674 581 458 168 166 644 57 57 20 55 33 44 62 104 12 506 102 194 82 429 547 49 50 53 123 17 91 117 50 975 68 38 15 510 185 404 126 24 1438 142 80 35 115 45 44 36 50 52 14 38 67 22 40 35 30 44 40 25 28 53 28 305 81 110 103 2134 20 1268 17 522 19 487 14 35
internal_count=10522 714 9808 251 15 1547 8261 463 236 6704 894 662 536 242 221 22 436 885 181 250 52 211 88 5810 174 1557 841 100 3676 567 2238 97 351 1522 72 85 68 106 61 145 199 119 716 137 198 674 581 458 168 166 644 57 57 20 55 33 44 62 104 12 506 102 194 82 429 547 49 50 53 123 17 91 117 50 975 68 38 15 510 185 404 126 24 1438 142 80 35 115 45 44 36 50 52 14 38 67 22 40 35 30 44 40 25 28 53 28 305 81 110 103 2134 20 1268 17 522 19 487 14 35
is_linear=0
shrinkage=0.117742


Tree=8
num_leaves=120
num_cat=0
split_feature=17 18 21 6 4 2 2 17 23 29 1 22 22 9 23 1 28 30 1 23 16 27 9 28 18 30 1 22 10 8 27 9 2 29 21 3 2 22 23 25 5 9 23 30 31 23 5 1 30 9 5 1 23 9 1 21 16 29 22 10 9 29 29 0 7 19 23 13 4 30 26 17 6 15 19 4 12 14 19 2 5 1 15 1 23 23 26 30 6 21 2 23 11 2 12 1 28 8 2 1 15 25 23 23 29 31 27 14 8 19 22 2 1 26 0 15 22 31 31
split_gain=227266 52101.3 43085.6 30101.6 15843.5 14572.2 13853.7 11976.8 7435.68 6061.03 13639 5193.48 4796.02 4792.66 4507.47 4020.02 3918.59 3901.64 4774.13 3593.48 3561.89 3482.22 3322.75 3173.91 3086.45 3034.91 2894.47 2791.38 2630.7 2577.67 2469.84 3725.3 2444.2 2419.7 2396.06 2350.3 2311.61 2030.34 1922.05 1843.71 1775.13 1858.08 1706.5 1695.22 1691.66 1565.53 1516.3 1502.56 1473.22 1404.74 1393.83 1389.8 1386.54 1309.66 1293.07 1282.96 1218.12 1204.26 1194.4 1155.91 1147.13 1114.27 1102.92 1073.9 1056.36 1033.39 1010.29 1006.36 1000.83 994.536 921.878 920.378 906.856 903.615 903.021 874.634 874.471 865.618 864.46 830.656 814.332 809.874 2205.26 1241.81 801.375 800.398 789.742 776.946 772.017 759.736 704.433 688.739 735.809 687.221 746.005 681.384 722.962 672.13 669.308 662.562 660.035 653.939 651.908 643.861 828.566 722.612 639.29 607.731 597.091 574.891 571.333 568.345 566.286 658.069 565.168 767.151 561.488 560.415 553.966
threshold=48.755000000000003 31.975000000000005 120.81500000000001 0.015000000000000001 20.825000000000003 29.795000000000005 14.105000000000002 8.3750000000000018 190.74500000000003 3.7243333333333335 5.3650000000000011 108.50500000000001 97.425000000000011 0.095000000000000015 202.68000000000004 8.7250000000000032 1.9665000000000001 4.8943333333333348 4.0250000000000012 145.91000000000003 60.375000000000007 3.1846666666666672 -0.50499999999999989 -1.9821666666666664 97.865000000000009 0.30483333333333335 9.4750000000000032 38.140000000000008 0.20500000000000004 1.0850000000000002 10.414666666666667 1.9950000000000003 18.365000000000006 1.7051666666666669 60.305000000000014 37.445000000000007 16.435000000000006 190.36000000000004 119.24500000000002 12.563000000000001 17.525000000000002 16.085000000000004 154.54000000000005 -0.083833333333333329 116.64000000000001 136.63500000000002 14.465000000000002 12.045000000000002 2.3410000000000006 5.6750000000000007 0.015000000000000001 5.5850000000000009 213.30500000000004 10.415000000000001 0.39500000000000007 87.990000000000023 24.275000000000002 15.546916666666668 76.245000000000019 9.1250000000000018 4.205000000000001 11.362583333333335 -0.1330833333333333 32.485000000000007 14.890000000000002 23.440000000000001 121.80500000000002 12.775 7.1650000000000009 1.425 -2.5421428571428568 31.595000000000006 5.9850000000000012 10.775 59.165000000000006 24.435000000000006 -2.48 11.925000000000002 98.13000000000001 15.795000000000002 3.8950000000000005 1.3050000000000004 5.0750000000000011 4.2950000000000008 86.665000000000006 60.375000000000007 12.080000000000002 -1.8036666666666665 15.075000000000001 45.190000000000005 1.2450000000000003 178.51000000000002 9.1250000000000018 31.050000000000004 1.885 1.3050000000000004 -0.59683333333333322 0.28500000000000009 18.985000000000003 12.565000000000003 3.8350000000000004 0.54300000000000015 177.13500000000002 70.52500000000002 9.2249166666666671 12.940000000000001 9.0100000000000033 13.775 4.4150000000000009 73.335000000000022 82.405000000000015 1.7550000000000001 5.995000000000001 14.31357142857143 3.1150000000000007 -1.0000000180025095e-35 39.245000000000012 26.495000000000001 116.08000000000003
decision_type=2 2 2 2 2 2 2 2 2 2 2 2 2 2 2 2 2 2 2 2 2 2 2 2 2 2 2 2 2 2 2 2 2 2 2 2 2 2 2 2 2 2 2 2 2 2 2 2 2 2 2 2 2 2 2 2 2 2 2 2 2 2 2 2 2 2 2 2 2 2 2 2 2 2 2 2 2 2 2 2 2 2 2 2 2 2 2 2 2 2 2 2 2 2 2 2 2 2 2 2 2 2 2 2 2 2 2 2 2 2 2 2 2 2 2 2 2 2 2
left_child=1 7 5 4 -4 11 14 17 29 10 13 32 49 70 30 22 26 18 38 99 35 60 -13 -24 37 -16 58 -15 -22 46 31 -3 -2 53 100 75 52 48 85 79 86 71 103 44 84 -18 81 54 59 -7 -17 -50 95 -33 -31 76 -36 74 -12 -14 -10 -52 -56 64 91 -38 -35 -51 80 -47 -9 -42 -48 97 -53 -5 -34 -26 109 106 -58 -8 83 -83 -20 -1 -27 -46 -37 -67 -32 -25 -93 94 -64 -29 111 -65 -75 116 -23 -40 -45 -19 105 -105 -21 118 -78 -63 -92 -97 -70 -114 -60 -116 -11 -86 -30
right_child=2 6 3 20 -6 12 8 9 21 19 16 15 24 27 25 50 45 42 43 39 28 34 23 63 77 40 -28 36 107 47 90 33 55 66 56 88 65 -39 101 -41 41 -43 -44 102 87 69 72 -49 51 67 61 57 -54 -55 62 -57 68 -59 114 -61 -62 78 93 73 -66 89 -68 -69 112 -71 -72 -73 -74 98 -76 -77 108 -79 -80 -81 -82 82 -84 -85 117 -87 -88 -89 -90 -91 110 92 -94 -95 -96 96 -98 -99 -100 -101 -102 -103 -104 104 -106 -107 -108 -109 -110 -111 -112 -113 113 -115 115 -117 -118 -119 -120
leaf_value=-0.55783731676723614 0.13114032276877721 -0.051248777976120659 14.247696667863275 2.5066364426494592 5.6911761341701501 -0.11875766930842399 -0.29689799876980244 -0.50660974090587962 1.8377790296577008 -0.41107955253554262 1.0356318561594231 -0.48884789768440057 2.9101496213737521 -0.17583252520266707 1.9261611119689142 -0.17654290356877148 0.1445516447007745 -0.58374961889155608 -0.19173458229033369 0.30421020629357987 6.6523606037042615 1.8085237808068275 4.2766257708682378 1.0598634037599017 4.6573336266486347 0.62054046180718447 3.5862433934772318 0.08451394467420871 3.5707556441654194 0.52733019883105337 -0.38359618009709229 1.0238781950086089 2.3114136413536071 -0.019677341943357431 0.73229645658186948 0.52955228611684046 2.5633580550181136 4.7642631927133561 -0.21676292068829786 -0.18656678382191322 0.45526374732354297 3.0846726572278977 -0.28325234163206747 -0.20432751295662849 0.80011022300544143 0.77063080703742781 0.54026372272415879 0.050348929863138998 1.4587376084486723 2.2687726789349707 0.10027777218682549 1.2813556111009716 1.4857464416505337 2.5560188896021523 2.4835758225140574 2.8973824146159171 2.2000479861626614 0.78271334125513081 2.9261216441045748 4.7452216832435612 3.2451128292972569 0.7174460349002123 1.8312331828220398 2.4633551807809821 0.35260233776519301 0.5155758743004617 0.5919195003669484 0.92434979730914668 1.3646320720444349 1.9604523911171914 -0.15499635450643234 1.4526277926778577 1.9928384959991476 2.3072053681616667 2.7856096610482468 3.9282102092317897 0.47598787593907005 2.9839969275194167 0.13539048712784327 0.66432922077937973 0.57553393671743924 0.51576508342190264 0.05974925437459995 2.2849712958970159 -0.89031752757824267 -0.357967239730478 0.11446690065730117 0.16756343489677947 2.4183465985043524 1.9363870935721874 -0.22141811920982493 2.4718085655236961 1.6256072967139383 2.230973400296413 0.90525352998898623 0.29313781899015168 0.28304595520517506 0.93709559426310862 3.8422977185080844 -0.46415734722220536 0.65972405481959318 0.16843877241824759 0.19451098144580534 -0.82826293194572609 -0.50485242474200087 -0.28879280511543881 -0.0043591462396056447 3.4450590858872983 1.901390939817829 1.9148290356242514 0.18440279522278677 1.1452594415094446 2.5583578088438084 1.2360254090181231 2.34990777588194 0.77315694242041111 -0.19671462336136569 0.27641374567965626 4.6748420508296968
leaf_weight=477 64 222 5.9999999999999982 9.0000000000000018 6 6.9999999999999991 35 166 12.999999999999998 244 33 6.9999999999999991 23.000000000000004 146 25 13.999999999999998 43 679 141 155 5.9999999999999991 7.9999999999999991 8.9999999999999982 11.999999999999998 15.000000000000002 86 10.999999999999998 128 9.0000000000000018 29 107 55 5.9999999999999991 56 12.999999999999998 5.9999999999999982 8.0000000000000018 5.9999999999999991 211 364 29 5.9999999999999991 752 506 67 32 13.000000000000002 18 20 19 10.999999999999998 5.9999999999999991 13.999999999999998 8.9999999999999982 11.999999999999998 5.9999999999999991 7.0000000000000027 4.9999999999999991 8.0000000000000018 5.9999999999999991 21 6.9999999999999991 15.999999999999998 12.000000000000002 6.9999999999999991 15.000000000000002 113 12.999999999999998 8.9999999999999982 13.999999999999998 274 23 10.999999999999998 6.9999999999999991 71 18 22.000000000000004 5.9999999999999991 5.9999999999999991 43 10.999999999999998 11.000000000000002 75 10.999999999999998 5.9999999999999991 665 85 45 6 7.9999999999999991 91 28 29 8.9999999999999982 49 17 107 5.9999999999999991 8.9999999999999982 314 52 86 64 37 1124 494 233 15.999999999999998 4.9999999999999991 27 102 30 40 5.9999999999999991 11.000000000000002 6.9999999999999991 554 117 21
leaf_count=477 64 222 6 9 6 7 35 166 13 244 33 7 23 146 25 14 43 679 141 155 6 8 9 12 15 86 11 128 9 29 107 55 6 56 13 6 8 6 211 364 29 6 752 506 67 32 13 18 20 19 11 6 14 9 12 6 7 5 8 6 21 7 16 12 7 15 113 13 9 14 274 23 11 7 71 18 22 6 6 43 11 11 75 11 6 665 85 45 6 8 91 28 29 9 49 17 107 6 9 314 52 86 64 37 1124 494 233 16 5 27 102 30 40 6 11 7 554 117 21
internal_value=0 -0.133848 2.23711 4.42652 9.96944 1.77783 0.511088 -0.246655 1.03982 -0.0566902 0.16731 1.25276 2.56143 -0.00795278 0.265324 1.61617 1.17369 -0.350092 -0.236988 -0.182609 3.69559 1.63386 2.00414 2.15078 2.85006 0.694375 1.83278 0.252231 4.33353 0.669828 0.120981 0.293902 0.578878 0.622757 1.38395 2.845 0.443354 2.64631 -0.372055 0.00854434 0.559901 1.12278 -0.437503 -0.0315321 0.162531 0.655306 0.345144 1.05066 2.54931 1.3921 0.864097 2.33877 0.342045 1.23934 1.20723 1.31363 1.78236 2.55341 1.50586 3.28982 2.70701 1.14976 1.4365 1.97685 1.73079 1.4107 0.38926 1.7226 1.96936 1.13275 -0.28765 0.896406 1.20603 2.52688 2.6684 3.45435 1.02567 4.17924 1.43837 0.173325 1.20729 0.18862 0.363807 1.40037 -0.00013664 -0.441451 0.368983 0.545962 1.47395 1.00977 -0.141283 1.8706 2.04129 1.2667 1.13319 0.285265 0.452124 1.9546 3.17069 -0.31927 0.812897 -0.105223 -0.159546 -0.487202 -0.447591 -0.326383 0.11891 4.03107 0.739951 1.66831 -0.00694282 0.837045 2.21877 2.38588 2.10269 1.73673 -0.26226 0.2195 4.34362
internal_weight=0 9928 594 103 12 491 1478 8450 469 2979 1072 294 197 913 1009 191 159 5471 2385 1907 91 180 126 119 158 254 70 473 52 289 755 455 103 233 146 39 327 137 1439 795 229 58 3086 946 376 89 156 133 131 39 65 102 296 64 115 39 86 82 59 29 34 51 86 110 76 31 169 32 73 46 440 52 24 34 77 27 33 21 40 431 18 132 97 22 264 1142 171 112 12 23 300 69 57 74 65 282 154 18 16 1112 60 297 570 2334 1655 531 388 46 27 34 193 47 55 46 26 18 798 123 30
internal_count=10522 9928 594 103 12 491 1478 8450 469 2979 1072 294 197 913 1009 191 159 5471 2385 1907 91 180 126 119 158 254 70 473 52 289 755 455 103 233 146 39 327 137 1439 795 229 58 3086 946 376 89 156 133 131 39 65 102 296 64 115 39 86 82 59 29 34 51 86 110 76 31 169 32 73 46 440 52 24 34 77 27 33 21 40 431 18 132 97 22 264 1142 171 112 12 23 300 69 57 74 65 282 154 18 16 1112 60 297 570 2334 1655 531 388 46 27 34 193 47 55 46 26 18 798 123 30
is_linear=0
shrinkage=0.117742


Tree=9
num_leaves=120
num_cat=0
split_feature=17 17 2 7 21 23 2 21 11 30 23 24 29 2 1 5 1 30 26 2 21 16 9 29 28 18 29 1 29 2 28 29 30 22 18 2 1 26 9 29 22 26 14 27 8 24 17 6 28 31 2 23 28 11 22 24 2 10 23 2 0 31 1 29 0 24 1 10 23 6 2 23 31 30 28 8 31 2 23 3 23 10 28 20 22 0 2 28 26 20 27 22 23 15 6 31 25 4 7 27 4 9 9 9 30 14 10 22 3 23 23 18 5 2 1 18 1 28 23
split_gain=176899 40575.2 33623.5 19429.5 18937.4 10834 10016 9953.78 5428.26 4921.37 3898.02 3891.15 3831.13 3584.86 3497.24 3443.48 3421.87 3408.6 4633.29 3178.19 2943.34 2918.78 2498.21 2414.27 2383.5 2268.39 2257.63 2223.35 3938.09 2116.77 2332.1 2104.46 1966.18 2269.2 1842.14 1829.32 1747 1671.99 3318.43 1711.51 1615.38 1548.37 1537.71 1532.11 1486.33 1482.4 1421.36 1389.22 1289.51 1287.32 1236.31 1198.13 1401.71 1188.85 1186.35 1156.16 1258.07 1303.31 1099.1 1083.32 1079.66 1023.41 994.886 1356.01 978.754 969.827 964.018 916.671 906.472 895.813 866.5 862.374 858.856 1172.78 839.35 833.759 823.488 808.758 800.867 783.224 767.508 767.231 757.713 755.137 748.17 733.244 716.95 714.386 705.495 704.283 697.302 683 682.492 669.836 668.579 668.498 666.653 663.902 655.504 646.865 645.604 636.934 615.419 581.316 561.542 552.127 704.402 542.758 533.34 524.954 523.309 520.393 515.831 506.28 508.025 496.378 496.037 811.849 501.88
