tree
version=v3
num_class=1
num_tree_per_iteration=1
label_index=0
max_feature_idx=31
objective=regression
feature_names=precip temp lag1precip lag2precip lag3precip lag4precip lag5precip lag6precip lag7precip lag1temp lag2temp lag3temp lag4temp lag5temp lag6temp lag7temp sum2precip sum3precip sum4precip sum5precip sum6precip sum7precip sum15precip sum30precip mean3temp mean5temp mean7temp mean15temp mean30temp mean60temp mean30templag30 sum30precilag30
feature_infos=[0:83.549999999999997] [-18.02:23.399999999999999] [0:83.549999999999997] [0:83.549999999999997] [0:83.549999999999997] [0:83.549999999999997] [0:83.549999999999997] [0:83.549999999999997] [0:83.549999999999997] [-18.02:23.399999999999999] [-18.02:23.399999999999999] [-18.02:23.399999999999999] [-18.02:23.399999999999999] [-18.02:23.399999999999999] [-18.02:23.399999999999999] [-18.02:23.399999999999999] [0:129.96000000000001] [0:158.47] [-1.3877787807814457e-17:166.84999999999999] [-6.9388939039072284e-18:173.47] [-1.0408340855860843e-17:175.71000000000001] [-6.9388939039072284e-18:179.83000000000001] [0:239.69999999999999] [1.7300000000000002:427.45999999999998] [-16.323333333333334:22.75] [-16.154:22.07] [-15.119999999999999:21.530000000000001] [-12.524000000000001:19.766666666666666] [-7.4573333333333336:18.753666666666668] [-4.6401666666666666:17.471333333333334] [-7.4573333333333336:18.753666666666668] [1.7300000000000002:427.45999999999998]
tree_sizes=5437 5601 5524 5670 5609 5626 5596 5619 5647 5695 5609 5524 5652 5633 5680 5586 5619 5667 5626 5730 5703 5679 5695 5695 5703 5654 5720 5272 5665 5799 5767 5712 5723 5130 5732 4076 4331 3749 5347 4299 5339 2561 5509 4918 5252 5067 3802 5846 4063 4581 3029 5794 5787 5481 5846 3648 3073 2827 5771 5276 4321 2432 4783 3159 4899 4824 4998 5748 5795 4613 4367 4742 5429 2679 1703 5771 4215 4973 2832 2113 5569 5261 3431 5741 3008 3120 3801 3046 5710 1755 5787 3148 4924 4710 3290 3556 4199 5947 5412 3792 5679 3812 4000 3814 4820 4922 4022 4029 4357 5070 5052 3846 2462 4439 5777 5735 5807 2896 4815 3848 3746 3425 5036 5805 5877 3932 3037 4413 3977 3523 5367 5862 4573 4846 5593 5652 5134 5004 5143 4536 5832 4738 3663 5795 5474 2670 5385 3644 4803 4545 3528 2682 5898 3896 5827 4493 3318 4033 5724 5764 4461 5823 5872 4093 4672 2467 3226 4064 6018 2304 4922 5357 2921 4916 4040 4294 5810 5774 5806 5830 4410 2404 1709 4347 4655 3304 3524 5767 5871 3076 5502 5751 4043 4813 4660 5838 4355 4225 4102 4933

Tree=0
num_leaves=65
num_cat=0
split_feature=18 2 18 2 2 16 21 21 16 23 26 30 24 22 22 1 16 17 14 1 13 29 22 30 6 24 4 30 24 2 22 12 23 30 9 25 24 15 28 2 23 23 23 30 29 31 22 24 23 4 29 22 18 24 23 21 8 30 22 11 30 28 13 22
split_gain=932396 181073 176933 60405.8 59082.2 50055.3 46191.6 22093.9 19362.3 14885.3 14830.9 14659.3 21620.2 13001.9 12641.2 10335 9670.02 8815.15 8515.02 19415.3 8524.15 8034.17 8018.26 7058.84 6555.89 5899.82 5509.15 5492.62 8065.53 5400.59 5356.36 5334.15 5213.58 5136.95 4891.89 4340.54 4358.98 4310.55 4124.01 3488.52 3421.33 2719.48 2685.3 2524.9 2486.63 2373.87 2372.94 2296.06 2290.49 2220.4 2073.8 1726.81 1570.07 1442.69 1414.41 1396.74 1272.94 1213.1 1149.68 1143.65 1043.39 883.905 846.472 825.943
threshold=57.160000000000004 10.625000000000002 94.020000000000024 15.425000000000002 26.035000000000004 66.52000000000001 36.705000000000005 50.165000000000006 49.75500000000001 204.78500000000003 11.685 7.4665000000000008 0.81833333333333347 143.23000000000005 177.47500000000002 1.5250000000000001 27.185000000000002 31.290000000000003 7.495000000000001 2.7950000000000004 2.7750000000000004 10.33075 100.46000000000002 -0.77883333333333316 19.295000000000005 -1.0599999999999998 1.405 7.4665000000000008 1.1083333333333336 30.675000000000004 135.79000000000005 13.505000000000001 63.125000000000007 0.29383333333333334 5.620000000000001 7.7360000000000015 3.395 14.085000000000003 -1.4581666666666664 21.610000000000003 174.38000000000002 95.180000000000021 131.39000000000001 -1.2556666666666663 5.7205000000000004 142.64500000000001 77.480000000000018 -0.35333333333333322 108.00000000000001 18.395000000000003 2.5840000000000001 92.885000000000019 39.670000000000009 -0.85999999999999976 197.34500000000003 18.270000000000007 5.3950000000000005 0.70233333333333348 93.910000000000011 15.375000000000002 9.220500000000003 7.4033333333333342 7.0750000000000011 74.50500000000001
decision_type=2 2 2 2 2 2 2 2 2 2 2 2 2 2 2 2 2 2 2 2 2 2 2 2 2 2 2 2 2 2 2 2 2 2 2 2 2 2 2 2 2 2 2 2 2 2 2 2 2 2 2 2 2 2 2 2 2 2 2 2 2 2 2 2
left_child=1 6 3 13 7 8 11 27 -4 21 15 12 48 35 16 -6 -5 33 19 47 -21 25 -18 34 62 -8 56 28 -3 31 54 -24 57 -11 46 36 -2 -15 -30 -40 55 -36 43 -27 -34 -31 -14 -9 -1 -10 -44 -29 60 -50 63 -13 -17 -25 -23 -12 -35 -57 -19 -20
right_child=2 4 5 14 10 -7 9 18 49 17 59 40 23 37 -16 26 22 24 30 20 -22 58 29 32 -26 42 -28 51 38 45 -32 -33 44 52 41 -37 -38 -39 39 -41 -42 -43 50 -45 -46 -47 -48 -49 53 -51 -52 -53 -54 -55 -56 61 -58 -59 -60 -61 -62 -63 -64 -65
leaf_value=12.802780495185479 14.769026594879318 13.551761867169679 18.526010712197717 16.467762436477926 15.751521483639133 27.404806161288171 13.303435364830355 13.965355554548237 24.099042632296239 16.189756786093241 16.035791232307147 12.733188226403943 13.61644123296729 16.509524298795498 21.640553001244076 17.281415357726711 17.167706666332354 15.665280505664001 13.89297021888191 19.095012029955839 16.198134343315743 13.114596393123566 19.120197125822184 13.422700280533157 17.613336453346619 14.491416711433589 19.917411267044677 13.604988457065918 16.588929679025732 20.814136001012958 16.473123964571354 17.085858048934899 13.700393122334075 14.365291231633622 14.176810470543133 14.292585963056228 17.291187404982018 18.880272865269802 14.533144396483491 16.078356108737882 13.201361052665895 15.270856709970035 14.830762512959438 13.643832815373008 13.242919845638529 19.438273257141709 15.028482779746049 15.40779469398001 13.017768700586288 22.243544907017082 14.140024903805624 14.418828806466163 14.817609412946817 13.562451617797938 15.322016668512305 13.269963142115232 18.514006921997755 12.862978205041527 13.521074134314938 14.765526590138386 13.808281606894514 12.891640494659422 14.668361699851001 14.650472527937199
leaf_weight=651 17 59 15.999999999999998 21 17 27 146 21 15.000000000000002 14.999999999999998 17 885 179 22 18 19 26 15.999999999999998 22 27 21 220 71 61 15.999999999999998 52 27 150 18 25 23 19 584 59 64 43 14.999999999999998 14.999999999999998 89 21 327 45 69 191 181 35 14.999999999999998 33 199 14.999999999999998 189 38 32 79 30 89 20 172 128 15.999999999999998 116 372 26 70
leaf_count=651 17 59 16 21 17 27 146 21 15 15 17 885 179 22 18 19 26 16 22 27 21 220 71 61 16 52 27 150 18 25 23 19 584 59 64 43 15 15 89 21 327 45 69 191 181 35 15 33 199 15 189 38 32 79 30 89 20 172 128 16 116 372 26 70
internal_value=13.8798 13.5391 18.9187 17.8471 15.1194 23.719 13.3139 14.7027 21.5555 13.8774 17.3537 13.1298 13.3108 15.8164 18.905 18.1226 18.655 14.572 15.4946 16.2496 17.8276 13.6819 18.916 13.5945 15.7558 13.9067 18.7333 14.1811 14.5949 19.2191 14.9636 18.6907 13.4561 14.2627 14.0504 15.0003 15.9513 17.4706 15.0758 14.8281 12.8885 14.6285 14.0825 13.8252 13.5922 20.0115 13.7256 14.8468 12.9134 23.1713 14.3248 13.7695 14.1231 13.1726 14.679 12.8125 17.9135 13.0095 13.2641 15.4199 13.9961 12.9647 15.0481 14.4693
internal_weight=0 5916 400 327 738 73 5178 622 46 1275 116 3903 2230 112 215 83 197 280 247 102 48 995 176 1301 58 647 66 375 187 150 145 90 998 222 303 75 32 37 128 110 1673 109 501 243 765 60 194 54 929 30 258 188 207 278 122 1346 39 233 348 33 175 461 42 92
internal_count=6316 5916 400 327 738 73 5178 622 46 1275 116 3903 2230 112 215 83 197 280 247 102 48 995 176 1301 58 647 66 375 187 150 145 90 998 222 303 75 32 37 128 110 1673 109 501 243 765 60 194 54 929 30 258 188 207 278 122 1346 39 233 348 33 175 461 42 92
is_linear=0
shrinkage=1


Tree=1
num_leaves=65
num_cat=0
split_feature=18 2 18 2 2 16 20 21 16 26 30 25 23 23 22 9 16 1 25 1 13 17 28 27 29 30 6 24 30 24 23 28 23 13 14 23 15 22 23 2 29 23 31 24 20 24 4 30 15 23 22 28 30 30 19 22 26 22 17 10 2 11 9 24
split_gain=742142 144732 140830 49311.3 48080.1 39841.6 34548.6 19836.7 15411.4 11804.6 11680.6 16920.6 11197.2 10962.5 10348.9 8548.86 7494.21 8144.67 7435.57 10096.5 13821.9 6196.08 5990.35 5923.81 5850.92 5725.12 5263.66 4345.02 3991.5 7605.3 3809.66 3739.41 3621.36 3563.99 3492.73 3453.07 3430.99 3342.06 3107.91 2687.62 2436.38 2174.74 2046.42 2043.94 1846.49 1829.35 1767.33 1764.66 1729.9 1655.19 1641.93 1596.98 1431.94 1394.8 1269.25 1204.74 1178.94 1244.74 1147.8 1108.16 1062 801.614 795.588 1261.21
threshold=57.160000000000004 9.9700000000000024 94.020000000000024 26.035000000000004 15.425000000000002 66.52000000000001 33.645000000000003 50.165000000000006 49.75500000000001 11.685 7.4665000000000008 1.2450000000000003 204.78500000000003 309.25000000000006 143.23000000000005 3.8650000000000007 26.235000000000003 1.0050000000000001 11.581000000000001 2.6950000000000007 2.7750000000000004 30.855000000000004 3.467166666666667 14.118000000000002 10.33075 -1.1576666666666664 19.295000000000005 -1.0599999999999998 7.4665000000000008 0.93833333333333335 129.96000000000004 -1.4581666666666664 63.125000000000007 5.1850000000000014 14.275 169.74500000000003 14.085000000000003 37.815000000000005 238.75000000000003 21.610000000000003 4.3777500000000016 149.59500000000003 121.95000000000002 -0.35333333333333322 16.775000000000002 -0.85999999999999976 18.395000000000003 -1.2556666666666663 10.595000000000001 202.34500000000003 62.210000000000008 7.3051666666666675 7.8671666666666669 0.9813333333333335 32.725000000000009 103.14500000000002 7.9350000000000014 52.920000000000009 15.440000000000003 11.095000000000001 31.445000000000004 6.0650000000000004 1.4450000000000001 5.5183333333333344
decision_type=2 2 2 2 2 2 2 2 2 2 2 2 2 2 2 2 2 2 2 2 2 2 2 2 2 2 2 2 2 2 2 2 2 2 2 2 2 2 2 2 2 2 2 2 2 2 2 2 2 2 2 2 2 2 2 2 2 2 2 2 2 2 2 2
left_child=1 6 4 7 14 8 10 28 -4 15 11 37 24 16 33 -5 -6 -18 19 43 -21 52 -17 34 27 30 59 -8 29 -3 44 -31 53 -2 -19 56 -16 -1 -22 -33 -34 47 -32 -9 -13 -39 -10 -29 -24 -20 -30 -43 62 -27 -52 -35 57 -12 -47 -23 -11 -37 -14 -64
right_child=2 3 5 9 13 -7 12 18 46 60 35 25 21 -15 36 22 17 23 49 20 38 26 48 -25 -26 32 -28 41 50 31 42 39 40 55 -36 61 -38 45 -40 -41 -42 51 -44 -45 -46 58 -48 -49 -50 -51 54 -53 -54 -55 -56 -57 -58 -59 -60 -61 -62 -63 63 -65
leaf_value=-0.99950745086300552 2.2759030042813331 -0.44162490201053078 4.1451711788916041 1.6287903382116269 1.9541256053029632 12.066486904790496 -0.51973498647387384 0.035850768811535774 9.1172135220082833 0.81556845768879649 -0.93522898117924225 -0.17600554103504504 0.060003585370309358 7.2950465338906865 2.3461404763997034 6.2350689330010987 2.2110140981537003 4.7515066079899055 0.35563241331230883 4.4976048949116549 1.3943720020001389 1.4711983463580123 3.1913678097546936 3.0383437951145726 -0.54287728889586928 -0.35013503103449539 3.206773834529181 0.58254502902080907 -0.42172759347123323 2.292432495815441 0.63199725356510505 0.53001771666252218 -0.070507263302725345 -0.05514613533050116 6.440013886646998 -0.14227523622815527 4.4612300917892647 -0.78711481164722463 3.0801519879306438 1.8088849848748214 -0.45814753493380594 0.79621258205498502 2.17466570787838 1.2569119973404868 0.57754165506697275 -0.47741084898981384 7.4618107966955565 -0.11720782200112087 4.4496664927219394 1.4159078896438184 -0.09786287427030918 0.10543105041407415 0.11656312437691728 -0.9268722335783649 0.70717262985911511 0.96900644981841233 -1.0220563729213199 -0.54870161658548078 0.21858686836992297 0.4085839751828913 2.0441725667164565 -0.64140864887251858 1.618793639738533 0.5132413507863719
leaf_weight=558 19 64 15.999999999999998 17 14.999999999999998 27 123 25 15.000000000000002 18 292 132 14.999999999999998 14.999999999999998 22 14.999999999999998 17 130 67 29 62 25 27 22 305 74 17 52 101 21 30 113 453 22 15.999999999999998 42 14.999999999999998 288 15.999999999999998 23 323 97 14.999999999999998 44 53 167 14.999999999999998 216 24 23 62 65 116 143 36 34 921 145 33 21 14.999999999999998 343 20 30
leaf_count=558 19 64 16 17 15 27 123 25 15 18 292 132 15 15 22 15 17 130 67 29 62 25 27 22 305 74 17 52 101 21 30 113 453 22 16 42 15 288 16 23 323 97 15 44 53 167 15 216 24 23 62 65 116 143 36 34 921 145 33 21 15 343 20 30
internal_value=0 -0.303958 4.49554 1.04295 3.53949 8.77813 -0.515186 0.695229 6.848 3.09929 -0.662085 -0.500813 0.0196243 4.48328 1.72776 3.78523 4.27239 4.46036 1.4239 1.83162 2.48751 0.664221 4.34068 4.68797 -0.163688 -0.228469 1.58532 0.0454497 0.233737 0.549201 0.256334 0.953105 -0.340759 0.999669 4.93655 -0.872026 3.20361 -0.819243 1.74017 0.746297 -0.231858 0.207119 1.14622 0.814499 0.0398755 -0.613122 8.28951 0.0185651 3.78351 0.626592 -0.116602 0.519047 0.343616 -0.730197 0.197864 0.566661 -0.952844 -0.806976 -0.362571 0.986092 1.37402 -0.586958 0.748818 0.955462
internal_weight=0 5916 400 802 327 73 5114 686 46 116 4012 2269 1102 215 112 83 200 185 266 176 107 244 66 168 858 1223 63 553 420 221 230 157 993 75 146 1743 37 1046 78 136 776 430 45 69 185 488 30 268 51 90 199 162 181 217 98 56 1358 437 200 46 33 385 65 50
internal_count=6316 5916 400 802 327 73 5114 686 46 116 4012 2269 1102 215 112 83 200 185 266 176 107 244 66 168 858 1223 63 553 420 221 230 157 993 75 146 1743 37 1046 78 136 776 430 45 69 185 488 30 268 51 90 199 162 181 217 98 56 1358 437 200 46 33 385 65 50
is_linear=0
shrinkage=0.107839


Tree=2
num_leaves=65
num_cat=0
split_feature=2 20 18 18 16 20 23 16 2 8 16 1 9 4 23 28 30 9 24 29 30 24 8 18 22 21 18 28 2 5 27 27 22 8 14 21 22 23 22 18 23 7 2 9 1 17 18 19 26 23 18 22 6 23 15 23 23 23 28 3 30 23 28 2
split_gain=592544 147417 102355 40327.8 36264.9 29898.1 22628.9 21727 14144.5 10645 9719.01 8500.27 8763.42 7985.64 7633.55 7011.65 6932.4 11879.3 6416.69 5743.87 5455.21 8263.54 5183.99 5166.86 4498.33 4243.71 3797.62 3767.52 3720.05 4715.35 3677.26 3408.48 3374.58 3339.79 3308.46 3362.76 3250.91 3074.13 2984.94 2838.19 2697.9 2677.1 2458.76 2275.37 2115.58 2045.52 1863.33 1844.93 1817.7 1741.6 1703.84 1406.61 1406.49 1277.38 1198.99 1177.98 1117.43 1075.58 925.642 891.397 885.515 770.981 718.615 713.969
threshold=25.315000000000001 56.405000000000008 94.020000000000024 16.485000000000003 25.125000000000004 90.570000000000007 172.40000000000001 66.52000000000001 10.135000000000003 19.690000000000001 52.560000000000009 8.6350000000000033 1.6250000000000002 15.915000000000001 227.28500000000003 10.610500000000002 7.948500000000001 4.0250000000000012 0.57000000000000017 4.3777500000000016 5.4620000000000006 1.1083333333333336 8.8650000000000002 103.92500000000003 37.395000000000003 75.410000000000011 54.50500000000001 -0.30266666666666658 4.785000000000001 19.185000000000006 3.2803333333333335 3.2803333333333335 157.72500000000002 1.4350000000000003 5.0650000000000004 61.805000000000014 71.935000000000016 89.555000000000021 76.485000000000014 68.240000000000009 124.69000000000001 3.2150000000000003 9.2950000000000017 7.4450000000000012 5.245000000000001 0.39500000000000007 33.660000000000004 41.070000000000007 -1.7342857142857142 142.37000000000003 57.160000000000004 93.910000000000011 0.085000000000000006 138.44000000000003 15.615 116.27500000000002 146.69000000000003 145.61000000000004 9.9008333333333347 22.315000000000001 -0.85349999999999993 151.905 6.9210000000000003 8.6900000000000013
decision_type=2 2 2 2 2 2 2 2 2 2 2 2 2 2 2 2 2 2 2 2 2 2 2 2 2 2 2 2 2 2 2 2 2 2 2 2 2 2 2 2 2 2 2 2 2 2 2 2 2 2 2 2 2 2 2 2 2 2 2 2 2 2 2 2
left_child=1 3 6 16 14 9 13 23 15 11 25 12 -6 26 42 18 17 24 56 37 21 53 39 -4 -1 34 52 41 59 -30 -14 44 -12 -27 -8 -36 -18 -19 -22 -7 -29 -23 54 -35 -20 -39 -40 -48 -26 -33 61 -17 -2 -10 60 -21 -5 -50 -38 -16 -3 -44 -57 -13
right_child=2 4 7 8 5 22 10 -9 20 -11 32 63 30 -15 28 51 36 19 31 55 38 27 -24 -25 48 33 -28 40 29 -31 -32 49 -34 43 35 -37 58 45 46 -41 -42 -43 50 -45 -46 -47 47 -49 57 -51 -52 -53 -54 -55 -56 62 -58 -59 -60 -61 -62 -63 -64 -65
leaf_value=-0.8769455120603159 0.33820802218549478 1.0925917849863338 7.8542920942892893 -0.5467095302655407 0.032874484922357797 4.8112348927785398 4.367489061598576 10.765250380425645 -0.36671541836268284 3.5789419667443245 5.0383326768007386 -0.13025241894176817 3.571784455841414 4.4326227023420337 0.44553631412819794 -0.6295899623974951 -0.88985177336106647 -0.15369229548811766 0.39992504174138688 -0.67698185175288328 -0.14898309225705941 1.4019280084017989 5.8489496913963315 5.282002172600734 -0.71027174284747752 5.4381023088705538 2.7904155775261406 0.5156370025240119 1.1368047927997471 3.0674333431701117 1.8629226914774493 -0.16876654424286638 7.0427809940631869 2.9718966548828152 1.4402660734703485 3.5279900906306771 -0.17151335160034681 -0.018166473560192235 0.22203277128082108 3.063062250094347 1.582452300086951 3.4072461067479751 -0.11574927158917665 4.58293164162595 1.2952947910252868 0.7050538665558449 1.7840082496024581 0.50026340809732006 -0.4481709401277626 0.28366369303794015 1.5932335912609845 -0.19329587118460298 1.5735830277201417 0.72107860291688952 -0.41199942400657763 0.11313661333269245 -0.0048266887250551687 -0.04983454617409553 -0.60714697786436844 1.4530232361596847 0.21787296256139382 0.8044579108662725 -0.40612303070696465 0.64798266976898833
leaf_weight=700 17 14.999999999999998 21 211 20 18 17 27 48 28 28 29 27 14.999999999999998 32 340 1119 238 144 179 143 15.000000000000002 20 15.999999999999998 242 24 24 51 31 28 32 226 14.999999999999998 19 17 19 68 74 75 27 60 15.999999999999998 14.999999999999998 22 39 118 23 30 272 176 27 115 29 17 33 41 56 111 342 14.999999999999998 131 36 127 26
leaf_count=700 17 15 21 211 20 18 17 27 48 28 28 29 27 15 32 340 1119 238 144 179 143 15 20 16 242 24 24 51 31 28 32 226 15 19 17 19 68 74 75 27 60 16 15 22 39 118 23 30 272 176 27 115 29 17 33 41 56 111 342 15 131 36 127 26
internal_value=0 -0.237303 4.59755 -0.413639 1.38141 2.45054 3.59807 8.43928 0.0060544 1.6666 4.34959 1.26701 1.98366 2.17462 0.71283 -0.177526 -0.619961 -0.492877 0.00500384 -0.158102 0.50802 0.924857 4.40437 6.74195 -0.689194 3.8438 1.69076 1.38584 1.48285 2.05304 2.64494 0.204939 5.73756 4.42777 3.12762 2.54212 -0.794671 0.105287 0.189623 3.76233 1.09229 2.43693 0.395237 3.83635 0.590742 0.426313 0.567911 1.05736 -0.478912 0.0293124 0.900533 -0.519318 1.11703 -0.0822154 0.175052 -0.484492 -0.433056 -0.332726 -0.534896 0.767075 0.307741 0.533809 -0.279399 0.237641
internal_weight=0 6006 310 5416 590 227 246 64 1785 162 161 134 79 85 363 1307 3631 2102 852 777 478 207 65 37 1325 118 70 142 106 59 59 585 43 65 53 36 1529 430 271 45 111 31 257 41 183 192 128 53 625 402 78 455 46 65 179 347 267 383 410 47 146 51 168 55
internal_count=6316 6006 310 5416 590 227 246 64 1785 162 161 134 79 85 363 1307 3631 2102 852 777 478 207 65 37 1325 118 70 142 106 59 59 585 43 65 53 36 1529 430 271 45 111 31 257 41 183 192 128 53 625 402 78 455 46 65 179 347 267 383 410 47 146 51 168 55
is_linear=0
shrinkage=0.107839


Tree=3
num_leaves=65
num_cat=0
split_feature=18 2 18 21 2 16 2 16 23 21 21 26 22 8 1 29 24 16 31 19 27 23 29 17 14 1 1 29 14 30 24 25 30 7 0 30 23 27 18 29 9 28 30 14 24 5 9 1 30 17 23 23 4 15 9 4 4 9 22 23 23 2 1 29
split_gain=472492 92906.7 89141.2 31782.4 31124.7 25101.2 23596.4 10524.1 9816.94 8849.66 8453.32 8119.14 7544.95 7272.61 6539.53 6212.9 9458.39 5957.39 5527.49 5082.22 5025.27 5121.95 4783.64 4690.63 4235.89 8282.53 3909.05 3720.47 3310.02 3183.61 7797.66 2871.82 2745.05 2634.91 2475.71 2475.08 2465.9 2287.66 2243.1 2240.99 4849.42 3054.79 2204.66 2647.56 2072.82 1744.63 1685.59 1609.09 1600.93 1582.14 1523.16 1505.47 1383.51 1294.75 1293.43 1223.29 1203.93 1181.52 1076.52 1041.81 1002.76 933.769 929.491 800.14
threshold=57.160000000000004 13.075000000000001 94.020000000000024 39.760000000000005 15.425000000000002 66.52000000000001 26.035000000000004 49.75500000000001 233.42500000000004 50.165000000000006 16.485000000000003 11.685 177.47500000000002 22.765000000000004 1.5250000000000001 7.3291666666666675 0.65333333333333343 40.985000000000007 121.19000000000001 82.65000000000002 10.217666666666668 151.905 4.0893333333333342 30.855000000000004 7.495000000000001 2.7950000000000004 5.6450000000000005 3.075166666666667 12.455000000000002 5.8063333333333338 4.1550000000000002 12.266000000000002 -0.17899999999999996 3.3450000000000002 25.635000000000002 3.2693333333333334 187.56000000000003 3.542333333333334 58.835000000000001 5.7205000000000004 4.1450000000000005 3.9335000000000004 -1.0939999999999999 -4.379999999999999 -0.74666666666666648 20.270000000000003 -0.44499999999999995 7.1750000000000007 -1.5964999999999998 17.625000000000004 200.68500000000003 97.00500000000001 18.395000000000003 10.175000000000002 1.9500000000000002 0.42500000000000004 10.625000000000002 1.1950000000000001 67.875000000000014 115.65500000000002 60.225000000000009 7.0100000000000007 9.2950000000000017 6.1145000000000005
decision_type=2 2 2 2 2 2 2 2 2 2 2 2 2 2 2 2 2 2 2 2 2 2 2 2 2 2 2 2 2 2 2 2 2 2 2 2 2 2 2 2 2 2 2 2 2 2 2 2 2 2 2 2 2 2 2 2 2 2 2 2 2 2 2 2
left_child=1 3 4 10 13 7 9 -4 20 39 29 14 17 19 -8 16 59 18 -6 53 21 44 -19 35 25 -11 -24 -16 38 30 60 -28 51 -25 46 -10 -26 -27 -20 40 57 -42 47 -44 -5 -21 -23 -18 -46 -22 -17 -32 -9 54 -2 -29 -38 -3 -41 -12 -1 -37 -51 -34
right_child=2 6 5 8 12 -7 11 52 23 24 15 -13 -14 -15 27 50 42 22 28 45 49 34 26 33 36 37 31 55 -30 -31 32 -33 63 -35 -36 61 56 -39 -40 58 41 -43 43 -45 48 -47 -48 -49 -50 62 -52 -53 -54 -55 -56 -57 -58 -59 -60 -61 -62 -63 -64 -65
leaf_value=-0.88516556147018932 0.24741546445025683 -0.29720131767599756 3.2286882400334016 -0.48676619902433621 0.94524180975921002 9.6043376742675779 1.1546439854024171 7.385754473623579 1.8552307237912562 0.74566028703799492 -0.69307790669308733 1.041018135620531 5.699158334874534 3.4972859882113516 4.9578065532869697 -0.62864408744717293 0.33035279209463536 5.4962526762542723 4.6734962198229217 3.0001265836636728 -0.48237671452546654 -0.031722373566675122 2.4491062905001399 0.85456064264174403 0.49220743446651799 3.9461260213994533 4.6226440273321154 2.3573001562961817 1.7454773943954562 -0.78825381653449211 0.0014326549051344394 3.277081335143031 -0.26150455698661318 2.6411424464065432 1.9138989287012298 0.21802916053501406 1.1100826543357722 2.1960021513372214 3.0753061759392368 -0.2509899929543849 2.8523137289872742 0.90569669070404579 1.2785019500309935 -0.052694332317370383 0.70442088542489634 1.3553890729883631 0.6452830967295955 1.3936232134702777 -0.028589934413111015 0.39545137952954856 -0.21781210032643739 0.77931284266642287 5.9210964100607306 0.021585582756291043 1.6213046736038532 3.4685563287106902 2.3321363462004303 0.60221067155303731 0.34509191271844153 -0.34127867121763894 -0.63493220619609092 1.1195555900220462 -0.17811428226729867 -0.73066878112429079
leaf_weight=312 14.999999999999998 35 15.999999999999998 99 17 27 17 15.000000000000002 14.999999999999998 32 275 33 18 15.999999999999998 15.999999999999998 715 96 18 14.999999999999998 15.000000000000002 221 56 26 15.999999999999998 65 19 39 18 14.999999999999998 1105 93 35 226 24 14.999999999999998 81 25 15.999999999999998 32 72 14.999999999999998 25 18 500 42 14.999999999999998 181 20 198 40 123 42 14.999999999999998 34 17 32 14.999999999999998 33 69 152 462 15.999999999999998 184 52
leaf_count=312 15 35 16 99 17 27 17 15 15 32 275 33 18 16 16 715 96 18 15 15 221 56 26 16 65 19 39 18 15 1105 93 35 226 24 15 81 25 16 32 72 15 25 18 500 42 15 181 20 198 40 123 42 15 34 17 32 15 33 69 152 462 16 184 52
internal_value=0 -0.242531 3.58704 -0.377558 2.82641 6.99423 1.11 5.46221 0.114785 0.734773 -0.51712 2.47183 3.58576 1.36872 3.04071 -0.348863 -0.175512 3.39266 2.66789 1.01396 -0.00395457 0.202138 3.87788 0.924093 1.32966 1.99961 3.58658 3.52652 3.14023 -0.656528 -0.533901 3.98623 -0.155522 1.92651 0.57035 0.566087 0.902168 3.14607 3.58537 0.323848 0.6935 1.63568 0.0887259 -0.00643655 -0.0715781 2.17776 0.485316 0.513675 0.099687 -0.277663 -0.568343 0.24344 6.65343 0.484959 0.977294 3.0685 1.56835 0.139278 0.0407097 -0.567847 -0.735801 0.366735 -0.0756918 -0.349262
internal_weight=0 5916 400 5379 327 73 537 46 1188 421 4191 116 215 112 83 1899 1061 197 79 96 1036 591 118 152 172 67 100 66 62 2292 1187 74 413 40 252 112 105 35 47 249 108 40 634 518 339 30 237 116 240 445 838 135 30 66 32 50 40 68 141 427 774 97 224 278
internal_count=6316 5916 400 5379 327 73 537 46 1188 421 4191 116 215 112 83 1899 1061 197 79 96 1036 591 118 152 172 67 100 66 62 2292 1187 74 413 40 252 112 105 35 47 249 108 40 634 518 339 30 237 116 240 445 838 135 30 66 32 50 40 68 141 427 774 97 224 278
is_linear=0
shrinkage=0.107839


Tree=4
num_leaves=65
num_cat=0
split_feature=2 17 18 20 19 23 16 16 22 2 16 4 23 14 1 22 8 29 24 30 23 2 28 5 24 30 22 13 1 21 22 31 18 14 14 8 29 1 28 22 22 22 12 29 23 1 6 30 22 9 1 24 29 2 5 6 27 24 23 22 9 23 4 0
split_gain=377476 94406 65334.4 35545.9 21402.7 15520 13839.4 10536.7 9507.17 8864.01 6834.88 5445.52 4819.9 4738.67 4529.38 4228.09 4140.16 4114.2 6273.46 4643.71 4107.1 3884.02 3705.58 3638.04 3307.06 3229.83 2913.97 2893.31 7020.27 2754.74 2702.73 2661.7 2588.87 2426.17 5791.05 2363.7 1954.55 1921.39 3555.84 1915.4 1793.14 1764.78 1568.26 1566.32 1553.76 1547.86 1542.08 1506.01 1414.03 1286.26 1210.95 2151.54 2091.38 1171.87 1065.93 953.069 911.608 813.339 793.499 636.003 604.26 604.187 596.803 573.922
threshold=25.315000000000001 28.445000000000004 94.020000000000024 83.015000000000015 17.820000000000004 172.40000000000001 70.935000000000016 25.920000000000005 104.15500000000002 8.9550000000000018 52.560000000000009 15.915000000000001 183.46000000000004 0.87500000000000011 11.645000000000001 95.490000000000023 23.615000000000006 9.9465000000000021 2.6583333333333337 -0.25399999999999995 244.08500000000004 13.075000000000001 9.6385000000000023 2.6350000000000002 -0.85999999999999976 5.2441666666666675 138.56000000000003 5.9350000000000014 2.7950000000000004 61.805000000000014 157.72500000000002 154.13500000000002 54.50500000000001 2.9050000000000007 2.0550000000000002 8.8650000000000002 2.7797500000000004 -1.3549999999999998 8.2721666666666689 39.435000000000009 29.470000000000002 65.085000000000022 12.925000000000002 5.7205000000000004 171.32000000000002 8.0250000000000004 2.5150000000000001 -2.2073333333333331 49.295000000000009 7.3250000000000011 10.455000000000002 1.7350000000000003 3.199333333333334 8.9550000000000018 20.270000000000003 0.085000000000000006 10.458666666666668 -0.24833333333333332 100.61000000000001 74.50500000000001 13.200000000000001 270.99000000000007 5.3050000000000006 14.315000000000003
decision_type=2 2 2 2 2 2 2 2 2 2 2 2 2 2 2 2 2 2 2 2 2 2 2 2 2 2 2 2 2 2 2 2 2 2 2 2 2 2 2 2 2 2 2 2 2 2 2 2 2 2 2 2 2 2 2 2 2 2 2 2 2 2 2 2
left_child=1 4 5 8 17 11 23 46 21 15 25 32 37 -14 16 22 33 18 39 41 45 50 24 -4 -6 26 -7 28 -23 -27 -12 -18 55 34 -10 -22 -26 -11 48 -1 -21 49 -31 -42 -19 -9 -5 -17 -39 -20 51 -3 -53 -35 60 -2 57 -49 -41 -29 -15 -58 -40 -16
right_child=2 3 6 7 9 10 -8 20 14 12 30 -13 13 54 63 47 31 44 19 40 35 27 -24 -25 36 29 -28 59 -30 42 -32 -33 -34 53 -36 -37 -38 38 62 58 43 -43 -44 -45 -46 -47 -48 56 -50 -51 -52 52 -54 -55 -56 -57 61 -59 -60 -61 -62 -63 -64 -65
leaf_value=-0.72086262148321578 0.17778520317530175 -0.31510400718518267 4.2509379830663327 2.1321928248244575 -0.54376542562551111 4.8997647897394661 8.786092863988209 3.1594983578559779 1.0009098524878077 -0.53277214453931965 4.0315684651778545 3.5567763770685774 2.6857116723084355 0.70826490592044544 0.67403652283633309 1.1317791289603829 1.464510740212188 -0.76293424018908851 -0.08486126712286024 -0.60537639688274181 3.2239359006263117 0.27190899023799814 -0.55861538292683022 6.3502337236061095 0.20872163461406454 1.7666218757708687 2.8646288169507983 0.10958185942176256 2.7947572018768723 2.7094060988868711 5.8254208151893616 3.3761172874940395 2.2005365700869493 0.41485502650202183 3.5563884936960415 4.9169795683485029 -0.20136593526841018 0.024424911152080446 -0.37048773240141697 -0.61370868364223552 -0.077982232016377925 1.0543547377059523 3.8653001150474413 -0.43242190697998195 -0.46521012965533737 1.7514284253966059 0.75913815474168178 -0.14934100363869127 0.80393993066016212 0.53658010660705802 -0.25609531680159014 1.2781700102823901 0.20648998775001245 1.1524854577214589 1.5228724040167942 1.1947199358391334 -0.17693875451283375 0.34793283378730855 -0.31839504433645582 0.68062759317535904 0.050425358927203172 0.39127952872149324 0.13343857211413582 -0.066213235075544288
leaf_weight=695 17 55 15.999999999999998 14.999999999999998 187 18 24 23 33 42 28 14.999999999999998 15.999999999999998 62 21 15.999999999999998 15.999999999999998 832 137 243 17 29 405 24 244 25 14.999999999999998 48 23 39 14.999999999999998 18 24 40 14.999999999999998 22 303 36 75 174 288 25 21 292 270 14.999999999999998 26 51 109 54 97 30 72 67 14.999999999999998 29 168 153 270 43 22 25 43 29
leaf_count=695 17 55 16 15 187 18 24 23 33 42 28 15 16 62 21 16 16 832 137 243 17 29 405 24 244 25 15 48 23 39 15 18 24 40 15 22 303 36 75 174 288 25 21 292 270 15 26 51 109 54 97 30 72 67 15 29 168 153 270 43 22 25 43 29
internal_value=0 -0.189403 3.66953 0.938987 -0.3514 2.87101 6.73886 2.65797 0.620056 -0.0706426 3.49338 1.69216 0.368857 0.963794 1.15742 -0.189579 1.39888 -0.520196 -0.434286 -0.242661 3.40156 0.296554 -0.29676 5.51052 -0.152275 3.06923 3.9747 0.746096 1.38778 2.71769 4.65733 2.47654 1.2926 1.16249 1.7995 4.17899 -0.0184384 0.144536 0.2527 -0.609088 -0.359456 0.202353 3.11397 -0.256424 -0.689989 2.60368 1.26148 0.10601 0.610405 0.0908342 0.0434662 0.228546 0.52169 0.876736 0.685504 0.818896 0.064669 0.223614 -0.434126 0.379417 0.535974 -0.103335 -0.186854 0.244692
internal_weight=0 6006 310 754 5252 246 64 118 636 1972 161 85 420 115 239 1552 189 3280 2178 1039 77 397 1139 40 734 118 33 143 52 85 43 34 70 155 48 39 547 305 263 1139 823 216 60 580 1102 38 41 413 145 191 254 157 102 107 99 46 397 204 444 91 84 193 118 50
internal_count=6316 6006 310 754 5252 246 64 118 636 1972 161 85 420 115 239 1552 189 3280 2178 1039 77 397 1139 40 734 118 33 143 52 85 43 34 70 155 48 39 547 305 263 1139 823 216 60 580 1102 38 41 413 145 191 254 157 102 107 99 46 397 204 444 91 84 193 118 50
is_linear=0
shrinkage=0.107839


Tree=5
num_leaves=65
num_cat=0
split_feature=2 20 18 2 16 20 23 16 21 8 18 20 1 29 1 9 28 23 2 4 23 5 8 1 27 20 13 21 30 9 5 16 16 28 18 18 25 18 2 22 30 30 30 29 22 28 23 12 22 31 9 21 23 23 6 22 16 23 29 27 18 15 23 16
split_gain=300452 76286.6 52003 21606.6 18765.9 16734.3 12353.2 11015.5 7131.84 6065.43 5838.03 7022.67 5272.89 8784.5 5143.37 5058.74 4703.03 4447.04 4403.91 4334.37 3515.76 2895.7 2637.74 2612.15 2809.14 2560.33 2442.94 3642.75 2220.81 5627.9 2202.43 2830.46 2169.64 2147.23 1945.52 1899.14 1674.49 1627.68 1397.04 1439.21 1339.35 1241.64 1232.93 1211.32 1209.65 1164.71 1171.71 1115.22 1043.6 1032.83 973.307 915.713 833.616 810.791 792.12 783.909 772.396 762.831 749.745 724.806 592.169 581.217 517.299 478.381
threshold=25.315000000000001 55.465000000000011 94.020000000000024 5.8850000000000007 25.125000000000004 90.570000000000007 172.40000000000001 70.935000000000016 19.435000000000002 22.765000000000004 71.575000000000017 78.995000000000019 -0.5149999999999999 6.8019166666666679 8.6350000000000033 1.6250000000000002 10.610500000000002 227.28500000000003 19.425000000000004 15.915000000000001 142.37000000000003 2.6350000000000002 8.8650000000000002 1.9500000000000002 2.7976666666666672 36.250000000000007 3.6450000000000005 59.495000000000012 5.0745000000000013 4.0250000000000012 17.750000000000004 10.895000000000001 46.64500000000001 -0.2268333333333333 30.455000000000005 68.240000000000009 -2.4749999999999996 26.405000000000005 0.14500000000000005 103.14500000000002 -1.9968333333333332 -0.31216666666666665 12.028166666666669 5.6190000000000007 77.885000000000005 6.8088333333333342 200.68500000000003 3.5250000000000004 29.725000000000001 157.47500000000002 1.6250000000000002 49.07 132.40000000000001 144.85000000000002 6.3150000000000004 80.315000000000012 19.805000000000003 58.250000000000007 9.3967500000000026 -1.7436666666666663 38.695000000000007 13.705000000000002 146.69000000000003 39.890000000000008
decision_type=2 2 2 2 2 2 2 2 2 2 2 2 2 2 2 2 2 2 2 2 2 2 2 2 2 2 2 2 2 2 2 2 2 2 2 2 2 2 2 2 2 2 2 2 2 2 2 2 2 2 2 2 2 2 2 2 2 2 2 2 2 2 2 2
left_child=1 3 6 8 17 9 19 21 28 14 26 -12 50 18 15 -6 20 38 23 32 36 -4 35 51 -25 55 -8 -28 29 57 -19 -32 47 -17 -20 -7 -10 40 -3 -40 -22 -38 -13 48 -18 -27 -47 -2 -31 61 62 -14 -30 -49 -33 -15 -41 -1 -39 -59 -46 -29 -5 -16
right_child=2 4 7 12 5 22 10 -9 16 -11 11 42 13 25 63 33 44 30 34 -21 37 -23 -24 24 -26 45 27 49 52 43 31 54 -34 -35 -36 -37 41 58 39 56 -42 -43 -44 -45 60 46 -48 53 -50 -51 -52 -53 -54 -55 -56 -57 -58 59 -60 -61 -62 -63 -64 -65
leaf_value=-0.72620625862956689 1.5843307882520627 -0.16363908020947215 3.7925214603681208 -0.53582994920453331 -0.080172205688447795 3.6077442292514568 3.5250800389672636 7.8386102085158589 -0.61825911807150324 2.7521484881218314 5.4962575472816901 2.3093736457541083 0.034190601080375124 -0.34294069759069706 0.35741856816482437 2.8450041027620014 -0.60412211650123937 0.62525903739725475 2.6741291790488697 3.1732173870925107 1.0021562922882128 5.6654316251522543 4.2381564618163852 1.3749284314955375 0.50645740392288852 1.1916705535485077 0.80851914570084937 1.8633486579712617 -0.69683892959627691 -0.24940882171405609 0.62911145397108537 2.8136002512911502 2.1736448936667143 1.4865010316900029 1.0173464565627934 2.1777239434413285 0.077897745278240907 0.63594265096168512 0.042599454159576063 0.4759135741942756 -0.040170075922106294 -0.26969173468668189 3.5772860976115917 -0.56496117699882686 -0.35781298484754032 0.049641524726388012 0.71416218316932056 0.041365705264026352 0.11800584808991547 3.2352776592716217 0.21177129020826368 0.89028861915432067 -0.51237118002484427 1.0603352866896441 1.722797531372817 0.046294133699212967 1.0823376441155956 -0.65725870202056547 -0.084463603988650549 -0.39413504695134127 0.22250419841436203 2.7209907615578559 -0.0035737033178738949 -0.28325313532554791
leaf_weight=303 14.999999999999998 65 15.999999999999998 141 20 18 26 24 126 24 22 14.999999999999998 100 206 33 19 376 57 17 14.999999999999998 14.999999999999998 24 20 66 126 14.999999999999998 14.999999999999998 17 762 154 21 15.000000000000002 18 47 15.999999999999998 27 155 84 77 94 324 522 22 58 290 135 40 21 216 24 30 17 455 15.999999999999998 15.999999999999998 85 33 216 21 279 22 20 25 23
leaf_count=303 15 65 16 141 20 18 26 24 126 24 22 15 100 206 33 19 376 57 17 15 15 24 20 66 126 15 15 17 762 154 21 15 18 47 16 27 155 84 77 94 324 522 22 58 290 135 40 21 216 24 30 17 455 16 16 85 33 216 21 279 22 20 25 23
internal_value=0 -0.168978 3.27381 -0.298082 0.97515 1.74091 2.5614 6.01215 -0.40218 1.16656 3.11666 3.97048 0.149161 0.268874 0.898572 1.42229 -0.247526 0.507187 0.686698 1.50968 -0.122649 4.91627 3.20771 0.560236 0.804994 -0.0282071 2.62278 2.31409 -0.524674 -0.422235 1.08826 1.59577 1.15321 1.87759 1.87084 2.74973 -0.257292 0.120862 0.271735 0.410457 0.00595056 -0.190111 3.06327 -0.106746 -0.473867 0.279701 0.201532 0.799981 -0.0349181 2.68432 -0.353511 0.158581 -0.627872 0.482001 2.25061 -0.229247 0.633488 -0.591444 0.491861 -0.508953 -0.316893 2.32694 -0.455671 0.0942855
internal_weight=0 6006 310 5397 609 231 246 64 4378 166 161 59 1019 823 142 86 1935 378 342 85 1247 40 65 309 192 481 102 76 2443 1226 109 52 70 66 33 45 803 444 269 204 339 677 37 428 688 190 175 52 370 61 196 117 1217 37 31 291 127 798 105 495 312 37 166 56
internal_count=6316 6006 310 5397 609 231 246 64 4378 166 161 59 1019 823 142 86 1935 378 342 85 1247 40 65 309 192 481 102 76 2443 1226 109 52 70 66 33 45 803 444 269 204 339 677 37 428 688 190 175 52 370 61 196 117 1217 37 31 291 127 798 105 495 312 37 166 56
is_linear=0
shrinkage=0.107839


Tree=6
num_leaves=65
num_cat=0
split_feature=18 2 2 19 19 2 26 1 22 13 21 23 1 19 16 23 29 24 9 12 18 27 24 6 2 23 28 2 29 19 1 24 29 11 21 29 24 2 20 0 19 6 22 1 30 18 25 7 23 23 22 22 2 24 1 23 2 1 1 24 22 2 22 4
split_gain=240332 48957 45672 19641.4 18919.8 9891.24 9529.68 10401.8 8649.27 6065.29 5942.16 5632.14 5291.23 5231.94 4414.97 4690.72 4011.74 5695.61 3689.81 3644.54 3620.24 3489.25 6005.15 2692.27 2611.93 2528.79 2449.03 2445.98 2415.07 2393.98 2379.98 2193.03 2296.05 1899.95 1767.69 1659.85 4723.87 1554.5 1550.48 1462.1 1413.28 1390.38 1338.02 1279.15 1170.38 1027.06 1011.39 1008.8 980.081 896.029 858.582 835.114 781.566 768.474 763.928 740.596 722.366 652.574 649.706 642.331 597.457 545.192 539.832 470.769
threshold=57.160000000000004 16.145000000000003 31.445000000000004 32.580000000000005 113.93000000000001 4.5750000000000011 11.780714285714287 1.3450000000000004 111.96000000000002 5.0750000000000011 16.220000000000002 191.54500000000004 0.56500000000000006 52.365000000000002 43.315000000000005 244.08500000000004 8.104750000000001 0.57000000000000017 4.2550000000000008 12.795000000000002 71.575000000000017 4.4643333333333342 2.2850000000000006 2.3950000000000005 44.335000000000008 184.60500000000002 11.978166666666668 25.315000000000001 3.9297500000000003 80.940000000000012 5.745000000000001 1.6483333333333337 2.4031666666666669 13.165000000000001 109.83500000000002 5.8398333333333339 4.7683333333333335 26.035000000000004 56.405000000000008 27.835000000000004 72.475000000000009 6.1050000000000013 80.315000000000012 9.0350000000000019 -0.17899999999999996 72.795000000000002 0.48200000000000004 3.7250000000000005 97.00500000000001 105.98500000000001 92.885000000000019 34.815000000000005 1.7550000000000001 -3.398333333333333 8.1650000000000009 117.21500000000002 7.5200000000000005 9.4950000000000028 4.330000000000001 8.2850000000000019 69.720000000000013 24.255000000000003 74.50500000000001 0.17500000000000002
decision_type=2 2 2 2 2 2 2 2 2 2 2 2 2 2 2 2 2 2 2 2 2 2 2 2 2 2 2 2 2 2 2 2 2 2 2 2 2 2 2 2 2 2 2 2 2 2 2 2 2 2 2 2 2 2 2 2 2 2 2 2 2 2 2 2
left_child=1 3 5 10 8 45 7 18 -4 25 35 26 -7 37 15 27 17 49 50 39 -21 22 46 40 -22 58 31 43 30 -17 -19 53 47 -25 57 36 51 63 -24 -10 -16 -8 52 -14 48 -2 -13 -33 -38 -12 -3 -1 -18 -5 -15 -30 -28 -23 -9 -46 -34 -43 -55 -11
right_child=2 6 4 11 -6 12 41 9 19 13 16 21 14 54 23 29 42 28 -20 20 24 34 38 33 -26 -27 56 -29 55 -31 -32 32 60 -35 -36 -37 44 -39 -40 -41 -42 61 -44 -45 59 -47 -48 -49 -50 -51 -52 -53 -54 62 -56 -57 -58 -59 -60 -61 -62 -63 -64 -65
leaf_value=-0.59083809859362602 0.05824810570360462 -0.22116729880868086 1.2791588021245193 -0.59174202431319489 7.3708098199094829 0.400336098967495 0.063798379363774999 1.6405352177292973 2.7432444319257976 0.269213006151516 -0.53727139462955853 -0.24230803103180357 1.4103118215586687 1.9033662468319537 2.7822290723411527 1.9093282462836949 -0.57860785781235791 0.076694184627340706 1.8928276141272211 3.2520902163820713 4.4599042493919612 0.49837912752056979 1.5824805364158239 4.2398636484734418 6.238676238852686 3.4828773300623572 -0.40643292759450256 2.4672459590060472 -0.31923523237150148 3.5018602132081278 0.61881640527240922 0.68908145176585611 -0.049772768976497683 2.7534271049266366 1.3133203067026664 -0.5748371037643093 0.033427701580962373 1.6897539702989532 2.9648273089476316 4.1004479633381656 1.4117102837280251 0.46600996287301327 -0.22540368755104151 0.40102936796630223 -0.40711317053669605 1.106000607251088 0.829217481210484 1.7461015685655357 0.71633043765200366 -0.24366226240456273 0.63529101093500795 -0.37482986326242945 -0.32242583983279893 -0.22801384565126462 2.8717384009039879 -0.0084052066224093776 0.05730845113294869 0.081521082712617793 2.5849812055695356 -0.022698103210783003 0.31946611633071609 1.3105620505192994 0.16455376222087256 0.88404119186989805
leaf_weight=592 34 48 14.999999999999998 34 19 20 104 18 24 28 256 21 40 18 21 21 403 335 14.999999999999998 15.999999999999998 24 72 23 20 15.999999999999998 27 157 18 156 23 131 35 75 20 20 1034 81 20 15.999999999999998 14.999999999999998 14.999999999999998 20 346 23 89 15.999999999999998 20 14.999999999999998 35 229 19 321 211 80 20 208 52 111 15.999999999999998 117 159 15.999999999999998 83 30
leaf_count=592 34 48 15 34 19 20 104 18 24 28 256 21 40 18 21 21 403 335 15 16 24 72 23 20 16 27 157 18 156 23 131 35 75 20 20 1034 81 20 16 15 15 20 346 23 89 16 20 15 35 229 19 321 211 80 20 208 52 111 16 117 159 16 83 30
internal_value=0 -0.172972 2.55826 -0.256399 4.22843 1.76324 0.980571 1.36804 3.68565 1.8332 -0.350555 0.183318 2.07312 1.37543 2.23957 1.84548 -0.227399 -0.105043 0.363987 4.06563 4.62304 0.588441 1.19163 2.88774 5.17141 2.70372 0.0171583 1.3586 0.0665163 2.74179 0.229093 0.151079 0.342857 3.49665 0.350732 -0.474036 -0.389641 0.869927 2.1496 3.26525 2.21118 0.263744 -0.395001 1.04184 -0.0345017 0.393529 0.280387 1.00619 0.239476 -0.398639 0.0217089 -0.514892 -0.490571 -0.125393 2.41304 -0.141618 -0.291052 0.245531 2.08498 -0.18878 0.20112 0.841366 -0.0281175 0.587228
internal_weight=0 5916 400 5517 129 271 399 259 110 177 4544 973 221 116 201 125 2275 1315 82 95 56 283 80 76 40 61 690 81 830 44 466 481 284 40 203 2269 1235 78 39 39 36 140 960 63 322 50 41 50 116 485 67 913 614 197 38 364 209 183 34 206 234 36 163 58
internal_count=6316 5916 400 5517 129 271 399 259 110 177 4544 973 221 116 201 125 2275 1315 82 95 56 283 80 76 40 61 690 81 830 44 466 481 284 40 203 2269 1235 78 39 39 36 140 960 63 322 50 41 50 116 485 67 913 614 197 38 364 209 183 34 206 234 36 163 58
is_linear=0
shrinkage=0.107839


Tree=7
num_leaves=65
num_cat=0
split_feature=2 17 18 20 20 2 23 16 23 1 2 18 20 1 18 23 23 29 5 5 13 23 30 30 2 26 27 21 28 9 30 24 29 7 1 2 22 2 1 30 29 25 23 22 24 11 22 30 30 25 1 15 5 30 23 23 17 23 24 26 22 31 30 11
split_gain=191768 49234.4 33531.7 19014.2 9877.07 8323.91 8016.58 6542.26 5070.42 5936.8 4732.68 3855.29 5326.28 3784.29 2959.55 2944.37 2826.37 2892.32 2737.63 3053.84 2735.06 2722.4 2632.33 2266.34 2240.15 1927.93 1897.53 2061.74 1896.82 3168.3 2269.82 1873.83 1849.88 1817.63 1773.58 1649.93 1354.1 1313.58 1269.71 1219.13 1189.75 1112.18 1086.05 1078.9 1017.05 3231.76 917.633 899.475 857.924 827.055 1932.54 769.589 961.473 729.042 727.468 670.697 665.272 642.729 567.961 558.955 551.617 551.441 539.368 523.408
threshold=25.315000000000001 26.790000000000003 94.020000000000024 78.995000000000019 17.620000000000001 54.830000000000005 172.40000000000001 25.920000000000005 136.65500000000003 9.2150000000000016 8.2150000000000016 71.575000000000017 78.995000000000019 -0.28499999999999998 42.535000000000004 244.08500000000004 183.46000000000004 1.5279166666666668 2.6350000000000002 8.3250000000000011 5.495000000000001 168.76000000000002 4.6363333333333339 5.7046666666666672 8.6900000000000013 10.098571428571431 2.9476666666666671 58.765000000000008 10.089000000000002 4.8250000000000011 -0.5129999999999999 0.93833333333333335 -1.4797499999999999 6.0300000000000002 8.0950000000000006 6.7250000000000005 138.56000000000003 17.340000000000003 4.4050000000000011 -2.3778333333333328 -0.86433333333333329 7.9200000000000008 254.59500000000006 21.310000000000006 0.65333333333333343 1.8450000000000004 92.885000000000019 6.1686666666666676 12.028166666666669 10.013000000000002 1.6150000000000004 10.715000000000002 11.725000000000003 5.4620000000000006 136.00500000000002 99.965000000000018 14.485000000000001 81.305000000000021 -0.74666666666666648 12.119285714285715 53.470000000000006 184.73000000000002 7.8671666666666669 14.265000000000002
decision_type=2 2 2 2 2 2 2 2 2 2 2 2 2 2 2 2 2 2 2 2 2 2 2 2 2 2 2 2 2 2 2 2 2 2 2 2 2 2 2 2 2 2 2 2 2 2 2 2 2 2 2 2 2 2 2 2 2 2 2 2 2 2 2 2
left_child=1 4 6 8 28 18 14 42 44 13 21 26 -13 58 -2 34 32 -18 -4 -20 24 23 -16 31 -15 39 -8 -28 29 43 41 57 -12 -17 38 -11 63 -22 -9 -23 -33 -31 -5 -1 -3 -46 -24 61 -14 50 -34 -29 -53 -47 -30 -45 -41 -6 -10 -25 -49 -32 -19 -37
right_child=2 3 5 7 10 -7 11 15 9 35 16 12 48 20 22 33 17 62 19 -21 37 25 46 59 -26 -27 27 51 54 30 47 40 49 -35 -36 36 -38 -39 -40 56 -42 -43 -44 55 45 53 -48 60 -50 -51 -52 52 -54 -55 -56 -57 -58 -59 -60 -61 -62 -63 -64 -65
leaf_value=-0.57249922362755823 0.2882941258492735 -0.39144251031121546 2.9763091644986583 0.50424497386628242 -0.53980004256511072 7.0371748472686395 3.1294400665606248 1.5083827167426691 -0.38238388698379755 -0.16932351889684269 1.1334368961797416 4.5133546853647797 1.7656251987700151 0.9366476684600652 2.6016895141202001 3.7972288059678796 1.8460879258241008 0.85763424512865882 5.6421859276668549 3.5587799612251283 0.52565661525019591 1.1759029605873801 1.6269151267552973 -0.31682610527707233 1.9973154816627203 -0.17132142830328562 0.85670882010865212 1.5041443054649972 -0.61482189819516819 0.11269264677732652 -0.15030000074035108 0.50520876570454332 -0.19488410756926078 2.336026767314666 0.8583308745264141 0.55498070812058065 1.4001414540132433 1.2955198753762722 2.8286797687522411 0.058872973829607232 -0.03990898511016984 0.94436384521194117 1.5593334156993024 -0.45012302881772787 1.3238969370993641 0.25145508704132796 0.53801334007952661 -0.49982866213354427 2.8232792464224947 -0.24300748122687166 0.45629716960128291 1.9696247552574848 2.921015024509539 -0.20331279565146795 -0.41825737136052188 -0.24857062032449423 0.42673662866263701 -0.21206723230315133 0.39572527023228687 -0.52318806893498937 -0.16363823965225596 0.52036323114263172 0.24977164837617888 0.063782925346038771
leaf_weight=455 28 58 15.999999999999998 39 102 14.999999999999998 17 15.999999999999998 20 91 18 22 14.999999999999998 39 21 18 21 24 18 14.999999999999998 76 14.999999999999998 18 360 57 278 18 15.999999999999998 496 100 288 54 106 22 17 49 14.999999999999998 39 18 179 338 23 15.999999999999998 448 23 65 18 175 22 102 106 30 21 111 392 336 84 219 24 265 84 14.999999999999998 58 52
leaf_count=455 28 58 16 39 102 15 17 16 20 91 18 22 15 39 21 18 21 24 18 15 76 15 18 360 57 278 18 16 496 100 288 54 106 22 17 49 15 39 18 179 338 23 16 448 23 65 18 175 22 102 106 30 21 111 392 336 84 219 24 265 84 15 58 52
internal_value=0 -0.134999 2.6155 0.61772 -0.261648 4.81437 2.04343 1.73972 0.389887 0.603475 -0.0974042 2.49073 3.18458 0.951769 1.19619 2.30093 0.223363 0.716872 4.13392 4.69518 1.14148 -0.171076 1.64218 -0.254419 1.56642 0.029488 2.08939 1.88138 -0.39768 -0.33751 -0.151397 -0.123016 0.0702557 2.99357 1.75769 0.174418 0.444077 0.786741 2.20736 0.230297 0.0351838 0.268208 0.81118 -0.440405 0.00592539 0.121741 1.08246 -0.243232 2.3945 0.00930899 0.130707 2.15666 2.36137 -0.0353587 -0.52805 -0.363743 0.176366 -0.316207 0.0420393 -0.404324 -0.390794 -0.117099 0.427683 0.302087
internal_weight=0 6006 310 865 5141 64 246 146 719 462 2329 161 59 255 85 91 435 103 49 33 211 1894 57 1338 96 556 102 85 2812 1924 685 713 332 40 51 207 116 115 34 278 392 123 55 1239 257 199 36 562 37 314 212 67 51 176 888 784 263 321 44 625 259 303 82 101
internal_count=6316 6006 310 865 5141 64 246 146 719 462 2329 161 59 255 85 91 435 103 49 33 211 1894 57 1338 96 556 102 85 2812 1924 685 713 332 40 51 207 116 115 34 278 392 123 55 1239 257 199 36 562 37 314 212 67 51 176 888 784 263 321 44 625 259 303 82 101
is_linear=0
shrinkage=0.107839


Tree=8
num_leaves=65
num_cat=0
split_feature=18 18 16 18 2 2 28 23 27 22 28 22 24 2 23 1 21 8 28 12 1 11 16 1 14 19 29 26 29 9 28 28 14 30 14 7 20 9 23 27 8 30 23 30 23 22 28 2 6 22 7 23 22 2 25 28 24 29 25 16 30 22 2 8
split_gain=153379 31683.1 30322.5 12862.2 12471.5 9364.95 8030.3 5611.83 6100.93 5401.09 4155.6 4090.96 3620.45 3555.64 3403.11 3328 3495.23 2979.23 2629.17 2396.92 2647.1 1961.44 1941.43 2769 1840.22 1810.46 1803.6 3180.2 1779.43 2546.49 2413.11 1736 1709.68 1621.69 1543.06 1488.6 1482.45 1447.42 1377.74 1318.47 1229.36 1124.54 1022.27 959.842 858.697 853.911 846.845 795.302 673.851 643.626 627.6 581.2 555.155 459.569 453.178 575.601 444.502 558.757 444.461 440.896 433.996 334.43 332.066 329.676
threshold=57.160000000000004 28.265000000000004 56.785000000000004 101.03000000000002 16.645000000000003 15.425000000000002 13.832000000000003 140.69500000000002 12.984000000000002 49.295000000000009 10.348666666666668 162.74500000000003 -1.1599999999999999 8.2150000000000016 216.62000000000003 0.85500000000000009 125.42500000000001 22.765000000000004 -0.73816666666666653 0.72500000000000009 1.3450000000000004 8.0450000000000017 43.315000000000005 8.5550000000000015 11.385000000000003 82.65000000000002 7.3291666666666675 3.5664285714285717 9.7085000000000026 2.1350000000000002 3.6381666666666672 -1.3904999999999996 3.2650000000000001 -1.8986666666666665 12.635000000000003 19.295000000000005 42.385000000000005 5.1050000000000013 164.09500000000003 1.9403333333333335 0.015000000000000001 -0.075833333333333294 209.09500000000003 -1.8986666666666665 105.98500000000001 22.695000000000004 -0.2268333333333333 7.5200000000000005 9.6250000000000018 104.15500000000002 1.155 119.73500000000001 74.50500000000001 1.675 -2.6379999999999995 0.097166666666666665 8.2850000000000019 5.1617500000000005 6.5850000000000009 22.765000000000004 10.526000000000002 106.03000000000002 12.255000000000001 0.81500000000000006
decision_type=2 2 2 2 2 2 2 2 2 2 2 2 2 2 2 2 2 2 2 2 2 2 2 2 2 2 2 2 2 2 2 2 2 2 2 2 2 2 2 2 2 2 2 2 2 2 2 2 2 2 2 2 2 2 2 2 2 2 2 2 2 2 2 2
left_child=1 9 5 11 14 17 -5 36 19 26 12 24 -11 33 28 -7 18 25 -17 -9 -21 -22 34 -24 50 49 27 45 29 52 37 -15 -16 38 -20 -34 63 -31 -14 -38 -27 46 53 -33 -35 -1 -29 -30 -10 -2 -4 -32 59 -12 -47 -56 -43 -58 -48 -3 -51 -55 -44 -6
right_child=2 4 3 6 7 15 -8 8 48 10 42 -13 13 31 32 16 -18 -19 22 20 21 -23 23 -25 -26 40 -28 41 47 30 51 43 35 44 -36 -37 39 -39 -40 -41 -42 56 62 -45 -46 54 58 -49 -50 60 -52 -53 -54 61 55 -57 57 -59 -60 -61 -62 -63 -64 -65
leaf_value=-0.52566506582829797 -0.22103442631579837 -0.16852893896540477 3.2840359032509996 6.6556426763578695 -0.44254799616375046 0.5339385916225764 3.3887316685641862 2.6348887813234985 0.062121270036467363 -0.3689300048145413 -0.41775079461705583 4.3155026158859258 0.11172957451495259 1.5931516380945594 1.3655871718580646 3.3191790253678892 3.6882146968471528 2.0935544682797529 1.8005557886872574 0.16300977428637872 2.2605715775723847 1.3037792844288958 1.7246246368108034 3.2376928848240074 1.4126532408646952 1.88367981443053 -0.49748680200604045 0.90416220848612483 -0.27980246480036469 0.5986969575891764 -0.026569577542946993 1.2002217329884295 0.27981877849995768 -0.23723287682214828 0.77975546649725147 1.2964954483415903 1.3952191105352187 1.734970431809352 1.0599897791415962 0.29005385791282751 0.54424861208038755 -0.3105404317560756 -0.11624305285378601 0.31615973175810802 0.0058671898743611261 -0.46142907496222024 -0.078005670465445195 0.13103974067957738 0.89638313338193498 0.85246297903547286 2.3270140437921776 0.37673755496295241 0.085334555457702813 -0.29745102011017749 -0.10578898012550064 -0.36475833918233136 0.086127983318528625 -0.31284758797578877 0.31762829186238861 -0.75857038682026867 0.13084901388782219 0.04911302937552392 0.41782302026867041 0.15872407537027661
leaf_weight=436 27 81 14.999999999999998 21 24 17 14.999999999999998 24 38 282 577 14.999999999999998 49 15.999999999999998 29 14.999999999999998 14.999999999999998 15.999999999999998 51 15.999999999999998 39 69 39 22 18 14.999999999999998 875 15.999999999999998 190 32 62 15.999999999999998 103 232 26 20 19 22 28 37 17 173 139 133 622 203 85 77 15.999999999999998 18 17 126 99 170 162 260 107 66 54 18 21 40 14.999999999999998 19
leaf_count=436 27 81 15 21 24 17 15 24 38 282 577 15 49 16 29 15 15 16 51 16 39 69 39 22 18 15 875 16 190 32 62 16 103 232 26 20 19 22 28 37 17 173 139 133 622 203 85 77 16 18 17 126 99 170 162 260 107 66 54 18 21 40 15 19
internal_value=0 -0.138182 2.04372 3.6592 0.367138 1.49802 5.29443 0.964475 1.29045 -0.261431 -0.143624 2.75354 -0.0243318 0.0643331 0.157827 1.97178 2.11728 0.729198 1.96326 1.64844 1.45751 1.64929 1.81588 2.27032 2.28495 0.506445 -0.373535 -0.304099 0.0583025 0.191573 0.426237 0.525716 0.620745 -0.0174373 1.45587 0.445132 0.299351 1.06162 0.456551 0.665021 1.17211 -0.0801751 -0.318315 0.411093 -0.060174 -0.409835 0.161213 -0.16132 0.30931 0.183701 2.77562 0.243732 -0.0952373 -0.368036 -0.329032 -0.265344 -0.188311 -0.0660824 0.0756939 -0.275809 0.463902 -0.231439 -0.0642236 -0.17687
internal_weight=0 5916 400 101 1160 299 36 301 202 4756 2319 65 1378 1096 859 185 168 114 153 148 124 108 138 61 50 98 2437 1562 707 440 242 165 152 931 77 123 99 54 77 56 32 501 941 149 854 1061 155 267 54 66 32 188 198 787 625 422 346 173 139 99 39 210 154 43
internal_count=6316 5916 400 101 1160 299 36 301 202 4756 2319 65 1378 1096 859 185 168 114 153 148 124 108 138 61 50 98 2437 1562 707 440 242 165 152 931 77 123 99 54 77 56 32 501 941 149 854 1061 155 267 54 66 32 188 198 787 625 422 346 173 139 99 39 210 154 43
is_linear=0
shrinkage=0.107839


Tree=9
num_leaves=65
num_cat=0
split_feature=2 19 16 20 19 16 2 2 1 10 8 4 7 23 3 22 30 1 14 21 1 29 2 26 23 23 13 1 28 29 12 3 28 23 20 1 31 6 22 22 28 11 23 29 25 29 9 23 16 31 5 30 31 23 26 9 31 28 9 2 26 11 29 1
split_gain=122753 31983.4 21042.4 10992 9384.34 6549.31 5539.47 5146.99 4112.28 5098.98 3427.89 3272.23 2704.97 2688.77 2434 2279.75 2274.95 2257.9 2979.8 2287.59 2199.66 4660.55 3111.66 1978.14 1840.13 1502.49 1734.72 1475.98 1659.81 1428.8 1680.61 1394.03 1361.52 1314.17 1270.96 1139.94 913.608 907.452 900.098 846.949 916.201 797.073 790.046 759.441 1511.05 789.597 746.967 641.192 615.127 572.926 477.259 473.144 457.815 424.122 406.976 396.768 385.68 364.753 364.723 360.273 358.909 350.757 341.111 303.912
threshold=25.315000000000001 36.245000000000012 52.560000000000009 83.015000000000015 113.93000000000001 25.920000000000005 2.8350000000000004 7.9450000000000012 0.56500000000000006 13.725000000000003 23.615000000000006 0.19500000000000003 1.4550000000000003 223.78000000000003 1.6950000000000001 40.605000000000004 6.6383333333333345 -0.61499999999999988 6.120000000000001 55.07500000000001 -0.43499999999999994 3.8492500000000001 19.425000000000004 0.83928571428571452 244.08500000000004 147.88500000000002 10.775 1.5250000000000001 4.349166666666668 2.6976666666666671 12.795000000000002 22.315000000000001 -1.0113333333333332 143.55000000000004 95.725000000000009 2.3950000000000005 179.08500000000001 0.84500000000000008 146.96000000000004 52.470000000000006 10.610500000000002 15.375000000000002 189.28500000000005 7.4259166666666667 5.9270000000000005 0.53225000000000011 3.8650000000000007 184.60500000000002 32.035000000000004 62.070000000000007 14.700000000000001 -1.2556666666666663 119.21500000000002 117.21500000000002 -2.964285714285714 -0.95499999999999985 176.77000000000001 14.097166666666668 1.9500000000000002 0.64500000000000013 -1.9414285714285711 10.245000000000003 1.1023333333333336 13.165000000000001
decision_type=2 2 2 2 2 2 2 2 2 2 2 2 2 2 2 2 2 2 2 2 2 2 2 2 2 2 2 2 2 2 2 2 2 2 2 2 2 2 2 2 2 2 2 2 2 2 2 2 2 2 2 2 2 2 2 2 2 2 2 2 2 2 2 2
left_child=1 6 8 7 11 37 15 25 -2 14 17 52 -13 -14 -10 43 23 55 19 -19 58 22 33 54 34 51 27 -27 -29 -16 50 -26 -25 35 -7 -22 -32 -5 -20 -23 53 -11 -34 44 49 -46 -35 57 -12 -1 -31 -3 -4 -41 -17 -9 -47 -18 -8 -39 -51 -49 -57 -53
right_child=2 3 4 5 -6 24 20 10 9 41 48 12 13 -15 29 16 47 18 38 -21 21 39 -24 32 31 26 -28 28 -30 30 36 -33 42 46 -36 -37 -38 59 -40 40 -42 -43 -44 -45 45 56 -48 61 -50 60 -52 63 -54 -55 -56 62 -58 -59 -60 -61 -62 -63 -64 -65
leaf_value=-0.53018076169288308 0.10636885973247576 0.25721529484701655 2.3937447721139713 1.3091910805305575 5.5889411289882664 0.63704662784818411 -0.33929671748417123 -0.41460759815787696 0.97889679681776154 0.99722803687100547 1.1306589446596813 4.3348833855143409 1.7610817525040567 3.6823823567421914 2.9196216168304172 -0.44989859439800811 -0.31488697020409068 0.43399638106818222 0.30335546714788858 1.5068297367314758 -0.046127011940976369 -0.26162053913348282 1.8822822473450873 1.0192439369055379 1.9369458142861449 -0.0090194600796798165 -0.052514042920927519 1.3051733400132211 0.39492243299516405 1.7768055710935045 3.0214205282458448 3.2364453665530442 -0.037572063171923867 0.44391920114019473 1.90242996783817 0.45762556697824447 1.9281396731087119 -0.031719452242691813 1.0614341342692102 -0.092506113701172732 -0.15322970270862296 -0.048858866612756249 0.36874878580337622 -0.48529667977538682 0.5890113886296916 -0.18117172221164651 1.2361823246832813 -0.020453730133556433 2.0781233534312475 -0.44474484466273295 1.0848252408828485 -0.14975338024579285 1.5512065405028845 0.28502569986198478 -0.20495518185567782 0.51193808043366817 0.39251188683118343 -0.46536837577725743 0.078928054546676576 0.53735089246724044 -0.27581806047234403 -0.26441087248362966 -0.18436525219195038 -0.47358596965909383
leaf_weight=246 23 27 15.000000000000002 14.999999999999998 18 14.999999999999998 238 29 27 15.999999999999998 14.999999999999998 21 15.999999999999998 18 21 119 583 38 204 59 103 247 15.999999999999998 15.999999999999998 24 54 156 34 74 51 20 15.999999999999998 477 31 24 106 15.999999999999998 18 20 48 218 18 63 578 20 149 25 104 17 228 14.999999999999998 144 14.999999999999998 124 234 14.999999999999998 14.999999999999998 276 27 46 408 201 18 44
leaf_count=246 23 27 15 15 18 15 238 29 27 16 15 21 16 18 21 119 583 38 204 59 103 247 16 16 24 54 156 34 74 51 20 16 477 31 24 106 16 18 20 48 218 18 63 578 20 149 25 104 17 228 15 144 15 124 234 15 15 276 27 46 408 201 18 44
internal_value=0 -0.108009 2.09258 0.415791 3.35212 1.24854 -0.226238 0.277 1.46586 1.6358 0.561766 2.87844 3.3726 2.77824 1.90607 -0.290924 -0.215714 0.47218 0.587252 1.08654 -0.0229951 0.0560113 0.42185 -0.0878771 1.94283 0.0552785 0.204154 0.451315 0.681483 2.10959 1.94282 2.45675 0.0388799 0.333673 1.41574 0.209365 2.53552 0.554241 0.371041 -0.105371 -0.00641329 0.443417 0.00983204 -0.385759 -0.331789 -0.0506885 0.797608 -0.315545 1.634 -0.390431 1.61954 -0.164918 1.97248 0.179668 -0.287528 -0.123599 -0.128701 -0.363237 -0.296685 0.3773 -0.336377 -0.181225 0.132136 -0.225544
internal_weight=0 6006 310 1106 103 158 4900 948 207 184 415 85 55 34 150 3717 2073 383 321 97 1183 918 281 909 79 533 318 162 108 123 102 40 556 265 39 209 36 79 224 637 390 34 540 1644 1066 184 56 1164 32 882 66 215 30 172 353 62 164 859 265 64 636 305 33 188
internal_count=6316 6006 310 1106 103 158 4900 948 207 184 415 85 55 34 150 3717 2073 383 321 97 1183 918 281 909 79 533 318 162 108 123 102 40 556 265 39 209 36 79 224 637 390 34 540 1644 1066 184 56 1164 32 882 66 215 30 172 353 62 164 859 265 64 636 305 33 188
is_linear=0
shrinkage=0.107839


Tree=10
num_leaves=65
num_cat=0
split_feature=2 21 16 16 19 20 2 23 23 14 1 1 22 2 29 19 23 29 25 1 28 1 12 29 9 23 5 21 8 14 8 2 8 9 30 21 19 8 28 31 22 9 30 1 8 1 28 23 5 23 9 9 31 22 31 22 15 23 26 29 29 4 24 20
split_gain=97705.7 25504.7 16748.8 8485.7 7469.48 6849.15 6162.17 3553.53 2816.78 2998.78 2653.31 2852.31 2372.28 2259.88 2255.13 2413.73 2193.15 2967.86 2110.39 2007.09 3171.72 3061.39 2660.2 1742.03 1822.48 1455.53 1453.43 1385.35 1211.99 1199.94 1182.29 1047.34 1043.15 1104.78 1058.4 998.406 885.388 870.685 1095.78 856.043 823.5 905.277 770.731 1142.03 754.293 751.975 1006.78 710.725 703.645 579.518 566.635 460.765 457.632 454.437 444.956 414.826 405.28 397.278 363.351 329.962 347.955 328.482 315.834 264.519
threshold=25.315000000000001 55.07500000000001 52.560000000000009 24.540000000000003 113.93000000000001 87.980000000000004 5.8850000000000007 172.40000000000001 276.98000000000008 11.935 9.4950000000000028 -0.43499999999999994 123.43500000000002 2.5650000000000004 6.1145000000000005 57.305000000000007 81.305000000000021 8.5805000000000025 0.22000000000000006 -0.73499999999999988 6.714500000000001 3.5450000000000004 0.72500000000000009 3.9297500000000003 9.4100000000000019 240.77500000000003 19.185000000000006 75.410000000000011 8.8650000000000002 5.0650000000000004 1.0000000180025095e-35 13.075000000000001 3.8100000000000001 7.4450000000000012 8.9800000000000022 61.805000000000014 37.500000000000007 22.765000000000004 -0.2268333333333333 225.03500000000003 31.345000000000002 1.6250000000000002 4.3185000000000011 3.9450000000000007 8.2350000000000012 -0.43499999999999994 6.9210000000000003 206.27500000000003 0.59500000000000008 139.01000000000002 3.1150000000000007 2.4150000000000005 69.00500000000001 168.44000000000003 209.21000000000001 55.895000000000003 15.615 114.42500000000001 -1.9414285714285711 -0.30149999999999993 -2.0173333333333328 0.03500000000000001 12.200000000000001 45.305000000000007
decision_type=2 2 2 2 2 2 2 2 2 2 2 2 2 2 2 2 2 2 2 2 2 2 2 2 2 2 2 2 2 2 2 2 2 2 2 2 2 2 2 2 2 2 2 2 2 2 2 2 2 2 2 2 2 2 2 2 2 2 2 2 2 2 2 2
left_child=1 6 7 13 8 10 16 14 9 12 11 -5 -4 53 15 -2 42 18 -18 51 21 40 -23 24 -20 45 -27 29 30 -9 -7 -24 34 -34 -29 -31 55 38 -13 -25 -21 -42 43 52 62 -15 50 54 -12 -16 -47 -8 -1 56 -19 -22 -3 -48 -54 60 -45 -57 -38 -49
right_child=2 3 4 5 -6 28 19 27 -10 -11 48 37 -14 25 49 -17 17 47 23 20 36 22 31 39 -26 26 -28 32 -30 35 -32 -33 33 -35 -36 -37 44 -39 -40 -41 41 -43 -44 59 -46 46 57 63 -50 -51 -52 -53 58 -55 -56 61 -58 -59 -60 -61 -62 -63 -64 -65
leaf_value=-0.51363383644569072 0.44614994415299886 0.020842381325209613 1.9916000381785943 -0.2352332671501943 4.9862358860355371 2.1728274008686888 -0.33520211894344232 1.9693712134727999 3.9090806889206315 1.4414095066821593 0.57922115499752325 1.6123736262089252 3.6365865440191594 -0.096617437448025825 -0.26304460905300381 2.3502733918204486 -0.26615387081526459 -0.3656330627847913 0.079270981949863664 -0.47418494972149977 -0.27474334365615688 2.0507359547767283 0.42437579135860098 -0.16253871574128059 0.7717491209859707 0.44257271752737265 1.5386503811404422 3.0465321868460085 2.4997446945927702 0.26968403819056308 1.0788972965112427 1.2731811979820227 1.0401638922373442 2.1793530741889002 1.8821820841047361 1.4072564606329492 0.27620059696562738 1.8998193325008164 0.79091122341512965 0.6646510813009161 -0.047243038761159518 0.43732725444225423 -0.47312846492925442 -0.19011646764600443 0.93782044528442854 0.44157213108349286 -0.29256924962033631 -0.13824728075513149 -0.12147212682746047 0.53515543911097541 1.0845812452021213 0.25718183681652651 -0.43816712341289893 0.54357091096924859 -0.2000747151121948 -0.18361635462016451 -0.31139680284418758 0.29118440380603999 -0.22016228443524097 -0.19224338553680487 0.28968182738099207 0.091948574737589689 -0.14648074625216045 0.33671018605157776
leaf_weight=214 15.000000000000002 204 19 21 18 20 150 17 14.999999999999998 29 25 26 22 46 17 15.999999999999998 502 977 451 22 139 18 73 484 49 34 24 14.999999999999998 23 17 27 22 22 18 23 19 52 14.999999999999998 69 14.999999999999998 80 102 449 32 14.999999999999998 34 14.999999999999998 150 50 28 30 17 157 15.999999999999998 234 92 54 141 205 232 39 111 34 14.999999999999998
leaf_count=214 15 204 19 21 18 20 150 17 15 29 25 26 22 46 17 16 502 977 451 22 139 18 73 484 49 34 24 15 23 17 27 22 22 18 23 19 52 15 69 15 80 102 449 32 15 34 15 150 50 28 30 17 157 16 234 92 54 141 205 232 39 111 34 15
internal_value=0 -0.0963613 1.86692 0.442132 2.99063 0.936738 -0.188069 1.30778 2.56803 2.28066 0.623587 0.916427 2.87428 0.213852 0.721174 1.42892 -0.243551 -0.190639 -0.0857704 0.0636073 0.13799 0.398418 0.848696 0.00487282 0.147134 0.406636 0.896122 1.64811 1.8583 1.22268 1.5444 0.620941 1.93718 1.5528 2.34179 0.870069 -0.0483665 1.13629 1.01573 -0.137673 0.148999 0.224329 -0.358181 -0.299465 0.232172 0.299906 0.382815 -0.305034 0.112092 0.233613 0.742983 -0.2749 -0.388617 -0.0141111 -0.333642 -0.131216 -0.0486961 0.235054 -0.314711 -0.129989 0.0734347 -0.032938 0.109094 -0.0950693
internal_weight=0 6006 310 874 103 276 5132 207 85 70 206 131 41 598 76 31 4205 2877 1501 927 760 317 113 999 500 324 58 131 70 53 47 95 78 40 38 36 443 110 95 499 204 182 1328 879 101 266 220 1376 75 45 64 167 576 274 1211 342 258 156 362 303 71 203 86 165
internal_count=6316 6006 310 874 103 276 5132 207 85 70 206 131 41 598 76 31 4205 2877 1501 927 760 317 113 999 500 324 58 131 70 53 47 95 78 40 38 36 443 110 95 499 204 182 1328 879 101 266 220 1376 75 45 64 167 576 274 1211 342 258 156 362 303 71 203 86 165
is_linear=0
shrinkage=0.107839


Tree=11
num_leaves=65
num_cat=0
split_feature=2 18 16 20 19 2 2 16 8 26 9 31 8 23 29 24 9 13 22 23 28 2 27 28 15 12 3 25 20 29 22 29 31 1 29 9 28 13 7 0 15 24 27 22 3 28 1 28 23 21 21 16 18 27 31 22 23 30 31 2 29 31 23 22
split_gain=77899.6 22622.8 12127.8 7631.54 5628.81 4348.1 3017.88 2969.16 2778.96 2581.38 3167.51 2342.82 2708.59 2166.39 2493.95 2478.44 1827.75 3706.74 1472.9 1470.61 1440.65 1445.72 1434.59 1370.17 1398.75 1296.56 1140.65 1120.83 1103.73 1044.45 1176.59 948.658 1146.89 941.088 1637.01 1231.28 1111.34 1041.02 921.69 868.323 867.046 770.469 887.31 759.371 742.925 653.78 1223.19 1226.5 606.973 495.94 485.669 459.595 437.928 419.197 486.916 386.864 351.841 344.013 331.52 326.624 286.91 269.74 268.64 261.414
threshold=27.345000000000002 32.285000000000004 52.560000000000009 83.015000000000015 113.93000000000001 1.405 7.9450000000000012 24.850000000000005 23.615000000000006 13.485714285714288 2.6450000000000005 114.73000000000002 0.87500000000000011 140.69500000000002 5.7205000000000004 1.9133333333333336 1.6250000000000002 3.2350000000000008 50.765000000000008 244.08500000000004 4.349166666666668 9.9700000000000024 9.033333333333335 3.467166666666667 12.215000000000002 12.795000000000002 6.7550000000000008 1.2450000000000003 95.725000000000009 10.126166666666668 74.50500000000001 2.9135833333333339 43.160000000000004 -1.3549999999999998 2.7797500000000004 4.5450000000000008 1.3533333333333337 -4.379999999999999 6.0300000000000002 21.580000000000002 2.1350000000000002 -0.74666666666666648 3.2803333333333335 141.69000000000003 6.3250000000000011 9.6385000000000023 8.6350000000000033 3.2693333333333334 233.42500000000004 50.845000000000006 50.465000000000011 21.005000000000006 28.955000000000002 14.722000000000003 213.23500000000001 110.71500000000002 39.925000000000004 -0.57433333333333325 196.92500000000004 16.145000000000003 5.0577500000000013 39.840000000000011 197.34500000000003 98.63000000000001
decision_type=2 2 2 2 2 2 2 2 2 2 2 2 2 2 2 2 2 2 2 2 2 2 2 2 2 2 2 2 2 2 2 2 2 2 2 2 2 2 2 2 2 2 2 2 2 2 2 2 2 2 2 2 2 2 2 2 2 2 2 2 2 2 2 2
left_child=1 5 9 6 11 18 29 48 16 10 -2 -4 26 33 15 52 57 40 45 28 21 -17 27 -12 43 -26 -13 -20 -9 30 51 32 -29 -7 35 37 -37 -35 -21 -19 -18 -32 -43 55 -10 46 56 -48 -5 -33 -16 -3 -15 54 -36 -25 -1 -8 63 -52 -49 -58 -31 -24
right_child=2 3 4 7 -6 13 8 19 44 -11 23 12 -14 14 50 20 17 39 22 38 -22 -23 58 24 25 -27 -28 31 -30 62 41 49 -34 34 53 36 -38 -39 -40 -41 -42 42 -44 -45 -46 -47 47 60 -50 -51 59 -53 -54 -55 -56 -57 61 -59 -60 -61 -62 -63 -64 -65
leaf_value=-0.43631962070981251 0.05384136238053143 0.021034512797990439 1.5419109708145993 0.23245393278242174 4.4485257732074261 -0.31601896436278315 0.33376100053662378 0.49808957148193861 1.9601119783660947 0.16772293163466845 2.3776979671175686 1.3978991624584576 3.5826934473059211 -0.035959989283530495 -0.092919642675890049 0.74146287936240896 0.96140985834927251 0.43065447680525298 -0.22084622864841802 2.4180729317389411 0.25568286994904149 1.7953087645246044 -0.35396522257241286 1.1645807350029862 1.3010289704846518 2.4856653922212093 2.7278072389936066 -0.54409434305340654 1.5187998197680082 -0.22334362934483842 -0.16816478723975123 -0.10887617740265074 0.37150461759796427 0.61791466338113299 -0.17485119492343587 1.1686537753413289 0.2399814858624833 -0.074574609787984858 1.4309491811101036 -0.13146048756599482 1.8734236869040137 0.8921085172500447 0.29280635028707158 1.5346243605071168 0.92090280288269466 -0.4031107561073049 0.65394774591899907 0.0066083308215243728 0.91235058469668917 0.32176820013193436 0.094525294746060765 -0.57670648654946766 0.55209168798502095 -0.39791471149894098 0.20708667420004323 0.47546001949295064 -0.44040767609802328 -0.20589823539342608 -0.13458484404195026 0.60860459970026104 -0.26208161075142222 -0.25971274245490272 0.068325940419985728 -0.19477879090967057
leaf_weight=201 18 52 28 37 18 224 18 22 15.999999999999998 23 21 15.000000000000002 25 81 284 41 27 201 297 22 33 24 402 18 21 22 14.999999999999998 18 28 125 26 279 137 29 399 22 47 195 22 38 22 41 96 29 15.999999999999998 542 27 95 26 35 93 21 18 86 43 20 108 58 169 17 90 870 52 171
leaf_count=201 18 52 28 37 18 224 18 22 16 23 21 15 25 81 284 41 27 201 297 22 33 24 402 18 21 22 15 18 28 125 26 279 137 29 399 22 47 195 22 38 22 41 96 29 16 542 27 95 26 35 93 21 18 86 43 20 108 58 169 17 90 870 52 171
internal_value=0 -0.0804965 1.78183 0.397844 2.7198 -0.17151 0.264317 1.08589 0.477023 1.23105 1.39519 2.3449 2.75369 -0.0267757 0.138236 0.451522 0.392322 0.516456 -0.240323 1.46982 0.835969 1.13058 -0.160444 1.57949 1.42711 1.90712 2.06285 -0.0569236 1.06969 0.0603669 0.208884 0.0468824 0.265177 -0.120098 -0.0666438 0.137771 0.53608 0.015078 1.92451 0.341281 1.37089 0.370022 0.47216 1.11904 1.44051 -0.30264 -0.263492 -0.025014 0.513046 -0.0608744 -0.0184062 -0.150918 0.0709585 -0.180079 -0.137694 0.801886 -0.306374 -0.0780842 -0.267313 0.173974 -0.124106 -0.279667 -0.137655 -0.306459
internal_weight=0 6043 273 966 101 5077 809 157 396 172 149 83 55 1636 591 197 364 288 3441 94 98 65 1508 131 110 43 30 766 50 413 236 469 155 1045 821 293 69 224 44 239 49 163 137 67 32 1933 1391 212 63 314 394 73 99 528 442 38 1179 76 742 110 185 978 177 573
internal_count=6316 6043 273 966 101 5077 809 157 396 172 149 83 55 1636 591 197 364 288 3441 94 98 65 1508 131 110 43 30 766 50 413 236 469 155 1045 821 293 69 224 44 239 49 163 137 67 32 1933 1391 212 63 314 394 73 99 528 442 38 1179 76 742 110 185 978 177 573
is_linear=0
shrinkage=0.107839


Tree=12
num_leaves=65
num_cat=0
split_feature=2 17 16 8 20 20 18 22 23 13 28 28 8 1 28 5 23 30 24 23 30 28 9 5 29 18 16 30 16 6 15 7 0 23 2 25 2 23 29 1 30 11 9 0 1 12 21 24 27 9 25 22 26 31 2 7 2 30 11 2 0 30 31 12
split_gain=62004.3 18219.7 9777.48 7588.5 6468.76 3822.86 3764.35 3644.43 2384.35 2824.91 2324.61 2974.53 2309.6 2100.45 2569.9 2081.87 1957.16 2032.61 2404.78 1725 1589.48 1519.75 1884.84 1269.26 1268.86 1189.16 1106.55 1003.59 973.169 939.582 939.175 930.325 864.823 813.286 754.264 737.799 693.708 684.25 758.872 908.237 850.019 865.059 650.562 586.653 576.567 543.094 538.891 529.774 1076.45 697.326 496.35 479.072 475.826 449.81 408.513 406.366 357.412 330.577 405.769 330.5 281.471 261.425 245.628 233.833
threshold=27.345000000000002 26.790000000000003 63.88000000000001 0.84500000000000008 78.995000000000019 16.125000000000004 101.03000000000002 111.96000000000002 136.65500000000003 11.535000000000002 -1.2868333333333333 13.717666666666668 1.4350000000000003 2.3050000000000002 6.4920000000000009 7.4850000000000012 168.76000000000002 4.030333333333334 2.061666666666667 233.42500000000004 1.2120000000000002 7.674500000000001 1.6250000000000002 10.015000000000002 -1.2937499999999997 62.955000000000005 38.415000000000006 -2.4863333333333331 46.64500000000001 0.085000000000000006 13.445000000000002 0.94500000000000006 18.065000000000001 105.98500000000001 18.120000000000005 2.9470000000000005 12.915000000000001 59.510000000000012 9.3967500000000026 2.6250000000000004 -0.5129999999999999 7.3250000000000011 -0.35499999999999993 24.395000000000003 3.5450000000000004 14.575000000000001 44.835000000000008 -0.094999999999999973 2.4246666666666674 2.4150000000000005 1.0590000000000004 138.56000000000003 -2.6864285714285709 43.160000000000004 1.3250000000000004 11.005000000000001 2.2250000000000005 -0.075833333333333294 4.9450000000000012 1.3250000000000004 0.87500000000000011 5.4620000000000006 183.62000000000003 13.075000000000001
decision_type=2 2 2 2 2 2 2 2 2 2 2 2 2 2 2 2 2 2 2 2 2 2 2 2 2 2 2 2 2 2 2 2 2 2 2 2 2 2 2 2 2 2 2 2 2 2 2 2 2 2 2 2 2 2 2 2 2 2 2 2 2 2 2 2
left_child=1 5 7 -4 8 37 -5 15 43 13 -6 26 29 42 19 31 21 18 -18 -15 27 22 44 -13 35 -16 34 -20 -28 -9 32 -2 51 -26 -12 -24 -11 57 39 -39 41 -41 -10 47 52 63 -19 -3 49 -49 -44 -14 -7 -42 -46 -31 -48 58 -1 -23 -58 -50 -40 -38
right_child=2 4 3 6 10 16 -8 12 9 36 11 23 30 14 25 -17 17 46 20 -21 -22 59 24 -25 33 -27 28 -29 -30 55 -32 -33 -34 -35 -36 -37 45 38 62 40 53 -43 50 -45 54 -47 56 48 61 -51 -52 -53 -54 -55 -56 -57 60 -59 -60 -61 -62 -63 -64 -65
leaf_value=-0.29584095259955367 -0.17621135207294972 -0.30412831105070876 1.4244465323041779 2.6887979534322737 2.2751177244059373 -0.3730837766845353 4.8942571198694234 2.6867242821319852 -0.19983450772928976 -0.082190244031701137 0.066306834978711704 0.83872212873024632 0.29252953942075366 0.97030601170683817 0.33471936955071607 1.4452764746358635 -0.00018545535553827884 -0.10556837629859159 1.2381125187615798 2.1059124295315197 1.5802627471409518 -0.29959910324638228 0.15175470376620698 2.0427528186315715 -0.081669781839689343 1.3650681934890603 1.5218807950211781 0.20714693858269456 0.41211590571897705 1.396873585775311 1.8347895137969827 0.7275674903645486 1.5652851719281817 0.21022820991943114 0.94025073097529421 0.92841554639916135 0.39091042162590883 -0.25052285187722378 -0.33358005871135188 0.048380256797740565 -0.47799919999840823 0.76070785207987945 0.92563109083298922 -0.41168181156727135 -0.062780283962150893 0.050796129475104063 0.0052618573081130628 0.19558234452281709 0.19016944193066074 1.2354130529141236 0.1809293792959199 1.0688900916555166 -0.13688721540411516 -0.099964299312993846 0.68169778192882058 2.1540666469796643 0.42818284710284721 -0.39806842370233148 0.10145058777752433 -0.15322196134397034 0.096712443112916574 -0.099804807874016882 -0.20666332979478447 0.93812768706258687
leaf_weight=205 27 41 28 18 14.999999999999998 132 18 21 35 124 49 15.999999999999998 19 60 99 26 70 270 15.999999999999998 21 25 405 25 28 233 14.999999999999998 20 35 17 17 20 26 19 212 14.999999999999998 33 21 594 532 114 40 24 14.999999999999998 38 20 39 169 15.000000000000002 58 14.999999999999998 34 18 399 431 14.999999999999998 15.999999999999998 55 399 35 322 65 96 266 15.999999999999998
leaf_count=205 27 41 28 18 15 132 18 21 35 124 49 16 19 60 99 26 70 270 16 21 25 405 25 28 233 15 20 35 17 17 20 26 19 212 15 33 21 594 532 114 40 24 15 38 20 39 169 15 58 15 34 18 399 431 15 16 55 399 35 322 65 96 266 16
internal_value=0 -0.0718158 1.58968 2.75593 0.375218 -0.150249 3.79153 1.23255 0.241114 0.384355 0.997124 0.864917 1.5836 0.606085 0.800286 0.654889 -0.0547076 0.0975542 0.455846 1.26472 0.875875 -0.114476 -0.0326701 1.60492 0.119226 0.470292 0.542538 0.530587 1.01199 2.12284 1.20045 0.267152 0.973902 0.0573917 0.271137 0.593648 0.0750431 -0.24076 -0.209735 -0.155647 -0.0631071 0.172263 0.15526 -0.0197706 -0.167659 0.331582 0.00397524 0.0464188 0.12453 0.715498 0.408899 0.670218 -0.195603 -0.132069 0.256282 1.764 0.106317 -0.337912 -0.237903 -0.234766 0.248636 0.00940627 -0.291274 0.627545
internal_weight=0 6043 273 64 902 5141 36 209 742 479 160 145 130 279 195 79 2501 705 146 81 76 1796 1069 44 503 114 101 51 37 54 76 53 56 445 64 58 200 2640 2001 1203 609 138 84 263 566 76 559 225 184 30 49 37 531 471 35 33 289 639 240 727 120 154 798 37
internal_count=6316 6043 273 64 902 5141 36 209 742 479 160 145 130 279 195 79 2501 705 146 81 76 1796 1069 44 503 114 101 51 37 54 76 53 56 445 64 58 200 2640 2001 1203 609 138 84 263 566 76 559 225 184 30 49 37 531 471 35 33 289 639 240 727 120 154 798 37
is_linear=0
shrinkage=0.107839


Tree=13
num_leaves=65
num_cat=0
split_feature=2 17 21 23 23 23 19 16 4 2 28 9 5 12 21 15 23 24 28 21 1 9 26 1 27 30 9 23 16 29 9 28 31 18 1 25 13 2 1 27 31 9 8 24 19 26 31 29 29 31 1 29 30 27 17 22 15 29 10 29 31 10 31 23
split_gain=49777.5 16995.2 7273.06 5144.06 3788.39 3509.83 2837.41 2579.2 2378.03 2035.18 1747.66 1687.68 1559.73 1700.38 1469.75 1338.64 1642.11 1335.75 2598.46 1940.38 1305.85 1472.4 1163.89 1722.08 1138.24 1129.28 1223.05 1085.58 1008.23 984.74 1410.06 872.783 844.251 1219.09 749.025 1116.6 709.23 686.141 733.443 607.507 578.014 569.681 551.438 545.912 527.268 454.059 484.283 436.755 630.772 432.826 573.243 813.542 560.52 575.213 423.677 368.449 341.813 322.904 790.737 390.407 304.496 301.779 355.503 292.936
threshold=16.145000000000003 61.280000000000008 41.185000000000009 281.90500000000003 163.35500000000002 227.28500000000003 82.65000000000002 70.935000000000016 1.1050000000000002 30.675000000000004 1.3008333333333335 1.3450000000000004 2.5150000000000001 13.865 10.395000000000001 12.055000000000001 105.98500000000001 1.5683333333333336 8.5243333333333364 80.290000000000006 9.5950000000000006 0.37500000000000006 6.6107142857142867 1.0050000000000001 14.562666666666667 -1.3614999999999999 3.0550000000000002 235.38000000000002 19.805000000000003 2.6976666666666671 5.1050000000000013 12.779333333333335 163.61000000000004 54.50500000000001 0.56500000000000006 10.941000000000001 11.905000000000003 21.610000000000003 5.245000000000001 2.5096666666666674 116.75500000000001 3.7450000000000006 0.015000000000000001 10.726666666666668 57.305000000000007 -2.577142857142857 45.235000000000007 -0.3544166666666666 5.0577500000000013 206.58000000000001 3.1550000000000007 9.2483333333333348 1.2120000000000002 -1.7436666666666663 68.330000000000013 5.5550000000000006 -2.1949999999999998 4.8100000000000005 4.6950000000000012 1.1490833333333337 56.790000000000006 17.805000000000003 205.24500000000003 223.78000000000003
decision_type=2 2 2 2 2 2 2 2 2 2 2 2 2 2 2 2 2 2 2 2 2 2 2 2 2 2 2 2 2 2 2 2 2 2 2 2 2 2 2 2 2 2 2 2 2 2 2 2 2 2 2 2 2 2 2 2 2 2 2 2 2 2 2 2
left_child=2 4 14 7 10 20 22 12 9 42 11 -2 36 54 55 16 49 -10 44 27 21 45 23 -7 -24 26 -18 -20 -25 30 -23 -21 -31 -34 -12 37 -3 -36 -39 -32 -28 -13 -6 -38 -19 -4 -47 -27 -49 52 -51 -52 53 -16 -14 -1 -48 58 -57 -60 -54 62 -37 -44
right_child=1 3 5 -5 8 6 -8 -9 17 -11 34 41 13 -15 15 -17 25 18 19 31 -22 29 24 28 -26 47 40 -29 -30 32 39 -33 33 -35 35 61 43 38 -40 -41 -42 -43 63 -45 -46 46 56 48 -50 50 51 -53 60 -55 -56 57 -58 -59 59 -61 -62 -63 -64 -65
leaf_value=-0.36011625114954204 -0.15483387227114662 1.4033669917889535 -0.40010918775448562 3.5044894448791535 -0.45442779416893964 -0.076352894788904113 1.5625802654804082 2.6123787975317976 0.32418591524078899 1.1856295282755103 -0.34767000265659603 0.73915222166358419 1.8643268644969655 2.8380768172026443 -0.31592568371614321 -0.25903533729363093 0.028281459171142751 2.4497729611461163 -0.031738970871904491 1.0175219035259129 -0.11328887722813177 0.23851673936634901 0.02769122053661497 0.60454656237627991 0.95456159465480739 -0.30465465343090958 0.49039999641564336 1.0764918342955008 1.5249918869840742 0.043360100023870383 1.6016548246085931 1.8241370878502372 0.22480183741507262 1.1492247674711669 0.17363321202242374 -0.060310696800081658 1.124487109759748 0.41694458160576436 1.4665688300270605 0.71164448229661481 1.2978055267527291 1.5433420301198959 0.45854530410805516 0.24361680438276617 1.5989595240174295 -0.41854892422024931 0.55154164756015189 0.1063901691028684 -0.079379290032135508 -0.31337230129187393 0.76300871600053777 -0.22079153504124918 -0.48777988693300189 -0.027553028501759204 1.0780094360365138 -0.23930919097143877 0.0080847056154458689 -0.27564238916745742 0.2279441435382783 -0.10762179762992577 -0.23963862312513087 -0.35336690330811033 0.48766286088423799 -0.062383168506214892
leaf_weight=289 15.999999999999998 39 45 19 14.999999999999998 24 26 25 22 30 35 20 14.999999999999998 14.999999999999998 109 623 58 18 26 39 410 65 107 31 18 59 29 17 25 229 14.999999999999998 26 79 21 26 50 18 16.000000000000004 14.999999999999998 22 15.999999999999998 21 37 14.999999999999998 15.999999999999998 29 14.999999999999998 366 507 25 23 17 66 307 17 507 131 740 69 97 447 24 19 19
leaf_count=289 16 39 45 19 15 24 26 25 22 30 35 20 15 15 109 623 58 18 26 39 410 65 107 31 18 59 29 17 25 229 15 26 79 21 26 50 18 16 15 22 16 21 37 15 16 29 15 366 507 25 23 17 66 307 17 507 131 740 69 97 447 24 19 19
internal_value=0 0.878828 -0.104289 1.83671 0.570871 0.120397 0.501322 1.61665 0.852569 0.440924 0.2624 0.784489 1.40747 1.89069 -0.170962 -0.120769 -0.0783142 1.10608 1.22722 0.96839 0.0374628 0.132406 0.366724 0.687916 0.161161 0.0167591 0.3556 0.406399 1.01546 0.248276 0.541025 1.34017 0.157515 0.418931 0.10154 0.206356 1.09203 0.582177 0.924827 1.07246 0.777478 1.15105 0.12626 0.724092 2.04939 -0.0945937 -0.0160326 -0.0206879 -0.00149656 -0.177309 0.0917144 0.344894 -0.196132 -0.103112 1.4466 -0.249171 0.0639193 -0.22648 -0.172423 0.0318604 -0.271563 -0.0239865 0.0905806 0.281802
internal_weight=0 670 5646 163 507 1292 231 144 265 101 242 57 119 47 4354 2652 2029 164 142 108 1061 651 205 80 125 1035 103 43 56 431 102 65 329 100 185 150 72 57 31 37 45 41 71 33 34 220 175 932 873 994 65 40 929 416 32 1702 146 1413 673 166 513 93 69 56
internal_count=6316 670 5646 163 507 1292 231 144 265 101 242 57 119 47 4354 2652 2029 164 142 108 1061 651 205 80 125 1035 103 43 56 431 102 65 329 100 185 150 72 57 31 37 45 41 71 33 34 220 175 932 873 994 65 40 929 416 32 1702 146 1413 673 166 513 93 69 56
is_linear=0
shrinkage=0.107839


Tree=14
num_leaves=65
num_cat=0
split_feature=16 2 18 22 22 31 16 2 23 28 1 1 9 28 4 28 1 2 12 4 19 28 5 29 9 23 4 30 16 24 7 6 24 28 14 31 2 30 24 15 9 1 3 23 3 1 26 29 23 3 3 2 0 8 27 31 27 31 24 14 13 31 21 28
split_gain=39753.2 12847.4 7593.1 4620.3 2755.1 2615.95 3350.67 2395.47 2348.37 1795.46 2201.67 1638.52 1617.93 1606.4 1594.88 1481.55 2063.93 1615.71 1643.51 1420.02 1308.37 1121.31 1033.64 1025.76 1366.42 1006.36 986.518 883.241 880.807 755.548 677.873 662.62 661.354 1412.14 610.386 592.647 584.362 450.197 438.391 959.004 451.999 433.418 432.557 427.465 408.38 404.996 378.305 495.858 303.357 293.56 290.227 281.955 255.683 227.9 241.987 224.305 258.13 214.949 214.495 207.653 189.753 189.558 169.57 166.688
threshold=43.315000000000005 15.425000000000002 94.020000000000024 82.440000000000012 104.15500000000002 114.73000000000002 70.935000000000016 1.1150000000000004 143.55000000000004 8.6531666666666691 2.3950000000000005 -0.28499999999999998 4.5450000000000008 3.8290000000000002 18.395000000000003 9.6385000000000023 2.3950000000000005 8.2150000000000016 3.1050000000000004 0.10500000000000002 38.455000000000005 3.6381666666666672 0.03500000000000001 4.7108333333333343 5.6950000000000012 296.72000000000008 0.59500000000000008 5.9088333333333347 56.785000000000004 2.348333333333334 0.015000000000000001 0.99500000000000011 -0.4449999999999999 7.2148333333333339 6.8550000000000013 165.32000000000002 21.610000000000003 -1.6999999999999997 -1.0599999999999998 5.495000000000001 5.1050000000000013 1.1050000000000002 1.0650000000000002 72.16500000000002 1.5150000000000003 11.865 -1.5471428571428569 -0.81116666666666659 136.65500000000003 6.6650000000000009 5.8650000000000011 23.750000000000004 2.7150000000000003 0.17500000000000002 13.039666666666667 44.500000000000007 8.1953333333333358 70.955000000000027 11.055000000000001 5.8150000000000004 1.0000000180025095e-35 158.08500000000004 35.580000000000005 14.994500000000002
decision_type=2 2 2 2 2 2 2 2 2 2 2 2 2 2 2 2 2 2 2 2 2 2 2 2 2 2 2 2 2 2 2 2 2 2 2 2 2 2 2 2 2 2 2 2 2 2 2 2 2 2 2 2 2 2 2 2 2 2 2 2 2 2 2 2
left_child=1 3 8 15 9 -4 14 37 -2 10 12 -6 41 29 -7 16 43 23 42 22 38 -12 30 24 -18 32 34 -21 31 -13 -10 -29 60 -34 -15 -33 -23 -5 -9 40 -40 51 -19 57 -28 -46 -45 -48 -17 55 53 -3 -52 -11 -55 -39 -57 -1 -25 -20 -22 -50 -59 -51
right_child=2 4 5 7 11 6 -8 20 19 50 21 13 -14 26 -16 48 17 18 59 27 25 36 -24 58 -26 -27 44 28 -30 -31 -32 35 33 -35 -36 -37 -38 49 39 -41 -42 -43 -44 46 45 -47 47 -49 61 63 52 -53 -54 54 -56 56 -58 62 -60 -61 -62 -63 -64 -65
leaf_value=-0.3797193592222356 -0.080581124877792162 -0.066051903364367115 1.2662839781051876 0.37848450776031017 -0.23848970103766243 2.932794736295814 4.1204851487213521 -0.24746472667093189 1.5092242863097072 -0.35416558769434664 1.5126383907079259 1.0609723982383263 1.1619112156102951 0.82511199194278573 1.3602295774141788 -0.29376994231655601 -0.10195078639955325 0.56475234037377942 0.32114978286355306 2.117191741007316 -0.28535263061652849 0.17988385866090034 0.0095960009904190024 -0.19475399126633219 0.18974899596656963 1.063734388345275 0.45358385430742826 0.40141258605411528 1.7951185865776778 2.1262962660040285 0.65487039839851346 0.93834454517037535 0.69742418894585578 0.19047140611211749 -0.0098470256659917536 1.7559066784007504 1.0052755160559603 -0.44910382484788186 0.2157291742390319 -0.02347763043282769 0.69513022251601952 0.41808217190198826 1.3046278596618748 -0.24759588553532619 0.8654590788517863 1.395002693927708 0.1795256945990856 -0.14198904544227967 -0.24617365109743994 0.086378600189915417 -0.021174562543787221 -0.61821304201946503 0.48366459379012222 0.33589197598217307 -0.15563042158787754 -0.00058528673014181763 -0.16538507398736735 -0.2182068273633021 -0.017090888061187862 -0.083686139538319076 0.14810738381778282 -0.10798776620853717 -0.5774869000773355 -0.19016479865298877
leaf_weight=178 21 38 18 25 17 15.000000000000002 14.999999999999998 46 18 35 27 16.000000000000004 14.999999999999998 15.999999999999998 14.999999999999998 824 422 17 23 15.999999999999998 23 19 17 470 335 22 20 14.999999999999998 24 14.999999999999998 27 29 100 177 28 15.999999999999998 21 24 66 207 35 15.999999999999998 20 358 71 22 63 487 261 139 28 14.999999999999998 20 17 37 164 339 338 95 41 24 207 15.999999999999998 31
leaf_count=178 21 38 18 25 17 15 15 46 18 35 27 16 15 16 15 824 422 17 23 16 23 19 17 470 335 22 20 15 24 15 27 29 100 177 28 16 21 24 66 207 35 16 20 358 71 22 63 487 261 139 28 15 20 17 37 164 339 338 95 41 24 207 16 31
internal_value=0 -0.0544646 1.3439 -0.10111 0.473209 2.36501 2.8045 0.066672 0.992372 0.258129 0.5146 0.775371 0.146843 0.86705 2.14651 -0.158532 -0.115274 -0.023167 0.392561 1.13146 0.20882 0.975669 0.725979 -0.0549284 0.027137 0.357946 0.726977 1.38286 1.24298 1.57645 0.996612 1.02213 0.310023 0.373487 0.293774 1.22903 0.613214 -0.0711446 0.0630634 0.109441 0.381858 -0.073824 0.964685 -0.206293 0.895658 0.990727 -0.161319 -0.105161 -0.254389 -0.0872719 -0.0245515 -0.222324 0.189175 -0.13982 -0.000891889 -0.127021 -0.111653 -0.283052 -0.164881 0.0618018 -0.0640113 -0.185053 -0.234445 0.0359501
internal_weight=0 6070 246 5577 493 63 45 1422 183 288 151 205 84 188 30 4155 2863 1423 101 162 700 67 62 1322 757 346 157 100 84 31 45 60 324 277 44 45 40 722 354 308 101 69 37 1440 113 93 908 550 1292 697 137 53 48 89 54 527 503 532 565 64 47 468 354 170
internal_count=6316 6070 246 5577 493 63 45 1422 183 288 151 205 84 188 30 4155 2863 1423 101 162 700 67 62 1322 757 346 157 100 84 31 45 60 324 277 44 45 40 722 354 308 101 69 37 1440 113 93 908 550 1292 697 137 53 48 89 54 527 503 532 565 64 47 468 354 170
is_linear=0
shrinkage=0.107839


Tree=15
num_leaves=65
num_cat=0
split_feature=2 19 16 8 22 7 15 2 22 2 8 7 30 4 20 23 2 5 15 9 29 30 23 12 9 29 14 23 29 9 29 1 1 1 31 31 4 6 24 17 22 22 9 17 28 31 1 23 31 26 30 26 4 16 0 31 0 4 7 31 11 22 28 29
split_gain=31740.6 9515.92 5082.59 4427.51 3325.84 2996.18 2192.73 2106.24 1979.22 1888.51 1506.86 1352.62 1189.37 1175.17 1467.39 1059.4 1397.49 988.171 901.783 817.989 1539.1 1578.54 1489.19 1057.57 914.119 930.327 762.784 740.18 876.916 1306.96 896.877 676.822 627.905 1106.19 724.846 623.125 621.339 603.831 564.476 484.492 413.298 405.894 399.174 383.397 376.713 352.308 347.393 339.618 321.276 308.077 291.691 342.088 281.57 266.944 262.242 247.475 312.305 245.707 201.38 198.797 189.049 175.461 168.275 164.981
threshold=27.345000000000002 36.245000000000012 63.88000000000001 0.84500000000000008 143.23000000000005 1.155 15.615 16.145000000000003 111.96000000000002 1.3250000000000004 1.4350000000000003 1.0000000180025095e-35 -1.5964999999999998 31.785000000000004 90.570000000000007 142.94500000000002 17.830000000000002 7.4850000000000012 12.215000000000002 -0.73499999999999988 3.9297500000000003 2.9228333333333336 140.69500000000002 -1.575 4.5450000000000008 -0.3544166666666666 6.2250000000000005 87.055000000000021 5.3955833333333336 5.6950000000000012 1.1490833333333337 5.5650000000000004 9.6850000000000005 1.5250000000000001 175.11000000000004 147.11500000000004 9.9700000000000024 0.085000000000000006 2.5116666666666672 46.255000000000003 104.79500000000002 38.270000000000003 13.845000000000001 0.35500000000000009 14.529166666666669 176.77000000000001 7.4650000000000007 206.27500000000003 207.86500000000004 -0.48928571428571421 -0.31216666666666665 -0.96214285714285697 0.015000000000000001 26.235000000000003 11.090000000000002 197.85500000000002 7.0100000000000007 8.0350000000000019 11.005000000000001 207.86500000000004 9.2150000000000016 106.69000000000001 6.9210000000000003 12.301833333333335
decision_type=2 2 2 2 2 2 2 2 2 2 2 2 2 2 2 2 2 2 2 2 2 2 2 2 2 2 2 2 2 2 2 2 2 2 2 2 2 2 2 2 2 2 2 2 2 2 2 2 2 2 2 2 2 2 2 2 2 2 2 2 2 2 2 2
left_child=1 9 8 -4 7 -5 13 12 11 27 37 -2 38 14 45 54 -17 39 -16 -11 21 24 23 -23 41 -26 -18 50 29 49 46 -12 33 53 -35 -28 -33 -10 -3 -13 44 -21 -8 -32 48 57 -31 59 -22 -29 51 -1 -51 -14 -9 61 -57 -6 -39 63 -49 -34 -42 -30
right_child=2 4 3 5 6 -7 42 15 10 19 31 17 32 -15 18 16 26 -19 -20 20 40 22 -24 -25 25 -27 35 28 47 30 43 36 55 34 -36 -37 -38 58 -40 -41 62 -43 -44 -45 -46 -47 -48 60 -50 52 -52 -53 -54 -55 -56 56 -58 -59 -60 -61 -62 -63 -64 -65
leaf_value=-0.26478763139462919 -0.18289613466533125 0.20173059858645054 0.96119744120034145 3.7530697374074933 -0.053484971045915097 1.7854622495928882 1.1138672047135103 -0.042054058544303531 2.0262039969113488 -0.19415008738652803 0.29061701078303936 -0.02169265053319009 -0.066045695531461099 -0.36422181954021737 1.7737814433566361 1.3872340851327662 1.012166862782532 1.3648586316364004 0.68759907067892789 -0.20382526997156689 -0.097440228170946525 1.0111407718582319 1.2689150977852781 -0.08624364025966208 1.0135826224532021 0.20127796490863198 0.0080428226074218748 -0.18747690976349787 -0.17624506668869169 0.33415917997202577 -0.10243861592133388 0.66222911755236979 -0.22373558583687703 0.14800765383839676 0.56329904952900411 0.60007243051394288 1.3806446722170302 1.0280489096516912 0.89279541987240563 0.80508999598821507 0.43675219446626523 0.074357285917644969 1.8580398546523762 0.24050146525263622 -0.26900877150878938 0.67962432372795489 1.0161575780572829 0.12805106165378563 0.12636442364501582 -0.17667984251954655 -0.26558447468763241 -0.057781609092972405 0.048786838594620123 -0.50758747303932006 0.39178637132029387 -0.1745439210939434 0.30097860418678374 0.39186390522529685 1.5610846451931897 -0.096576310456658251 -0.11535190726883039 -0.015807970654614738 0.062670722235932869 -0.26512263139739262
leaf_weight=169 26 27 28 18 25 18 19 43 21 261 20 15.999999999999998 138 17 15.999999999999998 24 24 20 20 92 523 14.999999999999998 27 32 20 91 39 309 521 15.999999999999998 64 28 137 218 63 44 28 17 28 17 15.999999999999998 181 14.999999999999998 93 128 26 19 56 87 100 834 206 181 18 26 29 36 34 15.999999999999998 188 110 72 111 455
leaf_count=169 26 27 28 18 25 18 19 43 21 261 20 16 138 17 16 24 24 20 20 92 523 15 27 32 20 91 39 309 521 16 64 28 137 218 63 44 28 17 28 17 16 181 15 93 128 26 19 56 87 100 834 206 181 18 26 29 36 34 16 188 110 72 111 455
internal_value=0 -0.0513827 1.13738 1.97824 0.229563 2.76927 0.666461 0.151772 0.879898 -0.116564 1.13859 0.454194 0.0704062 0.475342 0.593297 0.463403 0.64353 0.766729 1.17035 -0.0196759 0.0147442 0.174591 0.630649 0.263985 0.0867049 0.347639 0.476718 -0.162777 -0.124258 -0.0336366 0.210751 0.829116 0.0330325 0.113278 0.241116 0.32189 1.02144 1.57416 0.553545 0.404226 -0.0698915 -0.0193892 1.44218 0.100704 -0.100814 0.3489 0.704387 -0.17754 -0.0655205 -0.113166 -0.230066 -0.151072 -0.0314504 -0.116993 0.121422 -0.0949507 0.0888224 0.203157 1.28649 -0.198119 -0.0332401 -0.152105 0.109799 -0.217679
internal_weight=0 6043 273 64 1138 36 172 966 209 4905 130 79 766 138 121 200 131 53 36 1584 1323 458 74 47 384 111 107 3321 2112 782 192 76 711 437 281 83 56 54 55 33 865 273 34 157 738 85 35 1330 610 590 1209 375 281 156 69 274 65 59 33 1164 166 209 127 976
internal_count=6316 6043 273 64 1138 36 172 966 209 4905 130 79 766 138 121 200 131 53 36 1584 1323 458 74 47 384 111 107 3321 2112 782 192 76 711 437 281 83 56 54 55 33 865 273 34 157 738 85 35 1330 610 590 1209 375 281 156 69 274 65 59 33 1164 166 209 127 976
is_linear=0
shrinkage=0.107839


Tree=16
num_leaves=65
num_cat=0
split_feature=16 2 20 22 23 23 16 25 1 0 18 20 30 23 26 24 27 23 28 3 28 22 28 1 28 19 30 9 14 24 29 24 28 2 24 1 29 3 9 14 31 7 23 3 11 2 26 31 29 15 23 31 29 22 31 22 3 21 9 10 23 3 18 26
split_gain=25441.6 8362.26 5140.13 2911.56 2070.19 1993.78 1903.92 1868.29 1914.74 1754.87 1422.42 1376.38 1151.49 906.906 885.227 1151.6 1036.33 846.094 1037.86 1308.89 800.226 758.508 752.782 1401.5 1088.12 1136.67 679.256 787.86 616.346 681.78 836.723 617.15 613.174 601.401 587.472 550.964 965.695 405.769 490.081 821.089 351.054 334.253 336.737 324.078 315.895 297.611 294.089 282.376 521.879 277.6 228.97 216.978 212.558 210.606 209.791 200.296 190.144 185.05 172.904 213.078 168.455 149.525 143.941 171.116
threshold=43.315000000000005 13.075000000000001 113.45000000000002 73.495000000000019 136.65500000000003 143.55000000000004 70.935000000000016 10.941000000000001 0.85500000000000009 46.460000000000008 54.50500000000001 45.970000000000006 -0.12283333333333336 324.69000000000005 8.4057142857142875 3.395 4.868333333333335 254.59500000000006 11.155000000000003 13.515000000000002 0.95466666666666677 138.56000000000003 9.4375000000000018 6.4350000000000014 4.4471666666666669 14.350000000000001 -0.075833333333333294 2.5650000000000004 6.0150000000000006 2.061666666666667 1.1490833333333337 4.2783333333333342 15.163333333333336 2.8350000000000004 8.9199999999999999 5.745000000000001 6.8922500000000007 0.42500000000000004 -0.8849999999999999 -4.1649999999999991 195.16500000000005 0.57500000000000007 216.62000000000003 0.015000000000000001 6.9850000000000012 2.2250000000000005 -0.96214285714285697 227.35500000000005 7.822916666666667 9.6050000000000022 136.65500000000003 44.500000000000007 13.708333333333334 162.74500000000003 41.090000000000011 52.045000000000009 6.535000000000001 55.07500000000001 1.3450000000000004 16.355000000000004 99.170000000000002 0.25500000000000006 0.034999999999999996 -2.964285714285714
decision_type=2 2 2 2 2 2 2 2 2 2 2 2 2 2 2 2 2 2 2 2 2 2 2 2 2 2 2 2 2 2 2 2 2 2 2 2 2 2 2 2 2 2 2 2 2 2 2 2 2 2 2 2 2 2 2 2 2 2 2 2 2 2 2 2
left_child=1 3 5 22 26 -2 -4 8 20 10 -7 28 -10 14 15 46 -17 18 19 -12 -6 41 23 37 25 34 27 -3 29 62 31 -31 -20 -27 -25 44 -37 54 -39 -40 53 42 -9 -28 -14 61 -13 -26 -49 -47 -24 -32 57 56 -1 -45 -30 -43 -57 -60 -56 -16 -5 -64
right_child=2 4 6 11 7 9 -8 21 12 -11 17 13 35 -15 45 16 -18 -19 32 -21 -22 -23 50 24 47 33 43 -29 40 30 51 -33 -34 -35 -36 36 -38 38 39 -41 -42 52 -44 55 -46 49 -48 48 -50 -51 -52 -53 -54 -55 60 58 -58 -59 59 -61 -62 -63 63 -65
leaf_value=-0.32613130916497585 -0.1069753131715081 -0.10723118714111633 1.5387193213224504 -0.38306890602353139 0.53541010433874991 0.3688486443163812 3.2569000078678325 -0.2738061080801818 1.580118505197208 0.014319430381387138 0.94336700351386849 -0.21702875572518465 0.69495506612078606 0.96845933170818244 -0.2415582498720143 1.0183837170685077 0.32095161469386707 1.7921718107876299 0.61693351779119421 2.0468650675731981 -0.32305757919336825 0.72241008732684409 -0.24468640081527959 -0.040150939633577735 -0.080470942264173992 0.42127138050935559 -0.41758854956525049 0.76008250330870053 -0.20081801031812008 0.26668779393657482 -0.25782527338925365 1.0948180994945764 1.2570000274322877 1.2290882014139204 0.46995208176639308 1.3794357020902142 0.65575050305882243 -0.19693077864822281 0.55006412651173731 -0.061086278030233067 0.039639444351904821 -0.071305223769626599 0.28173406472281221 -0.21558876836513727 0.27600716861493069 0.55592213595385997 0.16759073547944417 0.62437008658026583 -0.18593443535883875 0.078636542741296847 -0.14346452090494083 0.12534963565266738 0.4878592466084512 0.21002864236253055 -0.2075369164907466 -0.24341719207302331 -0.03133512459022475 0.39808076303969447 0.2614652839938259 -0.15553566556786791 -0.11105816825523351 -0.013448651443681471 -0.19733351748947142 0.0061197908010180314
leaf_weight=125 21 21 15.000000000000002 15.999999999999998 23 26 14.999999999999998 43 20 19 25 29 50 15.999999999999998 48 37 75 26 46 25 28 25 775 97 424 29 25 29 373 25 19 18 28 17 36 32 65 333 27 481 144 28 18 34 36 15.999999999999998 114 19 18 124 391 180 25 18 684 14.999999999999998 97 14.999999999999998 57 19 304 110 66 177
leaf_count=125 21 21 15 16 23 26 15 43 20 19 25 29 50 16 48 37 75 26 46 25 28 25 775 97 424 29 25 29 373 25 19 18 28 17 36 32 65 333 27 481 144 28 18 34 36 16 114 19 18 124 391 180 25 18 684 15 97 15 57 19 304 110 66 177
internal_value=0 -0.0435712 1.07511 -0.085801 0.335802 0.891402 2.39781 0.475122 0.654807 0.99892 1.10521 0.0312234 0.803212 0.168067 0.144909 0.292404 0.551353 1.23285 1.11557 1.49512 0.0640945 0.178759 -0.138773 -0.106423 0.0320805 0.257737 0.0515895 0.395811 -0.0375002 0.0518329 0.181976 0.613347 0.859121 0.719812 0.0979221 0.718305 0.894492 -0.151787 -0.0952541 -0.0286039 -0.108317 0.0734008 -0.109876 -0.063151 0.519582 0.0186964 0.089591 -0.055539 0.230168 0.133183 -0.210743 0.0887651 0.237811 -0.151976 -0.194504 0.00773654 -0.16584 0.0924341 0.0911768 0.157215 -0.177851 -0.0827478 -0.069768 -0.0491391
internal_weight=0 6070 246 5462 608 216 30 408 254 195 176 1702 203 569 553 255 112 150 124 50 51 154 3760 2594 640 179 200 50 1133 501 242 43 74 46 133 183 97 1954 841 508 632 129 61 150 86 298 143 461 37 140 1166 199 68 488 1113 125 470 43 91 76 988 158 259 243
internal_count=6316 6070 246 5462 608 216 30 408 254 195 176 1702 203 569 553 255 112 150 124 50 51 154 3760 2594 640 179 200 50 1133 501 242 43 74 46 133 183 97 1954 841 508 632 129 61 150 86 298 143 461 37 140 1166 199 68 488 1113 125 470 43 91 76 988 158 259 243
is_linear=0
shrinkage=0.107839


Tree=17
num_leaves=65
num_cat=0
split_feature=2 17 2 16 20 1 27 9 28 24 28 1 23 11 23 30 12 24 2 26 31 2 23 14 4 2 22 28 12 10 31 10 22 31 30 28 7 30 26 29 31 30 9 27 23 2 26 28 0 2 31 21 28 0 16 18 15 28 1 30 23 22 18 30
split_gain=20520 6312.65 3564.84 2834.39 2714.36 1622.42 1724.84 1317.49 1473.52 1217.52 2207.34 2341.83 1713.89 1352.25 927.53 1030.18 906.435 991.652 863.53 787.462 819.738 783.556 749.495 683.187 633.494 694.923 606.899 652.828 551.783 493.733 486.881 475.802 453.526 437.741 536.601 427.316 509.898 402.87 525.77 388.389 324.659 309.402 496.329 308.188 284.206 236.036 227.473 331.402 220.033 212.619 202.79 197.818 218.191 196.388 192.37 182.532 178.578 146.196 138.587 129.615 122.673 121.869 119.597 119.158
threshold=27.345000000000002 18.065000000000001 44.335000000000008 66.52000000000001 78.995000000000019 0.56500000000000006 14.381000000000002 14.315000000000003 -1.2868333333333333 -0.57833333333333325 6.9210000000000003 2.3950000000000005 233.42500000000004 0.46500000000000002 98.700000000000017 -2.5894999999999997 12.925000000000002 11.291666666666668 34.045000000000009 11.512857142857145 41.090000000000011 16.145000000000003 168.76000000000002 11.935 1.0000000180025095e-35 17.340000000000003 56.590000000000011 0.76433333333333342 15.585000000000003 8.6700000000000017 86.590000000000018 5.2550000000000008 29.725000000000001 190.16500000000005 8.9800000000000022 3.467166666666667 6.1150000000000011 -0.40716666666666662 -1.6735714285714283 2.9135833333333339 56.790000000000006 3.9306666666666668 10.715000000000002 9.033333333333335 263.27500000000003 4.8750000000000009 -0.96214285714285697 0.097166666666666665 5.3750000000000009 20.050000000000004 253.02000000000001 0.055000000000000014 0.23866666666666667 10.755000000000001 30.840000000000003 67.345000000000013 -3.8849999999999993 -0.38533333333333331 6.5250000000000012 14.412666666666668 148.87500000000003 52.470000000000006 -1.0000000180025095e-35 1.0993333333333335
decision_type=2 2 2 2 2 2 2 2 2 2 2 2 2 2 2 2 2 2 2 2 2 2 2 2 2 2 2 2 2 2 2 2 2 2 2 2 2 2 2 2 2 2 2 2 2 2 2 2 2 2 2 2 2 2 2 2 2 2 2 2 2 2 2 2
