tree
version=v3
num_class=1
num_tree_per_iteration=1
label_index=0
max_feature_idx=31
objective=regression
feature_names=precip temp lag1precip lag2precip lag3precip lag4precip lag5precip lag6precip lag7precip lag1temp lag2temp lag3temp lag4temp lag5temp lag6temp lag7temp sum2precip sum3precip sum4precip sum5precip sum6precip sum7precip sum15precip sum30precip mean3temp mean5temp mean7temp mean15temp mean30temp mean60temp mean30templag30 sum30precilag30
feature_infos=[0:73.379999999999995] [-15.59:24.670000000000002] [0:73.379999999999995] [0:73.379999999999995] [0:73.379999999999995] [0:73.379999999999995] [0:73.379999999999995] [0:73.379999999999995] [0:73.379999999999995] [-15.59:24.670000000000002] [-15.59:24.670000000000002] [-15.59:24.670000000000002] [-15.59:24.670000000000002] [-15.59:24.670000000000002] [-15.59:24.670000000000002] [-15.59:24.670000000000002] [0:94.609999999999999] [0:103.38] [0:104.64999999999999] [0:124.64] [0:149.21000000000001] [1.9081958235744878e-17:152.69999999999999] [0.090000000000000066:216.13] [0.67999999999999983:346.75999999999999] [-15.016666666666666:23.596666666666668] [-14.539999999999999:23.148] [-13.48:23.231428571428573] [-11.228:21.980666666666668] [-6.4046666666666665:20.82] [-3.6771666666666665:19.192499999999999] [-6.4046666666666665:20.82] [0.67999999999999983:346.75999999999999]
tree_sizes=1203 1207 1201 1189 1209 1205 1196 1206 1201 1211 1211 1212 1233 1219 1211 1232 1221 1240 1213 1203 1217 1209 1216 1217 1210 1217 1209 1202 1214 1223 1195 1202 1223 1216 1202 1205 1219 1209 1226 1208 1210 1198 1210 1234 1209 1198 1216 1220 1233 1198 1213 1231 1216 1211 1225 1202 1213 1216 1215 1229 1231 1214 1209 1228 1209 1242 1225 1225 1203 1210 1221 1209 1205 1203 1216 1218 1229 1233 1231 1213 1253 1233 1218 1225 1239 1212 1233 1231 1216 1211 1181 1218 1219 1195 1203 1228 1227 1215 1212 1202 1227 1210 1204 1238 1238 1226 1220 1233 1225 1227 1220 1236 1215 1193 1218 1217 1218 1199 1204 1233 1211 1208 1221 1237 1227 1226 1203 1217 1225 1209 1233 1202 1237 1208 1233 1201 1220 1227 1243 1229 1223 1220 1235 1226 1241 1208 1230 1203 1205 1201 1227 1200 1220 1228 1222 1231 1226 1207 1200 1229 1222 1221 1212 1225 1220 1217 1207 1241 1205 1219 1209 1247 1225 1208 1240 1232 1223 1165 1233 1243 1237 1193 1229 1229 1208 1202 1244 1219 1226 1225 1206 1229 1220 1216 1216 1205 1226 1228 1243

Tree=0
num_leaves=13
num_cat=0
split_feature=2 21 20 2 2 19 4 28 29 21 3 21
split_gain=1.48289e+07 2.58309e+06 2.40338e+06 1.06492e+06 784259 358264 309778 291627 269007 261870 247738 226232
threshold=18.545000000000005 71.330000000000013 31.675000000000004 35.375000000000007 8.4150000000000009 82.320000000000007 7.1800000000000006 1.2673333333333334 11.186916666666669 19.845000000000002 6.3350000000000009 55.085000000000001
decision_type=2 2 2 2 2 2 2 2 2 2 2 2
left_child=2 8 9 -3 10 7 -5 -6 -2 -1 -4 -9
right_child=1 3 4 6 5 -7 -8 11 -10 -11 -12 -13
leaf_value=48.428860224647153 85.845447857440107 102.97878522800988 54.133392754461504 127.56567502150054 81.503686027485173 98.445476364918648 160.23340688690104 58.992447613938644 68.953717072805091 52.417165041315279 61.713584914579044 71.913543469343225
leaf_weight=2860 137 161 564 63 80 25 24 174 96 1504 476 152
leaf_count=2860 137 161 564 63 80 25 24 174 96 1504 476 152
internal_value=56.0906 97.385 52.6865 114.765 61.2399 70.0162 136.577 68.2656 78.8858 49.8034 57.6028 65.017
internal_weight=0 481 5835 248 1471 431 87 406 233 4364 1040 326
internal_count=6316 481 5835 248 1471 431 87 406 233 4364 1040 326
is_linear=0
shrinkage=1


Tree=1
num_leaves=13
num_cat=0
split_feature=2 19 19 2 20 3 23 29 10 23 21 24
split_gain=8.5978e+06 1.70512e+06 1.15978e+06 454716 436966 362126 293519 269552 229959 226397 220512 149901
threshold=20.460000000000004 41.515000000000008 68.010000000000005 35.375000000000007 21.345000000000002 15.090000000000002 194.98500000000004 10.955916666666669 12.205000000000002 159.99500000000003 75.540000000000006 12.448333333333336
decision_type=2 2 2 2 2 2 2 2 2 2 2 2
left_child=1 4 6 -4 -1 11 -2 9 -5 -6 -7 -3
right_child=2 5 3 8 7 10 -8 -9 -10 -11 -12 -13
leaf_value=-5.4608630751284828 17.932317787907795 8.4046854608616872 38.41645840457042 80.380858233002471 -0.2093014043644601 10.984043733940858 37.081311536386025 -4.4269440942877409 52.724254820574188 8.3061229421973053 26.014661621535939 -1.6451108454608112
leaf_weight=3439 175 260 97 30 858 147 66 728 45 239 97 135
leaf_count=3439 175 260 97 30 858 147 66 728 45 239 97 135
internal_value=0 -2.38793 34.1306 49.4791 -3.83684 9.54805 23.1764 -0.776566 63.7869 1.64593 16.9593 4.96994
internal_weight=0 5903 413 172 5264 639 241 1825 75 1097 244 395
internal_count=6316 5903 413 172 5264 639 241 1825 75 1097 244 395
is_linear=0
shrinkage=0.244687


Tree=2
num_leaves=13
num_cat=0
split_feature=2 20 3 2 29 22 2 29 23 22 23 27
split_gain=5.09655e+06 1.26408e+06 574777 502007 266553 262945 195355 192225 234014 177870 150080 144738
threshold=14.955000000000002 59.70000000000001 6.2300000000000013 43.980000000000004 10.479083333333335 113.01500000000001 26.220000000000002 10.479083333333335 132.45500000000001 112.06500000000001 151.33500000000001 11.668666666666669
decision_type=2 2 2 2 2 2 2 2 2 2 2 2
left_child=2 4 7 6 10 -4 -3 8 -1 -8 -2 -11
right_child=1 3 5 -5 -6 -7 9 -9 -10 11 -12 -13
leaf_value=-3.4361515962937839 10.126681398420207 21.049356313576251 0.97029330294396898 58.494017636137009 1.6260434396137147 11.107590065723903 20.985466969917919 -5.5316554176318702 2.114217553037085 49.192462220120667 24.41092532430142 31.295432421799607
leaf_weight=2190 111 135 915 36 140 184 46 1802 574 48 73 62
leaf_count=2190 111 135 915 36 140 184 46 1802 574 48 73 62
internal_value=0 20.5039 -2.35623 31.2365 9.67193 2.66753 27.8644 -3.56541 -2.28351 33.7621 15.7938 39.105
internal_weight=0 651 5665 327 324 1099 291 4566 2764 156 184 110
internal_count=6316 651 5665 327 324 1099 291 4566 2764 156 184 110
is_linear=0
shrinkage=0.244687


Tree=3
num_leaves=13
num_cat=0
split_feature=2 20 21 2 14 29 24 24 18 21 3 10
split_gain=2.9229e+06 883128 363048 241367 206337 165180 243099 139660 124596 120409 118757 114136
threshold=13.290000000000001 67.665000000000006 47.815000000000005 43.980000000000004 8.5750000000000011 7.9812500000000011 1.3583333333333336 0.91666666666666674 41.490000000000009 45.600000000000009 19.165000000000003 14.615
decision_type=2 2 2 2 2 2 2 2 2 2 2 2
left_child=2 4 5 11 7 6 -1 -2 -6 -9 -4 -3
right_child=1 3 10 -5 8 -7 -8 9 -10 -11 -12 -13
leaf_value=-4.2062337697988266 -3.9465464724761197 24.69878662056535 1.6398479427376049 44.181320187218027 -0.70690344568177688 -4.2191378711675265 0.67182908427557853 9.7228266953841267 9.9797104460222776 21.883496954466477 9.6684991726308009 8.2884375079625876
leaf_weight=1045 24 203 603 36 163 2299 1475 97 109 98 135 29
leaf_count=1045 24 203 603 36 163 2299 1475 97 109 98 135 29
internal_value=0 14.2428 -1.94535 25.5401 8.07646 -2.71931 -1.35102 13.6666 3.5756 15.8343 3.1085 22.6475
internal_weight=0 759 5557 268 491 4819 2520 219 272 195 738 232
internal_count=6316 759 5557 268 491 4819 2520 219 272 195 738 232
is_linear=0
shrinkage=0.244687


Tree=4
num_leaves=13
num_cat=0
split_feature=2 2 23 21 24 22 23 25 24 9 29 23
split_gain=1.72593e+06 650638 263368 260501 220613 180702 154693 101929 83582.3 73286.2 87341.2 71099.7
threshold=26.220000000000002 6.8150000000000004 145.08500000000004 111.91500000000001 10.625000000000002 51.630000000000003 142.24500000000003 11.662000000000001 13.768333333333336 2.0950000000000002 1.8005833333333336 165.36500000000004
decision_type=2 2 2 2 2 2 2 2 2 2 2 2
left_child=1 5 -3 6 9 -1 -2 11 -8 -4 -11 -7
right_child=3 2 4 -5 -6 7 8 -9 -10 10 -12 -13
leaf_value=-3.4417205976795779 5.3104657503404882 0.81439074447621573 4.4212337186087254 45.411230495156154 2.584047656640772 -0.21232317976868564 23.164571446259082 -2.4203721836492713 11.384685264534772 22.111708730193886 11.651581148005041 3.7713074630302188
leaf_weight=2660 53 594 56 21 237 936 145 929 48 63 198 376
leaf_count=2660 53 594 56 21 237 936 145 929 48 63 198 376
internal_value=0 -0.849796 4.39356 19.2525 8.23115 -2.07799 17.0194 -0.459281 20.2349 12.4531 14.1764 0.929327
internal_weight=0 6049 1148 267 554 4901 246 2241 193 317 261 1312
internal_count=6316 6049 1148 267 554 4901 246 2241 193 317 261 1312
is_linear=0
shrinkage=0.244687


Tree=5
num_leaves=13
num_cat=0
split_feature=20 2 2 30 12 9 27 23 31 22 28 3
split_gain=1.06525e+06 300667 234005 131872 115328 106405 91608.5 84479.3 78687.5 77317.9 78813 70299.1
threshold=59.70000000000001 26.220000000000002 6.8150000000000004 -1.1161666666666663 3.6150000000000007 3.6550000000000007 15.438666666666668 142.24500000000003 122.92500000000003 36.985000000000007 12.490166666666669 4.9750000000000005
decision_type=2 2 2 2 2 2 2 2 2 2 2 2
left_child=2 7 9 5 -3 -4 11 -2 -6 -1 -11 -5
right_child=1 4 3 6 8 -7 -8 -9 -10 10 -12 -13
leaf_value=-2.9760987446984775 -0.86541509740062417 30.406512641611535 -0.01062149012237275 0.75686721713464122 7.7171711518621917 17.565491441058452 -3.6591784340307005 7.7641227505994621 19.066787618791622 0.02939645504850192 -2.6467160252206674 5.6938112692158107
leaf_weight=1881 85 35 32 443 58 58 168 338 99 1795 1041 283
leaf_count=1881 85 35 32 443 58 58 168 338 99 1795 1041 283
internal_value=0 9.67504 -1.0437 2.38857 17.7054 11.3162 1.48982 6.03005 14.8739 -1.7597 -0.952914 2.68132
internal_weight=0 615 5701 984 192 90 894 423 157 4717 2836 726
internal_count=6316 615 5701 984 192 90 894 423 157 4717 2836 726
is_linear=0
shrinkage=0.244687


Tree=6
num_leaves=13
num_cat=0
split_feature=17 21 23 14 29 9 29 0 2 19 20 26
split_gain=649006 216146 176802 118442 100005 111097 90581.8 89261.1 75346.8 72988.5 63857.9 58022.3
threshold=39.030000000000008 101.95 166.66500000000005 10.545000000000002 10.955916666666669 0.52500000000000013 3.8071666666666668 23.205000000000002 9.9150000000000009 29.495000000000005 72.77500000000002 13.51357142857143
decision_type=2 2 2 2 2 2 2 2 2 2 2 2
left_child=2 7 4 -3 5 -1 9 11 -4 -7 -9 -2
right_child=1 3 8 -5 -6 6 -8 10 -10 -11 -12 -13
leaf_value=-2.8148731176113819 10.690198780912292 36.405090465336585 1.1779557528720008 13.951627966522397 -2.8998144693830947 1.288180587668212 -0.90599995216317009 -6.0804304468114632 6.5496434219720756 7.1805721255440833 6.1666008672443464 4.0011706541698242
leaf_weight=916 227 22 823 39 1647 756 1322 50 193 151 52 118
leaf_count=916 227 22 823 39 1647 756 1322 50 193 151 52 118
internal_value=0 8.38677 -0.733554 22.0496 -1.35518 -0.546272 0.386002 6.52227 2.19836 2.26916 0.163154 8.40236
internal_weight=0 508 5808 61 4792 3145 2229 447 1016 907 102 345
internal_count=6316 508 5808 61 4792 3145 2229 447 1016 907 102 345
is_linear=0
shrinkage=0.244687


Tree=7
num_leaves=13
num_cat=0
split_feature=2 3 21 2 22 30 9 23 29 12 25 2
split_gain=412437 210052 99924.5 84840.6 70729.2 56804.1 62975.9 54327.1 51239.8 45689.7 43831.9 53834.6
threshold=29.590000000000003 8.9800000000000022 101.95 15.145000000000001 69.120000000000019 7.2910000000000013 3.5850000000000004 216.02500000000001 -0.18024999999999999 3.6150000000000007 11.047000000000002 13.700000000000001
decision_type=2 2 2 2 2 2 2 2 2 2 2 2
left_child=1 4 -2 7 5 6 -1 -3 -8 -5 11 -6
right_child=2 3 -4 9 10 -7 8 -9 -10 -11 -12 -13
leaf_value=-1.9613274156733211 8.9610959431714541 1.2104518774306887 25.039300076282633 14.672638533018906 0.84823962701328259 -2.5305796336384567 5.8803518725513149 7.8063045754018594 0.18596992756437208 5.5704610653248388 -0.95797041327210308 6.4467210539294353
leaf_weight=993 162 680 27 45 685 1771 107 84 817 124 700 121
leaf_count=993 162 680 27 45 685 1771 107 84 817 124 700 121
internal_value=0 -0.347276 11.258 3.03306 -0.954486 -1.53149 -0.608484 1.93565 0.845384 7.99412 0.458511 1.68871
internal_weight=0 6127 189 933 5194 3688 1917 764 924 169 1506 806
internal_count=6316 6127 189 933 5194 3688 1917 764 924 169 1506 806
is_linear=0
shrinkage=0.244687


Tree=8
num_leaves=13
num_cat=0
split_feature=21 19 3 24 12 9 28 9 26 2 9 23
split_gain=253100 99526.8 78640.8 64811.8 109949 56851.5 56565 53718.9 52237.5 47918.2 48350.8 36452.6
threshold=71.330000000000013 104.05000000000001 2.8150000000000004 0.78833333333333344 0.70500000000000007 2.0050000000000003 0.69883333333333353 3.4050000000000007 14.174285714285716 51.175000000000004 15.305000000000001 142.24500000000003
decision_type=2 2 2 2 2 2 2 2 2 2 2 2
left_child=2 6 -1 -4 5 -5 7 -2 11 10 -8 -6
right_child=1 -3 3 4 8 -7 9 -9 -10 -11 -12 -13
leaf_value=-1.0638576094779237 3.5354819300798894 22.568512772610589 -2.4534957255964858 0.72398614648516868 0.74671614131606168 12.129883532036818 3.9496958818525343 20.705833695772291 -1.4211983174604719 14.353109377897695 -4.9830213773194583 3.8615701648153906
leaf_weight=4012 20 19 291 38 614 84 390 24 405 24 40 355
leaf_count=4012 20 19 291 38 614 84 390 24 405 24 40 355
internal_value=0 5.18759 -0.462491 0.887639 1.53755 8.57723 4.52447 12.9011 0.912486 3.71263 3.11875 1.88786
internal_weight=0 517 5799 1787 1496 122 498 44 1374 454 430 969
internal_count=6316 517 5799 1787 1496 122 498 44 1374 454 430 969
is_linear=0
shrinkage=0.244687


Tree=9
num_leaves=13
num_cat=0
split_feature=2 23 30 24 23 19 16 30 29 9 3 30
split_gain=172158 88810.4 61809.5 86108.6 64390 46220 39305 34606.8 31070.8 39783.8 48679.8 37590
threshold=29.590000000000003 213.51500000000001 8.7076666666666682 -0.35166666666666657 160.75500000000002 91.820000000000007 41.32500000000001 -1.1891666666666665 3.8071666666666668 4.535000000000001 7.1250000000000009 4.5968333333333335
decision_type=2 2 2 2 2 2 2 2 2 2 2 2
left_child=1 2 3 -1 8 -2 -4 -6 9 11 -11 -5
right_child=5 -3 6 4 7 -7 -8 -9 -10 10 -12 -13
leaf_value=-1.9539893709539697 5.9206796363432073 3.655318344394487 -1.2102811159502187 -0.26186126459046682 10.813780425227991 18.09631334563068 -10.117035594053506 3.2316593181607995 -0.48874722898012202 2.3960946948383506 10.948431603941135 7.1493064891564799
leaf_weight=769 168 334 2648 596 41 21 30 298 974 348 45 44
leaf_count=769 168 334 2648 596 41 21 30 298 974 348 45 44
internal_value=0 -0.224367 -0.448053 0.293022 1.02957 7.27353 -1.31006 4.14867 0.502731 1.43758 3.37537 0.247657
internal_weight=0 6127 5793 3115 2346 189 2678 339 2007 1033 393 640
internal_count=6316 6127 5793 3115 2346 189 2678 339 2007 1033 393 640
is_linear=0
shrinkage=0.244687


Tree=10
num_leaves=13
num_cat=0
split_feature=22 2 13 29 9 23 3 13 30 31 27 0
split_gain=115853 74251.7 56755.2 42124.4 69373.9 39561.4 32366.2 42156.5 31670.3 29822.3 35669.1 25431.8
threshold=88.480000000000004 28.450000000000006 2.9250000000000003 6.8812500000000005 5.4450000000000012 133.09500000000003 14.720000000000002 0.80500000000000016 -0.89549999999999985 122.92500000000003 11.668666666666669 8.1950000000000021
decision_type=2 2 2 2 2 2 2 2 2 2 2 2
left_child=3 6 -3 4 -1 -6 -2 -8 -7 10 -4 -5
right_child=1 2 9 11 5 8 7 -9 -10 -11 -12 -13
leaf_value=-0.66384633366292323 0.67848002548787001 19.344740774064714 8.6451925876008708 -0.92884288320963049 1.3107705448330447 13.283134673658166 14.046513815940926 2.8126943691941273 4.0743329157990473 7.7779870572394838 -4.1105657871599739 -3.0794586430250277
leaf_weight=1716 994 19 21 2112 552 28 22 220 111 96 35 390
leaf_count=1716 994 19 21 2112 552 28 22 220 111 96 35 390
internal_value=0 1.95746 6.73635 -0.561039 0.16974 2.23983 1.2963 3.83395 5.92934 5.1603 0.672844 -1.26407
internal_weight=0 1407 171 4909 2407 691 1236 242 139 152 56 2502
internal_count=6316 1407 171 4909 2407 691 1236 242 139 152 56 2502
is_linear=0
shrinkage=0.244687


Tree=11
num_leaves=13
num_cat=0
split_feature=2 22 2 1 28 27 22 0 13 9 24 18
split_gain=79854.3 60321.2 48111.4 40663.4 85160.8 30591.5 26827.3 25781 24902.6 41384.3 24706.5 24644.7
threshold=3.4850000000000008 117.92000000000002 39.550000000000004 1.0000000000000002 2.1723333333333339 16.753666666666671 16.065000000000005 2.3050000000000002 2.6150000000000007 3.4050000000000007 2.1783333333333337 26.610000000000003
decision_type=2 2 2 2 2 2 2 2 2 2 2 2
left_child=6 3 8 -2 10 7 -1 11 9 -3 -5 -6
right_child=1 2 -4 4 5 -7 -8 -9 -10 -11 -12 -13
leaf_value=-2.0408635213541966 -1.9244922818912513 0.39755051584446432 14.105519359026591 1.4825755759049144 1.1413032671506436 -2.556418287012113 -0.34019381779003988 -0.12960260247094044 2.4892300355852566 15.330627280414905 8.0491618938344214 4.9575846863739912
leaf_weight=656 301 20 27 47 331 170 3619 569 278 25 127 146
leaf_count=656 301 20 27 47 331 170 3619 569 278 25 127 146
internal_value=0 1.25917 4.18306 0.653989 1.21235 0.487865 -0.601162 0.982634 3.35363 8.6937 6.27543 2.30939
internal_weight=0 2041 350 1691 1390 1216 4275 1046 323 45 174 477
internal_count=6316 2041 350 1691 1390 1216 4275 1046 323 45 174 477
is_linear=0
shrinkage=0.244687


Tree=12
num_leaves=13
num_cat=0
split_feature=23 26 17 9 28 9 30 0 3 23 16 30
split_gain=51551.1 45055.9 70536 37895.1 58948.9 40937.5 26275.7 24185.3 23327.7 20737.3 19762.8 19583.8
threshold=86.060000000000016 13.075000000000001 83.52500000000002 2.0050000000000003 2.3965000000000001 7.3850000000000007 0.75050000000000006 10.835000000000003 3.2650000000000001 230.66500000000002 19.975000000000001 -1.6784999999999999
decision_type=2 2 2 2 2 2 2 2 2 2 2 2
left_child=10 2 3 -2 5 -5 -6 9 -8 -3 11 -1
right_child=1 7 -4 4 6 -7 8 -9 -10 -11 -12 -13
leaf_value=1.215446571887852 -0.55648309412841424 -0.36377145904387453 15.91997184040288 4.0264823880779987 3.9693123267257882 14.671498242784541 -0.013024517852250759 -2.6189649878489729 1.888113597088098 4.0307156454541122 -5.2922067148902086 -1.1763594407005593
leaf_weight=233 727 1179 19 219 164 24 1002 286 629 68 63 1703
leaf_count=233 727 1179 19 219 164 24 1002 286 629 68 63 1703
internal_value=0 0.475689 1.06227 0.960178 1.5012 5.07784 1.01701 -0.589577 0.720155 -0.124136 -1.02729 -0.888503
internal_weight=0 4317 2784 2765 2038 243 1795 1533 1631 1247 1999 1936
internal_count=6316 4317 2784 2765 2038 243 1795 1533 1631 1247 1999 1936
is_linear=0
shrinkage=0.244687


Tree=13
num_leaves=13
num_cat=0
split_feature=2 3 9 28 9 2 13 30 30 17 0 22
split_gain=37887.9 28421.3 30570.5 46728.3 34798.1 33310.3 20731.5 19489.7 34530.4 17271.1 16892.6 17817.9
threshold=35.375000000000007 1.5150000000000003 0.52500000000000013 0.69883333333333353 5.7350000000000012 14.345000000000001 0.71500000000000008 8.7076666666666682 16.000333333333337 42.885000000000012 3.3550000000000004 175.36000000000004
decision_type=2 2 2 2 2 2 2 2 2 2 2 2
left_child=1 9 5 4 -4 -3 -5 -2 -9 -1 -8 -12
right_child=7 2 3 6 -6 -7 10 8 -10 -11 11 -13
leaf_value=-0.45688485640959509 9.6208307837475289 -0.9375886466738218 3.5745250370950856 3.860777581552187 14.693703785205628 -11.446820367597104 0.96025866070455013 -2.6361702389740667 7.8727435679011002 -5.6335107860731837 -0.77378128281465264 6.6363668938051816
leaf_weight=3648 32 364 149 109 19 19 1163 39 36 39 679 20
leaf_count=3648 32 364 149 109 19 19 1163 39 36 39 679 20
internal_value=0 -0.078672 0.554301 0.914783 4.83205 -1.45893 0.580891 4.56518 2.40811 -0.511642 0.388889 -0.56176
internal_weight=0 6209 2522 2139 168 383 1971 107 75 3687 1862 699
internal_count=6316 6209 2522 2139 168 383 1971 107 75 3687 1862 699
is_linear=0
shrinkage=0.244687


Tree=14
num_leaves=13
num_cat=0
split_feature=2 1 11 1 28 23 0 11 16 9 9 27
split_gain=28456.6 32932.9 50083.5 41998.6 25281.1 24956.7 18859.2 16272.6 15767.9 24738.5 15510.6 13475.3
threshold=3.4850000000000008 1.4850000000000001 0.71500000000000008 3.8350000000000004 0.35000000000000003 213.51500000000001 8.1950000000000021 17.205000000000002 26.770000000000003 2.3050000000000002 2.7950000000000004 15.358333333333336
decision_type=2 2 2 2 2 2 2 2 2 2 2 2
left_child=-1 8 3 10 -4 6 11 -7 -2 -10 -3 -6
right_child=1 2 4 -5 5 7 -8 -9 9 -11 -12 -13
leaf_value=-0.35886760513508625 -0.65632568467642605 -1.5485036482929302 5.8920667332573666 11.641709002985937 1.4137489469981528 4.0423761349370437 -1.1786446989494948 -1.7186285168149731 -11.492868265989303 -0.90008486643929186 7.2274162760804304 -0.78244415055026539
leaf_weight=4275 324 33 58 49 688 182 377 35 22 33 19 221
leaf_count=4275 324 33 58 49 688 182 377 35 22 33 19 221
internal_value=0 0.75167 1.22103 6.50162 0.879366 0.685928 0.276353 3.11318 -1.30658 -5.1372 1.65808 0.879801
internal_weight=0 2041 1662 101 1561 1503 1286 217 379 55 52 909
internal_count=6316 2041 1662 101 1561 1503 1286 217 379 55 52 909
is_linear=0
shrinkage=0.244687


Tree=15
num_leaves=13
num_cat=0
split_feature=23 29 3 13 2 2 1 29 2 22 16 30
split_gain=25620.4 29139.8 21877.8 22815 17061.6 15997.2 13697 28634.2 23032.9 11971.1 15436.8 10934
threshold=78.225000000000009 14.490333333333336 20.170000000000005 1.3050000000000004 36.82500000000001 16.410000000000004 3.4550000000000005 5.9425833333333342 8.7150000000000016 154.88500000000002 38.890000000000008 -2.0034999999999994
decision_type=2 2 2 2 2 2 2 2 2 2 2 2
left_child=5 2 6 -4 9 11 -2 8 -8 10 -3 -1
right_child=1 4 3 -5 -6 -7 7 -9 -10 -11 -12 -13
leaf_value=0.98658549703004716 -0.20841100957176778 -0.83252320953753201 10.265115695764939 2.1999959380298719 4.0981439409947589 -7.539319541532449 1.5881314971699496 0.33068591216952464 5.4993375990317137 3.2530449007114521 -5.6070985748782229 -0.97506606690716369
leaf_weight=193 1043 1168 24 168 43 21 462 1564 112 41 42 1435
leaf_count=193 1043 1168 24 168 43 21 462 1564 112 41 42 1435
internal_value=0 0.292936 0.671635 3.20814 -0.694196 -0.829069 0.518536 0.873169 2.35129 -0.858921 -0.998252 -0.742512
internal_weight=0 4667 3373 192 1294 1649 3181 2138 574 1251 1210 1628
internal_count=6316 4667 3373 192 1294 1649 3181 2138 574 1251 1210 1628
is_linear=0
shrinkage=0.244687


Tree=16
num_leaves=13
num_cat=0
split_feature=4 2 16 24 17 28 24 17 18 12 0 16
split_gain=18117.1 33647.9 13279.8 13138.4 17999.9 15894.7 21025.3 10840.1 14192.1 12937.5 11677.5 13431.2
threshold=0.93500000000000016 39.550000000000004 26.460000000000004 -1.1316666666666664 19.045000000000005 0.97200000000000009 3.8716666666666675 57.905000000000008 73.695000000000007 15.005000000000001 1.1650000000000003 14.760000000000002
decision_type=2 2 2 2 2 2 2 2 2 2 2 2
left_child=2 3 -1 4 -2 6 -5 10 -9 -10 11 -7
right_child=1 -3 -4 5 -6 7 -8 8 9 -11 -12 -13
leaf_value=-0.23881268319635998 -0.58978005455768678 8.6074569875685221 -2.0445063366677698 1.1729032135813457 -7.343318973984136 0.57465792812268712 6.4732422766952951 7.453008237825328 3.5326650857036626 -4.398222257555183 -0.33824553116355399 4.1220927948718007
leaf_weight=3195 259 30 264 197 26 1060 58 29 35 19 1076 68
leaf_count=3195 259 30 264 197 26 1060 58 29 35 19 1076 68
internal_value=0 0.455987 -0.376628 0.369484 -1.20589 0.54611 2.37847 0.341802 3.08692 0.742168 0.238424 0.78851
internal_weight=0 2857 3459 2827 285 2542 255 2287 83 54 2204 1128
internal_count=6316 2857 3459 2827 285 2542 255 2287 83 54 2204 1128
is_linear=0
shrinkage=0.244687


Tree=17
num_leaves=13
num_cat=0
split_feature=23 2 14 19 30 31 23 17 16 9 23 9
split_gain=15313.2 14484.7 14133.8 24401.9 10048.1 9710.41 10217.2 14235.9 13770.1 11520.5 9707.18 9511.59
threshold=99.690000000000012 21.200000000000006 13.835000000000003 96.575000000000003 5.2015000000000011 92.010000000000005 186.10000000000005 39.620000000000005 27.070000000000004 5.1650000000000009 175.28000000000003 6.9300000000000006
decision_type=2 2 2 2 2 2 2 2 2 2 2 2
left_child=1 4 3 5 11 10 8 -8 -7 -10 -2 -1
right_child=2 -3 -4 -5 -6 6 7 -9 9 -11 -12 -13
leaf_value=-0.32980012386641505 0.36536173847523179 -6.5751597327101123 -0.36286464830957221 8.5798590655435074 -0.94239633593647054 0.84878856743397779 1.248455577585164 4.9084151254507189 -7.512135035954369 -0.8749354323052978 -1.5568530408327355 1.1588247172043975
leaf_weight=1043 687 23 1239 23 1147 1135 284 82 19 89 204 341
leaf_count=1043 687 23 1239 23 1147 1135 284 82 19 89 204 341
internal_value=0 -0.462404 0.313923 0.646282 -0.406855 0.573293 0.932148 2.06845 0.597567 -2.04259 -0.0747413 0.0369781
internal_weight=0 2554 3762 2523 2531 2500 1609 366 1243 108 891 1384
internal_count=6316 2554 3762 2523 2531 2500 1609 366 1243 108 891 1384
is_linear=0
shrinkage=0.244687


Tree=18
num_leaves=13
num_cat=0
split_feature=22 30 9 11 28 31 27 2 9 15 0 30
split_gain=12639.8 15824.4 32090 20020.6 18305.6 12415.4 13739.5 13253.1 15826.4 10440.4 8936.12 8466.47
threshold=16.065000000000005 0.3805 3.8850000000000002 0.23500000000000001 0.092499999999999999 127.09500000000001 16.54366666666667 32.150000000000006 10.975000000000003 -4.379999999999999 4.8800000000000008 16.430000000000003
decision_type=2 2 2 2 2 2 2 2 2 2 2 2
left_child=-1 2 -2 -4 -5 9 7 -7 -9 -3 -11 -12
right_child=1 5 3 4 -6 6 -8 8 -10 10 11 -13
leaf_value=-0.99163455367252906 -0.12784727502934332 2.7539408853723435 10.014268077333274 6.9892413953012626 1.6660867998138471 0.5446953279112392 -0.89142796042126637 -0.40103367732506751 7.7088968642337319 -0.1792256728098591 -0.85324821824501762 -3.1966858057553416
leaf_weight=686 475 61 23 46 243 1773 417 25 34 1754 672 107
leaf_count=686 475 61 23 46 243 1773 417 25 34 1754 672 107
internal_value=0 0.120828 1.13846 3.06632 2.51337 -0.0445393 0.37621 0.66475 4.27249 -0.409329 -0.485507 -1.17513
internal_weight=0 5630 787 312 289 4843 2249 1832 59 2594 2533 779
internal_count=6316 5630 787 312 289 4843 2249 1832 59 2594 2533 779
is_linear=0
shrinkage=0.244687


Tree=19
num_leaves=13
num_cat=0
split_feature=8 21 31 0 2 28 1 2 0 27 1 5
split_gain=10618.9 8779.22 8627.14 8507.72 9217.72 11899.6 12359.4 7484.39 10412.6 10303.6 7231.33 6097.32
threshold=2.0450000000000004 111.91500000000001 102.02500000000002 27.065000000000001 29.590000000000003 15.798500000000002 6.745000000000001 7.5650000000000004 0.35500000000000004 15.173000000000002 1.4850000000000001 0.17500000000000002
decision_type=2 2 2 2 2 2 2 2 2 2 2 2
left_child=3 2 -2 4 -1 6 -6 -4 9 -9 -10 -12
right_child=1 -3 7 -5 5 -7 -8 8 10 -11 11 -13
leaf_value=-0.24443111831393594 -0.19895065862240063 5.5156569502111621 0.44168252282063131 -2.52031656567631 -0.90701440822691237 -3.0147989556354911 6.334931567883971 6.5334208803875802 -2.9549692825491962 -0.23996141084649061 3.1467464491477379 0.56557992981854466
leaf_weight=3778 954 20 1059 96 21 19 43 46 24 19 86 151
leaf_count=3778 954 20 1059 96 21 19 43 46 24 19 86 151
internal_value=0 0.41091 0.367261 -0.244968 -0.188393 2.36233 3.95867 0.757273 1.78246 4.55351 1.09235 1.50221
internal_weight=0 2359 2339 3957 3861 83 64 1385 326 65 261 237
internal_count=6316 2359 2339 3957 3861 83 64 1385 326 65 261 237
is_linear=0
shrinkage=0.244687


Tree=20
num_leaves=13
num_cat=0
split_feature=23 29 16 3 9 12 23 18 13 19 20 31
split_gain=9295.96 11570.3 11153.9 8369.54 11486.3 22598.9 7470.57 7234.33 6455.59 6391.97 7603.48 6351.64
threshold=58.380000000000003 14.490333333333336 18.065000000000005 14.345000000000001 1.405 0.88500000000000012 252.59000000000003 73.695000000000007 14.895000000000001 63.405000000000008 62.465000000000011 105.39500000000001
decision_type=2 2 2 2 2 2 2 2 2 2 2 2
left_child=2 3 -1 11 -5 -6 7 9 -7 10 -3 -2
right_child=1 6 -4 4 5 8 -8 -9 -10 -11 -12 -13
leaf_value=-0.60558672890945187 -0.099850200569737577 -0.51056712669826976 -6.1870972486185156 -1.7408071791799422 8.1451046384550221 1.7952167355281941 2.084103052159854 -3.4236082388474989 -1.3294249917939094 2.0034881843145467 -3.9012904475128449 0.54193700540916934
leaf_weight=836 1909 1156 22 59 32 251 64 53 47 58 41 1788
leaf_count=836 1909 1156 22 59 32 251 64 53 47 58 41 1788
internal_value=0 0.117696 -0.748702 0.324136 1.40373 1.96594 -0.49711 -0.623408 1.3024 -0.505152 -0.626707 0.210541
internal_weight=0 5458 858 4086 389 330 1372 1308 298 1255 1197 3697
internal_count=6316 5458 858 4086 389 330 1372 1308 298 1255 1197 3697
is_linear=0
shrinkage=0.244687


Tree=21
num_leaves=13
num_cat=0
split_feature=31 30 9 3 11 10 23 0 3 26 29 29
split_gain=7916.12 8295.1 18388.9 15046.6 12618 8313.61 6367.33 7644.09 5790.74 5616.37 6722.29 5411.22
threshold=178.30000000000004 0.3805 5.535000000000001 1.3150000000000002 3.6550000000000007 9.8750000000000018 72.155000000000015 8.1950000000000021 30.610000000000003 -1.6121428571428569 -1.5211666666666666 13.988833333333334
decision_type=2 2 2 2 2 2 2 2 2 2 2 2
left_child=1 2 9 5 -5 -4 -3 11 -9 -1 -11 -8
right_child=-2 6 3 4 -6 -7 7 8 -10 10 -12 -13
leaf_value=-0.94882629670417951 0.6763788258262452 -0.89300582967531239 0.3953840511366038 10.352642318118473 3.2023232820047132 5.2616695152760675 0.288232267581088 -0.92011914950714124 3.0214765552763474 2.1623563454477104 -0.029472145933859922 -0.43314234671782897
leaf_weight=266 890 770 132 22 45 25 1995 750 23 107 386 905
leaf_count=266 890 770 132 22 45 25 1995 750 23 107 386 905
internal_value=0 -0.110943 0.532251 2.48034 5.55019 1.17027 -0.253248 -0.11913 -0.80284 -0.0426771 0.446239 0.0631136
internal_weight=0 5426 983 224 67 157 4443 3673 773 759 493 2900
internal_count=6316 5426 983 224 67 157 4443 3673 773 759 493 2900
is_linear=0
shrinkage=0.244687


Tree=22
num_leaves=13
num_cat=0
split_feature=4 17 24 19 29 9 0 2 2 1 10 11
split_gain=6347.96 11680.3 7320.94 7111.11 6715.4 10844.4 7051.64 6690.89 9688.45 12048.6 8082.75 7944.47
threshold=2.7850000000000006 79.14500000000001 -1.1316666666666664 84.800000000000011 4.202583333333334 6.8550000000000013 0.82500000000000007 30.175000000000001 19.245000000000001 3.2850000000000006 15.295000000000002 16.975000000000005
decision_type=2 2 2 2 2 2 2 2 2 2 2 2
left_child=3 2 -2 7 5 -4 -6 8 -1 -10 -11 -12
right_child=1 -3 4 -5 6 -7 -8 -9 9 10 11 -13
leaf_value=-0.1349620403444792 -1.1064033018823514 6.3812969828257309 0.72430441438026694 -4.8991886993664195 0.7576390350114125 3.8927489533606239 -0.33800216954023204 1.8643237781960411 -7.8274878235284513 0.47813188405209361 -7.4335465978382524 -0.69539414509784092
leaf_weight=3925 204 19 434 19 646 76 772 96 20 63 20 22
leaf_count=3925 204 19 434 19 646 76 772 96 20 63 20 22
internal_value=0 0.341345 0.287518 -0.176286 0.435007 1.19646 0.16114 -0.154643 -0.2025 -2.32318 -1.27474 -3.90404
internal_weight=0 2151 2132 4165 1928 510 1418 4146 4050 125 105 42
internal_count=6316 2151 2132 4165 1928 510 1418 4146 4050 125 105 42
is_linear=0
shrinkage=0.244687


Tree=23
num_leaves=13
num_cat=0
split_feature=8 18 28 31 2 30 27 1 23 29 9 27
split_gain=5012.88 5975 5097.41 5039.02 5536.22 4847.82 8116.59 4699.42 3490.86 4797.72 8864.72 10062
threshold=31.590000000000003 32.580000000000005 18.320666666666671 166.07500000000002 43.980000000000004 1.418666666666667 -3.2503333333333329 1.3450000000000004 72.155000000000015 6.8812500000000005 8.4450000000000021 4.4730000000000016
decision_type=2 2 2 2 2 2 2 2 2 2 2 2
left_child=2 -2 3 4 8 6 -5 -8 -1 10 -10 -12
right_child=1 -3 -4 5 -6 -7 7 -9 9 -11 11 -13
leaf_value=-0.49342242627989125 0.70279546308653806 5.747858754539239 -1.238916811466622 -1.6632989818219652 3.4031938417872589 0.32647961014042198 1.4215552242291658 5.3767105890019398 0.094833517749959073 -0.2397806770704172 6.8662181577959043 1.2291608147506148
leaf_weight=1102 54 19 200 25 27 1040 35 37 1422 2139 21 195
leaf_count=1102 54 19 200 25 27 1040 35 37 1422 2139 21 195
internal_value=0 2.01589 -0.023572 0.0166512 -0.0909144 0.480782 2.13516 3.45407 -0.11025 0.00154602 0.316685 1.77721
internal_weight=0 73 6243 6043 4906 1137 97 72 4879 3777 1638 216
internal_count=6316 73 6243 6043 4906 1137 97 72 4879 3777 1638 216
is_linear=0
shrinkage=0.244687


Tree=24
num_leaves=13
num_cat=0
split_feature=3 2 7 0 17 11 1 26 2 17 16 28
split_gain=4020.05 8488.92 6096.76 5589.45 7585.52 7402.29 10285.2 11058.5 6127.94 5142.95 4858.92 5859.19
threshold=0.065000000000000016 15.810000000000002 1.8050000000000004 0.84500000000000008 16.690000000000001 17.205000000000002 4.495000000000001 8.0328571428571447 43.980000000000004 27.615000000000006 15.500000000000002 11.703333333333335
decision_type=2 2 2 2 2 2 2 2 2 2 2 2
left_child=1 -1 -3 4 -2 6 9 -8 -5 -6 -9 -12
right_child=3 2 -4 8 5 -7 7 10 -10 -11 11 -13
leaf_value=-0.17176800213118648 0.22197095313389073 -4.822063801807345 0.026012390316578149 -0.16798752766519182 1.4586386343014079 -0.89372781508860877 6.8330369293864468 1.2350296540097785 3.5423117710594787 -2.0623982827627105 7.5418952886453621 1.7904030547812009
leaf_weight=2338 1470 41 25 2063 63 64 38 103 27 41 19 24
leaf_count=2338 1470 41 25 2063 63 64 38 103 27 41 19 24
internal_value=0 -0.249022 -2.98567 0.153029 0.466281 1.48655 2.0155 3.11483 -0.120055 0.0705375 2.14708 4.33176
internal_weight=0 2404 66 3912 1822 352 288 184 2090 104 146 43
internal_count=6316 2404 66 3912 1822 352 288 184 2090 104 146 43
is_linear=0
shrinkage=0.244687


Tree=25
num_leaves=13
num_cat=0
split_feature=30 9 27 30 17 31 18 17 23 21 0 28
split_gain=3858.05 8044.56 10490.8 8738.76 6780.29 5256.64 6993.65 10013.9 7316.13 4839.53 6819.99 6671.85
threshold=0.3805 5.535000000000001 4.644000000000001 -0.50133333333333319 4.5250000000000012 73.515000000000015 75.410000000000011 61.210000000000001 186.10000000000005 6.455000000000001 0.32500000000000007 9.5541666666666689
decision_type=2 2 2 2 2 2 2 2 2 2 2 2
left_child=1 -1 3 4 -3 -2 7 9 -9 -7 11 -11
right_child=5 2 -4 -5 -6 6 -8 8 -10 10 -12 -13
leaf_value=0.066184437858926817 -0.61492790688276167 -1.0442132356118461 0.020104449352128531 6.9343179381214437 3.5794779636359744 -0.48040998335181739 -1.9074160336752224 -0.076678472877932224 6.1440888693324922 1.2810219544702011 -0.11143192441694484 0.15862844515656246
leaf_weight=792 922 28 112 30 59 859 109 19 28 524 2031 803
leaf_count=792 922 28 112 30 59 859 109 19 28 524 2031 803
internal_value=0 0.435505 1.71281 3.33317 2.09139 -0.0839756 0.02797 0.077444 3.62931 0.0378572 0.170434 0.601834
internal_weight=0 1021 229 117 87 5295 4373 4264 47 4217 3358 1327
internal_count=6316 1021 229 117 87 5295 4373 4264 47 4217 3358 1327
is_linear=0
shrinkage=0.244687


Tree=26
num_leaves=13
num_cat=0
split_feature=8 0 4 1 20 21 3 5 23 28 2 30
split_gain=3458.18 4271.37 3006.39 4114.3 7776.92 4134.33 3768.27 2957.85 2672.68 4310.35 2566.59 9759.91
threshold=2.0450000000000004 15.380000000000001 7.1800000000000006 3.6150000000000007 88.720000000000013 65.125000000000014 16.565000000000001 6.5750000000000011 100.20500000000001 2.6981666666666668 26.495000000000001 8.8020000000000014
decision_type=2 2 2 2 2 2 2 2 2 2 2 2
left_child=1 10 -2 5 6 -4 -5 -7 -3 -10 -1 -12
right_child=2 8 3 4 -6 7 -8 -9 9 -11 11 -13
leaf_value=-0.10214011658437441 0.092328935645986626 -2.5404417168080844 0.4830475085554316 1.1109664579466274 4.9617659103521827 -0.40697438533543601 -1.7201265578911733 -4.7245128711524949 2.5086501852827356 -1.0156396670368175 4.3121500357930191 -0.68017301610363556
leaf_weight=3561 1865 57 89 306 30 19 31 19 23 215 37 64
leaf_count=3561 1865 57 89 306 30 19 31 19 23 215 37 64
internal_value=0 -0.139796 0.234494 0.77121 1.18661 -0.429189 0.85054 -2.56574 -1.03549 -0.675057 -0.0676413 1.1487
internal_weight=0 3957 2359 494 367 127 337 38 295 238 3662 101
internal_count=6316 3957 2359 494 367 127 337 38 295 238 3662 101
is_linear=0
shrinkage=0.244687


Tree=27
num_leaves=13
num_cat=0
split_feature=2 1 11 2 9 11 23 29 16 6 29 27
split_gain=3013.48 7935.03 15401.6 8442.07 9484.46 10961.3 5622.27 5003.87 4895.24 4729.85 4892.99 4299.38
threshold=3.2950000000000004 3.1050000000000004 1.175 19.895000000000003 2.4950000000000006 6.0700000000000012 159.67000000000002 -0.63391666666666657 14.545000000000002 0.055000000000000007 17.512750000000004 -0.078333333333333297
decision_type=2 2 2 2 2 2 2 2 2 2 2 2
left_child=8 3 6 -2 -5 -6 11 -4 -1 -9 -11 -3
right_child=1 2 7 4 5 -7 -8 9 -10 10 -12 -13
leaf_value=-0.051855216262335475 -0.19596641556706965 5.4873548760463633 4.302289625763243 -7.7466911219228285 1.8372221569403027 -5.6628935932042479 7.2830529094342102 -0.31495170371040471 -1.1498944708708005 0.7226323988524288 -2.4527028580921399 0.81280126838995492
leaf_weight=3956 504 19 19 19 28 20 22 487 259 922 30 31
leaf_count=3956 504 19 19 19 28 20 22 487 259 922 30 31
internal_value=0 0.239392 0.52989 -0.539001 -3.11944 -1.28783 4.02339 0.357372 -0.119327 0.305285 0.622569 2.58913
internal_weight=0 2101 1530 571 67 48 72 1458 4215 1439 952 50
internal_count=6316 2101 1530 571 67 48 72 1458 4215 1439 952 50
is_linear=0
shrinkage=0.244687


Tree=28
num_leaves=13
num_cat=0
split_feature=31 30 2 29 9 30 19 11 2 23 20 23
split_gain=3007.04 5132.13 4272.35 3026.53 5391.7 2866.87 3712.11 3391.51 3171.18 2406.79 2407.44 2505.4
threshold=186.34 16.50416666666667 8.3350000000000026 9.7022500000000012 6.0700000000000012 17.171833333333336 53.230000000000011 14.895000000000001 39.550000000000004 281.18500000000006 1.0000000180025095e-35 35.910000000000004
decision_type=2 2 2 2 2 2 2 2 2 2 2 2
left_child=5 3 -3 4 -2 8 -7 -8 9 10 -1 -12
right_child=1 2 -4 -5 -6 6 7 -9 -10 -11 11 -13
leaf_value=2.040703441787652 0.20844232386819658 0.86657568865555135 5.8248158092549929 -0.10400241502925428 2.7202433012909943 -0.40318723411918028 -1.1518410915558581 -5.2555301585562981 2.2746095795361301 2.0858701873882604 -0.79321760612441239 -0.016791891684432483
leaf_weight=33 161 23 19 389 75 285 33 19 36 32 262 4949
leaf_count=33 161 23 19 389 75 285 33 19 36 32 262 4949
internal_value=0 0.491339 3.10959 0.315393 1.00668 -0.0580144 -0.750072 -2.65127 -0.0141094 -0.0297261 -0.0426359 -0.0558292
internal_weight=0 667 42 625 236 5649 337 52 5312 5276 5244 5211
internal_count=6316 667 42 625 236 5649 337 52 5312 5276 5244 5211
is_linear=0
shrinkage=0.244687


Tree=29
num_leaves=13
num_cat=0
split_feature=0 16 31 30 9 28 2 31 18 12 2 7
split_gain=2410.48 5286.51 2165.38 3342.2 4349.47 10967.6 7878.5 5596.56 4519.35 6473.61 4295.47 3972.09
threshold=31.750000000000004 61.970000000000006 76.905000000000015 14.193166666666668 7.0850000000000009 6.4090000000000007 19.245000000000001 96.545000000000016 54.295000000000009 14.925000000000002 3.7050000000000005 0.39500000000000007
decision_type=2 2 2 2 2 2 2 2 2 2 2 2
left_child=1 2 -1 4 6 10 -4 -8 -7 -10 -6 -12
right_child=-2 -3 3 -5 5 8 7 -9 9 -11 11 -13
leaf_value=-0.25103046745936608 -1.2716682780370845 3.2053209515056187 0.058584562024105155 -0.23708283019586146 1.4616529382389953 0.1611834595294416 0.88305495524943445 -3.8244925056199954 3.8576309991044719 -0.59429874276530237 1.3362154349364366 5.4675638316018933
leaf_weight=1526 88 31 1628 1367 134 1326 21 54 48 33 22 38
leaf_count=1526 88 31 1628 1367 134 1326 21 54 48 33 22 38
internal_value=0 0.0179683 0.00202386 0.0846959 0.217829 0.507376 -0.0543763 -2.50638 0.269569 2.04388 2.23209 3.95274
internal_weight=0 6228 6197 4671 3304 1601 1703 75 1407 81 194 60
internal_count=6316 6228 6197 4671 3304 1601 1703 75 1407 81 194 60
is_linear=0
shrinkage=0.244687


Tree=30
num_leaves=13
num_cat=0
split_feature=4 21 30 7 25 11 18 17 5 17 7 2
split_gain=2295.58 4066.53 4778 3672.1 2907.72 6029.78 3243.77 2986.51 6733.06 4742.08 4108.93 2789.97
threshold=6.7650000000000006 89.985000000000014 10.010833333333336 26.455000000000002 0.93500000000000016 0.71500000000000008 79.700000000000003 40.905000000000008 0.49500000000000005 38.395000000000003 1.905 36.160000000000004
decision_type=2 2 2 2 2 2 2 2 2 2 2 2
left_child=1 11 -3 -4 -2 -6 7 9 -9 -7 -10 -1
right_child=4 2 3 -5 5 6 -8 8 10 -11 -12 -13
leaf_value=-0.064350312685628158 -0.76420955211749442 0.6867740412339145 -4.6231514962500171 -0.46692320056850461 3.6307220691955653 0.36150274229620882 -1.6032748645612807 -1.3096754648354809 5.0376625319647736 -3.5428105717245093 1.1463245519540868 1.7374308466976194
leaf_weight=4897 139 31 35 20 34 944 50 30 33 19 32 52
leaf_count=4897 139 31 35 20 34 944 50 30 33 19 32 52
internal_value=0 -0.0744063 -1.74254 -3.1118 0.292456 0.421069 0.322578 0.413592 1.72247 0.284471 3.12193 -0.0454187
internal_weight=0 5035 86 55 1281 1142 1108 1058 95 963 65 4949
internal_count=6316 5035 86 55 1281 1142 1108 1058 95 963 65 4949
is_linear=0
shrinkage=0.244687


Tree=31
num_leaves=13
num_cat=0
split_feature=30 9 3 15 22 28 18 17 4 27 31 28
split_gain=2095.21 5347.03 5157.94 6571.15 5897.34 5000.46 2956.96 3319.93 4708.02 2750.28 4090.33 4710.63
threshold=0.3805 9.9550000000000018 15.770000000000001 1.3950000000000002 117.92000000000002 4.7181666666666677 75.410000000000011 61.210000000000001 0.19500000000000003 -0.62833333333333319 117.52500000000002 0.092499999999999999
decision_type=2 2 2 2 2 2 2 2 2 2 2 2
left_child=1 2 4 -4 9 -3 7 -2 -9 -1 11 -11
right_child=6 5 3 -5 -6 -7 -8 8 -10 10 -12 -13
leaf_value=-0.34805623242403183 -0.054056166528978031 5.8312505498073817 -0.95256273708571926 4.8265092279853867 -3.08375707974086 0.28811606862737005 -1.2836659723355046 -1.121071389144678 3.7414619085692711 1.8884975835748488 2.3274487925762082 -0.070780980192799367
leaf_weight=341 5128 20 19 31 34 19 116 19 32 90 67 400
leaf_count=341 5128 20 19 31 34 19 116 19 32 90 67 400
internal_value=0 0.320939 0.209348 2.63046 0.0794598 3.13075 -0.0618846 -0.0345189 1.92993 0.199225 0.534276 0.289087
internal_weight=0 1021 982 50 932 39 5295 5179 51 898 557 490
internal_count=6316 1021 982 50 932 39 5295 5179 51 898 557 490
is_linear=0
shrinkage=0.244687


Tree=32
num_leaves=13
num_cat=0
split_feature=8 10 17 18 14 31 0 19 2 3 23 30
split_gain=2290.51 2140.26 3942.4 2974.17 2313.61 1967.29 1924.71 2229.98 2043.59 7293.26 4571.68 4694.34
threshold=20.540000000000003 14.035000000000002 34.510000000000005 32.580000000000005 0.70500000000000007 151.54000000000005 37.015000000000008 96.575000000000003 19.245000000000001 0.065000000000000016 98.985000000000014 9.3481666666666694
decision_type=2 2 2 2 2 2 2 2 2 2 2 2
left_child=5 2 4 -3 -2 6 7 8 -1 -10 -11 -12
right_child=1 3 -4 -5 -6 -7 -8 -9 9 10 11 -13
leaf_value=-0.070557000981374407 3.0005130778685922 0.77670604206956129 -2.8262953221066782 3.9777530483505603 0.27092665042132952 0.20486008789670238 -2.5699085293670674 2.4759759657479354 -5.1390723628025654 -4.0514995038522015 0.84577447478378531 -1.3356552765700533
leaf_weight=4168 22 57 22 25 120 1583 19 20 21 19 135 105
leaf_count=4168 22 57 22 25 120 1583 19 20 21 19 135 105
internal_value=0 0.731951 0.22161 1.75264 0.69382 -0.0296639 -0.112403 -0.101953 -0.113544 -0.75344 -0.397848 -0.108601
internal_weight=0 246 164 82 142 6070 4487 4468 4448 280 259 240
internal_count=6316 246 164 82 142 6070 4487 4468 4448 280 259 240
is_linear=0
shrinkage=0.244687


Tree=33
num_leaves=13
num_cat=0
split_feature=0 17 29 9 13 22 19 1 27 22 17 27
split_gain=1848.94 6429.29 4054.63 4216.91 4433.51 2715.52 2408.32 2305 5693.37 4105.6 4096.16 3278.43
threshold=0.27500000000000008 12.855000000000002 9.7022500000000012 3.7950000000000004 3.1450000000000005 86.655000000000015 29.900000000000002 5.9850000000000012 4.3420000000000014 126.58000000000003 67.000000000000014 2.8260000000000005
decision_type=2 2 2 2 2 2 2 2 2 2 2 2
left_child=1 -1 3 6 -5 -6 -3 9 -9 10 11 -2
right_child=7 2 -4 4 5 -7 -8 8 -10 -11 -12 -13
leaf_value=0.0018860096204666094 0.023656461321403855 2.0050802806751866 0.35604100763704533 6.3144433533062099 1.1995702141936813 4.4617416558821557 -0.67996682349245119 1.7818639359580364 -0.051087114485739563 -2.0215870660587938 2.8450456691751955 -0.76495767806328396
leaf_weight=2475 730 40 208 20 50 22 40 107 1959 84 25 556
leaf_count=2475 730 40 208 20 50 22 40 107 1959 84 25 556
internal_value=0 0.145763 1.08286 1.9618 3.09158 2.19634 0.662557 -0.120241 0.0438431 -0.36325 -0.256996 -0.3173
internal_weight=0 2855 380 172 92 72 80 3461 2066 1395 1311 1286
internal_count=6316 2855 380 172 92 72 80 3461 2066 1395 1311 1286
is_linear=0
shrinkage=0.244687


Tree=34
num_leaves=13
num_cat=0
split_feature=23 31 28 9 3 30 25 1 22 11 24 18
split_gain=1855.42 1930.49 2244.36 7390.14 5040.1 4223.6 3290.23 3287.32 3245.83 2843.48 3799.77 4039.32
threshold=45.320000000000007 243.37500000000003 3.1396666666666673 5.7350000000000012 1.3450000000000004 3.5758333333333341 5.1190000000000007 4.1250000000000009 43.275000000000013 1.385 2.0966666666666671 23.035000000000004
decision_type=2 2 2 2 2 2 2 2 2 2 2 2
left_child=-1 2 3 5 6 8 -5 -6 -2 10 11 -7
right_child=1 -3 -4 4 7 9 -8 -9 -10 -11 -12 -13
leaf_value=-0.44091933109469206 0.29252526548589897 1.0069785941207983 -0.073138983514293168 -1.8885253407823388 1.552648411220078 0.46850215947945018 1.6614211894768789 5.1242908575230581 -0.57326971179462083 2.0498491967248906 2.9533771604861636 -2.7421213039269303
leaf_weight=524 520 121 4169 22 27 179 54 36 517 89 31 27
leaf_count=524 520 121 4169 22 27 179 54 36 517 89 31 27
internal_value=0 0.0398898 0.0192554 0.275708 1.97529 0.102383 0.633805 3.59359 -0.13912 0.870601 0.427761 0.0476923
internal_weight=0 5792 5671 1502 139 1363 76 63 1037 326 237 206
internal_count=6316 5792 5671 1502 139 1363 76 63 1037 326 237 206
is_linear=0
shrinkage=0.244687


Tree=35
num_leaves=13
num_cat=0
split_feature=8 17 16 5 18 0 17 16 16 7 15 10
split_gain=1878.87 3123.55 2919.1 3850.94 2981.89 3185.36 2328.44 2336.53 4177.22 1979.46 1817.91 2191.72
threshold=3.9650000000000003 79.14500000000001 38.890000000000008 0.49500000000000005 50.675000000000004 28.450000000000006 75.90000000000002 35.205000000000005 31.690000000000005 7.6650000000000009 15.675000000000002 11.025
decision_type=2 2 2 2 2 2 2 2 2 2 2 2
left_child=1 2 -1 -4 -5 -6 7 8 10 -9 11 -2
right_child=6 -3 3 4 5 -7 -8 9 -10 -11 -12 -13
leaf_value=-0.067132272246570576 0.12984309120539383 2.2876511144389546 -2.9829329636558737 -2.2037368992464264 2.2923729108500557 -1.5404752369903922 -2.4138645231103082 0.72015611609785601 -2.9033294296844869 3.1913807655421449 -0.38992352047446327 0.79565243904053384
leaf_weight=4352 986 33 48 30 34 21 20 69 26 27 247 423
leaf_count=4352 986 33 48 30 34 21 20 69 26 27 247 423
internal_value=0 -0.0841898 -0.101641 -1.23084 -0.241428 0.828922 0.211551 0.241084 0.174072 1.41519 0.222388 0.329728
internal_weight=0 4518 4485 133 85 55 1798 1778 1682 96 1656 1409
internal_count=6316 4518 4485 133 85 55 1798 1778 1682 96 1656 1409
is_linear=0
shrinkage=0.244687


Tree=36
num_leaves=13
num_cat=0
split_feature=25 21 29 10 23 17 14 30 23 24 18 31
split_gain=1514.75 6056.74 3943.09 3906.64 1964.81 3080.42 2776.8 3279.12 4015.24 3196.39 2390.14 2357.11
threshold=-2.4029999999999996 47.480000000000011 -2.0094999999999996 4.1000000000000005 55.920000000000009 20.855000000000004 0.42500000000000004 5.3145000000000016 155.06500000000003 4.1683333333333339 7.8200000000000012 64.38000000000001
decision_type=2 2 2 2 2 2 2 2 2 2 2 2
left_child=1 -1 3 -2 5 -4 7 9 10 -6 -9 -11
right_child=2 -3 4 -5 6 -7 -8 8 -10 11 -12 -13
leaf_value=-0.23964617023357299 0.75872716247816441 -4.5974677769383216 -0.28953990531841273 4.3772534653749542 -0.11072396569105973 -2.9612598430145431 -0.004893619677066567 0.76724236316568684 -1.1906169818533399 3.2288581957019713 3.1965758161082851 0.36589241453507831
leaf_weight=422 95 20 600 22 302 27 4630 38 24 33 67 36
leaf_count=422 95 20 600 22 302 27 4630 38 24 33 67 36
internal_value=0 -0.436833 0.0328703 1.43913 0.00429067 -0.40459 0.054265 0.602074 1.66474 0.232576 2.31739 1.73514
internal_weight=0 442 5874 117 5757 627 5130 500 129 371 105 69
internal_count=6316 442 5874 117 5757 627 5130 500 129 371 105 69
is_linear=0
shrinkage=0.244687


Tree=37
num_leaves=13
num_cat=0
split_feature=4 3 23 26 3 0 18 31 23 30 27 29
split_gain=1430.42 2881.78 2017.69 1666.77 2312.45 1487.33 3611.52 2352.73 3347.88 2586.51 2430.64 2359.73
threshold=23.955000000000002 8.7150000000000016 142.96000000000001 12.155000000000001 18.360000000000003 1.7850000000000004 16.850000000000005 119.31000000000002 169.51000000000002 15.728000000000003 12.072000000000001 1.4425833333333336
decision_type=2 2 2 2 2 2 2 2 2 2 2 2
left_child=5 2 -2 4 -3 6 -1 10 -9 -10 11 -8
right_child=1 3 -4 -5 -6 -7 7 8 9 -11 -12 -13
leaf_value=-0.03961074698953182 0.32372526792177486 -1.1132352605110458 2.5849906253107626 -1.9082039809655627 2.0334948486760815 -0.16785784565403533 -0.61528015983393336 0.47345326219296824 1.3389922900690074 3.8364602673986417 -0.79387204683729984 1.0064510118643673
leaf_weight=2983 42 29 54 28 27 2447 74 208 80 36 112 196
leaf_count=2983 42 29 54 28 27 2447 74 208 80 36 112 196
internal_value=0 0.679871 1.59569 -0.366776 0.403938 -0.0199441 0.0781706 0.575822 1.06083 2.11407 0.16445 0.561977
internal_weight=0 180 96 84 56 6136 3689 706 324 116 382 270
internal_count=6316 180 96 84 56 6136 3689 706 324 116 382 270
is_linear=0
shrinkage=0.244687


Tree=38
num_leaves=13
num_cat=0
split_feature=29 31 21 31 22 29 2 3 6 19 6 3
split_gain=1334.64 1281.18 1688.3 1247.23 1136.84 2784.23 1947.25 1753.4 1671.73 2467.43 2040.47 3692.52
threshold=18.999833333333338 14.375000000000002 5.3776427755281026e-17 11.225000000000003 160.50500000000002 11.985833333333336 8.4150000000000009 7.4900000000000011 13.095000000000001 61.210000000000001 3.9450000000000007 9.1050000000000022
decision_type=2 2 2 2 2 2 2 2 2 2 2 2
left_child=1 3 -3 -1 8 6 -6 -7 10 -10 -4 -12
right_child=-2 2 4 -5 5 7 -8 -9 9 -11 11 -13
leaf_value=-0.0052555830862998964 -1.9956672892759308 2.0645160358294894 -0.04291231974742641 -2.4494054201753808 0.88561997864148101 2.7617604112557559 -2.5734683975729347 0.35227218461952697 -0.2810601042432479 -2.4072012937547802 0.13313524050467812 1.3266025775942232
leaf_weight=25 20 24 4406 25 19 40 20 33 493 35 992 184
leaf_count=25 20 24 4406 25 19 40 20 33 493 35 992 184
internal_value=0 0.00633948 0.0162152 -1.22733 0.00831429 0.780829 -0.888271 1.67254 -0.00584637 -0.421997 0.0335173 0.319868
internal_weight=0 6296 6246 50 6222 112 39 73 6110 528 5582 1176
internal_count=6316 6296 6246 50 6222 112 39 73 6110 528 5582 1176
is_linear=0
shrinkage=0.244687


Tree=39
num_leaves=13
num_cat=0
split_feature=30 24 28 3 15 22 31 1 31 18 17 31
split_gain=1160.96 2909.59 2536.12 2200.16 2991.36 2580.75 1731.45 2864.83 1685.81 2087.94 2621.32 2053.04
threshold=0.3805 9.1016666666666683 5.2418333333333349 15.770000000000001 1.3950000000000002 119.44000000000001 123.89500000000001 4.8250000000000011 87.055000000000021 75.410000000000011 61.210000000000001 122.92500000000003
decision_type=2 2 2 2 2 2 2 2 2 2 2 2
left_child=1 3 -3 5 -5 6 -1 -8 -2 10 -10 -11
right_child=8 2 -4 4 -6 -7 7 -9 9 11 -12 -13
leaf_value=-0.023397688152573311 -0.28231445743847677 3.603108110331827 0.045937595140629582 -0.69049654658104243 3.2086673699930981 -2.1342695846156077 0.4205690687397371 3.2704913224868819 0.043085437297632243 -2.7058710785074984 1.9643281044307443 -0.35194145510275415
leaf_weight=730 1348 28 21 19 31 31 136 25 3795 31 43 78
leaf_count=730 1348 28 21 19 31 31 136 25 3795 31 43 78
internal_value=0 0.238901 2.07861 0.146159 1.72699 0.0604306 0.136789 0.863104 -0.0460657 0.0346192 0.0646106 -1.02141
internal_weight=0 1021 49 972 50 922 891 161 5295 3947 3838 109
internal_count=6316 1021 49 972 50 922 891 161 5295 3947 3838 109
is_linear=0
shrinkage=0.244687


Tree=40
num_leaves=13
num_cat=0
split_feature=13 17 9 28 2 2 10 24 25 9 23 28
split_gain=1138.74 1915.81 1225.09 6123.94 3072.46 2883.02 4696.37 6617.29 3052.93 2538.32 2171.7 1989.25
threshold=21.715000000000003 23.215000000000007 8.7950000000000017 6.4090000000000007 7.3550000000000013 19.245000000000001 0.81500000000000006 2.6350000000000002 5.3870000000000013 10.385000000000003 85.745000000000019 4.3421666666666674
decision_type=2 2 2 2 2 2 2 2 2 2 2 2
left_child=2 -2 5 4 9 -1 -7 -8 -9 11 -11 -4
right_child=1 -3 3 -5 -6 6 7 8 -10 10 -12 -13
leaf_value=-0.030797227897313942 -0.28138899642881238 -2.8853142019475513 2.0734786056950165 0.045195187214993104 4.1100349279447812 1.8793377257182422 -5.3483368676075624 0.62057823249000887 -1.72046453734641 0.47186249614336567 3.344396155614195 -0.86960674939931315
leaf_weight=3097 87 21 20 2759 25 29 23 52 93 26 40 44
leaf_count=3097 87 21 20 2759 25 29 23 52 93 26 40 44
internal_value=0 -0.787708 0.0137037 0.129271 1.62582 -0.0885316 -0.996163 -1.49253 -0.880918 1.14809 2.21279 0.0501074
internal_weight=0 108 6208 2914 155 3294 197 168 145 130 66 64
internal_count=6316 108 6208 2914 155 3294 197 168 145 130 66 64
is_linear=0
shrinkage=0.244687


Tree=41
num_leaves=13
num_cat=0
split_feature=4 3 2 7 22 23 10 22 5 7 5 11
split_gain=1145.14 2289.5 3566.78 3157.46 2879.95 2600.47 1896.11 1874.54 1759.28 1733.42 1678.25 1619.07
threshold=7.7350000000000012 6.9900000000000011 3.8200000000000007 7.6650000000000009 86.02000000000001 176.19500000000002 11.395000000000001 110.45000000000002 6.6950000000000012 1.6250000000000002 0.95500000000000007 -1.0000000180025095e-35
decision_type=2 2 2 2 2 2 2 2 2 2 2 2
left_child=-1 11 -3 4 10 7 9 -6 -5 -7 -4 -2
right_child=1 2 3 8 5 6 -8 -9 -10 -11 -12 -13
leaf_value=-0.048660365315244675 -0.99042792890586406 -0.95569471391254757 1.0576539374806475 0.092787699928304671 1.5692795441046656 -1.0273159674054764 2.4850586611016574 4.9631710767841835 -2.7864325289899825 1.657287632583335 -1.6651194388447783 0.59495021647782076
leaf_weight=5185 41 206 23 27 20 36 28 19 24 24 33 650
leaf_count=5185 41 206 23 27 20 36 28 19 24 24 33 650
internal_value=0 0.22308 -0.213196 0.440457 0.914951 1.55952 0.822422 3.22271 -1.26214 0.0465255 -0.546838 0.500883
internal_weight=0 1131 440 234 183 127 88 39 51 60 56 691
internal_count=6316 1131 440 234 183 127 88 39 51 60 56 691
is_linear=0
shrinkage=0.244687


Tree=42
num_leaves=13
num_cat=0
split_feature=28 31 10 5 2 17 24 24 3 7 2 17
split_gain=1102.65 2526.99 2098.37 3346.79 2481.26 2400.27 2055.48 1755.01 1910.48 1583.06 1573.67 1705.3
threshold=16.096333333333337 178.30000000000004 13.885000000000003 3.5650000000000004 8.1550000000000029 34.510000000000005 17.433333333333334 4.2383333333333342 4.5000000000000009 0.32500000000000007 30.465000000000003 39.620000000000005
decision_type=2 2 2 2 2 2 2 2 2 2 2 2
left_child=1 6 3 5 -4 -3 -1 -5 -9 -6 11 -2
right_child=10 2 4 7 9 -7 -8 8 -10 -11 -12 -13
leaf_value=-0.058559907013429231 -0.32635841539076921 0.064929183606380239 0.67419299583259851 -0.091570075045732488 1.4590158445256203 -2.0826230583318539 0.73877758112795155 0.95064382879595244 2.9915037818640071 4.5779040077554507 -2.4747546754518122 1.0664150402708164
leaf_weight=4641 687 373 99 46 20 34 202 76 43 19 19 57
leaf_count=4641 687 373 99 46 20 34 202 76 43 19 19 57
internal_value=0 0.0378972 0.468995 0.262379 1.3254 -0.114473 -0.0253032 1.19195 1.6881 2.97847 -0.27581 -0.219654
internal_weight=0 5553 710 572 138 407 4843 165 119 39 763 744
internal_count=6316 5553 710 572 138 407 4843 165 119 39 763 744
is_linear=0
shrinkage=0.244687


Tree=43
num_leaves=13
num_cat=0
split_feature=27 11 19 21 31 29 5 10 29 30 23 19
split_gain=1230.82 3343.78 4867.26 3173.28 2503.4 3097.93 2407.91 1986.78 4414.54 2223.49 1771.43 1868.64
threshold=2.7133333333333338 1.4650000000000001 54.335000000000008 5.8950000000000005 73.515000000000015 -0.50166666666666659 14.015000000000002 9.1250000000000018 5.4052500000000006 3.7576666666666667 175.28000000000003 46.120000000000012
decision_type=2 2 2 2 2 2 2 2 2 2 2 2
left_child=1 2 10 -3 5 -5 -6 -2 9 -9 11 -1
right_child=7 3 -4 4 6 -7 -8 8 -10 -11 -12 -13
leaf_value=0.068194858609960537 -0.2642300109362512 -0.54329715519130273 -3.820907377959347 2.8029662864887048 1.9284994175051922 -0.18281572516190087 -0.72697657662218518 0.93698812546531518 -0.013793644167995243 3.676349691683614 -1.1419679237374016 2.5177069095524942
leaf_weight=1001 1803 90 20 25 184 124 23 157 2778 20 72 19
leaf_count=1001 1803 90 20 25 184 124 23 157 2778 20 72 19
internal_value=0 0.188762 -0.0382557 0.75478 1.08295 0.318154 1.63345 -0.0618099 0.0616973 1.24652 0.0310236 0.113823
internal_weight=0 1558 1112 446 356 149 207 4758 2955 177 1092 1020
internal_count=6316 1558 1112 446 356 149 207 4758 2955 177 1092 1020
is_linear=0
shrinkage=0.244687


Tree=44
num_leaves=13
num_cat=0
split_feature=0 24 1 26 20 2 30 14 1 13 2 16
split_gain=1225.76 2000.68 3098.72 2227.18 2785.52 3708.44 3698.53 2613.7 2556.12 2916.59 1850.25 1833.57
threshold=8.1950000000000021 15.336666666666668 13.595000000000001 16.02571428571429 51.835000000000001 15.380000000000001 9.2793333333333354 15.005000000000001 2.0450000000000004 1.7150000000000001 32.150000000000006 51.400000000000013
decision_type=2 2 2 2 2 2 2 2 2 2 2 2
left_child=-1 3 -3 4 5 -2 -7 8 -6 -10 -9 -11
right_child=1 2 -4 -5 7 6 -8 10 9 11 -12 -13
leaf_value=0.050018398485586729 -0.50093764558652998 2.9732433802560094 0.094367059957856117 -3.0232313986486479 -1.3268657516382552 -5.1943559300877062 -0.65454406821929478 -1.995343684119578 3.1139245133306495 0.98284887806455223 0.76727820193414176 -0.69065732489662701
leaf_weight=5197 486 25 214 19 37 21 22 47 30 143 21 54
leaf_count=5197 486 25 214 19 37 21 22 47 30 143 21 54
internal_value=0 -0.232302 0.395505 -0.402808 -0.344982 -0.693643 -2.87166 0.210564 0.558998 0.866386 -1.14218 0.524121
internal_weight=0 1119 239 880 861 529 43 332 264 227 68 197
internal_count=6316 1119 239 880 861 529 43 332 264 227 68 197
is_linear=0
shrinkage=0.244687


Tree=45
num_leaves=13
num_cat=0
split_feature=4 23 17 3 8 6 25 2 29 23 18 3
split_gain=877.339 1185.95 1330.85 1195.09 882.467 1095.9 1493.45 1380.72 1181.64 1151.93 1023.72 1756.23
threshold=25.545000000000005 135.94500000000002 14.230000000000002 8.7150000000000016 8.6650000000000009 8.5550000000000015 15.466000000000003 8.8000000000000025 2.7089166666666671 195.84 16.850000000000005 0.29500000000000004
decision_type=2 2 2 2 2 2 2 2 2 2 2 2
left_child=4 2 -2 -3 -1 6 10 8 -7 -9 -6 -12
right_child=1 3 -4 -5 5 7 -8 9 -10 -11 11 -13
leaf_value=-0.05423154784714352 0.69058213647656075 1.8510888673874077 -2.0505289606353045 0.25454014414356291 0.2309104676414265 -1.324024445253029 -0.43208321857771631 -2.8403165584120722 0.36773220024438025 -0.27743667988889842 -0.43760410477888922 1.1782324680416685
leaf_weight=5203 24 52 19 61 378 31 127 21 122 21 50 207
leaf_count=5203 24 52 19 61 378 31 127 21 122 21 50 207
internal_value=0 0.573061 -0.520606 0.989235 -0.0145126 0.201431 0.333889 -0.316176 0.024958 -1.55888 0.487084 0.863867
internal_weight=0 156 43 113 6160 957 762 195 153 42 635 257
internal_count=6316 156 43 113 6160 957 762 195 153 42 635 257
is_linear=0
shrinkage=0.244687


Tree=46
num_leaves=13
num_cat=0
split_feature=16 1 0 19 28 2 6 10 13 11 12 7
split_gain=839.942 2936.64 3671.71 2200.49 2493.25 2179.33 1868.22 1753.52 1964.74 2489.64 2242.75 3005.17
threshold=19.850000000000005 0.51500000000000012 5.785000000000001 25.585000000000004 -0.088333333333333333 13.855000000000002 1.1450000000000002 0.63500000000000012 8.9050000000000029 10.505000000000001 13.215000000000002 7.7250000000000005
decision_type=2 2 2 2 2 2 2 2 2 2 2 2
left_child=-1 2 -2 5 -5 -3 -4 -6 9 -9 11 -10
right_child=1 3 6 4 7 -7 -8 8 10 -11 -12 -13
leaf_value=0.037544826110421391 -4.6287047633300018 -0.49751597779872397 0.61343855110970624 1.9778900611998469 1.6679329042497277 -3.6932921789687119 -2.2829326138930099 -0.51002571602319369 1.4222365818868135 -3.3198499523570821 -0.25771894112541394 -0.82869107400844411
leaf_weight=5366 19 39 30 37 33 19 24 187 129 21 363 49
leaf_count=5366 19 39 30 37 33 19 24 187 129 21 363 49
internal_value=0 -0.212069 -1.70319 -0.0879509 0.0151926 -1.54441 -0.673838 -0.0776716 -0.154581 -0.79371 0.0911473 0.802599
internal_weight=0 950 73 877 819 58 54 782 749 208 541 178
internal_count=6316 950 73 877 819 58 54 782 749 208 541 178
is_linear=0
shrinkage=0.244687


Tree=47
num_leaves=13
num_cat=0
split_feature=2 19 3 5 0 4 11 20 10 1 18 29
split_gain=988.212 2666.75 2480.08 2183.42 2156.07 1841 1656.2 2058.04 1949.95 1607.8 1952.93 1876.21
threshold=2.3750000000000004 42.515000000000008 22.345000000000002 25.775000000000002 0.095000000000000015 7.6950000000000012 14.145000000000001 12.830000000000002 12.205000000000002 -3.8499999999999992 21.395000000000007 -1.5211666666666666
decision_type=2 2 2 2 2 2 2 2 2 2 2 2
left_child=1 2 -1 4 6 -5 7 -2 -9 10 -6 -11
right_child=3 -3 -4 5 9 -7 -8 8 -10 11 -12 -13
leaf_value=-0.04925202310272421 -0.22782844862798607 -1.0376755046121067 2.3487534610783487 2.9204835376556892 0.1910408042197462 0.38479949342897796 -0.1551890535500291 1.0131299880578353 3.1482356333552968 1.4587271872302852 -3.1874371133853652 -0.032084681172895112
leaf_weight=3767 68 165 26 30 20 40 119 175 30 52 21 1803
leaf_count=3767 68 165 26 30 20 40 119 175 30 52 21 1803
internal_value=0 -0.0747047 -0.0328143 0.125395 0.084211 1.47152 0.606594 0.938654 1.32558 -0.0237923 -1.5394 0.00970627
internal_weight=0 3958 3793 2358 2288 70 392 273 205 1896 41 1855
internal_count=6316 3958 3793 2358 2288 70 392 273 205 1896 41 1855
is_linear=0
shrinkage=0.244687


Tree=48
num_leaves=13
num_cat=0
split_feature=0 17 28 3 24 25 10 14 3 9 15 16
split_gain=848.707 1199.98 1988.22 922.526 3311.56 3404.65 2433.25 2238.99 3457.28 2954.93 2667.15 2580.29
threshold=37.015000000000008 79.14500000000001 14.502000000000001 6.2300000000000013 15.748333333333335 -1.9729999999999996 16.275000000000002 11.805000000000001 9.1050000000000022 2.5900000000000003 -2.3649999999999998 17.615000000000006
decision_type=2 2 2 2 2 2 2 2 2 2 2 2
left_child=1 3 -3 -1 5 -5 7 9 11 10 -7 -9
right_child=-2 2 -4 4 -6 6 -8 8 -10 -11 -12 -13
leaf_value=0.04723518615628032 -1.2569294155899418 2.9093142638240077 -0.50769330225731513 -2.6330508938863257 -1.3756196330558912 -2.3727084137444057 1.5247455118211211 -1.1205577584844126 -0.13510643084682372 0.52980633548244116 -0.16891224133286445 -4.1078178324876555
leaf_weight=4889 32 22 19 30 126 38 60 70 277 486 244 23
leaf_count=4889 32 22 19 30 126 38 60 70 277 486 244 23
internal_value=0 0.00640066 1.32582 -0.00226446 -0.180997 -0.0584216 0.00605156 -0.0740202 -0.568495 0.164204 -0.465878 -1.85934
internal_weight=0 6284 41 6243 1354 1228 1198 1138 370 768 282 93
internal_count=6316 6284 41 6243 1354 1228 1198 1138 370 768 282 93
is_linear=0
shrinkage=0.244687


Tree=49
num_leaves=13
num_cat=0
split_feature=24 28 29 22 21 10 23 30 1 22 5 7
split_gain=839.084 2086.52 2040.97 2030.29 4154.02 1876.16 1540.06 1679.87 3030.48 1510.63 2847.63 1814.19
threshold=12.526666666666669 11.002166666666669 7.1856666666666671 129.39000000000001 88.265000000000015 13.435 139.63000000000002 6.9230000000000009 11.155000000000003 130.30000000000004 1.385 5.1450000000000005
decision_type=2 2 2 2 2 2 2 2 2 2 2 2
left_child=1 9 5 4 6 -2 -4 -8 -9 -1 -11 -12
right_child=2 -3 3 -5 -6 -7 7 8 -10 10 11 -13
leaf_value=0.043985492648360353 0.11287377607929784 -0.43351051216739972 -0.14255007780544909 1.0644113863378144 -2.9956798009700423 2.499447659318013 -1.9500276778943013 3.2775777282691654 0.29598898244156674 -2.8231168657212944 1.1765875783259025 -1.2973883992626709
leaf_weight=3515 38 742 966 118 27 41 19 21 726 32 36 35
leaf_count=3515 38 742 966 118 27 41 19 21 726 32 36 35
internal_value=0 -0.0597355 0.133153 0.0818756 0.0159635 1.35148 0.0629118 0.322019 0.379809 0.0169203 -0.90671 -0.042978
internal_weight=0 4360 1956 1877 1759 79 1732 766 747 3618 103 71
internal_count=6316 4360 1956 1877 1759 79 1732 766 747 3618 103 71
is_linear=0
shrinkage=0.244687


Tree=50
num_leaves=13
num_cat=0
split_feature=4 21 4 6 6 19 2 5 23 31 11 10
split_gain=844.128 1499.4 1664.15 1474.13 1764 1566.38 1460.66 2612.94 1434.54 1322.98 1181.37 1897.59
threshold=6.7650000000000006 88.265000000000015 0.015000000000000001 20.540000000000003 13.095000000000001 40.935000000000009 36.160000000000004 0.49500000000000005 211.33000000000001 99.560000000000016 16.715000000000003 11.395000000000001
decision_type=2 2 2 2 2 2 2 2 2 2 2 2
left_child=1 6 -3 4 10 -6 -1 -8 9 -4 11 -2
right_child=3 2 8 -5 5 -7 7 -9 -10 -11 -12 -13
leaf_value=-0.037580393678837441 0.093820343397120642 -2.9553818432711365 0.29139747806772093 1.1943658780274384 -0.078764235903751492 -2.2219823211809833 -0.38386643380131796 3.4402427496560017 0.96696184202636137 -2.0175756320859639 -0.499445464819472 0.89287033512980896
leaf_weight=4881 753 20 24 80 49 35 23 20 28 39 131 233
leaf_count=4881 753 20 24 80 49 35 23 20 28 39 131 233
internal_value=0 -0.0451199 -0.934456 0.177345 0.1096 -0.971772 -0.0250719 1.39479 -0.490296 -1.13797 0.19092 0.282643
internal_weight=0 5035 111 1281 1201 84 4924 43 91 63 1117 986
internal_count=6316 5035 111 1281 1201 84 4924 43 91 63 1117 986
is_linear=0
shrinkage=0.244687


Tree=51
num_leaves=13
num_cat=0
split_feature=27 13 26 10 28 7 8 18 16 17 9 23
split_gain=723.9 2175.5 1842.74 1610.05 2949.74 1700.36 1576.03 1454.82 2159.43 2448.61 3766.7 2141.22
threshold=2.5413333333333337 -1.6949999999999996 5.015714285714286 9.1250000000000018 6.4833333333333334 4.1450000000000005 14.515000000000002 54.295000000000009 34.415000000000006 31.580000000000005 2.6550000000000007 158.88500000000002
decision_type=2 2 2 2 2 2 2 2 2 2 2 2
left_child=2 -2 6 -3 5 -5 7 8 9 11 -11 -1
right_child=1 3 -4 4 -6 -7 -8 -9 -10 10 -12 -13
leaf_value=0.21980526157276631 2.5666912698943269 -0.23684814023227699 2.2311645943770837 0.8022682302750731 0.0019385036160892712 3.2015835382794577 1.213474707444065 -1.6026994378808641 2.2191610454753046 -4.0111175349460302 0.51675780506121838 -0.77447020181612758
leaf_weight=1160 19 1834 25 112 2822 21 74 31 28 22 22 146
leaf_count=1160 19 1834 25 112 2822 21 74 31 28 22 22 146
internal_value=0 -0.0463924 0.147914 -0.0567596 0.0550111 1.18111 0.112795 0.0549882 0.0922802 0.0481671 -1.74718 0.108653
internal_weight=0 4808 1508 4789 2955 133 1483 1409 1378 1350 44 1306
internal_count=6316 4808 1508 4789 2955 133 1483 1409 1378 1350 44 1306
is_linear=0
shrinkage=0.244687


Tree=52
num_leaves=13
num_cat=0
split_feature=23 21 5 31 29 1 20 22 21 18 13 9
split_gain=783.173 2767.21 1512.51 1446.34 2697.12 2549.57 1688.05 2225.5 2074.25 1687.21 2327 1404.34
threshold=102.575 60.965000000000011 0.025000000000000005 207.45500000000001 8.3290833333333349 4.0250000000000012 19.670000000000005 54.080000000000005 39.775000000000013 26.610000000000003 2.4950000000000006 0.81500000000000006
decision_type=2 2 2 2 2 2 2 2 2 2 2 2
left_child=1 3 -2 6 5 -5 11 8 -8 -9 -11 -1
right_child=2 -3 -4 4 -6 -7 7 9 -10 10 -12 -13
leaf_value=0.34161096655738132 -0.1809821227989428 -2.293741470348476 0.17170018125399572 0.64211258921800929 -0.36413747114447514 3.9584551123552121 -0.65182917933814666 -0.34673021670759702 -2.6806432985086452 3.305970488853867 0.28778239672676786 -0.12746317543830815
leaf_weight=531 1007 34 2628 35 62 23 352 163 33 20 65 1363
leaf_count=531 1007 34 2628 35 62 23 352 163 33 20 65 1363
internal_value=0 -0.100328 0.073997 -0.0721541 0.757849 1.95721 -0.111569 -0.457499 -0.825728 0.114146 0.997944 0.004046
internal_weight=0 2681 3635 2647 120 58 2527 633 385 248 85 1894
internal_count=6316 2681 3635 2647 120 58 2527 633 385 248 85 1894
is_linear=0
shrinkage=0.244687


Tree=53
num_leaves=13
num_cat=0
split_feature=27 15 29 28 8 20 28 31 10 30 10 19
split_gain=831.925 1228.4 2465.15 1511.93 1219.26 975.75 955.696 2173.27 2940.54 2088.42 1817.1 2539.15
threshold=-2.6036666666666659 -5.0849999999999991 2.0882500000000004 -0.91316666666666657 0.025000000000000005 30.315000000000001 0.76366666666666683 90.485000000000014 4.4450000000000012 3.4548333333333336 2.8450000000000002 17.520000000000007
decision_type=2 2 2 2 2 2 2 2 2 2 2 2
left_child=5 2 3 4 -2 -1 7 8 -3 -9 11 -11
right_child=1 6 -4 -5 -6 -7 -8 9 -10 10 -12 -13
leaf_value=-0.25721226449752588 -0.21054583442658423 -0.47433732621038288 3.39691072992205 -1.1346478207093158 2.4946704166951394 -1.7972080340507361 -0.028449011529957838 0.38995359943621505 1.5990214024175464 1.1729577302776375 -0.093116153688323294 4.5434786888110175
leaf_weight=281 19 279 19 28 21 27 5250 268 48 32 21 23
leaf_count=281 19 279 19 28 21 27 5250 268 48 32 21 23
internal_value=0 0.0201067 0.932861 0.244376 1.20969 -0.392212 0.00669522 0.281669 -0.169991 0.711008 1.84315 2.58245
internal_weight=0 6008 87 68 40 308 5921 671 327 344 76 55
internal_count=6316 6008 87 68 40 308 5921 671 327 344 76 55
is_linear=0
shrinkage=0.244687


Tree=54
num_leaves=13
num_cat=0
split_feature=4 13 7 10 17 6 2 19 3 17 25 1
split_gain=731.681 743.047 1084.9 751.319 680.308 647.553 610.327 1965.96 2010.62 1239.43 1465.68 1228.17
threshold=25.545000000000005 14.175000000000002 0.71500000000000008 10.595000000000001 27.275000000000002 0.15500000000000003 1.5650000000000002 41.960000000000008 22.345000000000002 19.355000000000004 12.107000000000001 7.5650000000000004
decision_type=2 2 2 2 2 2 2 2 2 2 2 2
left_child=6 2 -2 -3 -4 -5 7 8 9 -1 -11 -8
right_child=1 3 4 5 -6 -7 11 -9 -10 10 -12 -13
leaf_value=-0.031220073879510795 2.121847213979235 -1.3563603157083579 1.0404888268301744 -0.63973709609331819 -0.65092219399223172 1.2395391087224621 -0.089313585155573291 -1.1211774718173815 2.3996729236447005 -1.6368314087170543 -0.032708223006081401 0.25060468278063902
leaf_weight=3352 32 20 35 19 24 26 1289 105 20 64 73 1257
leaf_count=3352 32 20 35 19 24 26 1289 105 20 64 73 1257
internal_value=0 0.523333 0.97466 -0.108526 0.352457 0.446067 -0.0132532 -0.0778984 -0.0466803 -0.0607035 -0.78208 0.0785094
internal_weight=0 156 91 65 59 45 6160 3614 3509 3489 137 2546
internal_count=6316 156 91 65 59 45 6160 3614 3509 3489 137 2546
is_linear=0
shrinkage=0.244687


Tree=55
num_leaves=13
num_cat=0
split_feature=23 2 3 9 7 5 1 12 11 14 27 2
split_gain=663.316 593.585 3377.11 3478.17 2252.43 4143.98 1990.8 3457.06 2370.68 2440.25 3014.03 2194.97
threshold=291.06500000000005 15.145000000000001 1.0000000180025095e-35 0.81500000000000006 19.165000000000003 3.2450000000000006 8.7450000000000028 12.115 5.0050000000000008 8.9700000000000024 6.1380000000000008 23.865000000000002
decision_type=2 2 2 2 2 2 2 2 2 2 2 2
left_child=1 -1 -3 -4 6 -6 8 -8 -5 10 -10 -9
right_child=-2 2 3 4 5 -7 7 11 9 -11 -12 -13
leaf_value=0.020670487155067935 1.4435741534542159 -2.4350864709837254 -2.8511223196577982 0.61208156851469764 0.81771399394698741 -4.1036561511020269 2.4874892438532701 -0.83331624797726112 -0.53990300673881175 -0.01525036427731525 -3.6761118725061492 0.8821929429704094
leaf_weight=5668 19 39 26 113 20 21 51 73 43 96 32 115
leaf_count=5668 19 39 26 113 20 21 51 73 43 96 32 115
internal_value=0 -0.00435571 -0.22987 -0.0841014 0.0434563 -1.70299 0.180367 0.700762 -0.257571 -0.832254 -1.87802 0.216064
internal_weight=0 6297 629 590 564 41 523 239 284 171 75 188
internal_count=6316 6297 629 590 564 41 523 239 284 171 75 188
is_linear=0
shrinkage=0.244687


Tree=56
num_leaves=13
num_cat=0
split_feature=31 1 21 23 29 15 30 3 31 27 29 29
split_gain=604.51 939.841 815.643 713.052 754.138 1171.99 1092.46 2455.71 2510.5 1918.06 2409.69 1922.6
threshold=23.585000000000004 3.3650000000000007 5.3776427755281026e-17 35.910000000000004 -2.4964166666666663 -2.5449999999999995 0.3805 12.555000000000001 162.06500000000003 5.2846666666666673 1.5074166666666671 1.7381666666666669
decision_type=2 2 2 2 2 2 2 2 2 2 2 2
left_child=1 -1 -2 -4 5 -5 7 8 9 10 -6 -12
right_child=2 -3 3 4 6 -7 -8 -9 -10 -11 11 -13
leaf_value=-0.021956486248740484 1.4968333952940838 -1.5756527075679438 -0.36892521324523769 -1.6480361315341729 0.052872481199964627 0.067325645435620363 -0.0066182319445963608 1.8395766180155755 1.9078120439294119 -1.1165163526699671 3.6937093927001179 0.57526334647493549
leaf_weight=63 22 37 292 41 518 57 5058 58 47 74 20 29
leaf_count=63 22 37 292 41 518 57 5058 58 47 74 20 29
internal_value=0 -0.596824 0.00960142 0.00431903 0.0227852 -0.650326 0.0341506 0.31057 0.181671 0.0551054 0.208015 1.8481
internal_weight=0 100 6216 6194 5902 98 5804 746 688 641 567 49
internal_count=6316 100 6216 6194 5902 98 5804 746 688 641 567 49
is_linear=0
shrinkage=0.244687


Tree=57
num_leaves=13
num_cat=0
split_feature=29 6 16 2 29 10 12 17 1 1 1 21
split_gain=586.213 619.78 1500 1234.93 1596.04 1414.19 2931.27 3023 2080.88 1919.59 1127.38 1141.09
threshold=18.999833333333338 0.065000000000000016 14.645000000000001 30.465000000000003 12.862833333333336 0.095000000000000015 8.9150000000000009 38.395000000000003 6.3050000000000006 8.6700000000000017 3.4550000000000005 27.730000000000004
decision_type=2 2 2 2 2 2 2 2 2 2 2 2
left_child=1 2 -1 5 -5 -4 7 10 -8 -10 -7 -12
right_child=-2 -3 3 4 -6 6 8 -9 9 -11 11 -13
leaf_value=0.0021665176518862492 -1.3226166873421739 0.065680157783333054 0.97951187356642533 2.2035744985458661 -0.34893109310578196 -2.0840124264639472 1.4929222487370943 -4.2676163189518039 -2.7320834313958993 -0.3240392338335466 -2.0068567082632938 0.30560326095488516
leaf_weight=1982 20 3836 30 22 44 45 34 23 22 200 19 39
leaf_count=1982 20 3836 30 22 44 45 34 23 22 200 19 39
internal_value=0 0.00420145 -0.0916653 -0.480734 0.501904 -0.638147 -0.765188 -1.73133 -0.289665 -0.562674 -1.16497 -0.451927
internal_weight=0 6296 2460 478 66 412 382 126 256 222 103 58
internal_count=6316 6296 2460 478 66 412 382 126 256 222 103 58
is_linear=0
shrinkage=0.244687


Tree=58
num_leaves=13
num_cat=0
split_feature=4 20 4 6 14 30 6 6 23 14 3 13
split_gain=538.551 994.155 1148.7 909.875 1087.07 1270.99 1013.16 1888.75 1376.64 1082.11 882.444 2082.34
threshold=6.7650000000000006 89.825000000000003 1.0650000000000002 19.660000000000004 13.485000000000001 9.4358333333333348 8.1800000000000015 7.6550000000000011 192.39000000000001 1.4150000000000003 29.360000000000003 16.135000000000002
decision_type=2 2 2 2 2 2 2 2 2 2 2 2
left_child=1 10 -3 6 5 -5 7 -2 9 -8 -1 -12
right_child=3 2 -4 4 -6 -7 8 -9 -10 -11 11 -13
leaf_value=-0.038747279822752057 0.1326098204478674 -2.6295633775088505 -0.0037966452703282593 0.50647127136152414 -0.086694648795315785 3.0565212864913334 -1.6428253648985929 2.3755619853871046 -1.6340395835053667 0.22514460968645686 1.6685042844698095 -1.2265534185310687
leaf_weight=4923 990 19 21 25 36 22 22 23 44 119 51 21
leaf_count=4923 990 19 21 25 36 22 22 23 44 119 51 21
internal_value=0 -0.0360394 -1.25104 0.141654 0.925111 1.70011 0.0873739 0.183536 -0.439177 -0.0663117 -0.0263097 0.824112
internal_weight=0 5035 40 1281 83 47 1198 1013 185 141 4995 72
internal_count=6316 5035 40 1281 83 47 1198 1013 185 141 4995 72
is_linear=0
shrinkage=0.244687


Tree=59
num_leaves=13
num_cat=0
split_feature=2 3 16 29 10 9 31 23 31 21 31 29
split_gain=500.183 1440.32 2381.73 1756.01 1212.32 860.345 841.901 1383.93 2013.57 1156.97 970.538 969.506
threshold=1.5650000000000002 6.455000000000001 12.525000000000002 4.2967500000000003 0.53500000000000014 0.34500000000000003 85.090000000000018 151.33500000000001 69.590000000000018 32.835000000000001 69.590000000000018 0.92475000000000007
decision_type=2 2 2 2 2 2 2 2 2 2 2 2
left_child=1 6 3 4 -3 -6 7 10 11 -8 -1 -9
right_child=-2 2 -4 -5 5 -7 9 8 -10 -11 -12 -13
leaf_value=0.13349673124544925 0.081305829045589181 -1.0331875669760782 -2.1423306831894342 -0.59664332138084752 2.4556203481517485 0.577142131436156 0.003816136143690464 -0.57503340185566421 0.34399961197428364 0.4864026146565622 -0.43178765419133514 -2.1421269786513988
leaf_weight=512 2638 22 46 282 19 63 1949 39 53 351 282 60
leaf_count=512 2638 22 46 282 19 63 1949 39 53 351 282 60
internal_value=0 -0.0583156 -0.478042 -0.279707 0.579679 1.0124 -0.00245557 -0.196761 -0.873171 0.077463 -0.0672718 -1.52479
internal_weight=0 3678 432 386 104 82 3246 946 152 2300 794 99
internal_count=6316 3678 432 386 104 82 3246 946 152 2300 794 99
is_linear=0
shrinkage=0.244687


Tree=60
num_leaves=13
num_cat=0
split_feature=31 30 30 30 30 25 12 9 23 23 29 9
split_gain=494.881 634.471 867.6 590.277 1093.04 1827.71 1784.64 2119.26 2455.56 2250.37 1730.53 2050.9
threshold=250.13500000000002 16.000333333333337 9.7821666666666669 14.193166666666668 7.0456666666666683 15.176000000000002 3.5250000000000004 3.4050000000000007 79.185000000000016 161.57500000000002 3.5468333333333337 10.035000000000002
decision_type=2 2 2 2 2 2 2 2 2 2 2 2
left_child=3 2 -2 4 5 10 7 9 -9 -6 11 -1
right_child=1 -3 -4 -5 6 -7 -8 8 -10 -11 -12 -13
leaf_value=-0.00020343790478338772 1.5984146496164264 1.4740874860449111 -0.29511867116456958 -0.14535828132286308 0.59749563757915525 1.4335522066941602 0.06949414556801832 -0.32840268794955207 2.3618346250058293 -1.6230667585872554 -0.37228514451796729 1.5726088753880907
leaf_weight=1858 19 30 61 1457 187 48 1587 28 74 32 884 51
leaf_count=1858 19 30 61 1457 187 48 1587 28 74 32 884 51
internal_value=0 0.514457 0.154595 -0.00911864 0.0326799 -0.0635215 0.175923 0.7021 1.62334 0.27303 -0.0892499 0.0418151
internal_weight=0 110 80 6206 4749 2841 1908 321 102 219 2793 1909
internal_count=6316 110 80 6206 4749 2841 1908 321 102 219 2793 1909
is_linear=0
shrinkage=0.244687


Tree=61
num_leaves=13
num_cat=0
split_feature=3 2 10 30 23 23 27 29 22 22 18 19
split_gain=494.355 1177 1319.91 2120.6 1380.76 1065.14 1134.37 1659.56 1044.14 1108.32 963.268 941.407
threshold=0.03500000000000001 14.955000000000002 10.595000000000001 4.7311666666666676 133.81000000000003 204.15500000000003 2.8260000000000005 5.2584166666666681 34.440000000000005 20.045000000000002 29.015000000000004 11.485000000000001
decision_type=2 2 2 2 2 2 2 2 2 2 2 2
left_child=1 2 4 8 -1 6 -6 -8 9 -4 -5 -10
right_child=-2 -3 3 10 5 -7 7 -9 11 -11 -12 -13
leaf_value=-0.10901547625103214 0.050327044163318638 -1.0732749578718526 0.73910811300493362 -0.026867120169390388 -0.32161102381318296 0.8475749062661444 -2.7931295107300493 -0.75590608391277514 -0.45208431000810168 3.0314754916485311 1.3045343837950081 1.6552254137777005
leaf_weight=1048 4100 71 23 755 83 21 39 62 30 28 34 22
leaf_count=1048 4100 71 23 755 83 21 39 62 30 28 34 22
internal_value=0 -0.0931141 -0.0606706 0.166819 -0.222619 -0.80338 -0.991804 -1.54256 1.211 1.99766 0.0305063 0.43947
internal_weight=0 2216 2145 892 1253 205 184 101 103 51 789 52
internal_count=6316 2216 2145 892 1253 205 184 101 103 51 789 52
is_linear=0
shrinkage=0.244687


Tree=62
num_leaves=13
num_cat=0
split_feature=8 15 29 2 0 6 5 4 13 26 24 22
split_gain=499.6 1082.38 954.364 863.103 757.653 533.585 649.718 506.647 477.035 534.557 2325.86 2930
threshold=20.540000000000003 3.6250000000000004 10.014916666666668 11.765000000000002 6.9650000000000007 10.625000000000002 0.21500000000000002 6.7650000000000006 -9.3599999999999977 -1.2035714285714283 1.2616666666666669 92.745000000000019
decision_type=2 2 2 2 2 2 2 2 2 2 2 2
left_child=8 -2 5 4 7 6 -3 -4 -1 -10 11 -11
right_child=1 2 3 -5 -6 -7 -8 -9 9 10 -12 -13
leaf_value=1.0319890722540919 1.7190461169685602 -1.2559472187742335 0.24287728353939259 1.8157409675903493 -1.1572357452904865 -1.6102091452264045 0.42478231814695278 1.6654612436972211 -0.23574107300519048 0.69071999128102712 -0.048083198354829271 -1.0127587770006012
leaf_weight=26 30 21 71 26 19 20 40 19 609 488 4878 69
leaf_count=26 30 21 71 26 19 20 40 19 609 488 4878 69
internal_value=0 0.341843 0.150565 0.548962 0.246794 -0.513429 -0.153829 0.543201 -0.0138539 -0.0183529 0.00600573 0.479697
internal_weight=0 246 216 135 109 81 61 90 6070 6044 5435 557
internal_count=6316 246 216 135 109 81 61 90 6070 6044 5435 557
is_linear=0
shrinkage=0.244687


Tree=63
num_leaves=13
num_cat=0
split_feature=31 11 0 21 29 17 18 7 31 3 28 15
split_gain=424.001 468.637 416.01 1306.44 1528.03 1109.77 2983.65 1177.79 910.041 822.541 2088.16 1830.47
threshold=14.375000000000002 1.3150000000000002 0.30500000000000005 32.835000000000001 13.369000000000002 20.640000000000004 28.875000000000004 5.6150000000000011 125.29500000000002 6.9900000000000011 -1.1624999999999999 17.215000000000003
decision_type=2 2 2 2 2 2 2 2 2 2 2 2
left_child=1 -1 3 4 -2 -5 -7 8 -8 -4 -11 -12
right_child=2 -3 9 5 -6 6 7 -9 -10 10 11 -13
leaf_value=0.069981663223265059 0.10436346035171527 -1.4294302303722284 0.01694488900818901 0.20993965444614754 -0.36312204334027531 3.3097041965096605 0.15927396524393203 -0.83752919708291951 1.7718632432366586 -2.4643485588910039 -0.066696100543779863 -1.241984859680594
leaf_weight=24 1713 26 2564 448 554 27 44 31 40 25 731 89
leaf_count=24 1713 26 2564 448 554 27 44 31 40 25 731 89
internal_value=0 -0.709713 0.0056632 0.0745324 -0.0098787 0.398871 0.994938 0.451471 0.927174 -0.0520544 -0.26142 -0.194258
internal_weight=0 50 6266 2857 2267 590 142 115 84 3409 845 820
internal_count=6316 50 6266 2857 2267 590 142 115 84 3409 845 820
is_linear=0
shrinkage=0.244687


Tree=64
num_leaves=13
num_cat=0
split_feature=9 3 9 2 22 20 4 28 19 2 31 23
split_gain=517.715 1515.71 1812.15 1446.3 1079.24 2213.99 3357.07 1112.29 2030.21 1210.29 810.322 1244.08
threshold=13.715000000000002 10.300000000000002 15.095000000000001 4.2650000000000006 129.39000000000001 61.775000000000006 0.97500000000000009 15.285000000000002 44.310000000000009 22.460000000000004 132.46500000000003 94.180000000000007
decision_type=2 2 2 2 2 2 2 2 2 2 2 2
left_child=-1 4 3 -3 5 7 -7 8 10 -9 -2 -12
right_child=1 2 -4 -5 -6 6 -8 9 -10 -11 11 -13
leaf_value=-0.040497066458281106 0.12529977807989895 -0.7770408273852677 -1.5399147511927007 1.5091616445400691 1.1769440715152213 -4.0117189121290844 0.23360133344539449 0.06529568181498345 2.527663570138309 -1.6343815343831583 1.8111047508431619 0.41355417147326523
leaf_weight=4734 351 37 69 30 64 19 27 711 27 26 49 172
leaf_count=4734 351 37 69 30 64 19 27 711 27 26 49 172
internal_value=0 0.121184 -0.659778 0.246632 0.194635 0.149145 -1.5199 0.206612 0.454261 0.00533421 0.356391 0.723418
internal_weight=0 1582 136 67 1446 1382 46 1336 599 737 572 221
internal_count=6316 1582 136 67 1446 1382 46 1336 599 737 572 221
is_linear=0
shrinkage=0.244687


Tree=65
num_leaves=13
num_cat=0
split_feature=10 28 30 12 22 3 2 16 2 10 18 2
split_gain=450.201 725.981 598.726 534.828 603.578 1706.8 487.532 778.436 548.195 563.875 1130.75 3002.58
threshold=19.195000000000004 16.048000000000005 16.053166666666669 18.445000000000004 99.065000000000012 12.825000000000001 43.980000000000004 67.75500000000001 36.82500000000001 12.765000000000002 37.775000000000013 19.895000000000003
decision_type=2 2 2 2 2 2 2 2 2 2 2 2
left_child=3 -2 -3 6 5 -5 7 8 9 -1 11 -11
right_child=1 2 -4 4 -6 -7 -8 -9 -10 10 -12 -13
leaf_value=-0.036936124587280482 0.7275451477339393 0.20992814376907912 -0.73428620143547274 -0.26906622892503868 0.52051535019561412 -2.3929667617716275 0.9365000106735738 -1.4273340345999783 -1.0441216666725706 0.10975436553705878 0.6923339068743608 -2.7789040950936421
leaf_weight=4364 130 190 51 176 38 26 33 23 30 1039 194 22
leaf_count=4364 130 190 51 176 38 26 33 23 30 1039 194 22
internal_value=0 0.261506 0.0101151 -0.0163194 -0.374138 -0.54244 -0.0012665 -0.00672248 -0.000938436 0.00463115 0.149173 0.0498576
internal_weight=0 371 241 5945 240 202 5705 5672 5649 5619 1255 1061
internal_count=6316 371 241 5945 240 202 5705 5672 5649 5619 1255 1061
is_linear=0
shrinkage=0.244687


Tree=66
num_leaves=13
num_cat=0
split_feature=4 3 14 9 16 11 23 29 19 20 16 23
split_gain=408.437 834.512 375.22 1296.51 1947.96 2206.58 1388.08 1704.53 2053.14 1460.01 1428.64 1386.9
threshold=35.375000000000007 8.7150000000000016 2.7950000000000004 5.0550000000000006 3.0750000000000006 0.095000000000000015 158.88500000000002 1.5074166666666671 42.515000000000008 71.100000000000009 27.070000000000004 134.70000000000002
decision_type=2 2 2 2 2 2 2 2 2 2 2 2
left_child=2 -2 3 6 -5 -6 10 8 -8 -10 11 -1
right_child=1 -3 -4 4 5 -7 7 -9 9 -11 -12 -13
leaf_value=0.061505865200050663 1.7156644673204626 -0.42442555519844594 -0.040911140829055087 -0.069322485630365319 3.4256893426028281 0.79443136969975503 -0.8204880689215196 -1.4478773011946755 2.8203246487080822 -0.13994589282918291 -1.4669936782747806 1.0328122922997203
leaf_weight=1058 24 20 4626 136 23 112 64 83 21 19 34 96
leaf_count=1058 24 20 4626 136 23 112 64 83 21 19 34 96
internal_value=0 0.742896 -0.00521164 0.09512 0.584278 1.24272 -0.00128859 -0.620948 0.0390059 1.4142 0.0962503 0.142308
internal_weight=0 44 6272 1646 271 135 1375 187 104 40 1188 1154
internal_count=6316 44 6272 1646 271 135 1375 187 104 40 1188 1154
is_linear=0
shrinkage=0.244687


Tree=67
num_leaves=13
num_cat=0
split_feature=23 21 29 11 7 9 9 28 31 16 2 21
split_gain=362.212 993.134 685.014 2056.48 1182.44 860.682 1511.53 1364.63 855.825 1279.05 799.058 596.626
threshold=62.300000000000004 38.020000000000003 -1.6505833333333333 0.52500000000000013 0.065000000000000016 7.9350000000000014 0.52500000000000013 3.1396666666666673 173.48500000000004 0.095000000000000015 6.9900000000000011 3.7300000000000009
decision_type=2 2 2 2 2 2 2 2 2 2 2 2
left_child=1 2 3 -1 -5 6 -4 -7 10 -10 -8 -2
right_child=11 -3 5 4 -6 7 8 -9 9 -11 -12 -13
leaf_value=-0.32005564788378177 -0.19940771474906896 -1.6573707835024096 0.22603073593570253 2.7302368697776713 0.22935273531201306 1.6910294053308885 -0.66727828791051935 -0.019921350588990888 -0.74653797372542108 1.8154731977193281 -2.035648525082979 0.055470751048811884
leaf_weight=80 623 25 178 28 19 31 292 280 28 20 28 4684
leaf_count=80 623 25 178 28 19 31 292 280 28 20 28 4684
internal_value=0 -0.134385 -0.0956908 0.434645 1.71924 -0.174282 -0.359347 0.150624 -0.642492 0.320967 -0.787011 0.02555
internal_weight=0 1009 984 127 47 857 546 311 368 48 320 5307
internal_count=6316 1009 984 127 47 857 546 311 368 48 320 5307
is_linear=0
shrinkage=0.244687


Tree=68
num_leaves=13
num_cat=0
split_feature=16 1 11 24 0 23 9 22 18 3 3 3
split_gain=365.517 1104.71 1999.32 1617.22 1309.68 1664.04 2021.61 1487.22 1091.06 2205.49 1039.66 1566.3
threshold=19.850000000000005 4.2150000000000007 5.1850000000000014 5.5266666666666682 20.870000000000005 118.42000000000002 6.1850000000000014 47.905000000000008 64.435000000000016 4.3150000000000004 1.7550000000000001 1.2250000000000003
decision_type=2 2 2 2 2 2 2 2 2 2 2 2
left_child=-1 4 3 -3 5 7 8 -2 9 -7 11 -4
right_child=1 2 10 -5 -6 6 -8 -9 -10 -11 -12 -13
leaf_value=0.024767321027761392 -1.5872008285573938 0.48717813682772876 -0.32563396165210307 3.0459367010371428 0.60524833892257723 -0.89980953494956728 0.5045167903572727 0.9667834991329195 -0.66544521465578765 -3.6406570651356258 0.14385286805241279 -2.6285412822314687
leaf_weight=5366 20 50 255 21 44 32 27 43 31 39 369 19
leaf_count=5366 20 50 255 21 44 32 27 43 31 39 369 19
internal_value=0 -0.139896 0.0118016 1.24399 -0.598847 -0.874785 -1.37819 0.155995 -1.87655 -2.40535 -0.124257 -0.485325
internal_weight=0 950 714 71 236 192 129 63 102 71 643 274
internal_count=6316 950 714 71 236 192 129 63 102 71 643 274
is_linear=0
shrinkage=0.244687


Tree=69
num_leaves=13
num_cat=0
split_feature=23 7 31 28 14 28 13 30 1 11 2 22
split_gain=343.103 474.602 381.324 597.471 639.712 385.713 2182.3 1866.81 2691.57 1778.5 1431.15 1314.91
threshold=29.530000000000005 0.52500000000000013 243.37500000000003 15.601666666666668 13.765000000000002 1.6693333333333336 5.3350000000000009 4.0713333333333344 3.5250000000000004 -1.0049999999999997 8.9250000000000025 68.625000000000014
decision_type=2 2 2 2 2 2 2 2 2 2 2 2
left_child=1 -1 5 4 -4 6 7 -2 9 -9 -8 -11
right_child=2 -3 3 -5 -6 -7 10 8 -10 11 -12 -13
leaf_value=-0.17699266741940092 -0.10735833420574223 -1.3433785419231095 0.38921530461597692 -0.48203451210464199 1.896823594940046 -0.02990726648354284 1.9891039136332118 -0.36059657759633529 2.9909291312849002 2.17811220820714 -0.45774794551278419 0.16618351074579882
leaf_weight=161 924 24 72 32 22 4806 58 93 27 41 19 37
leaf_count=161 924 24 72 32 22 4806 58 93 27 41 19 37
internal_value=0 -0.328308 0.00990652 0.431179 0.74206 0.00106718 0.125223 0.038745 0.720561 0.362081 1.38534 1.22374
internal_weight=0 185 6131 126 94 6005 1199 1122 198 171 77 78
internal_count=6316 185 6131 126 94 6005 1199 1122 198 171 77 78
is_linear=0
shrinkage=0.244687


Tree=70
num_leaves=13
num_cat=0
split_feature=10 5 2 18 2 13 28 0 17 11 9 31
split_gain=316.924 602.195 1185.01 426.621 500.959 472.634 360.394 354.574 834.008 1117.68 1228.87 1087.88
threshold=19.195000000000004 5.6050000000000013 22.960000000000004 28.155000000000005 3.3450000000000002 16.345000000000002 13.784166666666668 0.27500000000000008 12.855000000000002 16.715000000000003 0.81500000000000006 113.24000000000002
decision_type=2 2 2 2 2 2 2 2 2 2 2 2
left_child=7 2 3 4 6 -6 -2 8 -1 10 -10 -12
right_child=1 -3 -4 -5 5 -7 -8 -9 9 -11 11 -13
leaf_value=-0.0011092765805573775 1.0242638135602642 -0.8933179156493396 2.1850069229076095 -0.84345773798312451 -0.26788514176112416 1.1296925388066184 -0.018874418686636533 -0.06844143496316378 -0.85814927834154087 -0.55197873005613074 0.28241089286138271 1.277889258150249
leaf_weight=2358 22 27 19 22 19 61 201 3232 31 61 134 129
leaf_count=2358 22 27 19 22 19 61 201 3232 31 61 134 129
internal_value=0 0.21941 0.306746 0.19694 0.27248 0.797768 0.0840361 -0.0136923 0.0515303 0.401176 0.598939 0.770687
internal_weight=0 371 344 325 303 80 223 5945 2713 355 294 263
internal_count=6316 371 344 325 303 80 223 5945 2713 355 294 263
is_linear=0
shrinkage=0.244687


Tree=71
num_leaves=13
num_cat=0
split_feature=1 2 4 31 26 23 9 5 26 10 21 11
split_gain=316.579 2463.99 1875.32 2124.09 1826.28 1307.89 1584.67 1275.17 1047.61 1048.7 1722.2 1760.2
threshold=1.405 8.0550000000000015 0.03500000000000001 123.40000000000001 -1.3735714285714284 152.57500000000002 1.0000000180025095e-35 0.89500000000000013 -2.5699999999999998 4.1000000000000005 63.585000000000001 0.33500000000000008
decision_type=2 2 2 2 2 2 2 2 2 2 2 2
left_child=1 4 -3 5 -1 6 -4 -8 -2 10 -10 -12
right_child=8 2 3 -5 -6 -7 7 -9 9 -11 11 -13
leaf_value=-0.073788881396878545 1.7857570665455373 0.96804933084676237 -1.4764878533224357 -2.681471217978431 0.55749814102016204 -1.720599045923638 -0.60823943300789252 1.8443416799465981 -0.41035289089269078 0.013664567929737522 2.863144274867695 0.12485847336863837
leaf_weight=537 19 33 28 37 561 39 22 30 712 4225 19 54
leaf_count=537 19 33 28 37 561 39 22 30 712 4225 19 54
internal_value=0 0.108288 -0.707751 -1.06225 0.248754 -0.55879 0.00759154 0.806711 -0.0277127 -0.0345901 -0.294305 0.837563
internal_weight=0 1287 189 156 1098 119 80 52 5029 5010 785 73
internal_count=6316 1287 189 156 1098 119 80 52 5029 5010 785 73
is_linear=0
shrinkage=0.244687


Tree=72
num_leaves=13
num_cat=0
split_feature=6 0 17 18 18 21 6 11 3 29 3 23
split_gain=322.329 956.848 926.115 1035.98 1857.03 823.889 753.682 1090.9 730.268 623.792 775.939 779.732
threshold=13.095000000000001 24.110000000000003 32.055000000000007 27.875000000000004 31.585000000000004 89.64500000000001 12.125000000000002 3.0850000000000004 6.455000000000001 9.2281666666666684 3.2250000000000005 132.45500000000001
decision_type=2 2 2 2 2 2 2 2 2 2 2 2
left_child=6 2 3 8 -5 -4 -1 -8 9 10 11 -2
right_child=1 -3 5 4 -6 -7 7 -9 -10 -11 -12 -13
leaf_value=0.0072607877124841423 -0.32467823078934271 1.1722926094624952 -2.2478754651833506 2.425404590389018 -0.12533187191636599 -0.45833347605450625 2.3327954417530163 0.23242649391667403 -1.1069988273992037 0.14099958453679198 0.62822011938559397 -1.5805913126107438
leaf_weight=5657 83 30 24 25 54 43 20 57 56 192 29 46
leaf_count=5657 83 30 24 25 54 43 20 57 56 192 29 46
internal_value=0 -0.173503 -0.246644 -0.128845 0.681863 -1.09936 0.0176105 0.777977 -0.286594 -0.155329 -0.515425 -0.772523
internal_weight=0 582 552 485 79 67 5734 77 406 350 158 129
internal_count=6316 582 552 485 79 67 5734 77 406 350 158 129
is_linear=0
shrinkage=0.244687


Tree=73
num_leaves=13
num_cat=0
split_feature=14 30 22 9 20 2 28 11 10 14 31 23
split_gain=289.153 981.102 1853.29 2338.56 1628.2 1665.27 1085.33 1300.95 1119.56 1312.16 1834.13 1094.45
threshold=2.7950000000000004 4.0713333333333344 45.260000000000012 0.81500000000000006 37.195000000000014 2.9850000000000008 3.7820000000000005 7.1550000000000011 3.5850000000000004 -1.6549999999999996 67.160000000000011 195.84
decision_type=2 2 2 2 2 2 2 2 2 2 2 2
left_child=1 6 -3 -4 5 -5 8 -8 11 10 -10 -1
right_child=-2 2 3 4 -6 -7 7 -9 9 -11 -12 -13
leaf_value=-0.043417528534717698 -0.031171436246617033 -0.142349151132523 0.041418226369597078 1.1157206776576793 0.40262830001070604 3.2228468476734187 -1.4630233729250908 0.65869417184874113 3.3919625798648005 0.22533982430343757 0.194996184462042 -1.8743523211626738
leaf_weight=862 4663 223 125 47 52 43 62 24 21 152 22 20
leaf_count=862 4663 223 125 47 52 43 62 24 21 152 22 20
internal_value=0 0.0879325 0.37835 0.813241 1.49266 2.12246 -0.0344273 -0.870916 0.0323675 0.562937 1.75631 -0.0849353
internal_weight=0 1653 490 267 142 90 1163 86 1077 195 43 882
internal_count=6316 1653 490 267 142 90 1163 86 1077 195 43 882
is_linear=0
shrinkage=0.244687


Tree=74
num_leaves=13
num_cat=0
split_feature=7 3 11 1 18 3 3 2 31 16 27 10
split_gain=269.09 716.24 1685.45 2749.15 2052.83 1399.35 1411.39 1918.62 3046.45 1527.48 1557.85 1624.87
threshold=1.5650000000000002 21.725000000000005 10.505000000000001 4.705000000000001 75.410000000000011 6.9900000000000011 3.0650000000000004 21.200000000000006 123.40000000000001 32.185000000000009 4.7043333333333335 3.2250000000000005
decision_type=2 2 2 2 2 2 2 2 2 2 2 2
left_child=1 5 3 -3 -4 6 7 -1 -9 10 11 -8
right_child=-2 2 4 -5 -6 -7 9 8 -10 -11 -12 -13
leaf_value=-0.02779989628014282 0.061620140937117665 -0.28997078978058888 0.61372390472985194 3.3824858470870693 -1.9588247235697731 -0.41400223172592171 0.49478644154390422 -2.9982901237507815 0.10111941561109521 2.1283043304791565 -0.08466998971882192 2.457133576210123
leaf_weight=2558 2538 23 65 26 26 571 120 34 43 29 251 32
leaf_count=2558 2538 23 65 26 26 571 120 34 43 29 251 32
internal_value=0 -0.0413954 0.501699 1.65868 -0.12129 -0.0622952 0.00318404 -0.064025 -1.26745 0.413128 0.289703 0.907912
internal_weight=0 3778 140 49 91 3638 3067 2635 77 432 403 152
internal_count=6316 3778 140 49 91 3638 3067 2635 77 432 403 152
is_linear=0
shrinkage=0.244687


Tree=75
num_leaves=13
num_cat=0
split_feature=24 28 11 28 3 13 19 23 6 29 18 16
split_gain=304.918 910.625 1115.11 1206.03 943.574 920.007 2024.63 2311.66 1906.01 1446.05 1429.57 1167.35
threshold=12.526666666666669 11.121333333333334 6.5650000000000004 11.382333333333335 0.92500000000000016 8.9850000000000012 38.105000000000011 117.62500000000001 4.8350000000000009 2.7089166666666671 50.675000000000004 18.940000000000001
decision_type=2 2 2 2 2 2 2 2 2 2 2 2
left_child=1 5 -3 4 -4 -1 9 -8 10 -7 -9 -11
right_child=-2 2 3 -5 -6 6 7 8 -10 11 -12 -13
leaf_value=-0.035938613249278481 0.080267465964306881 1.060727905039804 -0.32701342853324489 -0.26947701126520635 -2.5818722411206747 1.6234633889409427 -0.67549999368599967 2.1099492853124207 3.7125012215562156 0.059107444549344197 -0.5117236652657241 -1.5572547052434169
leaf_weight=3124 1956 35 20 644 25 33 27 33 25 345 20 29
leaf_count=3124 1956 35 20 644 25 33 27 33 25 345 20 29
internal_value=0 -0.0360099 -0.286609 -0.355051 -1.57971 0.0138893 0.317918 1.27588 1.95136 0.0707763 1.12064 -0.0662254
internal_weight=0 4360 724 689 45 3636 512 105 78 407 53 374
internal_count=6316 4360 724 689 45 3636 512 105 78 407 53 374
is_linear=0
shrinkage=0.244687


Tree=76
num_leaves=13
num_cat=0
split_feature=10 10 2 15 27 14 17 16 31 18 19 23
split_gain=284.116 517.316 497.336 622.552 366.757 358.68 660.825 405.891 308.511 749.202 1231.33 998.94
threshold=22.875000000000004 20.420000000000005 3.0350000000000006 15.995000000000003 19.71466666666667 21.525000000000002 23.215000000000007 2.9550000000000005 73.515000000000015 75.410000000000011 66.175000000000011 146.73500000000004
decision_type=2 2 2 2 2 2 2 2 2 2 2 2
left_child=1 5 -3 -4 -2 8 7 -7 9 10 11 -1
right_child=4 2 3 -5 -6 6 -8 -9 -10 -11 -12 -13
leaf_value=0.026776028184154973 -1.328209915754234 0.10081932233966054 -0.16075313582684492 1.5336028710809175 -0.021904458752294641 -0.57846969526412884 -1.7747147996693773 0.66755644018465843 0.030846308468100374 1.1999786726813884 -1.7618860644755783 -0.47074458284242848
leaf_weight=1006 22 97 19 41 31 45 19 24 4641 26 27 318
leaf_count=1006 22 97 19 41 31 45 19 24 4641 26 27 318
internal_value=0 0.00477402 0.44333 0.997057 -0.564144 -0.00650233 -0.496925 -0.145069 0.000669017 -0.10104 -0.126078 -0.0927191
internal_weight=0 6263 157 60 53 6106 88 69 6018 1377 1351 1324
internal_count=6316 6263 157 60 53 6106 88 69 6018 1377 1351 1324
is_linear=0
shrinkage=0.244687


Tree=77
num_leaves=13
num_cat=0
split_feature=24 21 27 30 13 25 3 4 29 24 14 7
split_gain=264.598 1282.7 1264.41 1262.65 998.934 972.034 930.085 906.282 901.356 1098.34 1941.31 1408.94
threshold=1.2616666666666669 48.32500000000001 -0.86199999999999988 8.958000000000002 1.5350000000000004 -0.85499999999999987 4.9250000000000007 7.6950000000000012 -2.1103333333333327 4.0600000000000014 -1.6549999999999996 0.03500000000000001
decision_type=2 2 2 2 2 2 2 2 2 2 2 2
left_child=1 2 4 7 -1 6 -3 -4 -2 11 -11 -10
right_child=8 5 3 -5 -6 -7 -8 -9 9 10 -12 -13
leaf_value=-0.15379550211993268 1.009580851933856 -0.5020969286621354 0.45100875719027489 -0.59085046077506498 1.5692983247117442 -0.17717215059275623 -2.8648314365044016 1.4320530312281214 -0.77897387898362958 1.5280729933199042 -0.0054438741430546294 -0.064124868629825291
leaf_weight=494 50 21 425 62 21 91 19 65 253 50 4290 475
leaf_count=494 50 21 425 62 21 91 19 65 253 50 4290 475
internal_value=0 0.103515 0.19223 0.44951 -0.0835334 -0.619073 -1.6244 0.581147 -0.0242304 -0.0344298 0.0122234 -0.312555
internal_weight=0 1198 1067 552 515 131 40 490 5118 5068 4340 728
internal_count=6316 1198 1067 552 515 131 40 490 5118 5068 4340 728
is_linear=0
shrinkage=0.244687


Tree=78
num_leaves=13
num_cat=0
split_feature=21 20 23 13 13 30 27 31 20 27 21 4
split_gain=287.314 1232.94 1203.98 1712.87 1433.68 1317.4 1204.07 1147.51 1139.14 1066.73 1020.67 1780
threshold=32.835000000000001 21.495000000000005 105.39500000000001 -4.754999999999999 6.6850000000000014 13.028833333333335 14.964333333333334 57.085000000000001 32.650000000000013 5.6880000000000006 47.815000000000005 1.0000000180025095e-35
decision_type=2 2 2 2 2 2 2 2 2 2 2 2
left_child=1 -1 4 -4 7 8 -7 -2 -6 -9 -5 -12
right_child=2 -3 3 10 5 6 -8 9 -10 -11 11 -13
leaf_value=0.025346445865644308 1.1891036856631734 -0.32044742458200276 -2.1575258508338351 0.41815619991625064 0.1845462516068567 1.8229628754703811 -0.80924620530102376 -0.4785102987075483 -1.5377295956078165 1.4084179669563344 -1.1319872061696523 0.11710415197401641
leaf_weight=3366 47 756 19 667 29 19 23 123 111 21 73 1062
leaf_count=3366 47 756 19 667 29 19 23 123 111 21 73 1062
internal_value=0 -0.0380743 0.0715324 0.153568 -0.328967 -0.820398 0.381515 0.139308 -1.18097 -0.203333 0.177935 0.0367661
internal_weight=0 4122 2194 1821 373 182 42 191 140 144 1802 1135
internal_count=6316 4122 2194 1821 373 182 42 191 140 144 1802 1135
is_linear=0
shrinkage=0.244687


Tree=79
num_leaves=13
num_cat=0
split_feature=3 20 27 13 9 30 10 1 8 7 22 2
split_gain=298.112 888.274 532.14 1227.72 1009.36 880.13 1102.65 678.059 862.769 669.633 535.833 915.881
threshold=0.015000000000000001 62.465000000000011 6.2676666666666678 2.8350000000000004 7.9350000000000014 4.4268333333333336 12.685 4.1250000000000009 3.8750000000000004 0.22500000000000003 134.63500000000002 6.9050000000000002
decision_type=2 2 2 2 2 2 2 2 2 2 2 2
left_child=1 2 3 4 7 6 9 -1 -9 -4 11 -7
right_child=-2 -3 5 -5 -6 10 -8 8 -10 -11 -12 -13
leaf_value=0.035533811720823344 0.035052946163414596 -1.7027548145614564 0.71804134728608771 -0.65975199238937998 1.4506243052425656 0.01266607938731942 1.7925175827572992 -1.2938942886637561 0.44472298748781203 -0.59468477158447042 1.1069204434685718 -0.82504064545120959
leaf_weight=435 4402 20 60 254 27 855 36 54 25 38 24 86
leaf_count=435 4402 20 60 254 27 855 36 54 25 38 24 86
internal_value=0 -0.0806181 -0.0634889 -0.215981 -0.0076306 0.0468218 0.634441 -0.0842315 -0.743699 0.209025 -0.034775 -0.0638937
internal_weight=0 1914 1894 795 541 1099 134 514 79 98 965 941
internal_count=6316 1914 1894 795 541 1099 134 514 79 98 965 941
is_linear=0
shrinkage=0.244687


Tree=80
num_leaves=13
num_cat=0
split_feature=20 21 22 6 23 5 22 17 8 11 12 10
split_gain=252.667 834.668 995.815 890.65 1129.26 893.765 1118.81 1750.12 945.649 886.526 847.104 868.789
threshold=9.5000000000000018 19.655000000000005 32.650000000000006 1.0000000180025095e-35 227.21500000000003 0.17500000000000002 125.12500000000001 37.52000000000001 0.42500000000000004 -2.3649999999999998 -1.4549999999999998 -0.17499999999999996
decision_type=2 2 2 2 2 2 2 2 2 2 2 2
