tree
version=v3
num_class=1
num_tree_per_iteration=1
label_index=0
max_feature_idx=31
objective=regression
feature_names=precip temp lag1precip lag2precip lag3precip lag4precip lag5precip lag6precip lag7precip lag1temp lag2temp lag3temp lag4temp lag5temp lag6temp lag7temp sum2precip sum3precip sum4precip sum5precip sum6precip sum7precip sum15precip sum30precip mean3temp mean5temp mean7temp mean15temp mean30temp mean60temp mean30templag30 sum30precilag30
feature_infos=[0:148] [-19.07:18.399999999999999] [0:148] [0:148] [0:148] [0:148] [0:148] [0:148] [0:148] [-19.07:18.399999999999999] [-19.07:18.399999999999999] [-19.07:18.399999999999999] [-19.07:18.399999999999999] [-19.07:18.399999999999999] [-19.07:18.399999999999999] [-19.07:18.399999999999999] [0:254.44] [-6.9388939039072284e-18:354.69] [-4.163336342344337e-17:367.87] [-1.3877787807814457e-17:387.49000000000001] [-2.7755575615628914e-17:400.67000000000002] [-6.9388939039072284e-17:402.88] [-8.3266726846886741e-17:698.90999999999997] [0.089999999999999997:739.98000000000002] [-16.883333333333333:18.239999999999998] [-14.344000000000001:17.808] [-12.955714285714286:17.247142857142858] [-10.995333333333333:16.339333333333332] [-8.6756666666666664:15.236333333333333] [-7.1423333333333332:14.2075] [-8.6756666666666664:15.236333333333333] [0.089999999999999997:739.98000000000002]
tree_sizes=5035 4968 5181 5024 5033 5083 5060 5083 5062 5098 5102 5222 5026 5133 5096 5240 5225 5171 5192 5190 5229 4912 4496 5243 5240 3549 4259 5317 4592 3823 4258 5197 3806 4605 4941 5275 5020 4038 4687 5250 2539 5257 5254 5332 2327 4794 4092 5346 3633 3056 3145 4379 5186 5371 5170 3447 1900 4724 5251 3420 5307 3560 5217 2068 3026 5252 3592 2666 2190 5316 3069 2570 5239 5227 5232 5279 5212 5180 4432 3622 5310 3808 3307 3358 1784 4141 5268 3936 4940 4346 5214 4086 5313 5215 5328 5349 5303 2669 3389 3302 5274 4540 4757 5208 2515 5255 4528 5239 5406 2902 5379 5345 4291 3848 5357 5218 1864 5360 5291 3943 4211 2545 5399 5269 5336 2330 3258 4406 2523 5215 5207 5391 4415 5100 1939 3197 3922 5064 4988 4246 5257 3709 3915 5389 5310 5411 2979 5217 5331 5109 5476 4067 5388 5040 4255 2789 5533 5389 3135 3583 4117 3107 3806 5338 2823 5247 5417 3529 3680 5411 5365 1924 5359 3848 5280 5318 4681 3445 5340 3722 5448 4846 5204 5362 5007 5383 4551 4075 5300 1923 2918 4680 5007 5347 5404 5350 5317 5156 5322 5382

Tree=0
num_leaves=59
num_cat=0
split_feature=17 2 23 23 22 16 27 30 9 18 13 10 2 26 23 29 29 26 2 30 15 2 28 30 11 18 9 20 21 22 2 8 31 0 28 31 9 5 29 21 5 29 31 2 9 20 23 6 2 22 28 23 22 22 21 8 13 4
split_gain=2.0379e+07 3.38706e+06 2.85113e+06 1.03264e+06 975876 933074 917601 567064 559917 513162 462445 408516 392002 377296 264230 232602 230635 210478 140870 132083 168317 130597 129098 218518 125455 125219 111585 138245 109847 96605.6 96534.4 90721.7 86458.9 69558.1 68891.2 63739.2 58759.6 62682.7 57549.9 57316.7 54298.3 53238.7 52631.2 49781.4 47591.3 44663.4 44129.5 43809.1 42766.3 42206.6 39096.1 38771.5 37707.8 33841.8 33173.6 32392.7 35131.4 32056.5
threshold=69.885000000000005 59.510000000000005 192.75000000000003 397.23500000000007 191.17500000000004 103.17500000000003 2.5163333333333338 8.440666666666667 1.8750000000000002 22.800000000000001 3.3150000000000004 3.0950000000000002 30.305000000000003 1.6521428571428574 387.25500000000005 3.0530833333333338 9.1376666666666679 5.8207142857142866 19.990000000000006 10.919000000000002 12.785000000000002 11.070000000000002 -0.3264999999999999 4.5848333333333349 8.0450000000000017 179.22500000000005 3.7650000000000001 133.94000000000003 47.780000000000008 198.44000000000003 31.210000000000004 0.14500000000000005 203.84500000000003 58.680000000000007 10.684500000000002 201.29000000000005 1.0750000000000004 6.455000000000001 9.6822500000000016 92.215000000000018 9.7450000000000028 8.1926666666666677 351.13500000000005 13.175000000000002 -0.21499999999999997 52.045000000000009 92.395000000000024 0.12500000000000003 17.585000000000004 138.96500000000003 -0.56366666666666654 265.87500000000006 170.13500000000002 36.875000000000007 67.300000000000011 1.7750000000000001 9.3450000000000006 3.2200000000000002
decision_type=2 2 2 2 2 2 2 2 2 2 2 2 2 2 2 2 2 2 2 2 2 2 2 2 2 2 2 2 2 2 2 2 2 2 2 2 2 2 2 2 2 2 2 2 2 2 2 2 2 2 2 2 2 2 2 2 2 2
left_child=2 4 6 9 10 26 32 17 -7 22 44 39 36 -11 33 -14 21 45 34 20 30 55 -4 42 40 47 -3 41 53 51 -12 -29 50 -10 35 46 -6 -38 52 -5 -13 -28 -24 -18 -2 -8 -19 -17 -30 -21 -1 -23 -25 -9 -36 -15 -57 -32
right_child=1 5 3 11 12 8 7 28 14 13 19 24 15 16 -16 25 43 18 -20 49 -22 29 23 38 -26 -27 27 31 48 -31 57 -33 -34 -35 54 -37 37 -39 -40 -41 -42 -43 -44 -45 -46 -47 -48 -49 -50 -51 -52 -53 -54 -55 -56 56 -58 -59
leaf_value=66.003111206534015 69.797936311546806 113.69322038210544 69.918925092227639 80.506163834406124 92.109552441387109 124.73571473821599 71.623290498052555 67.215370830369068 150.75985146822217 72.892516408166287 92.158126456460792 92.726258630958995 101.65676193399693 83.528235216871892 191.37763938985628 116.56150407610835 78.384495782183635 74.335536978300411 93.252560515742232 81.936362788337703 122.07828609918889 88.61770058291934 81.631765756384127 75.508396021941763 120.95661890985524 143.70886789105748 129.58753685744279 151.74142148788366 72.671798437935536 105.99247287731357 111.98952202734593 130.82056381857598 70.174090937513625 169.30182631563756 73.887773074144178 82.352500625970578 96.46972644150074 111.73365826498755 72.550400569408922 92.792566027042497 108.2781141020767 114.89610845475119 94.4773183471697 85.85443891565329 83.150049082420281 79.392467917272768 79.762670327715426 128.61770680367522 80.932065369599258 96.379853430465033 67.989520889340085 100.28978931082523 81.554822650862519 69.778540856197708 81.705383661740086 87.494952643569675 98.778192159901636 100.74004828523124
leaf_weight=1476 25 20 144 34 13.999999999999998 14.999999999999998 321 394 18 106 38 14.999999999999998 14.999999999999998 65 14.999999999999998 19 113 112 25 18 15.999999999999998 41 164 229 23 18 21 14.999999999999998 139 30 20 19 305 14.999999999999998 180 169 15.999999999999998 34 285 28 23 19 13.999999999999998 53 19 33 132 34 31 14.999999999999998 550 15.999999999999998 51 442 25 55 13.999999999999998 21
leaf_count=1476 25 20 144 34 14 15 321 394 18 106 38 15 15 65 15 19 113 112 25 18 16 41 164 229 23 18 21 15 139 30 20 19 305 15 180 169 16 34 285 28 23 19 14 53 19 33 132 34 31 15 550 16 51 442 25 55 14 21
internal_value=75.6196 115.495 72.3473 79.8945 103.687 139.712 69.73 72.8866 158.649 78.3208 93.3485 97.5504 115.542 83.5224 169.247 124.41 86.4339 76.2855 78.4535 99.4621 103.269 90.6886 75.4298 76.4978 109.234 129.217 127.021 130.623 69.5181 96.7556 99.46 140.05 67.0176 159.188 77.8548 79.3507 103.625 106.849 74.5621 86.0549 102.139 122.609 82.6421 80.7695 75.5636 72.3475 77.2715 124.296 74.1781 88.5016 66.5424 91.8941 76.6097 68.5705 74.8411 86.7496 89.7843 106.228
internal_weight=0 479 5837 1503 322 157 4334 2003 63 1380 172 123 150 493 48 86 387 997 643 128 95 221 887 743 61 71 94 74 1006 87 79 34 2331 33 618 413 64 50 565 62 38 40 178 166 44 354 244 53 170 33 2026 57 280 836 205 134 69 41
internal_count=6316 479 5837 1503 322 157 4334 2003 63 1380 172 123 150 493 48 86 387 997 643 128 95 221 887 743 61 71 94 74 1006 87 79 34 2331 33 618 413 64 50 565 62 38 40 178 166 44 354 244 53 170 33 2026 57 280 836 205 134 69 41
is_linear=0
shrinkage=1


Tree=1
num_leaves=59
num_cat=0
split_feature=17 2 23 23 22 18 26 19 30 11 24 0 26 2 2 30 24 1 8 30 30 31 22 1 2 18 18 27 30 2 23 9 9 18 29 31 27 29 4 22 23 30 6 20 2 24 21 30 22 21 30 7 23 27 30 22 2 18
split_gain=1.30068e+07 2.16178e+06 1.84048e+06 745749 622848 617472 494371 413290 316079 310029 299845 291152 276449 260659 259146 240113 198360 194573 160055 148615 131629 126705 114318 103096 95795.6 73003.5 67946.7 62221.2 144569 55199 54204.7 54174.9 52714.9 52647 50187.3 46882.4 44000.5 42529.7 39729.6 39362.4 38334.4 38996.6 33363.8 31038 30923.5 30617.2 30294.9 27506.1 26688.3 26533.6 25935.7 22768.3 20418.5 20392.7 20025.8 18684.6 18448.9 17625.9
threshold=69.885000000000005 59.510000000000005 171.48000000000005 382.27000000000004 191.17500000000004 153.31500000000003 3.245714285714286 20.000000000000004 8.1773333333333351 5.1950000000000012 2.0016666666666674 20.885000000000002 1.5921428571428573 26.345000000000002 9.7350000000000012 4.9560000000000004 9.9316666666666684 1.4650000000000001 1.8450000000000004 -0.4453333333333333 9.3316666666666688 89.720000000000013 153.01500000000001 3.7750000000000004 23.850000000000005 179.22500000000005 65.765000000000015 0.98066666666666669 6.4976666666666674 3.7150000000000003 250.99000000000004 -0.21499999999999997 3.1100000000000008 29.235000000000003 9.4502500000000023 203.84500000000003 4.469333333333334 10.01825 3.0150000000000001 257.99500000000006 56.285000000000004 7.1908333333333347 1.2150000000000001 121.60000000000001 24.490000000000006 7.116666666666668 104.14000000000001 11.389666666666669 91.720000000000013 51.995000000000012 10.981333333333335 2.5350000000000006 86.075000000000017 -1.1466666666666665 7.6718333333333346 72.25500000000001 7.2800000000000002 62.57500000000001
decision_type=2 2 2 2 2 2 2 2 2 2 2 2 2 2 2 2 2 2 2 2 2 2 2 2 2 2 2 2 2 2 2 2 2 2 2 2 2 2 2 2 2 2 2 2 2 2 2 2 2 2 2 2 2 2 2 2 2 2
left_child=2 4 6 7 9 23 35 27 21 31 -7 -12 53 34 19 16 29 -15 -13 -5 24 49 44 -3 38 43 40 -4 45 -14 37 -2 -16 -10 36 48 -6 -25 -11 50 -23 52 -22 -19 54 -29 -21 -30 -1 -8 57 -45 -42 -9 -17 -56 -54 -24
right_child=1 5 3 14 13 10 8 12 33 20 11 18 15 17 32 22 -18 25 -20 46 42 26 39 30 -26 -27 -28 28 47 -31 -32 -33 -34 -35 -36 -37 -38 -39 -40 -41 41 -43 -44 51 -46 -47 -48 -49 -50 -51 -52 -53 56 -55 55 -57 -58 -59
leaf_value=-7.540140525810302 -4.650924179094833 26.332909719339426 -4.6500385538066862 24.696989534391815 18.684300028861362 42.252542255691523 -3.7602424341701743 -4.1582274412573073 -5.8860790287392764 10.318146521865733 53.527860817175288 70.790060201646199 6.5213919529077273 18.330774205786941 19.55365717626648 4.1035086819253452 28.734999944046486 31.954649440997311 97.988075399843751 4.5194503559379786 7.5411411670452875 -2.0695561468663892 7.147558356542385 45.089910383178704 33.777081594843963 52.19655152253069 15.371442133516947 0.46559232991179739 -1.1361859353778363 13.468805622175978 53.198911926015626 7.6058916091918292 33.932401207031248 -1.4557616307768977 9.9588593214936392 -4.6664654587423833 32.983403893523295 32.101475770802708 25.468231727183312 16.003629407069141 1.3642966689707154 -1.248413755467789 17.930513588767081 36.518296468937599 7.6312050035446166 5.3215356228087334 13.046659037727686 -4.1254067761772619 -4.6601335268172459 3.8420150129824062 3.9626052933759852 46.021637430114744 3.7787512285816538 0.36967076063346466 -3.2414115837669688 1.1048747570058555 9.0475768612406089 14.355588380242121
leaf_weight=1844 25 21 197 24 23 20 259 103 711 14.000000000000002 24 21 93 17 15.999999999999998 53 26 20 14.999999999999998 63 25 93 34 22 34 21 14.999999999999998 82 266 92 14.999999999999998 35 29 128 13.999999999999998 307 13.999999999999998 19 13.999999999999998 24 134 94 25 19 29 146 23 234 140 20 56 22 202 66 60 120 31 23
leaf_count=1844 25 21 197 24 23 20 259 103 711 14 24 21 93 17 16 53 26 20 15 63 25 93 34 22 34 21 15 82 266 92 15 35 29 128 14 307 14 19 14 24 134 94 25 19 29 146 23 234 140 20 56 22 202 66 60 120 31 23
internal_value=0 31.8565 -2.61423 2.60938 22.4231 51.2039 -5.05533 1.3946 -2.44283 14.1637 63.5766 70.6847 4.80733 31.894 15.964 6.80133 12.2878 37.9108 82.1226 10.7048 20.4127 0.295151 3.89995 38.3491 26.6037 41.9701 2.01643 -1.47947 -0.621494 9.97632 42.8552 2.49889 28.82 -5.21018 20.2143 -6.97907 24.0948 39.0709 17.8932 8.60722 1.65484 2.40618 12.7358 38.4495 1.43852 3.5751 6.79998 -2.53514 -7.33691 -3.21528 7.0363 41.6177 3.34223 -2.38994 0.667752 -0.343887 4.47975 10.0561
internal_weight=0 479 5837 1859 322 157 3978 1704 1687 172 80 60 779 150 155 610 211 99 36 110 112 848 399 77 62 82 569 925 728 185 56 60 45 839 51 2291 37 41 28 137 554 461 50 61 262 228 86 500 1984 279 113 41 367 169 233 180 233 57
internal_count=6316 479 5837 1859 322 157 3978 1704 1687 172 80 60 779 150 155 610 211 99 36 110 112 848 399 77 62 82 569 925 728 185 56 60 45 839 51 2291 37 41 28 137 554 461 50 61 262 228 86 500 1984 279 113 41 367 169 233 180 233 57
is_linear=0
shrinkage=0.201098


Tree=2
num_leaves=59
num_cat=0
split_feature=17 22 2 9 23 22 16 27 5 27 2 30 2 30 2 21 26 2 31 30 24 9 22 29 31 23 28 30 17 22 2 31 13 5 2 22 18 23 23 27 25 23 12 24 5 23 29 5 0 17 21 23 22 31 23 28 30 1
split_gain=8.32822e+06 1.27812e+06 1.25074e+06 499757 449380 397445 393152 348619 337111 319680 313495 284313 190113 164045 146010 104085 99701.9 89593 85486.5 77272.5 74584.3 69074.1 58985.4 57431.6 56116.5 54756.7 54135.3 51921.2 51356 47626.4 48495 42619.5 38319 37800.5 36915.3 36838.4 36351.6 36056 38259.7 30659.6 29464.5 27951.9 27685 26598.7 23533.8 25264.7 22968.6 22951.9 22670.7 22295 21978.5 21050 20576.5 20128.4 28854.5 21816.2 19404.5 18323.6
threshold=73.710000000000022 84.760000000000005 70.585000000000022 -0.30499999999999994 382.27000000000004 181.67500000000004 108.32000000000001 1.196666666666667 1.5550000000000004 2.5163333333333338 9.1950000000000021 7.6718333333333346 35.110000000000007 6.809166666666667 16.705000000000002 80.345000000000013 5.2371428571428575 31.210000000000004 351.13500000000005 -1.6284999999999996 3.246666666666667 3.4050000000000007 211.21000000000004 10.390583333333336 379.36000000000007 287.53500000000003 10.773166666666668 4.748333333333334 77.350000000000009 201.66000000000003 23.850000000000005 203.84500000000003 0.32500000000000007 7.9750000000000005 93.905000000000015 281.33500000000004 79.500000000000014 197.75000000000003 223.74500000000003 4.1656666666666675 -1.6279999999999999 102.00500000000001 6.7150000000000007 8.4950000000000028 0.015000000000000001 212.71000000000001 5.3885000000000014 0.13500000000000004 12.015000000000002 40.415000000000013 28.015000000000004 208.11500000000004 281.33500000000004 170.09500000000003 138.30500000000004 10.684500000000002 5.6226666666666683 3.4850000000000008
decision_type=2 2 2 2 2 2 2 2 2 2 2 2 2 2 2 2 2 2 2 2 2 2 2 2 2 2 2 2 2 2 2 2 2 2 2 2 2 2 2 2 2 2 2 2 2 2 2 2 2 2 2 2 2 2 2 2 2 2
left_child=1 9 3 40 7 17 22 51 34 31 13 16 28 18 19 27 -11 37 36 -6 -19 32 44 47 49 50 48 43 -7 30 -17 -1 -14 -32 -8 -30 39 -5 -39 -9 -2 -13 -31 -12 -4 -46 -26 -22 -23 53 -15 -3 -21 54 56 -55 -18 -16
right_child=2 4 6 5 14 12 8 10 -10 11 15 41 21 25 57 29 24 20 -20 52 23 26 -24 -25 46 -27 -28 -29 35 42 33 -33 -34 -35 -36 -37 -38 38 -40 -41 -42 -43 -44 -45 45 -47 -48 -49 -50 -51 -52 -53 -54 55 -56 -57 -58 -59
leaf_value=-5.9003320548974587 -7.5349859408675384 -4.6753887316971339 23.813379804865807 3.2006176370420891 22.038439738304984 30.904524215029468 40.228692377714836 1.3375902037457985 83.955550169648433 -2.674407517091522 8.2678662854510439 -5.5104542169318984 33.209317410477347 -2.5515136448639764 20.497592342340493 7.6992913029505257 0.10166256954221468 7.6106021007095164 20.676892047494942 4.852427338758865 20.88472019249382 36.118862665810546 44.295541630330405 12.930129811997043 16.462308181187215 4.9484860756827986 30.830885897990235 3.5596473026039117 12.522123096892303 15.182021426627454 10.123094930924479 -3.358988077253692 20.618456029888961 23.627405282640957 53.736518448486322 24.618206199822232 14.636005309053147 21.07444350223475 6.4571463651849363 5.6117272040523973 4.4936700427340908 -3.3920668981926156 27.82881651760777 18.761998480138345 39.587504757753898 27.709232419592066 5.1366464754118919 30.638612829880859 45.693870387934567 8.151918700099257 0.074147317979042685 -1.5613587369909681 11.18460049778527 3.8653881259173208 2.9903279791295354 -0.27646436438812677 -4.1645618944758889 30.14069604265352
leaf_weight=1918 20 251 13.999999999999998 26 18 13.999999999999998 14.999999999999998 103 14.999999999999998 266 28 439 23 212 14.999999999999998 47 168 17 13.999999999999998 49 15.999999999999998 14.999999999999998 18 17 14.000000000000002 72 25 99 28 14.000000000000002 14.999999999999998 310 17 19 18 15.999999999999998 13.999999999999998 14.000000000000002 14.999999999999998 199 13.999999999999998 591 13.999999999999998 14.999999999999998 15.000000000000002 13.999999999999998 14.999999999999998 25 30 20 329 135 36 180 109 72 58 17
leaf_count=1918 20 251 14 26 18 14 15 103 15 266 28 439 23 212 15 47 168 17 14 49 16 15 18 17 14 72 25 99 28 14 15 310 17 19 18 16 14 14 15 199 14 591 14 15 15 14 15 25 30 20 329 135 36 180 109 72 58 17
internal_value=0 -2.00068 26.653 20.5166 2.61891 23.152 45.3438 1.66738 58.9588 -3.90515 3.36581 -2.01205 29.6123 1.68468 13.7553 9.68176 0.594804 14.8033 5.29965 10.069 19.3242 34.5245 34.6303 22.7575 1.96212 -0.261395 38.3339 6.09391 20.2961 14.3558 11.8844 -5.54673 27.8582 17.6696 47.5966 16.9207 4.61838 8.63846 13.5138 4.15399 -2.58201 -4.29495 21.5054 11.9286 30.5844 33.8532 10.6042 26.8322 42.5022 1.54923 -0.954762 -3.58628 7.53429 1.32427 0.302927 2.682 -0.993209 25.6205
internal_weight=0 5875 441 332 1715 298 109 1580 48 4160 1194 1932 168 943 135 251 902 130 330 103 75 110 61 58 636 613 70 142 58 109 81 2228 40 34 33 44 316 55 29 302 34 1030 28 43 43 29 29 41 45 607 541 386 85 587 335 252 226 32
internal_count=6316 5875 441 332 1715 298 109 1580 48 4160 1194 1932 168 943 135 251 902 130 330 103 75 110 61 58 636 613 70 142 58 109 81 2228 40 34 33 44 316 55 29 302 34 1030 28 43 43 29 29 41 45 607 541 386 85 587 335 252 226 32
is_linear=0
shrinkage=0.201098


Tree=3
num_leaves=59
num_cat=0
split_feature=17 23 18 28 26 2 2 2 1 19 30 23 9 31 30 22 9 27 3 3 15 21 4 2 9 20 27 23 30 28 29 30 22 30 21 9 31 1 2 30 23 5 31 30 25 18 10 16 31 1 3 18 27 23 31 30 23 31
split_gain=5.31544e+06 839999 816840 325654 322615 305130 254719 236095 215066 193057 150220 132481 129086 99170.3 154430 82899.6 81412.1 75470.1 74987.5 71324.6 67218 64143 59109.2 53617.6 44445.9 47244.3 44049.6 40121.5 38282.9 37459.3 35703.5 33254.4 31856.5 30726.8 29431.9 29128.2 28812.8 28762.5 26941.4 26641.9 25929.4 25359 23913.6 22787.6 37810.9 22373.2 19977.6 18579.4 18302.3 15911.9 15017.8 14173.4 13855.7 13174 12940 12808.3 12126.5 15581.2
threshold=73.710000000000022 212.71000000000001 153.31500000000003 1.2745000000000002 2.9171428571428577 89.260000000000005 9.7350000000000012 26.875000000000004 2.6000000000000001 61.390000000000008 8.7065000000000019 382.27000000000004 1.135 355.68000000000006 -0.50033333333333319 151.01000000000002 1.9750000000000003 4.6196666666666681 23.025000000000002 3.2200000000000002 6.285000000000001 33.860000000000007 3.2200000000000002 23.850000000000005 6.4750000000000005 127.73 -0.22999999999999998 199.13500000000002 7.3323333333333336 7.2928333333333342 -1.5276666666666665 4.6670000000000007 225.61500000000004 5.6226666666666683 29.485000000000003 3.1850000000000005 171.51000000000002 8.7550000000000008 74.805000000000021 3.7781666666666669 89.365000000000023 5.535000000000001 128.36500000000004 10.398000000000001 5.5390000000000006 115.94000000000001 1.0000000180025095e-35 3.8750000000000004 63.215000000000011 9.0750000000000011 42.215000000000011 75.915000000000006 3.7290000000000005 57.335000000000008 175.72500000000005 4.748333333333334 92.395000000000024 63.215000000000011
decision_type=2 2 2 2 2 2 2 2 2 2 2 2 2 2 2 2 2 2 2 2 2 2 2 2 2 2 2 2 2 2 2 2 2 2 2 2 2 2 2 2 2 2 2 2 2 2 2 2 2 2 2 2 2 2 2 2 2 2
left_child=1 4 3 46 30 12 13 27 -7 10 17 16 -4 21 -15 19 -8 53 -14 -9 38 43 -18 28 45 -26 -23 -5 51 37 -1 40 39 -21 -12 -13 -29 -24 -20 52 54 -25 56 44 -3 -17 -2 -42 -32 -38 -27 -11 -28 -6 -19 -55 -33 -58
right_child=2 6 5 7 9 8 11 15 -10 23 34 35 18 14 -16 24 22 31 20 33 -22 26 29 41 25 50 32 36 -30 -31 48 42 -34 -35 -36 -37 49 -39 -40 -41 47 -43 -44 -45 -46 -47 -48 -49 -50 -51 -52 -53 -54 55 -56 -57 57 -59
leaf_value=-5.0883655190151691 -4.473515498986969 -1.4839048574961893 11.247456857049125 1.9270506169181822 -4.6510562082717897 36.718243325406895 -0.068815635280583445 25.112256764976149 69.322018790019527 6.0546636547095396 -4.1121186291873464 12.282367872543245 44.99547998859375 22.971474136788178 2.2565199637963449 16.579250165520477 5.1759955788969334 -1.0334782173812798 29.992203927455581 17.757252921412483 19.159150975667529 -2.3844678182245431 12.954879845167541 7.9599045854368065 22.723985566944229 37.615964121081539 1.724060527580481 7.704352717536052 0.44380824644311795 8.2533536584534666 -4.6813435478864962 -5.2333280956777148 7.1954308221258838 7.1820889797826641 -1.7424772432643325 22.835146924596405 11.972071861806841 24.160625092350767 40.37392966964844 1.489767872352143 2.1494704413103789 19.653337064905191 0.78078381415168674 -2.5081884190182282 2.9214413072864929 24.757605217951323 4.6264564178177592 5.8510586677666101 -2.894642948444297 21.398711721953909 29.510119261804196 13.595384882724868 7.241766827749136 -0.81866185869138153 2.7901283484678427 -3.9345990397159154 -6.4792392110237627 1.0047071627477773
leaf_weight=1408 25 177 13.999999999999998 22 84 18 52 26 14.999999999999998 36 675 17 14.999999999999998 22 43 24 71 91 31 20 19 56 22 15.000000000000002 28 19 26 31 54 31 358 45 81 25 309 28 15.000000000000002 15.999999999999998 14.999999999999998 214 116 14.999999999999998 305 153 142 31 15.999999999999998 104 658 13.999999999999998 18 13.999999999999998 63 179 59 76 14.999999999999998 45
leaf_count=1408 25 177 14 22 84 18 52 26 15 36 675 17 15 22 43 24 71 91 31 20 19 56 22 15 28 19 26 31 54 31 358 45 81 25 309 28 15 16 15 214 116 15 305 153 142 31 16 104 658 14 18 14 63 179 59 76 15 45
internal_value=0 -1.59835 21.2932 15.789 -2.82554 34.9019 3.1133 18.2987 51.5381 -1.08396 -1.55553 9.02757 29.0616 1.67862 9.26774 22.1736 6.72577 0.0382695 32.179 16.727 29.2214 1.13773 9.24948 6.31692 25.3962 28.9563 2.88447 9.27309 4.15643 13.441 -4.43276 1.12703 3.65286 11.8822 -3.36799 18.8485 11.9666 17.6731 33.3775 2.70583 2.50924 13.8066 -0.120335 -0.490592 0.477096 21.1889 -0.922307 3.89931 -3.52421 16.5229 33.6726 8.16607 5.62985 -2.46684 0.470474 -1.74733 -2.73787 -0.866279
internal_weight=0 5875 441 314 4661 127 1214 273 33 2237 2103 237 94 977 65 191 192 1119 80 71 65 912 140 134 120 65 440 82 104 69 2424 780 384 45 984 45 60 38 46 303 370 30 410 472 319 55 41 220 1016 29 37 50 89 339 150 255 105 60
internal_count=6316 5875 441 314 4661 127 1214 273 33 2237 2103 237 94 977 65 191 192 1119 80 71 65 912 140 134 120 65 440 82 104 69 2424 780 384 45 984 45 60 38 46 303 370 30 410 472 319 55 41 220 1016 29 37 50 89 339 150 255 105 60
is_linear=0
shrinkage=0.201098


Tree=4
num_leaves=59
num_cat=0
split_feature=17 22 2 23 22 20 26 2 26 30 24 24 2 30 30 10 31 22 31 22 30 26 31 1 3 27 19 31 30 21 29 31 14 23 4 4 28 9 6 31 17 22 23 27 29 0 31 1 24 28 22 28 23 29 14 21 22 23
split_gain=3.39256e+06 563342 534721 224077 217151 192290 172073 149987 109386 103833 87802 77302.3 74926.7 74522.9 71504.7 66926.4 59086.2 58256.8 49643.2 50300.2 47206.7 46702.4 42046.1 40225.8 38777.4 33214.2 32286.8 31895.1 25996.2 25806.6 21373.6 20881.8 20716.1 19698 17433.4 17427.7 17382.7 17185.6 16915.6 20220.1 16798.3 16623.3 15664.2 14643 13961.6 13804.1 13095.3 12345.1 12308.4 14450.1 12978.1 12276 12148.7 11010.3 10601.5 10263.5 10128.4 9600.96
threshold=73.710000000000022 75.560000000000016 66.485000000000014 382.27000000000004 191.17500000000004 238.14000000000001 0.52785714285714291 11.365 2.4007142857142862 8.8021666666666682 2.1483333333333339 2.4050000000000007 26.345000000000002 9.3316666666666688 1.7053333333333336 3.0950000000000002 251.78500000000003 201.66000000000003 310.11000000000007 198.44000000000003 10.919000000000002 6.6185714285714292 379.36000000000007 5.3650000000000011 5.4200000000000008 4.7853333333333348 63.100000000000001 107.44500000000001 2.4670000000000005 46.940000000000005 8.6401666666666674 448.65000000000003 10.635000000000003 262.7050000000001 0.10500000000000002 25.460000000000004 -1.5153333333333332 2.5050000000000003 0.32500000000000007 215.56000000000003 45.100000000000001 7.9250000000000016 189.82500000000002 13.584333333333335 10.307083333333336 33.810000000000009 182.54000000000002 9.6350000000000033 10.415000000000001 9.4078333333333344 36.130000000000003 -3.7591666666666663 54.255000000000003 4.635250000000001 -0.20499999999999999 12.510000000000002 143.22 123.17
decision_type=2 2 2 2 2 2 2 2 2 2 2 2 2 2 2 2 2 2 2 2 2 2 2 2 2 2 2 2 2 2 2 2 2 2 2 2 2 2 2 2 2 2 2 2 2 2 2 2 2 2 2 2 2 2 2 2 2 2
left_child=1 8 4 6 10 11 51 13 36 21 -2 -4 35 22 -14 54 24 32 19 29 34 31 25 -19 -17 56 28 -16 -27 -9 41 52 -13 -15 -12 -6 -1 -31 -29 -40 -21 -23 45 -30 -39 -36 -38 -22 -43 50 57 -3 -10 -54 -5 -11 -8 -50
right_child=2 3 5 15 12 -7 7 18 9 55 20 17 14 33 27 16 -18 23 -20 40 47 30 -24 -25 -26 26 -28 38 43 37 -32 -33 -34 -35 42 -37 46 44 39 -41 -42 48 -44 -45 -46 -47 -48 -49 49 -51 -52 -53 53 -55 -56 -57 -58 -59
leaf_value=-4.1390004482625615 -0.69633079935674658 -4.6581507410260379 12.078661319077019 0.66579654376926412 6.5455979495780943 42.69079284702962 -0.61021408585054282 -0.17325030952167569 -3.8436281161788162 -3.9567889313817282 17.072716769790773 24.336969087546795 10.346329058778647 -1.4201216996168549 28.693528397271049 3.9646545620088953 19.192909517790877 25.069734807340495 16.402255333334271 6.9785227724909094 7.1563950631147764 -1.9925385884398203 13.025709945588568 38.024971732857836 16.223636754336546 6.0821387902742687 7.7988907167345483 15.771195547148203 2.0775113756829033 -0.23305756551019882 -0.85758697421232477 5.9627932437726701 15.441909692949118 1.5850530341241507 11.478452430997059 14.550032460455322 -3.3988351578528033 8.1471252829727892 17.984164505819219 26.939927526049807 15.813640545255579 1.1917887502508031 14.643770354289243 -4.2031955160589218 3.8948139875165713 2.9513142027748107 -1.5152472355775821 -1.2887063921707151 9.7806979548437489 1.503625335089201 2.8181232696531073 -2.0405253061900135 -0.60572832331007842 -3.0306270727930449 6.1379532197258833 -2.5184938036998239 2.3071569562595697 3.5496064669387501
leaf_weight=1257 44 92 19 22 22 27 154 40 103 411 24 36 23 402 27 30 35 18 19 13.999999999999998 14.000000000000002 41 14.999999999999998 21 15.999999999999998 69 57 21 243 18 170 13.999999999999998 14.999999999999998 113 17.000000000000004 22 626 76 19 22 23 191 22 15.999999999999998 53 13.999999999999998 196 13.999999999999998 30 74 43 341 243 110 41 392 70 14.999999999999998
leaf_count=1257 44 92 19 22 22 27 154 40 103 411 24 36 23 402 27 30 35 18 19 14 14 41 15 21 16 69 57 21 243 18 170 14 15 113 17 22 626 76 19 22 23 191 22 16 53 14 196 14 30 74 43 341 243 110 41 392 70 15
internal_value=0 -1.27692 17.0112 1.50723 12.3352 27.4977 0.901429 1.99744 -2.66971 -1.53903 6.84476 23.7343 17.5793 1.02978 20.3416 9.14287 12.9663 26.1949 6.53308 5.69596 10.0048 -0.206688 2.50754 32.0456 8.22865 2.24847 3.38127 22.9247 2.61357 4.35552 1.02706 -1.68718 21.7208 -0.760734 12.5761 10.5478 -3.66877 5.58783 20.4125 22.7897 12.4706 1.84023 10.5399 1.68951 6.40005 7.62749 -2.94971 2.93384 2.28539 3.57477 5.31641 -2.5967 -1.92205 -1.36136 4.22704 -3.25466 0.301464 7.70367
internal_weight=0 5875 441 1959 305 136 1815 1382 3916 1837 149 109 156 1139 112 144 81 90 243 224 105 1034 624 39 46 609 385 89 328 187 564 470 51 515 77 44 2079 147 62 41 37 394 53 259 129 31 822 28 353 162 88 433 456 353 63 803 224 45
internal_count=6316 5875 441 1959 305 136 1815 1382 3916 1837 149 109 156 1139 112 144 81 90 243 224 105 1034 624 39 46 609 385 89 328 187 564 470 51 515 77 44 2079 147 62 41 37 394 53 259 129 31 822 28 353 162 88 433 456 353 63 803 224 45
is_linear=0
shrinkage=0.201098


Tree=5
num_leaves=59
num_cat=0
split_feature=19 23 2 2 9 2 20 31 27 9 23 30 22 30 22 24 16 21 31 24 11 30 8 2 1 30 1 12 22 2 8 22 25 22 9 30 22 30 3 8 28 30 30 25 29 11 29 29 4 27 10 3 2 21 22 25 28 25
split_gain=2.20089e+06 383986 358705 199347 158171 146326 112143 80879.9 80798.6 75671.6 69512.9 66575.4 60972.1 59604.3 51101.5 50050.6 48734.3 43743.8 38873.3 34112.5 32592.4 46109.9 32571.4 25345.3 23317.4 23001 19655.5 18269.9 17655.6 16207 15768.5 14879.5 14813.9 14647.1 27079 13909.4 12201.1 12111 12036.4 11958.7 11584.6 15129.1 11521.8 11095.1 10905.1 10527.9 10194.1 10939.5 10003.4 9906.02 9588.07 9451.03 9418.6 9404.83 9321.84 8883.68 8816.5 19408
threshold=104.27500000000002 157.55500000000004 70.585000000000022 19.655000000000005 -0.81499999999999984 23.850000000000005 262.34000000000009 495.90500000000009 1.5133333333333334 2.6000000000000001 296.99500000000006 5.7496666666666671 157.73500000000004 7.448500000000001 201.66000000000003 10.238333333333335 66.660000000000011 28.015000000000004 92.800000000000011 5.9950000000000019 2.6750000000000003 9.4330000000000016 5.5550000000000006 33.100000000000009 7.7550000000000008 11.217666666666668 8.9950000000000028 2.7250000000000005 319.39500000000004 3.3950000000000005 0.12500000000000003 206.06500000000003 -2.1549999999999994 330.50500000000005 3.1100000000000008 -0.90633333333333321 69.610000000000014 13.595166666666669 42.215000000000011 0.025000000000000005 -0.89016666666666655 6.9498333333333342 11.282166666666669 5.2330000000000014 12.973166666666669 7.7150000000000007 4.5095833333333344 1.7722500000000003 6.8900000000000015 -1.3899999999999997 8.1750000000000025 2.3150000000000004 36.82500000000001 84.250000000000014 128.11000000000004 12.752000000000001 9.4650000000000016 12.623000000000003
decision_type=2 2 2 2 2 2 2 2 2 2 2 2 2 2 2 2 2 2 2 2 2 2 2 2 2 2 2 2 2 2 2 2 2 2 2 2 2 2 2 2 2 2 2 2 2 2 2 2 2 2 2 2 2 2 2 2 2 2
left_child=1 8 4 7 32 25 14 10 49 -5 17 24 48 16 39 27 18 37 36 33 -19 31 30 -13 -11 26 28 -12 -6 55 -16 51 -2 34 -14 -29 46 40 -21 -4 -3 45 -25 -20 54 -42 47 -10 -7 -1 -40 -22 -31 -37 -23 -15 57 -45
right_child=2 3 6 9 5 12 -8 -9 13 11 15 23 19 29 22 -17 -18 20 43 38 21 44 -24 42 -26 -27 -28 35 -30 52 -32 -33 -34 -35 -36 53 -38 -39 50 -41 41 -43 -44 56 -46 -47 -48 -49 -50 -51 -52 -53 -54 -55 -56 -57 -58 -59
leaf_value=-3.4315947049494304 -7.6382280869539514 -2.7088964809530536 20.59332507125244 -0.06275592859595279 5.3163844857724465 5.1456705908878746 40.833381041030272 11.881317054881592 -2.7509665554935703 11.183993987863239 0.6945600107361467 2.4284947580300953 7.020632000165218 -3.1429711092093773 25.636848491289054 11.950038020917576 11.743202937655203 -1.3410159592041253 -0.59683368942602766 25.229100983361814 1.8925623522988004 -0.74119457762214047 18.770365170498046 11.292802104784965 19.190543202054339 1.6849431687838188 14.220412173606793 9.1240858178168782 12.511387750870089 -1.1523293329501552 34.857702461699212 9.2444861261026485 1.1953093821152911 18.850212904469743 16.666678381364889 2.2731863917824011 0.75877495227462033 -3.9310398196299627 22.883138500073237 13.158949415342748 -0.59523723767224634 -1.5063954421895969 5.3920105903303055 1.6218902587527551 -3.0013131009916543 2.0283629499169797 -4.7431585705470773 0.40993463844677153 12.177287940051372 -2.4988047165676219 15.806161545846557 4.2946084236158173 4.0839589919713335 5.99627983725708 2.0566147135060691 -1.3486627416654753 0.15143393269714725 7.8970608002944944
leaf_weight=1277 14.000000000000002 135 14.999999999999998 47 59 18 14.999999999999998 25 149 38 160 46 18 583 15.000000000000002 23 13.999999999999998 192 147 24 131 121 14.999999999999998 32 24 26 19 17 18 188 14.999999999999998 17 17 31 34 127 57 63 15.000000000000002 21 143 348 23 212 48 109 62 63 14.999999999999998 720 15.999999999999998 134 14.999999999999998 35 80 138 131 22
leaf_count=1277 14 135 15 47 59 18 15 25 149 38 160 46 18 583 15 23 14 192 147 24 131 121 15 32 24 26 19 17 18 188 15 17 17 31 34 127 57 63 15 21 143 348 23 212 48 109 62 63 15 720 16 134 15 35 80 138 131 22
internal_value=0 -1.00191 14.065 1.16556 10.866 12.3112 24.8616 0.518314 -2.21703 7.04625 0.367451 9.09608 16.1071 -1.23226 21.9038 2.87197 -0.0242819 -0.228628 -0.219709 17.9641 0.904379 1.71627 26.4216 5.91185 14.2833 6.99072 8.4277 2.25606 6.99833 -2.35265 30.2473 3.47716 -2.79403 15.3903 13.3277 3.65181 -1.91811 -1.25515 21.8481 16.2566 -1.02579 -0.647088 8.8252 0.87828 -0.277986 0.539574 -2.47498 -1.81164 8.34186 -3.09529 19.2305 3.10718 -0.765411 3.07756 0.372361 -2.79954 1.47237 2.21186
internal_weight=0 5896 420 2118 324 293 96 1908 3778 210 1883 163 171 1781 81 362 857 1521 843 138 723 531 45 101 62 122 96 339 77 924 30 282 31 83 52 179 331 798 55 36 735 600 55 512 249 252 274 212 33 1997 31 265 203 162 201 721 365 234
internal_count=6316 5896 420 2118 324 293 96 1908 3778 210 1883 163 171 1781 81 362 857 1521 843 138 723 531 45 101 62 122 96 339 77 924 30 282 31 83 52 179 331 798 55 36 735 600 55 512 249 252 274 212 33 1997 31 265 203 162 201 721 365 234
is_linear=0
shrinkage=0.201098


Tree=6
num_leaves=59
num_cat=0
split_feature=18 18 23 9 2 0 1 10 23 26 22 31 2 30 18 20 19 31 30 1 19 1 30 22 28 26 3 22 30 26 22 2 30 6 2 1 31 30 25 1 10 20 21 11 31 30 24 22 11 9 31 23 2 14 23 25 28 18
split_gain=1.41359e+06 308905 198141 138668 105489 94155.9 72036.3 65801.4 59081.5 58371.5 54936.5 54321.2 34324.3 33719 31499.8 30560.8 24903.3 21234.1 20563.8 27565.4 23024.2 18647.3 17255.3 26042.1 21744 17028.7 16565 14424.1 14310.8 28733.1 13374.1 12705.8 12630.2 12257.9 12125.1 11947 11783.3 10063.9 10814.8 9857.79 9850.1 9730.28 9204.39 9116.74 8382.78 8402.62 7597.95 7523.97 7246.1 7190.49 7082.97 6795.9 6387.78 6254.87 6220.83 6093.22 8223.11 5809.55
threshold=72.410000000000011 153.31500000000003 202.61000000000004 1.4650000000000001 26.875000000000004 88.435000000000016 3.7750000000000004 1.3650000000000004 397.23500000000007 6.5314285714285729 304.49500000000006 495.90500000000009 70.585000000000022 9.2666666666666675 3.6550000000000007 57.385000000000005 147.29000000000005 164.49500000000003 10.919000000000002 8.9950000000000028 86.905000000000015 0.36500000000000005 10.801000000000002 168.39500000000001 4.445333333333334 -2.2964285714285708 3.7150000000000003 36.875000000000007 11.217666666666668 5.0392857142857155 162.70500000000001 72.495000000000019 3.2908333333333339 4.7500000000000009 56.420000000000009 6.995000000000001 208.85000000000002 4.6670000000000007 9.9600000000000026 8.2750000000000004 11.535000000000002 93.015000000000015 42.135000000000012 0.32500000000000007 174.67000000000004 4.0441666666666674 5.4866666666666672 52.025000000000013 10.915000000000001 9.8450000000000006 203.84500000000003 588.8950000000001 33.765000000000008 -4.544999999999999 343.8300000000001 14.315000000000003 10.9915 39.930000000000007
decision_type=2 2 2 2 2 2 2 2 2 2 2 2 2 2 2 2 2 2 2 2 2 2 2 2 2 2 2 2 2 2 2 2 2 2 2 2 2 2 2 2 2 2 2 2 2 2 2 2 2 2 2 2 2 2 2 2 2 2
left_child=2 3 7 10 18 6 21 36 11 41 43 15 -8 14 44 28 22 42 19 30 -21 -3 24 -24 34 -17 -27 50 29 -4 -5 33 -31 48 -6 -20 53 38 47 -35 57 -10 46 -2 -9 -46 -16 -19 -26 -39 -15 -23 -29 -1 -34 -47 -57 -28
right_child=1 5 8 4 16 -7 12 13 9 -11 -12 -13 -14 27 17 25 -18 37 35 20 -22 51 23 -25 31 26 40 52 -30 32 -32 -33 54 39 -36 -37 -38 49 -40 -41 -42 -43 -44 -45 45 55 -48 -49 -50 -51 -52 -53 -54 -55 -56 56 -58 -59
leaf_value=-3.1923015128611119 -3.2215540969948488 5.0505893999293194 -0.85096077538838455 2.0157057585632976 3.2382111165733831 31.065814748936699 16.111394196665916 -1.7699415812198365 1.6582869584945201 13.674187116630716 10.44978920443099 10.726309543593597 26.982840876882932 -3.4616222626145881 -1.7690963569677867 -2.3311405566350047 17.407181300004357 -0.32029981806131996 6.665494051833293 5.2669743105614257 16.014665772052162 11.538597014477681 2.3876127436177446 12.402590399203635 12.007910944540225 1.4586452137547556 1.6618971218729972 -1.3603548233909808 -1.3267304017266324 3.7068919432059535 7.2525502979192336 17.858008975395855 0.72318533797524565 12.274781134702046 11.467070122775704 0.010578495353565216 -1.2194969929859474 -0.5357775887971481 6.5124894841801009 19.389722497305733 9.6436306364733895 6.901822481140619 1.2118861463518853 0.83383197925704466 1.2296198497475759 -1.9485221148151224 0.083767862054914405 3.4384143806923033 6.8181839466078751 1.8739463974370818 -1.4317511289186056 16.726105240866698 2.9903097033217838 -2.3849769455783081 4.5158261608128596 4.8593538723385405 -1.3751340769455909 5.0892839378142849
leaf_weight=585 51 14.999999999999998 312 41 15.000000000000002 19 23 492 58 28 19 22 24 252 179 26 28 33 14.999999999999998 13.999999999999998 19 32 21 21 34 121 28 542 222 101 38 21 220 18 13.999999999999998 40 266 84 30 13.999999999999998 14.999999999999998 19 117 40 89 115 179 62 15.999999999999998 124 96 14.999999999999998 13.999999999999998 1153 19 13.999999999999998 22 70
leaf_count=585 51 15 312 41 15 19 23 492 58 28 19 22 24 252 179 26 28 33 15 14 19 32 21 21 34 121 28 542 222 101 38 21 220 18 14 40 266 84 30 14 15 19 117 40 89 115 179 62 16 124 96 15 14 1153 19 14 22 70
internal_value=0 9.22642 -0.980984 6.88132 8.74946 18.0022 15.7251 -1.61178 1.24406 5.81136 0.614546 0.82921 21.6628 -0.911389 -0.339097 0.637202 11.841 0.526569 5.00996 6.57372 11.455 11.224 10.9453 7.3951 12.0749 2.55125 3.09373 -1.88631 0.0678074 0.542635 4.53469 13.4445 1.82146 12.3142 7.21076 1.82556 -2.46595 1.75781 3.18389 15.3876 4.84458 2.95215 -0.336596 -1.43897 -1.29464 -0.320274 -0.842664 2.13276 10.3472 0.900789 -2.90166 13.1942 -1.25081 -2.65672 1.02469 -1.23379 1.04939 4.11003
internal_weight=0 607 5709 479 369 128 109 4448 1261 105 110 1156 47 2444 1540 1134 202 808 167 112 33 62 174 42 132 260 234 904 874 652 79 103 340 82 29 55 2004 333 125 32 113 77 475 91 732 240 358 95 50 208 348 47 556 1738 239 151 36 98
internal_count=6316 607 5709 479 369 128 109 4448 1261 105 110 1156 47 2444 1540 1134 202 808 167 112 33 62 174 42 132 260 234 904 874 652 79 103 340 82 29 55 2004 333 125 32 113 77 475 91 732 240 358 95 50 208 348 47 556 1738 239 151 36 98
is_linear=0
shrinkage=0.201098


Tree=7
num_leaves=59
num_cat=0
split_feature=2 22 18 9 18 0 25 30 9 31 22 10 2 23 29 29 22 26 31 9 5 31 12 28 29 31 14 31 20 0 16 18 17 9 3 23 10 14 22 22 28 30 21 0 29 22 30 23 30 17 30 11 7 0 5 31 10 12
split_gain=911410 194054 152668 76428.4 62242.2 60830.4 55739.4 75688.4 50896.1 47580.3 36795.9 27697.8 25719.9 24617.1 23862.8 20224 19057 18574.2 17606.5 15022.3 14900.2 17828.5 14460 14300.9 15495.5 15826.9 13801.3 12312.4 14074.3 10095.1 9844.06 9665.5 9293.02 9105.24 9037.08 8583.05 8445.49 8294.31 8291.7 8256.61 8135.64 7323.44 7314.57 6895.73 6815.1 6518.3 6367.57 5961.7 5961.67 5536.09 5484.75 5225.83 5225.43 4887.71 4613.07 4398.79 4400.85 4347.64
threshold=33.100000000000009 113.48500000000001 153.31500000000003 -0.30499999999999994 53.240000000000009 88.435000000000016 5.2330000000000014 7.2513333333333341 8.3950000000000014 495.90500000000009 128.11000000000004 1.0250000000000001 6.4450000000000012 439.76000000000005 3.0530833333333338 10.706583333333336 78.830000000000013 6.5314285714285729 207.63500000000002 3.2800000000000007 24.750000000000004 180.27500000000003 5.245000000000001 1.2745000000000002 8.4854166666666675 108.38000000000001 10.635000000000003 58.895000000000003 93.015000000000015 56.420000000000009 23.375000000000004 72.410000000000011 44.230000000000011 3.1850000000000005 7.7900000000000009 287.53500000000003 15.605000000000002 8.8550000000000022 36.875000000000007 47.585000000000008 11.736500000000001 10.187333333333335 9.0250000000000004 33.810000000000009 -4.8021666666666656 194.59500000000003 14.252833333333335 74.320000000000007 4.0441666666666674 19.98 -4.2616666666666658 7.8450000000000006 19.655000000000005 32.265000000000008 12.965000000000002 113.45500000000001 13.415000000000001 -3.0849999999999995
decision_type=2 2 2 2 2 2 2 2 2 2 2 2 2 2 2 2 2 2 2 2 2 2 2 2 2 2 2 2 2 2 2 2 2 2 2 2 2 2 2 2 2 2 2 2 2 2 2 2 2 2 2 2 2 2 2 2 2 2
left_child=1 6 3 -2 13 8 18 9 14 16 15 57 30 23 -4 19 36 -15 44 -5 21 53 54 -3 25 45 37 -12 -29 33 52 -21 35 -30 -35 -18 40 -23 55 -20 42 49 48 -22 -1 -25 -26 -46 50 -40 -8 -27 -13 -14 -16 -9 -57 -6
right_child=2 4 5 10 11 -7 7 38 -10 -11 27 12 20 17 22 -17 32 -19 39 31 43 26 -24 24 46 51 -28 28 29 -31 -32 -33 -34 34 -36 -37 -38 -39 41 -41 -42 -43 -44 -45 47 -47 -48 -49 -50 -51 -52 -53 -54 -55 -56 56 -58 -59
leaf_value=-2.9024252193903108 -2.5657450330514444 -1.1938134131716813 4.5774809651924127 1.1251907252193449 -2.6313867228371555 26.360510363332114 -3.3200298862603499 -3.1314787369647501 24.294035499685055 10.900143128184814 4.4413781140977919 2.3739169399148197 4.0770634668092676 2.5281124662658181 17.806996490147181 -0.92417352726467128 1.7065621435411302 10.606919019231414 -1.4383698915710812 5.0100575355991674 7.2950279822667428 7.6332648578743818 9.587522699984131 -0.34903532362589418 0.32035900067206369 2.697517157018253 3.3533053919412836 6.3160300100755684 8.6562999458422283 6.5229186303991318 -1.8038366522031972 10.465780738358115 6.9950214139818225 17.262892127066038 11.935730601372782 6.4290217904073925 3.5527600731661475 13.665010266979545 -0.62940365066194026 0.25900016066474069 -4.5454128110801202 -1.4190624845947772 1.0935240476731172 11.956545812115186 -2.1979776680058554 2.9770010639664739 -2.2641381388829336 -1.5262013101825027 -1.6568937790457874 1.5757973723932888 0.71678210882994586 5.3676432817908397 6.7336661076943534 0.41442945969516193 13.189593782900388 -2.1237389886812239 -0.4154764418302539 1.2465833085093188
leaf_weight=279 31 165 15.999999999999998 17 14.999999999999998 18 14.999999999999998 116 14.999999999999998 20 15.999999999999998 54 41 41 21 20 115 15.999999999999998 239 24 33 27 25 103 269 107 21 29 26 15.999999999999998 20 29 20 15.999999999999998 66 18 33 13.999999999999998 171 225 13.999999999999998 457 272 21 1019 31 45 1123 96 63 147 41 13.999999999999998 23 14.999999999999998 238 82 53
leaf_count=279 31 165 16 17 15 18 15 116 15 20 16 54 41 41 21 20 115 16 239 24 33 27 25 103 269 107 21 29 26 16 20 29 20 16 66 18 33 14 171 225 14 457 272 21 1019 31 45 1123 96 63 147 41 14 23 15 238 82 53
internal_value=0 -0.628143 9.29024 6.87061 1.71148 15.6693 -1.19512 -0.342145 13.5775 1.22324 8.00006 4.01585 4.93555 0.764937 11.4899 4.71549 0.958118 4.79585 -1.75006 6.32682 6.31301 5.11523 13.3029 0.463016 0.921702 2.0037 7.54561 9.74924 10.3043 11.2371 2.11802 7.99526 2.95345 11.9354 12.9752 2.34569 0.429027 9.69289 -1.38388 -0.615292 0.239536 -0.9506 0.365931 9.10784 -1.96755 0.420421 -0.0500307 -1.84578 -0.401145 -0.0356957 0.343003 3.43721 3.27151 2.7608 15.8831 -2.07057 -1.686 0.391149
internal_weight=0 5916 400 290 1154 110 4762 1877 92 750 259 336 268 818 77 90 730 57 2885 70 180 126 61 761 596 282 62 169 153 124 88 53 153 108 82 133 577 41 1127 464 544 691 530 54 2421 134 314 2142 258 234 162 148 68 64 36 436 320 68
internal_count=6316 5916 400 290 1154 110 4762 1877 92 750 259 336 268 818 77 90 730 57 2885 70 180 126 61 761 596 282 62 169 153 124 88 53 153 108 82 133 577 41 1127 464 544 691 530 54 2421 134 314 2142 258 234 162 148 68 64 36 436 320 68
is_linear=0
shrinkage=0.201098


Tree=8
num_leaves=59
num_cat=0
split_feature=19 23 2 2 20 9 2 25 29 14 31 22 30 11 21 22 1 30 16 23 30 9 30 1 13 10 28 20 22 31 22 30 13 23 30 22 29 22 24 28 3 22 6 2 10 14 31 31 1 28 4 8 30 21 22 31 7 29
split_gain=588179 112952 104989 60322.6 57597.1 51335.9 39872.9 34007.4 38574.2 23834.9 19675.5 19253.3 15103.4 17488.1 18137.8 13959.2 16044.9 13653.3 16319.2 13233 12460.3 21715.9 10652.5 10705.1 10523.8 10452.7 9525.82 8946.29 8733.58 8628.68 8074.26 8769.47 8064.78 7621.67 8493.28 7430.66 7380.65 7305.28 11182.1 7111.02 7054.72 7037.86 7012.16 6410.4 6122.95 6026.71 5671.17 5669.01 5574.31 5445.45 5382.41 5254.87 5033.73 4920.93 4860.98 4751.23 4710.75 4487.63
threshold=104.27500000000002 156.20500000000001 70.585000000000022 9.365000000000002 262.34000000000009 -0.81499999999999984 24.490000000000006 3.5120000000000005 10.159416666666667 1.0350000000000004 233.29000000000005 157.73500000000004 7.3323333333333336 8.2150000000000016 75.340000000000018 201.66000000000003 5.3650000000000011 -1.3044999999999998 68.91500000000002 241.13000000000002 -1.0288333333333333 9.3150000000000031 11.217666666666668 10.735000000000001 2.3100000000000001 1.6450000000000002 12.465000000000002 225.69000000000003 162.70500000000001 71.670000000000002 59.085000000000008 4.8818333333333337 -0.70999999999999985 117.86500000000002 12.321000000000002 5.745000000000001 9.3931666666666676 36.875000000000007 13.098333333333334 9.123166666666668 19.815000000000001 225.61500000000004 0.40500000000000008 37.520000000000003 13.415000000000001 8.9650000000000016 135.33000000000001 99.635000000000019 7.9000000000000012 -0.62299999999999989 36.315000000000005 0.025000000000000005 5.5258333333333338 165.86500000000004 135.30000000000004 173.80500000000004 1.1650000000000003 -1.6944999999999999
decision_type=2 2 2 2 2 2 2 2 2 2 2 2 2 2 2 2 2 2 2 2 2 2 2 2 2 2 2 2 2 2 2 2 2 2 2 2 2 2 2 2 2 2 2 2 2 2 2 2 2 2 2 2 2 2 2 2 2 2
left_child=1 9 5 10 15 32 22 54 17 29 19 -8 13 30 26 51 27 -9 28 40 21 -12 23 41 -21 -13 35 -17 52 -1 47 -32 -2 34 44 -15 -26 38 -37 -40 46 -7 -27 -10 -14 -20 -3 -11 -30 -22 53 -4 -19 -44 -5 -36 -42 -31
right_child=2 3 4 7 -6 6 11 8 43 12 20 25 33 14 -16 16 -18 18 45 24 49 -23 -24 -25 36 42 -28 -29 48 57 31 -33 -34 -35 55 37 -38 -39 39 -41 56 -43 50 -45 -46 -47 -48 -49 -50 -51 -52 -53 -54 -55 -56 -57 -58 -59
leaf_value=-2.2128292031272605 -5.8160236359037114 -1.2612189266139091 10.915562024921263 -1.1100579731662692 24.558443970115967 1.9870985154151748 3.6911534419448846 10.869379082818362 0.059917412160838235 -1.5489715619809707 1.0927932191848369 5.5767878187303701 -1.7432127515994025 -2.2548758176144488 7.9487902206834917 7.1958333423791485 18.72371528961914 4.5012838382850022 6.6709907618939566 -0.71637606555530575 -1.0721607593228442 10.335912064824003 0.12229007830589082 9.2212529495001387 1.9452797218879674 7.7232925600585931 -4.3425584511287134 14.141241932517087 4.9312628578319222 -1.6633784903726492 1.0620310426311013 -2.5866570463009118 0.70169468095510146 -0.50671350299491491 -4.3057113851502749 0.93679131924134373 0.14176498402757493 0.21385314812016487 8.487856322715249 3.2071635589066823 -0.86296612789452487 5.7310221152618457 11.821054342280577 4.2602257377987112 0.030400833162672662 12.201332835070801 -0.19614940616310425 -0.27960708446333499 9.5647470093080642 1.4410506909547065 13.128298717756204 5.9874119758719306 1.4059868916046141 7.7047284578378195 1.4539971001970555 -1.1716170476222481 3.3808333233040537 -0.77730955548799774
leaf_weight=793 14.000000000000002 475 14.999999999999998 67 14.999999999999998 45 29 19 80 363 26 24 400 25 14.999999999999998 15 14.999999999999998 43 17 172 41 17 27 17 217 33 13.999999999999998 15 35 595 159 32 17 314 71 76 159 112 14.999999999999998 33 17 37 24 18 98 14.999999999999998 352 234 14.999999999999998 233 34 21 42 23 54 27 28 378
leaf_count=793 14 475 15 67 15 45 29 19 80 363 26 24 400 25 15 15 15 43 17 172 41 17 27 17 217 33 14 15 35 595 159 32 17 314 71 76 159 112 15 33 17 37 24 18 98 15 352 234 15 233 34 21 42 23 54 27 28 378
internal_value=0 -0.517948 7.27101 0.647285 13.1121 5.54033 6.36369 2.85737 4.06019 -1.18282 0.131979 8.40138 -0.705232 -0.195964 1.13919 10.9924 13.3536 5.76138 5.18023 -0.187804 1.56445 4.74705 3.66294 4.62857 0.586587 9.39122 0.767761 10.6685 4.21239 -1.72045 -0.687328 0.450733 -2.24179 -1.30852 -1.73095 1.04188 1.18262 1.39111 2.45444 4.85738 -0.674462 3.67643 10.1943 0.831403 -1.39419 9.26334 -0.807888 -1.05143 6.32131 1.06499 11.2009 8.04081 2.97184 9.80668 0.0342311 -3.44224 1.77762 -1.31915
internal_weight=0 5896 420 2142 96 324 293 405 284 3754 1737 167 1988 1078 290 81 45 186 167 1420 317 43 126 99 548 138 275 30 135 1766 788 191 31 910 596 261 376 236 124 48 872 82 114 98 498 32 827 597 50 274 81 36 85 47 121 98 45 973
internal_count=6316 5896 420 2142 96 324 293 405 284 3754 1737 167 1988 1078 290 81 45 186 167 1420 317 43 126 99 548 138 275 30 135 1766 788 191 31 910 596 261 376 236 124 48 872 82 114 98 498 32 827 597 50 274 81 36 85 47 121 98 45 973
is_linear=0
shrinkage=0.201098


Tree=9
num_leaves=59
num_cat=0
split_feature=2 22 9 21 22 18 14 23 30 26 29 30 26 28 9 22 23 30 30 20 31 30 21 29 28 20 2 31 22 0 27 10 29 7 1 22 29 31 16 21 9 23 30 8 23 30 28 9 28 31 16 26 31 30 10 23 30 31
split_gain=378936 83920.5 70234.1 58677.1 34089.9 29170.2 26547.5 23936.5 30615.5 20335.9 20841.1 17091.4 15185.5 13950.9 14604.3 13024.1 13018.5 12106.7 9822.99 9499.91 9262.07 9203.09 8983.16 8477.89 10456.5 7934.68 7601.13 7264.09 7204.78 6871.24 6763.34 6550.18 7694.09 6230.66 6209.43 6097.03 5939.52 5901.23 5712.44 5641.53 5292.47 5246.74 4812.27 4788.06 4483.69 4481.07 4231.43 4203.64 4104.54 3963.23 3955.03 4233.96 3913.81 5334.17 3753.84 3694.1 4541 3567.17
threshold=33.100000000000009 121.40000000000002 -0.21499999999999997 274.68000000000001 181.67500000000004 39.930000000000007 1.0350000000000004 270.61000000000007 -0.8241666666666666 4.8935714285714296 8.1002500000000008 9.5868333333333347 6.5314285714285729 12.108833333333335 1.8750000000000002 291.86500000000007 296.99500000000006 1.2333333333333336 0.47916666666666669 121.60000000000001 85.170000000000016 5.7496666666666671 118.51500000000001 4.2475000000000014 4.1395000000000008 75.90000000000002 36.82500000000001 126.60500000000002 126.88000000000001 46.350000000000001 -2.0436666666666663 10.305000000000001 9.6822500000000016 1.2150000000000001 4.745000000000001 7.9250000000000016 12.617166666666668 74.595000000000013 78.965000000000018 40.150000000000013 9.5650000000000031 202.61000000000004 0.20216666666666669 11.365 387.25500000000005 4.8265000000000002 12.385500000000002 6.5750000000000011 4.5410000000000013 112.575 66.660000000000011 3.1200000000000006 108.38000000000001 2.3920000000000008 15.605000000000002 107.44500000000001 -3.0961666666666665 162.11500000000004
decision_type=2 2 2 2 2 2 2 2 2 2 2 2 2 2 2 2 2 2 2 2 2 2 2 2 2 2 2 2 2 2 2 2 2 2 2 2 2 2 2 2 2 2 2 2 2 2 2 2 2 2 2 2 2 2 2 2 2 2
left_child=1 6 20 4 13 30 37 11 -9 15 33 12 23 14 -4 50 28 -6 41 -19 -2 34 -18 24 55 35 -23 -25 -12 -30 -3 32 43 42 -16 -20 39 -1 -36 -32 -28 -14 -11 44 -21 -17 54 -35 -26 -48 51 -7 -41 -54 -37 -8 -57 -13
right_child=2 5 3 -5 17 9 7 8 -10 10 16 57 18 -15 21 45 22 19 25 31 -22 26 -24 27 48 -27 40 -29 29 -31 36 -33 -34 47 38 46 -38 -39 -40 52 -42 -43 -44 -45 -46 -47 49 -49 -50 -51 -52 -53 53 -55 -56 56 -58 -59
leaf_value=-1.6848016411970075 -6.5263938421381473 -1.4756478109946445 -0.30444502875028912 16.895190395891191 3.0691237007735306 -0.23165178562021255 -0.90184844036057399 10.353587898103713 1.096668141799239 7.3390667657394406 5.3033894150331617 -1.5838191376220054 1.8602798460516334 -0.34156529292728105 4.5286023549915564 1.788139992758131 1.8812831306652067 5.6313753189817248 -1.9760487230047459 8.9313608628602132 0.090234157031249998 0.27633210006560005 8.5946076160798714 -2.9068906574436713 3.9000169154588908 4.8629456986301669 4.0729015562831874 -0.72989662402016664 1.3477944772826838 -3.1040577628636523 0.064549528973471257 12.754651839055523 4.6479696941186521 4.954779597534718 6.9633711879816387 0.42616565832008468 -1.5495615730281247 -0.99639273448942922 12.347589024374999 0.36649563697637716 8.0182449981813431 6.0723529304077148 2.7990944037867544 6.3030025048565674 12.134613084768066 5.947206621310424 -3.2910292541634605 8.8092314820505191 0.81209678783695827 -0.20951316129588635 -3.1778522438709129 3.1265504044272578 4.2012772474976776 1.4370789154265173 2.4946552996004452 2.29048650167227 -0.32621399420089542 -0.80471507839861756
leaf_weight=919 13.999999999999998 71 19 22 17 97 433 15.999999999999998 149 13.999999999999998 14.999999999999998 466 59 24 14.999999999999998 20 13.999999999999998 32 49 43 22 14.999999999999998 19 110 27 14.999999999999998 44 142 80 17 223 21 14.999999999999998 17 17 535 47 1114 14.999999999999998 93 20 14.999999999999998 29 14.999999999999998 30 22 21 35 49 86 14.999999999999998 18 35 146 38 34 127 485
leaf_count=919 14 71 19 22 17 97 433 16 149 14 15 466 59 24 15 20 14 32 49 43 22 15 19 110 27 15 44 142 80 17 223 21 15 17 17 535 47 1114 15 93 20 15 29 15 30 22 21 35 49 86 15 18 35 146 38 34 127 485
internal_value=0 -0.405028 5.99036 6.82837 6.1808 1.24751 -0.752166 -0.356801 1.99431 2.55693 3.75298 -0.50096 -0.126286 4.14944 4.89278 0.88803 2.23614 8.16519 0.504432 8.72053 -2.4829 5.67649 5.74653 -0.68586 -0.31188 0.284655 4.35086 -1.68017 1.20183 0.567573 0.370303 9.51774 8.85778 6.06816 7.90468 0.190452 0.611227 -1.30758 9.48722 0.815567 5.30582 2.71408 4.27722 9.57536 10.2478 3.9667 0.346567 7.54912 1.90912 -0.814297 -0.106616 0.29398 1.4268 1.97159 0.563343 -0.596049 0.226381 -1.18648
internal_weight=0 5916 400 364 342 1027 4889 2856 165 412 240 2691 1740 169 145 172 145 173 818 156 36 126 33 922 670 744 79 252 112 97 615 124 103 95 47 729 544 2033 32 497 64 74 43 88 73 42 680 52 76 107 130 115 274 181 573 594 161 951
internal_count=6316 5916 400 364 342 1027 4889 2856 165 412 240 2691 1740 169 145 172 145 173 818 156 36 126 33 922 670 744 79 252 112 97 615 124 103 95 47 729 544 2033 32 497 64 74 43 88 73 42 680 52 76 107 130 115 274 181 573 594 161 951
is_linear=0
shrinkage=0.201098


Tree=10
num_leaves=59
num_cat=0
split_feature=2 20 23 9 19 23 22 3 31 0 26 29 31 30 13 28 10 31 9 9 10 31 28 19 9 23 2 27 30 10 15 8 5 23 30 6 31 30 30 15 30 25 2 0 22 9 23 6 7 28 31 21 2 28 17 23 18 30
split_gain=242388 65484.6 46820.2 45709.1 31382.2 18419.5 16958.6 16246.6 13544.3 13078.1 12901.3 10796.2 9488.71 8376.29 8866.22 7807.72 11624.8 7783.73 14278.7 7665.09 7571.31 9335.8 10359.8 7260.45 6483.85 6691.49 6453.79 6237.73 7420.41 8692.14 6159.42 6010.63 5550.75 5455.76 4803.72 4845.28 4743.57 4639.5 4098.39 4085.13 5319.59 4897.74 3749.7 3701.54 3676.9 3824.96 3632.44 3582.78 3544.53 3526.48 3511.03 3447.69 3374.83 3347.36 3329.65 3268.79 3251.9 3115.51
threshold=23.850000000000005 279.45000000000005 233.45000000000002 1.0050000000000001 106.79500000000002 99.240000000000009 286.53500000000003 8.3250000000000011 144.76000000000002 61.570000000000007 -1.2707142857142855 8.3533333333333353 51.775000000000013 12.321000000000002 11.965000000000002 7.8808333333333342 9.2650000000000023 360.47500000000008 8.8950000000000014 7.1350000000000007 12.825000000000001 162.11500000000004 10.9915 41.330000000000005 2.7150000000000003 374.65000000000003 82.175000000000011 -3.6866666666666661 5.0470000000000006 5.2550000000000008 -0.8849999999999999 11.025 5.4650000000000007 308.59000000000009 -1.4626666666666663 9.2850000000000019 128.36500000000004 9.2666666666666675 11.547833333333335 7.1250000000000009 12.773833333333334 14.874000000000001 61.570000000000007 0.18500000000000003 201.66000000000003 6.205000000000001 338.75000000000006 5.4850000000000012 2.77 -5.2759999999999989 253.77500000000003 44.290000000000006 7.2800000000000002 11.332833333333335 30.045000000000002 100.93500000000002 75.915000000000006 7.2513333333333341
decision_type=2 2 2 2 2 2 2 2 2 2 2 2 2 2 2 2 2 2 2 2 2 2 2 2 2 2 2 2 2 2 2 2 2 2 2 2 2 2 2 2 2 2 2 2 2 2 2 2 2 2 2 2 2 2 2 2 2 2
left_child=2 3 5 6 11 20 12 17 27 15 -9 19 -2 14 24 16 55 30 -19 36 38 57 43 -17 25 -6 33 -7 29 51 -4 37 47 -26 -12 -36 -5 -32 49 -30 41 53 -15 -23 -37 -46 -33 -13 -21 -1 -18 -29 -48 -41 -31 -10 -34 -22
right_child=1 -3 7 4 13 8 -8 10 9 -11 34 32 -14 42 -16 23 50 18 -20 48 21 22 -24 -25 26 -27 -28 28 39 54 31 46 56 -35 35 44 -38 -39 -40 40 -42 -43 -44 -45 45 -47 52 -49 -50 -51 -52 -53 -54 -55 -56 -57 -58 -59
leaf_value=-1.7719234264594821 -5.2346077051060291 17.671296349357004 -1.2014669539073586 0.81253767215203498 0.61598981149074006 -1.9055100840833754 6.1446663668912613 -1.1973676747173283 -2.5753311044869558 6.3774760297385074 6.3932022638209025 -0.33640541153971354 -0.16606726040750922 0.97316471126938375 11.523395254685058 -0.63563179213579191 1.9072731451561737 0.64322449235243795 8.0280410521093746 4.55906906701889 -3.3406148061781415 7.0627349226383735 0.087383333864784238 1.1282261217166041 5.4122447995503178 6.1480956893135064 10.324215142890276 -0.80812914873930408 -2.0163156472648009 0.92144035518788059 0.6882472534986952 0.83562831763258205 1.4034726314197286 8.3802616923396176 1.8027436477271854 2.2660654144695731 4.3984824247841434 -0.68793709533134473 -2.4222042622129685 -0.57836247103006333 -1.9443161700367588 -2.0116884386208329 5.0552725477016596 2.6471290245324299 3.5536628824262348 7.31103411615236 1.9008876677679538 3.2540123091854092 8.3451186612255857 -0.96823843102782425 5.2145744741837676 0.45110223707461961 5.4856193458224496 1.0412727137044839 3.6179973780181887 0.54620496811699315 5.4658526449235803 -0.39870278553909799
leaf_weight=249 20 13.999999999999998 102 26 13.999999999999998 151 13.999999999999998 36 13.999999999999998 13.999999999999998 14.999999999999998 57 59 13.999999999999998 14.999999999999998 488 25 36 14.999999999999998 20 24 14.000000000000002 58 117 70 24 21 329 140 117 216 123 14.999999999999998 39 112 34 35 183 93 109 105 51 26 17 28 18 44 13.999999999999998 20 1949 27 120 13.999999999999998 98 22 438 17 37
leaf_count=249 20 14 102 26 14 151 14 36 14 14 15 57 59 14 15 488 25 36 15 20 24 14 58 117 70 24 21 329 140 117 216 123 15 39 112 34 35 183 93 109 105 51 26 17 28 18 44 14 20 1949 27 120 14 98 22 438 17 37
internal_value=0 4.09931 -0.378594 3.73391 4.61381 -0.636474 -0.306073 0.891254 -0.236509 0.269597 2.31624 2.81132 -1.44924 6.26272 6.83893 0.192491 0.7771 0.418849 2.81523 4.28868 -1.02399 0.36014 1.67357 -0.294522 6.42068 4.10995 7.09612 -0.694122 -0.52646 -0.0413907 0.239647 0.493084 1.36265 6.4742 2.92731 2.65653 2.87005 0.057065 -1.11461 -1.0935 -0.737593 -0.246484 3.62653 4.64127 3.85184 5.02394 1.45425 0.371564 6.45209 -1.05928 3.62453 -0.471586 2.76617 0.188421 1.34823 0.44952 3.56161 -1.55618
internal_weight=0 534 5782 520 427 4806 93 976 2365 1123 243 204 79 223 183 1109 504 733 51 101 2441 150 89 605 168 38 130 1242 1091 588 682 580 103 109 207 192 61 399 2291 503 363 258 40 31 80 46 181 71 40 2198 52 449 58 207 139 452 32 61
internal_count=6316 534 5782 520 427 4806 93 976 2365 1123 243 204 79 223 183 1109 504 733 51 101 2441 150 89 605 168 38 130 1242 1091 588 682 580 103 109 207 192 61 399 2291 503 363 258 40 31 80 46 181 71 40 2198 52 449 58 207 139 452 32 61
is_linear=0
shrinkage=0.201098


Tree=11
num_leaves=59
num_cat=0
split_feature=2 17 21 9 22 31 9 11 30 22 23 30 24 0 11 30 29 31 0 28 22 11 5 3 9 2 23 28 2 17 8 22 30 30 15 9 31 16 23 15 31 17 6 14 31 20 2 8 28 29 28 31 27 27 21 17 15 25
split_gain=155824 44029.2 33657.8 31564.7 15648.2 15108.8 13243.3 12990.7 15426.3 12103.3 9637.86 8160.04 7591.05 6486.69 6485.56 6478.19 6023.86 5684.4 11050.3 5571.73 5283.87 5078.77 5046.81 4302.96 4669.15 4228.97 4150.78 7212.98 4123.82 4111.01 4502.81 4056.04 4166.56 3644.76 3580.6 5541.1 3564.35 3414.95 3224.1 3210.38 3156.95 3154 3089.8 3021.65 3330.67 2994.23 2928.72 2922.22 2887.04 3265.79 7927.14 4632.04 4835.31 3629.05 2807.65 2802.22 2688.01 2493.44
threshold=30.305000000000003 237.62000000000003 50.105000000000011 -0.21499999999999997 191.17500000000004 278.12000000000006 10.785000000000002 8.2150000000000016 0.30099999999999999 168.39500000000001 117.86500000000002 12.773833333333334 1.8633333333333335 7.4650000000000007 1.5950000000000004 1.3698333333333335 9.3050000000000015 148.62000000000003 61.570000000000007 11.457333333333336 286.53500000000003 12.765000000000002 0.045000000000000005 17.255000000000006 2.8150000000000004 15.025 47.610000000000007 9.8131666666666693 15.340000000000002 92.945000000000007 7.3100000000000014 126.88000000000001 -3.1428333333333325 13.278166666666669 1.0650000000000002 3.4050000000000007 65.88000000000001 11.875000000000002 271.76500000000004 11.225000000000003 165.49000000000004 53.955000000000005 0.055000000000000007 2.2900000000000005 329.01000000000005 104.98000000000002 36.82500000000001 0.10500000000000002 -5.2759999999999989 3.9758333333333336 2.4021666666666674 54.785000000000004 5.2396666666666674 5.0766666666666671 3.1250000000000004 44.230000000000011 13.915000000000001 -3.7829999999999995
decision_type=2 2 2 2 2 2 2 2 2 2 2 2 2 2 2 2 2 2 2 2 2 2 2 2 2 2 2 2 2 2 2 2 2 2 2 2 2 2 2 2 2 2 2 2 2 2 2 2 2 2 2 2 2 2 2 2 2 2
left_child=2 3 5 36 11 10 13 -7 -9 17 21 12 -5 20 -11 -15 23 28 31 22 -6 33 -14 -16 -25 37 -23 -28 57 30 47 32 -19 48 -17 -36 -2 -18 40 42 -12 55 -10 -33 -45 -13 -37 -24 -1 50 -50 53 -53 -52 -42 -34 -21 -4
right_child=1 -3 9 4 6 7 -8 8 39 14 38 45 19 15 16 34 25 18 -20 56 -22 26 29 24 -26 -27 27 -29 -30 -31 -32 43 41 -35 35 46 -38 -39 -40 -41 54 -43 -44 44 -46 -47 -48 -49 49 -51 51 52 -54 -55 -56 -57 -58 -59
leaf_value=-1.5378037913102933 -4.322619369404098 14.366073926707152 -2.0537351714632304 -0.35313958701126463 4.1602743115277336 -0.11086199975871651 10.787090344205856 5.8406149409487407 0.82395942762348717 0.28363074118896936 -0.57674585709912296 -2.5054908760205534 2.2706266450519301 1.5793369520263671 2.1317344647182739 9.0644514596313464 1.1233437890905718 3.5962252196636197 6.4182614315342494 -0.47381460471355902 -0.29714548044550576 -1.9151393456484238 4.6416223401588743 1.8962433814485549 5.5126714571494695 3.8788606256869316 4.8232062128100832 0.15225293652900293 1.1989958198975668 7.3663249898664542 7.2814722979793292 -0.84751974115535422 0.048726078535359506 -2.9617381489152272 2.3333470136595249 4.071325595355936 -0.49327135496641794 -1.9687214025271063 0.41902639471255493 -0.3876254899538249 -1.0373670350356481 -1.9005029616369629 3.9572786698166658 1.6651505023046174 5.0800784645856583 1.4658896058572657 7.2905421332603453 1.2812183948338189 -0.85564745618139926 -1.2709376817048608 -2.7897614446380614 2.0881231597708507 -0.42554123700432289 1.1668003950407917 0.23092736282914114 2.451571522412586 3.2733083989204919 -0.29374628549315174
leaf_weight=272 13.999999999999998 14.999999999999998 36 21 38 294 15.999999999999998 36 35 93 1034 14.000000000000002 33 13.999999999999998 94 14.999999999999998 52 13.999999999999998 13.999999999999998 16.000000000000004 14.999999999999998 31 25 22 42 15.999999999999998 14.999999999999998 123 72 25 14.999999999999998 14.999999999999998 182 36 15.999999999999998 14.999999999999998 33 20 240 41 84 30 20 66 13.999999999999998 17 48 18 1331 527 25 84 49 14.999999999999998 442 22 14.999999999999998 340
leaf_count=272 14 15 36 21 38 294 16 36 35 93 1034 14 33 14 94 15 52 14 14 16 15 31 25 22 42 16 15 123 72 25 15 15 182 36 16 15 33 20 240 41 84 30 20 66 14 17 48 18 1331 527 25 84 49 15 442 22 15 340
internal_value=0 3.65915 -0.272662 3.27948 3.89365 -0.509218 5.26923 0.63324 2.29056 0.706232 -0.622191 2.67015 3.22331 4.72087 1.71419 5.61506 2.25502 0.281762 0.880388 3.73423 2.89874 -0.87701 4.37425 2.99767 4.26952 0.921605 0.187609 0.659965 -0.195269 5.21063 4.28146 0.654353 0.22635 -0.953932 6.21613 5.67531 -1.63393 0.264437 -0.267143 0.959287 -0.372708 0.0247335 1.96335 1.77167 2.26276 -0.327637 6.52406 3.23494 -0.922547 -0.840149 -0.689201 0.59138 1.16204 -1.30605 0.0283861 0.307856 1.33931 -0.462256
internal_weight=0 438 5878 423 376 4734 177 426 132 1144 4308 199 168 161 339 108 246 805 357 147 53 2508 116 158 64 88 169 138 448 83 58 343 248 2339 94 79 47 72 1800 96 1560 234 55 95 80 31 63 43 2303 2031 1504 173 133 40 526 204 31 376
internal_count=6316 438 5878 423 376 4734 177 426 132 1144 4308 199 168 161 339 108 246 805 357 147 53 2508 116 158 64 88 169 138 448 83 58 343 248 2339 94 79 47 72 1800 96 1560 234 55 95 80 31 63 43 2303 2031 1504 173 133 40 526 204 31 376
is_linear=0
shrinkage=0.201098


Tree=12
num_leaves=59
num_cat=0
split_feature=2 0 21 31 1 31 24 18 11 29 22 10 30 2 30 23 25 9 18 21 0 4 28 8 31 7 27 28 23 17 23 30 3 15 18 22 15 5 6 29 29 30 30 15 3 2 22 31 30 28 31 27 0 12 25 28 10 23
split_gain=99865.5 45448.5 27296.9 22564.5 14766.1 10329.6 10205.3 9946.18 9308.21 11817.3 8621.93 7704.78 8756.74 7163.56 7173.83 7051.27 6756.32 6272.57 5081.3 6870.35 4584.58 4322.51 4146.76 5423.25 3866.04 3447.95 4067.94 3364.5 3248.47 3121.76 3057.32 3025.65 2980.35 3596.17 5235.32 3834.33 2940.88 2910.46 3056.92 2841.64 6019.79 2816.86 2807.32 2606.94 2559.26 2476.81 2330.07 2281.6 2216.49 5136.75 5064.92 3029.04 2399.43 3177.51 2186.92 2186.22 2792.1 2421.81
threshold=36.82500000000001 88.435000000000016 50.105000000000011 55.860000000000007 0.36500000000000005 379.36000000000007 9.9316666666666684 104.295 1.5150000000000003 12.669916666666667 225.61500000000004 1.1850000000000003 7.2513333333333341 1.675 6.809166666666667 225.27000000000001 9.5170000000000012 10.925000000000002 91.385000000000019 96.350000000000009 23.505000000000003 8.3100000000000023 12.548000000000002 0.19500000000000003 92.800000000000011 6.8900000000000015 1.2843333333333335 -0.95633333333333326 233.45000000000002 117.42000000000002 46.640000000000008 13.466166666666668 0.025000000000000005 8.8650000000000002 79.500000000000014 131.23500000000004 5.6350000000000007 0.115 2.0750000000000006 4.0733333333333341 3.0530833333333338 1.3698333333333335 -0.4453333333333333 4.8750000000000009 6.8900000000000015 47.57500000000001 68.990000000000023 89.720000000000013 0.61283333333333345 2.2541666666666669 180.27500000000003 7.8953333333333342 12.640000000000002 15.460000000000003 8.8620000000000019 14.802000000000001 13.065000000000003 181.68000000000004
decision_type=2 2 2 2 2 2 2 2 2 2 2 2 2 2 2 2 2 2 2 2 2 2 2 2 2 2 2 2 2 2 2 2 2 2 2 2 2 2 2 2 2 2 2 2 2 2 2 2 2 2 2 2 2 2 2 2 2 2
left_child=2 3 5 4 -2 11 27 18 -4 10 13 -1 15 20 16 24 37 25 19 45 42 -18 32 -24 39 26 -9 -7 -8 -6 -14 55 -16 35 -35 -34 -28 -15 -39 40 -13 -29 -10 -40 48 -5 -33 -17 49 50 -26 -51 53 -50 -38 56 -32 -58
right_child=1 -3 8 7 29 6 28 17 9 -11 -12 12 30 14 22 47 21 -19 -20 -21 -22 -23 23 -25 44 -27 36 41 -30 -31 31 46 33 34 -36 -37 54 38 43 -41 -42 -43 -44 -45 -46 -47 -48 -49 52 51 -52 -53 -54 -55 -56 -57 57 -59
leaf_value=-0.76477519393071969 -5.9723107425230495 14.244074583071898 -0.20971979363100243 0.32923880173537728 -0.36364063869362828 -1.2455156561028788 2.4548439693407733 0.73801121149588267 2.6019144037202833 -1.5851698362401963 2.7944961532332839 -0.41406785368390825 -1.5854052501925646 3.3933058477712312 -2.2082301099567836 0.4533458396723431 2.469685244563911 8.6611996196386709 -1.0787784664825499 5.1874002515411375 -2.2803532620715683 6.4601877898124362 4.9913083558076403 0.55668163796486325 -1.1463981819757352 6.3519722741868758 5.6933133183501363 3.2097811722068093 6.7141181198840334 3.3428964817045324 -0.5233789667593598 -2.1296038943356379 3.6224333876608426 0.38429361698485781 -3.7222973655551397 0.44769293309822589 1.9875888494398803 -0.38578234113527932 0.42481470263874144 -1.4218805959297729 2.5804852304037094 0.42950898392904141 0.22543784007979409 2.7384990118743739 1.635249565960293 2.8951640587890624 -0.38724051888315403 1.9662541932856388 -0.14534381450051639 2.5312204565986649 2.3457614111606597 0.035060587952836918 -2.251128064661045 2.2985888296123194 4.5541490286918638 -1.7871395288153646 0.67362091307737393 -0.65028406991449295
leaf_weight=1923 15.999999999999998 14.999999999999998 360 32 20 34 14.000000000000002 14.999999999999998 22 66 119 425 116 33 18 68 21 14.999999999999998 15.999999999999998 32 28 23 19 27 71 27 37 20 14.999999999999998 17 808 77 25 77 14.999999999999998 40 25 33 31 97 29 56 233 54 53 29 52 99 333 66 22 28 20 23 29 44 171 83
leaf_count=1923 16 15 360 32 20 34 14 15 22 66 119 425 116 33 18 68 21 15 16 32 28 23 19 27 71 27 37 20 15 17 808 77 25 77 15 40 25 33 31 97 29 56 233 54 53 29 52 99 333 66 22 28 20 23 29 44 171 83
internal_value=0 3.43322 -0.186245 2.91011 -0.867935 -0.405988 1.30202 3.68924 0.652275 1.00331 1.21216 -0.45751 -0.237446 0.942783 1.47376 0.128027 2.36279 4.76287 2.23148 2.80099 0.162259 4.55563 0.68933 2.38838 -0.0468712 4.3232 3.80644 0.417278 4.65792 1.33936 -0.598321 -0.505607 0.242723 0.523724 -0.285259 1.66875 4.31223 1.72382 1.25693 -0.433879 -0.222786 1.16116 0.430467 1.89468 0.299299 1.5491 -1.42726 1.35022 0.173535 0.73933 -0.320296 1.78768 -0.107858 0.0125507 3.36593 -0.398109 -0.34056 0.241006
internal_weight=0 325 5991 310 53 4747 139 257 1244 884 818 4608 2685 699 416 1334 195 148 109 93 283 44 221 46 1167 133 106 110 29 37 1351 1235 175 157 92 65 91 151 118 551 454 76 255 85 616 61 129 167 563 187 93 94 376 356 54 1106 1062 254
internal_count=6316 325 5991 310 53 4747 139 257 1244 884 818 4608 2685 699 416 1334 195 148 109 93 283 44 221 46 1167 133 106 110 29 37 1351 1235 175 157 92 65 91 151 118 551 454 76 255 85 616 61 129 167 563 187 93 94 376 356 54 1106 1062 254
is_linear=0
shrinkage=0.201098


Tree=13
num_leaves=59
num_cat=0
split_feature=2 20 23 9 21 31 31 0 23 29 12 25 28 28 31 26 5 3 30 26 29 31 18 24 30 28 3 29 23 25 29 8 18 7 17 8 0 16 28 25 23 20 0 31 7 31 28 16 1 23 17 16 30 15 14 28 30 15
split_gain=64749.9 32536 14753.7 11741.9 7715.83 7639.64 7168 6923 6894.39 6267.94 5712.78 4537.06 8030.71 4780.37 4939.39 4396.48 4250.62 4373.95 4036.95 4033.77 6040.72 4470.21 3839.94 3775.37 3628.06 3437.59 3402.63 3299.14 3097.5 2956.23 3891.2 2925.94 2863.08 2853.93 2681.22 2645.3 2640.12 2585.96 2567.63 3456.81 2504.54 2435.89 2429.65 2417.21 2328.42 2324.19 2177.48 2024.3 2006.82 1951.72 1933.6 1931.9 1931.56 1928.71 1895.04 1891.72 1854.76 1746.8
threshold=23.850000000000005 279.45000000000005 147.63000000000002 1.0050000000000001 129.22000000000003 158.48000000000002 278.12000000000006 77.560000000000016 283.26000000000005 8.3533333333333353 10.895000000000001 12.623000000000003 11.649666666666668 11.332833333333335 194.89500000000001 11.224285714285715 0.015000000000000001 24.175000000000001 5.9558333333333344 -1.6371428571428568 10.390583333333336 52.170000000000009 128.14500000000001 3.1483333333333339 8.1773333333333351 0.51533333333333342 13.235000000000001 5.3885000000000014 90.00500000000001 5.4390000000000009 4.1625000000000005 7.3100000000000014 86.870000000000019 36.960000000000008 -1.0000000180025095e-35 11.365 23.505000000000003 77.040000000000006 8.1123333333333356 3.6860000000000004 185.36000000000004 41.830000000000005 45.050000000000004 236.62500000000003 3.7350000000000008 253.77500000000003 -5.2759999999999989 63.414999999999999 8.6050000000000022 99.240000000000009 43.830000000000005 13.695000000000002 11.547833333333335 14.730000000000002 4.0850000000000009 14.802000000000001 1.6436666666666671 14.045000000000002
decision_type=2 2 2 2 2 2 2 2 2 2 2 2 2 2 2 2 2 2 2 2 2 2 2 2 2 2 2 2 2 2 2 2 2 2 2 2 2 2 2 2 2 2 2 2 2 2 2 2 2 2 2 2 2 2 2 2 2 2
left_child=2 3 11 6 9 19 22 15 16 23 25 34 13 14 18 35 57 32 -13 -4 21 27 -2 -5 -14 -10 29 -21 -16 33 -31 37 38 51 -1 54 -32 47 39 40 -18 -27 46 -43 -28 55 -36 -11 -19 52 -45 -23 -48 -51 -6 -26 -41 -7
right_child=1 -3 5 4 7 8 -8 -9 10 31 -12 12 24 -15 28 -17 17 48 -20 20 -22 26 -24 -25 45 41 44 -29 -30 30 36 -33 -34 -35 42 -37 -38 -39 -40 56 -42 43 -44 50 -46 -47 49 -49 -50 53 -52 -53 -54 -55 -56 -57 -58 -59
leaf_value=1.989972838878407 -0.30073660615609771 11.685280444335609 -0.80411091790723199 0.15652540955991742 4.8909181469024654 -0.2803619441257581 3.8394809002038826 -0.53383993072923019 -0.50760675240895048 -0.12750079602961931 5.5003776336299639 1.5673371023842175 -2.1380597406776571 4.7857500522762715 4.5431078010209935 6.6799427780192655 1.351501897697627 1.1649543604856492 -2.6917079532033599 -0.10397823607282641 -0.65657683318468651 -0.066812123957369754 -3.9774719801627021 3.0771842263501861 0.64054949463747024 0.97532829440502045 0.81769770725665725 -2.4522695464352537 0.95757906681749339 2.042628189841484 0.60125844738093415 2.62983474768795 3.2173496381632232 2.2349734056397588 -1.0407587292893989 1.8122071350075581 -2.2069264595042415 -2.5706092904102866 -0.017497438134481798 2.8477010749271194 -0.3510561366317802 1.3205575470181194 -2.9399534744172038 2.6021447595252871 2.7426527084251591 -2.4544188280251911 -0.53601212996455549 2.4138480377775431 3.8514898825248136 -0.16669506551146362 5.5126655420564772 -1.8021993407434955 -1.4694753443015371 -2.5479704526412008 3.2009058906864962 -1.210845748851255 1.0984956032872597 -2.5410655045798238
leaf_weight=17 64 13.999999999999998 273 22 39 176 14.999999999999998 18 31 61 14.999999999999998 18 40 18 19 17 54 22 18 178 330 159 13.999999999999998 96 110 67 54 28 20 82 139 20 14.999999999999998 19 304 38 14.999999999999998 13.999999999999998 283 39 99 30 17 24 48 13.999999999999998 1935 15.999999999999998 23 786 14.999999999999998 31 94 13.999999999999998 86 28 66 14.999999999999998
leaf_count=17 64 14 273 22 39 176 15 18 31 61 15 18 40 18 19 17 54 22 18 178 330 159 14 96 110 67 54 28 20 82 139 20 15 19 304 38 15 14 283 39 99 30 17 24 48 14 1935 16 23 786 15 31 94 14 86 28 66 15
internal_value=0 2.11872 -0.195676 1.86116 2.30713 0.195323 -0.186447 3.22645 0.624974 1.51225 1.74107 -0.459589 0.30894 1.84275 1.13643 3.60248 0.368497 0.63113 -0.562185 -0.11329 0.0608501 0.37526 -0.960663 2.53265 -0.433997 1.40341 0.675946 -0.423163 2.70438 0.43582 0.923587 0.427497 0.476791 -0.114961 -0.528749 3.28152 0.327734 -0.0565331 0.400806 0.859642 0.249847 1.83901 -0.542342 2.67765 1.72356 0.0144401 -0.529332 0.400572 2.53807 -0.474375 3.72158 -0.349954 -0.579258 -0.208367 3.72819 0.264904 1.7482 -0.457904
internal_weight=0 534 5782 520 427 2330 93 198 974 229 182 3452 285 93 75 180 792 601 36 1356 1083 753 78 118 192 167 547 206 39 445 236 111 556 209 3167 163 154 91 541 258 153 136 3150 69 102 152 3133 77 45 2829 39 190 2029 800 125 138 105 191
internal_count=6316 534 5782 520 427 2330 93 198 974 229 182 3452 285 93 75 180 792 601 36 1356 1083 753 78 118 192 167 547 206 39 445 236 111 556 209 3167 163 154 91 541 258 153 136 3150 69 102 152 3133 77 45 2829 39 190 2029 800 125 138 105 191
is_linear=0
shrinkage=0.201098


Tree=14
num_leaves=59
num_cat=0
split_feature=2 0 21 1 16 23 11 27 29 11 30 18 10 3 31 24 31 27 9 16 0 11 30 25 22 15 23 22 29 25 29 9 23 3 1 28 29 16 11 3 31 27 23 1 28 30 22 29 28 28 31 31 19 1 4 28 12 3
split_gain=42598.8 27394.8 14821.9 12446.5 9102.57 6822.7 6092.17 6351.09 5349.98 6983.7 5987.41 5410.99 5386.94 6749.84 5106.14 5666.05 4414.03 4356.81 5385.04 4296.28 3504.24 3139.2 3314.66 3983.61 3118.31 2848.72 2612.6 4544.06 3051.32 2581.94 2520.13 2455.14 2380.09 2229.4 2118.03 2095.86 2334.26 2095.74 2092.81 2086.58 2065.23 2063.67 1975.46 1965.77 4522.37 1860.99 2044.06 1849.97 1775.92 1817.13 1775.68 2400.85 2318.83 2008.08 1667.04 1662.4 1836.33 1661.23
threshold=47.57500000000001 88.435000000000016 38.455000000000005 1.135 94.485000000000014 343.8300000000001 13.275 11.519333333333334 12.973166666666669 5.5550000000000006 1.8523333333333336 65.765000000000015 12.905000000000003 0.27500000000000008 379.36000000000007 9.9316666666666684 53.255000000000003 10.608666666666668 9.2650000000000023 63.414999999999999 4.9050000000000011 -0.14499999999999999 5.4471666666666669 8.1330000000000009 201.66000000000003 8.7350000000000012 54.255000000000003 4.3250000000000002 -2.4077499999999996 -3.1669999999999994 4.0733333333333341 7.7250000000000005 102.00500000000001 18.570000000000004 8.6050000000000022 6.2656666666666672 -1.0512499999999998 29.760000000000002 6.0250000000000012 6.8900000000000015 55.860000000000007 7.0690000000000008 47.610000000000007 12.570000000000002 9.0105000000000022 14.802000000000001 135.30000000000004 9.6074166666666674 2.5293333333333337 0.10333333333333339 72.305000000000021 48.240000000000002 4.705000000000001 -2.9149999999999996 0.35500000000000004 -0.95633333333333326 -0.105 23.025000000000002
decision_type=2 2 2 2 2 2 2 2 2 2 2 2 2 2 2 2 2 2 2 2 2 2 2 2 2 2 2 2 2 2 2 2 2 2 2 2 2 2 2 2 2 2 2 2 2 2 2 2 2 2 2 2 2 2 2 2 2 2
left_child=2 3 14 4 24 8 7 25 9 19 31 32 13 -13 21 55 -7 18 -15 29 -19 50 23 26 -2 -5 38 -28 -29 -4 -25 39 47 -27 37 36 -30 -18 48 -11 -24 -37 -42 45 -45 46 -44 -12 49 -23 51 -1 -53 -52 -21 -16 -57 -39
right_child=1 -3 5 6 -6 16 -8 -9 -10 10 11 12 -14 17 15 -17 34 20 -20 54 -22 22 40 30 -26 33 27 28 35 -31 -32 -33 -34 -35 -36 41 -38 57 -40 -41 42 -43 43 44 -46 -47 -48 -49 -50 -51 53 52 -54 -55 -56 56 -58 -59
leaf_value=-0.4628293812273872 -1.326830908802155 10.995532355445786 -0.71177116376579608 3.3813196292565206 -5.0237291241856301 -0.707806485505867 -0.91505036350936253 6.7714138285601164 -1.6750249542269957 -0.29602086052896714 -2.2681944673647307 -3.0692976828599385 5.0187276848070139 1.3002121829852442 -0.91195782925255864 3.4639186922436846 1.4568123014813883 1.6169540261428184 4.4277565176440818 -3.8728815444167952 -2.3511460606932317 -0.22831962912154505 -1.1273897787864577 1.7514447119115681 2.5123838356864927 2.7299781924702962 2.1274456607933598 1.2850476907667974 -0.98881524004658616 0.20164368644873923 0.34247507407686861 3.6313491932171629 0.38290188788740132 -0.58954714192868551 0.32718343245648146 -2.9165528213622682 0.15736648323174848 2.1574423337818507 -2.1548663975930293 2.4260848541798681 -1.073863085831082 -0.51869836455093743 -0.4779997391690618 3.6755164136425149 -0.0080230476459797265 -2.3938446599705747 0.68287237072273077 -0.11903184446282594 1.3182360317382518 -1.4148954967217104 -0.083048823962403387 -0.74741928162523896 -1.847638725910759 -0.70452995943700725 -1.2007934124538422 2.5529681077575681 0.20205185873380699 4.1792472257901787
leaf_weight=363 13.999999999999998 14.999999999999998 161 98 13.999999999999998 33 14.999999999999998 19 57 18 25 13.999999999999998 15.999999999999998 79 34 28 85 18 31 13.999999999999998 18 162 147 73 22 18 41 61 89 562 173 35 421 14.999999999999998 32 21 373 42 33 31 131 47 726 13.999999999999998 362 19 67 46 21 77 442 180 136 401 29 18 53 27
leaf_count=363 14 15 161 98 14 33 15 19 57 18 25 14 16 79 34 28 85 18 31 14 18 162 147 73 22 18 41 61 89 562 173 35 421 15 32 21 373 42 33 31 131 47 726 14 362 19 67 46 21 77 442 180 136 401 29 18 53 27
internal_value=0 2.6865 -0.101527 2.1068 -0.672708 0.383887 2.94907 3.33548 0.23765 0.30947 0.744801 0.543582 1.50052 1.1487 -0.304424 0.922145 1.43559 1.55316 2.18161 -0.117904 -0.367096 -0.343648 -0.210916 0.0413503 1.01936 2.83714 -0.149927 0.0801897 -0.0618365 -0.00175851 0.760584 2.34497 0.201263 1.2211 1.81587 -0.216855 -0.0634348 2.1252 -0.646288 1.42613 -0.41242 -1.25921 -0.332738 -0.251015 0.12913 -0.427042 -0.379918 -0.875779 -0.454815 -0.610606 -0.573617 -0.815643 -1.22093 -0.378676 -2.07078 0.244339 0.798059 2.94858
internal_weight=0 230 6086 215 50 1794 165 150 1575 1518 752 668 176 160 4292 133 219 146 110 766 36 4159 2637 1171 36 131 925 632 591 723 246 84 492 33 186 530 462 154 293 49 1466 68 1319 1188 376 812 793 71 260 239 1522 679 316 843 43 105 71 69
internal_count=6316 230 6086 215 50 1794 165 150 1575 1518 752 668 176 160 4292 133 219 146 110 766 36 4159 2637 1171 36 131 925 632 591 723 246 84 492 33 186 530 462 154 293 49 1466 68 1319 1188 376 812 793 71 260 239 1522 679 316 843 43 105 71 69
is_linear=0
shrinkage=0.201098


Tree=15
num_leaves=59
num_cat=0
split_feature=2 20 31 21 23 7 14 13 11 30 0 10 30 7 3 31 18 31 2 14 27 3 28 23 23 6 30 21 0 30 9 27 4 24 4 28 11 15 23 8 7 10 30 28 16 12 22 13 21 27 30 17 22 23 29 22 29 28
split_gain=28392.1 21255.3 6865.41 7765.47 6216.51 6180.45 3765.3 4805.41 3647.95 5325.43 4578.76 3615.74 3551.5 3385.57 3370.16 3202.87 2739.71 2655.84 2413.31 2531.72 4141.79 3102.8 2258.31 2649.97 2937.02 2252.57 2249.09 2794.26 2206.51 2172.25 2100.21 2129.11 2722.13 2299.2 2034 1913.32 1860.62 1849.61 2478.13 1839.95 1834.28 2197.08 1740.02 1733.19 2122.73 2062.23 1649.29 1726.73 1589.37 1587.51 2255.34 1823.49 1585.62 1609.85 1535.54 1489.07 2311.21 2239.76
threshold=18.345000000000002 279.45000000000005 53.955000000000005 104.14000000000001 271.76500000000004 2.7050000000000005 12.405000000000003 12.105000000000002 3.3050000000000002 4.5848333333333349 61.570000000000007 9.0650000000000031 12.922166666666667 7.2550000000000008 4.8750000000000009 24.635000000000002 194.41500000000005 87.00500000000001 82.175000000000011 -0.27499999999999997 4.9313333333333338 12.390000000000002 6.2656666666666672 57.335000000000008 67.265000000000015 0.14500000000000005 -0.09549999999999996 41.835000000000008 46.350000000000001 -4.7696666666666649 1.0050000000000001 6.6890000000000009 1.5850000000000002 5.5816666666666679 2.6050000000000004 6.2656666666666672 4.6350000000000007 6.8850000000000007 127.34000000000002 43.115000000000002 5.3950000000000005 8.1750000000000025 2.4670000000000005 7.7973333333333334 41.300000000000004 7.2150000000000007 68.075000000000017 4.5950000000000006 32.765000000000008 4.469333333333334 8.2605000000000022 14.110000000000001 186.72500000000002 262.7050000000001 5.1110000000000015 49.330000000000005 5.8348333333333349 -3.560166666666666
decision_type=2 2 2 2 2 2 2 2 2 2 2 2 2 2 2 2 2 2 2 2 2 2 2 2 2 2 2 2 2 2 2 2 2 2 2 2 2 2 2 2 2 2 2 2 2 2 2 2 2 2 2 2 2 2 2 2 2 2
left_child=4 2 5 12 8 16 7 18 49 11 28 15 30 -7 35 -10 25 -6 19 -5 21 -21 23 36 -25 -2 27 -19 37 -26 -4 33 -33 -32 -24 -13 -17 38 46 -28 41 -22 -31 45 52 -39 -11 -48 -16 50 55 -51 53 -45 -37 -1 57 -57
right_child=1 -3 3 6 17 13 -8 -9 9 10 -12 14 -14 -15 48 22 -18 26 -20 20 40 -23 34 24 29 -27 39 -29 -30 42 31 32 -34 -35 -36 54 -38 43 -40 -41 -42 -43 -44 44 -46 -47 47 -49 -50 51 -52 -53 -54 -55 -56 56 -58 -59
leaf_value=-0.49790602787527805 -0.8014977466954295 8.9919886389674595 -0.17354106537385219 3.9022504014976498 -0.12528061492609646 -5.0115428793651029 -0.41069558887939456 5.9532872181006296 -1.2955230943630571 -0.91989494609840994 3.1574994693941116 2.1122436536835787 -2.1316478829623327 -0.97431412017510044 1.5823359269363819 0.60872693824622759 -1.6641111237652302 4.5383000015485493 4.0335231917594907 -2.2606828544049127 2.5277629310205527 1.0988366581012423 -1.2425578911536923 2.5757467363453452 -1.8203117240331375 2.0693718279711915 0.48219395505115131 0.96341121628616644 -2.6882454136344078 0.52104824763306345 1.3652674265169746 -0.10908558771665933 1.7588373294523618 4.2076358777712821 0.35684635139811738 -0.56661777629046317 -1.2928090828709498 -0.22627549494594165 -0.11289164432480139 2.0672029886323928 3.4402571942744822 0.31928748768149834 1.9202443883178886 -0.29439709599601671 2.1092160182845712 1.7912922437965946 -1.0246648816500388 -4.183083290637752 4.3369604564825694 -0.82681179511324887 0.88097114489657125 -3.3502904166261027 0.79916706078779409 1.523756494091606 1.0963180734142364 -0.75570914402841649 -2.5503767905183792 0.076712060351619663
leaf_weight=1617 14.999999999999998 13.999999999999998 67 23 182 13.999999999999998 22 13.999999999999998 54 147 15.999999999999998 32 18 21 15.999999999999998 38 15.999999999999998 13.999999999999998 24 13.999999999999998 56 54 61 35 13.999999999999998 42 289 24 14.999999999999998 219 41 74 55 15.999999999999998 68 43 46 42 171 33 42 27 43 1288 15.999999999999998 40 14.000000000000002 13.999999999999998 18 67 58 13.999999999999998 59 20 47 168 15.999999999999998 589
leaf_count=1617 15 14 67 23 182 14 22 14 54 147 16 32 18 21 16 38 16 14 24 14 56 54 61 35 14 42 289 24 15 219 41 74 55 16 68 43 46 42 171 33 42 27 43 1288 16 40 14 14 18 67 58 14 59 20 47 168 16 589
internal_value=0 1.23874 1.07302 1.36231 -0.146753 -0.392193 2.11312 2.33172 -0.215504 -0.0470674 -0.229589 0.410977 0.597657 -2.58921 1.27011 0.179101 0.661169 0.500791 2.12046 1.9079 1.67023 0.407171 0.331066 0.569644 0.840344 1.31388 0.817305 2.28048 -0.259268 0.620274 0.791836 1.13958 0.687316 2.16313 -0.399461 0.776674 -0.43259 -0.239149 -0.657334 0.644633 2.35733 1.80934 0.750687 -0.140384 -0.193644 0.757904 -1.18933 -2.60387 3.04067 -0.38707 -0.358088 -1.26297 -0.220598 -0.266597 0.301804 -0.388157 -0.158579 -0.108026
internal_weight=0 669 655 547 5647 108 276 254 5105 2576 1842 734 271 35 156 578 73 542 240 216 193 68 524 395 311 57 360 38 1826 276 253 186 129 57 129 122 84 1811 346 322 125 83 262 1465 1383 82 175 28 34 2529 2448 81 1367 1308 90 2390 773 757
internal_count=6316 669 655 547 5647 108 276 254 5105 2576 1842 734 271 35 156 578 73 542 240 216 193 68 524 395 311 57 360 38 1826 276 253 186 129 57 129 122 84 1811 346 322 125 83 262 1465 1383 82 175 28 34 2529 2448 81 1367 1308 90 2390 773 757
is_linear=0
shrinkage=0.201098


Tree=16
num_leaves=59
num_cat=0
split_feature=19 2 9 4 28 31 4 16 16 22 18 8 30 23 0 3 1 16 21 0 18 31 30 23 30 2 30 20 15 9 16 30 26 30 6 25 15 31 25 11 27 12 31 29 22 22 15 2 1 15 9 15 25 16 16 9 26 23
split_gain=18686.2 13564.1 4916.38 4461.52 3916.32 4016.3 3697.09 5538.72 4012.25 3238.59 5617.23 3061.9 2928.47 3045.95 2820.13 2555.28 2513.76 2436.05 2343.64 2225.98 2244.79 2212.29 2975.57 2353.06 2292.69 2084.78 1977.24 1949.32 1853.82 1784.42 2949.64 1759.46 2329.09 2319.21 1662.16 2750.43 1562.65 1527.13 1501.47 1432.81 1457.04 1893.76 1397.48 1731.52 1654.25 1381.94 1518.12 1358.51 1340.51 1318.17 1308.19 2635.07 1739.61 1291.46 1286.94 1242.38 2876.53 1266.66
threshold=272.92000000000007 18.345000000000002 1.0050000000000001 35.610000000000007 -0.70216666666666649 448.65000000000003 2.3650000000000007 70.840000000000018 70.840000000000018 291.86500000000007 128.14500000000001 4.8450000000000006 5.7496666666666671 215.16000000000005 33.145000000000003 23.505000000000003 7.995000000000001 0.44500000000000006 31.990000000000006 71.63000000000001 51.740000000000002 55.860000000000007 -2.2069999999999994 244.49000000000004 -4.6568333333333323 4.6400000000000015 10.481000000000002 0.095000000000000043 -1.6949999999999996 5.3250000000000011 80.355000000000018 2.4670000000000005 -5.977142857142856 0.97400000000000009 1.405 7.9510000000000014 -0.044999999999999991 45.890000000000008 -5.2739999999999991 3.0950000000000002 8.8990000000000027 12.975000000000003 111.15000000000002 2.4100000000000006 56.045000000000009 36.130000000000003 -3.0949999999999993 1.8950000000000002 1.2250000000000003 12.405000000000003 10.635000000000003 10.465000000000002 13.057000000000002 25.145000000000007 15.220000000000002 -5.9249999999999989 -4.2678571428571415 23.680000000000003
decision_type=2 2 2 2 2 2 2 2 2 2 2 2 2 2 2 2 2 2 2 2 2 2 2 2 2 2 2 2 2 2 2 2 2 2 2 2 2 2 2 2 2 2 2 2 2 2 2 2 2 2 2 2 2 2 2 2 2 2
left_child=1 4 9 12 31 6 8 11 15 10 -3 26 29 14 50 21 -5 -7 -19 20 -15 27 24 36 -23 -13 42 -6 -29 37 -31 33 -33 55 -28 -36 -24 -4 -34 -22 -41 -42 44 54 -8 46 -35 -46 -39 -37 51 -14 -52 -25 -44 -1 -57 -58
right_child=-2 2 3 16 5 17 7 -9 -10 -11 -12 25 13 19 -16 -17 -18 18 -20 -21 39 22 23 53 -26 -27 34 28 -30 30 -32 32 38 45 35 49 -38 48 -40 40 41 -43 43 -45 47 -47 -48 -49 -50 -51 52 -53 -54 -55 -56 56 57 -59
leaf_value=-0.00089687560595173702 6.6582186815991564 -0.065670316045350841 -0.77435025080568642 2.0016102102085869 -1.8413283991477138 -0.66650913587841987 0.57428172328341542 4.2484242598875861 -3.1529811168241126 2.5827171458079783 -4.3402890033732815 0.49638315347016038 0.61651469954024651 -0.9424168982419252 -2.449717364888973 1.3792682537231205 4.9503700883373254 3.1419350456850759 0.063340900178568693 -1.1880437374745323 3.3029232758592491 -1.1784733933191636 -0.88853876024602951 0.45645573041522963 1.3725147457737819 1.7899996549110284 -0.93073524562733834 0.93148379530050085 -0.58737507974362824 1.6947364122854773 4.9041982019038599 1.9193627427944182 -1.972393358468882 1.1831297016243822 1.6565807994447073 0.1728233731162524 -0.17604434043562994 2.9662540281349896 0.1824338214395004 0.41436989636049271 2.4566113792915343 0.028160350917300053 2.0509286915334677 0.28787425093063351 -1.0292547848148439 -1.7897930860603763 -1.1430842780997665 0.10229814587908138 0.86133874791910836 -1.6078650072368621 2.2534622284145831 -2.1626680203013415 -0.50237211334633225 -1.210984429905076 -0.1689289051245553 -0.98692064388740186 -0.80553896544556569 -0.16228531955266551
leaf_weight=321 17 111 17 53 45 14.999999999999998 90 13.999999999999998 18 14.999999999999998 13.999999999999998 224 37 15.999999999999998 20 44 14.999999999999998 35 13.999999999999998 15.999999999999998 17 17 135 309 88 65 134 36 334 67 13.999999999999998 29 14.999999999999998 15.999999999999998 33 40 1598 15.999999999999998 102 44 55 17 43 275 90 76 39 82 52 29 22 22 15.999999999999998 20 13.999999999999998 299 148 757
leaf_count=321 17 111 17 53 45 15 90 14 18 15 14 224 37 16 20 44 15 35 14 16 17 17 135 309 88 65 134 36 334 67 14 29 15 16 33 40 1598 16 102 44 55 17 43 275 90 76 39 82 52 29 22 22 16 20 14 299 148 757
internal_value=0 -0.0179695 0.847535 1.13429 -0.118585 -0.00383634 -0.0306042 0.27333 -0.160845 -0.209376 -0.544428 0.223597 0.903917 0.509444 -0.275417 -0.140336 2.65207 1.57589 2.26234 1.06598 1.30802 -0.166231 -0.0847712 -0.137947 0.959498 0.787335 0.0273069 -0.591589 -0.439594 1.57405 2.24946 -0.363173 0.306054 -0.422175 -0.465112 0.146588 -0.231547 0.93042 -0.0938261 1.57875 1.32607 1.88323 0.222948 0.496959 -0.124271 -1.23416 -0.466367 -0.489794 1.35661 -0.575582 0.172892 -0.419791 1.09311 0.355092 1.5057 -0.352424 -0.446145 -0.26748
internal_weight=0 6299 656 516 5643 3841 3777 1133 2644 140 125 1119 448 282 117 2626 68 64 49 165 149 2582 2167 2062 105 289 830 415 370 166 81 1802 146 1656 236 102 1733 85 117 133 116 72 594 332 262 131 55 172 68 69 97 59 38 329 57 1525 1204 905
internal_count=6316 6299 656 516 5643 3841 3777 1133 2644 140 125 1119 448 282 117 2626 68 64 49 165 149 2582 2167 2062 105 289 830 415 370 166 81 1802 146 1656 236 102 1733 85 117 133 116 72 594 332 262 131 55 172 68 69 97 59 38 329 57 1525 1204 905
is_linear=0
shrinkage=0.201098


Tree=17
num_leaves=59
num_cat=0
split_feature=2 2 9 4 4 24 1 31 23 30 10 29 0 4 16 23 0 31 26 7 21 11 10 12 6 3 9 14 9 5 15 31 22 18 11 19 18 8 9 3 28 1 12 19 28 26 14 21 0 25 10 29 3 11 8 0 23 23
split_gain=16019.4 8339.87 4662.78 5187.91 4200.58 3990.5 3028.42 3010.29 2652.35 2574.81 2058.38 4387.36 2805.31 2694.76 2473.57 1874.55 1762.9 1641.2 1977.42 1891.66 1785.14 1686.07 1552.23 1497.31 2578.35 1485.46 2093.4 1705.43 2522.13 1484.2 2051.75 2333.05 1897.58 1458.75 1405.97 1396 2595.61 2012.77 1559.19 1390.13 1467.25 1867.32 1770.96 1623.26 1613.35 1360.96 2661.11 1352.55 1328.7 1324.6 1320.78 1314.65 1292.81 1249.21 1820.92 1428.27 1410.54 2412.65
threshold=113.28000000000002 18.345000000000002 3.1100000000000008 60.140000000000008 43.115000000000002 7.5866666666666669 8.8150000000000031 320.81500000000005 283.26000000000005 12.922166666666667 9.0650000000000031 8.1002500000000008 51.780000000000008 2.6050000000000004 70.840000000000018 111.12500000000001 8.1950000000000021 92.800000000000011 8.1250000000000018 0.12500000000000003 87.175000000000011 2.7950000000000004 -1.6199999999999999 12.115 0.44500000000000006 15.58 -3.3649999999999998 10.135000000000003 4.8600000000000003 0.115 8.6350000000000033 125.29000000000001 86.435000000000016 86.870000000000019 14.025 104.27500000000002 88.510000000000005 2.9950000000000006 8.9650000000000016 7.2550000000000008 6.088000000000001 10.805000000000001 9.6950000000000021 6.8950000000000014 8.1123333333333356 6.7057142857142873 9.7050000000000018 148.65000000000001 13.595000000000001 5.8440000000000003 9.7550000000000008 5.5395000000000012 1.0000000180025095e-35 3.3050000000000002 1.7750000000000001 16.325000000000003 57.335000000000008 67.265000000000015
decision_type=2 2 2 2 2 2 2 2 2 2 2 2 2 2 2 2 2 2 2 2 2 2 2 2 2 2 2 2 2 2 2 2 2 2 2 2 2 2 2 2 2 2 2 2 2 2 2 2 2 2 2 2 2 2 2 2 2 2
left_child=1 8 3 7 6 -6 35 16 10 23 12 13 15 39 -13 49 47 -10 20 -20 22 -22 -19 24 -8 29 -27 28 -28 32 31 51 -17 -23 -25 36 37 38 45 40 52 42 -42 -43 -45 -4 -47 -3 -24 53 -15 -31 -12 54 -1 56 -55 -58
right_child=-2 2 4 -5 5 -7 9 -9 17 -11 11 14 -14 50 -16 25 -18 18 19 -21 21 33 48 34 -26 26 27 -29 -30 30 -32 -33 -34 -35 -36 -37 -38 -39 -40 -41 41 43 -44 44 -46 46 -48 -49 -50 -51 -52 -53 -54 55 -56 -57 57 -59
leaf_value=-0.22012825675771244 6.5639921131825245 0.24465499192652029 0.98751204463951359 -3.6883680444380182 1.5215765004737853 5.5862900762075798 -2.2586986175909995 2.6693714766561083 -0.13810689508987636 -2.1386085998069158 2.933972081634673 -0.15009937963952458 -2.8675662349864721 0.38899228473910985 2.4510162750060527 -0.11536932084293165 -0.60042187973740346 1.4057317874944082 3.8243128424058641 0.99337268444013271 0.34031993987035503 3.5289235820955063 0.014126551579507674 2.5996855984694829 0.63948090561491966 -1.2295930393404602 0.60492804116246734 -0.66655814064138652 2.7995706803558473 0.042890417437339207 -0.51820575725584661 0.63789786776364887 -0.95999228863841657 0.96871164230072226 0.30472694477053736 1.7728398432756329 -1.6783505529740395 2.1597183845094792 1.8664464158726848 2.1515349102238308 0.28286761931382587 0.088011923392715033 -1.9593107244945525 3.3722482911724772 0.55754716644494062 -2.9812388438356123 0.63368300095131869 2.2913524515690447 -2.0447709276381354 -0.72844140311624184 2.5162521688587529 -1.043894276043088 0.29373279051223755 -0.34799714993911002 -0.73346680725505153 -1.8901327515558248 2.0082152176492225 0.185069931350373
leaf_weight=1313 14.999999999999998 71 31 14.999999999999998 28 14.999999999999998 18 18 167 19 15.000000000000002 1031 15.999999999999998 15.999999999999998 14.999999999999998 368 106 30 13.999999999999998 30 39 18 134 19 40 22 72 23 30 335 191 309 152 18 25 110 14.999999999999998 48 26 18 28 91 29 13.999999999999998 20 13.999999999999998 20 15.999999999999998 13.999999999999998 276 45 52 14.999999999999998 123 355 13.999999999999998 36 159
leaf_count=1313 15 71 31 15 28 15 18 18 167 19 15 1031 16 16 15 368 106 30 14 30 39 18 134 19 40 22 72 23 30 335 191 309 152 18 25 110 15 48 26 18 28 91 29 14 20 14 20 16 14 276 45 52 15 123 355 14 36 159
internal_value=0 -0.0156261 0.664206 -0.0747319 1.05439 2.9395 0.843849 0.182162 -0.09436 0.0107545 -0.135596 0.0793441 -0.210317 0.770001 -0.112798 -0.199216 -0.0498061 0.366262 0.649864 1.89413 0.43347 1.2564 0.086731 0.411126 -0.259954 -0.0289548 0.57932 0.897689 1.25041 -0.0925059 0.0656358 0.225857 -0.362259 2.24882 1.29573 1.22568 0.834857 1.10607 0.550294 0.454848 0.310789 0.0959988 -0.85789 0.530972 1.71654 0.0238337 -0.854814 0.621059 -0.180634 -0.315467 1.95828 -0.103138 1.61385 -0.258476 -0.329382 0.0977601 0.185277 0.521651
internal_weight=0 6301 654 226 428 43 385 211 5647 121 5183 1337 3846 291 1046 3830 193 464 297 44 253 75 178 102 58 1554 147 125 102 1407 887 696 520 36 44 264 154 139 91 230 212 182 57 125 34 65 34 87 148 2276 61 387 30 2000 1668 332 318 195
internal_count=6316 6301 654 226 428 43 385 211 5647 121 5183 1337 3846 291 1046 3830 193 464 297 44 253 75 178 102 58 1554 147 125 102 1407 887 696 520 36 44 264 154 139 91 230 212 182 57 125 34 65 34 87 148 2276 61 387 30 2000 1668 332 318 195
is_linear=0
shrinkage=0.201098


Tree=18
num_leaves=59
num_cat=0
split_feature=22 0 18 2 6 0 30 2 26 28 9 8 2 18 14 13 15 15 19 5 14 8 13 27 7 31 5 21 30 31 28 12 14 28 24 23 2 3 30 21 31 28 6 4 27 25 7 29 23 17 14 4 14 23 22 22 16 0
split_gain=11127.5 34501 5996.26 5520.16 4593.36 3926.41 3602.29 3552.91 5052.9 3507.13 3022.61 2216.17 2059.19 2026.79 2006.72 1964.53 1713.38 2346.46 2165.96 1763.18 1712.04 2081.65 1652.02 1630.93 2071.06 1430.54 1835.69 1497.18 1468.97 2005.06 1860.44 1984.86 1872.21 1709.65 3012.44 1944.04 1730.85 1605.26 1713.39 1539.97 1465.8 1419.78 1373.15 1329.33 1182.97 1663.29 1571.92 1512.97 1471.19 2093.17 2136.09 1154.2 1138.52 1094.67 1087.93 1117.7 1054.53 1034.87
threshold=330.50500000000005 53.820000000000007 239.60000000000002 70.585000000000022 2.5350000000000006 20.885000000000002 10.647500000000003 3.4650000000000003 4.8335714285714291 7.6325000000000012 10.385000000000003 2.6350000000000002 4.0650000000000004 141.31500000000003 10.635000000000003 12.445000000000002 7.035000000000001 8.6350000000000033 78.860000000000014 0.17500000000000002 13.275 10.050000000000002 14.995000000000003 14.264000000000001 6.7200000000000015 173.80500000000004 2.9150000000000005 0.15500000000000003 13.160166666666669 102.71500000000002 10.595500000000003 10.215000000000002 9.6050000000000022 4.6328333333333349 6.6666666666666679 85.080000000000013 2.8800000000000003 2.8550000000000004 8.5176666666666687 0.065000000000000002 113.45500000000001 6.2128333333333341 1.5750000000000004 6.8900000000000015 4.1656666666666675 -2.7429999999999994 0.29500000000000004 -0.31941666666666663 293.49500000000006 23.505000000000003 5.3750000000000009 0.10500000000000002 0.40500000000000008 77.690000000000012 68.990000000000023 123.98500000000001 18.345000000000002 30.920000000000005
decision_type=2 2 2 2 2 2 2 2 2 2 2 2 2 2 2 2 2 2 2 2 2 2 2 2 2 2 2 2 2 2 2 2 2 2 2 2 2 2 2 2 2 2 2 2 2 2 2 2 2 2 2 2 2 2 2 2 2 2
left_child=2 4 3 7 -2 14 -7 23 13 10 11 42 15 44 -5 -11 19 18 -18 -14 21 -19 -22 25 51 28 27 -27 30 54 33 37 -33 34 39 53 -37 38 -32 -1 -36 -13 57 -29 45 46 -9 -47 49 -46 -51 -25 -6 -35 -30 -56 -28 -10
right_child=1 -3 -4 5 52 6 -8 8 9 12 -12 41 16 -15 -16 -17 17 20 -20 -21 22 -23 -24 24 -26 26 56 43 29 -31 31 32 -34 35 40 36 -38 -39 -40 -41 -42 -43 -44 -45 48 47 -48 -49 -50 50 -52 -53 -54 -55 55 -57 -58 -59
leaf_value=-0.66509874124585966 -2.9008311580750599 10.692228021952486 -3.598759794147973 1.4264551623267612 2.5412845778011435 1.2356452830263898 5.6428741872717278 -1.0176957244510507 0.34291004834843447 0.59650624166609711 3.694845578267246 2.5081102906119246 -2.5437913880536609 -2.5745057671645841 -1.1623207208939235 3.6179158934029982 0.46064772536137399 -0.36849278739130609 2.6992072658622743 0.045365706197812002 1.4055957496109048 1.0483441006972027 -0.0072188082961214504 0.28863888189167974 -2.6777538597368147 0.76944979764923549 0.51081425428122507 -0.23970147104173162 -0.87774747145660659 -1.5644698578412086 3.7881858197065994 2.0692828148146236 -0.13693882420608097 -0.89915764236561102 0.66843090177174136 -0.39215067582374119 1.7351970384696005 -0.52915264704671583 1.133193607523918 -0.10538425392384286 2.8385749781424519 0.85779331584967788 1.3012312279327964 0.6305535502942865 -0.0068559698112152243 0.66338122724372461 0.075497321283883131 -0.13133664653349381 0.78666872386322018 -3.8813177044515816 -0.68786720121970168 -1.0932021346078873 0.58390457056099954 -2.3485447641509158 1.955104558411455 -0.2538704725987434 -1.1577600097247838 -1.4406833293977259
leaf_weight=223 13.999999999999998 15.999999999999998 19 37 17 15.000000000000002 14.999999999999998 110 74 23 18 49 18 13.999999999999998 18 13.999999999999998 44 260 29 26 69 50 65 44 21 76 359 789 35 72 13.999999999999998 17 183 96 59 464 15.999999999999998 13.999999999999998 33 1831 15.999999999999998 37 55 78 27 169 103 227 17 18 15.999999999999998 55 41 27 15.999999999999998 22 15.999999999999998 15.999999999999998
leaf_count=223 14 16 19 37 17 15 15 110 74 23 18 49 18 14 18 14 44 260 29 26 69 50 65 44 21 76 359 789 35 72 14 17 183 96 59 464 16 14 33 1831 16 37 55 78 27 169 103 227 17 18 16 55 41 27 16 22 16 16
internal_value=0 2.24552 -0.0317286 -0.0208133 0.368476 1.58865 3.43926 -0.0431522 0.220201 0.55073 1.18488 0.989298 0.286678 -0.179168 0.579219 1.73974 0.190843 0.293368 1.34994 -1.01383 0.119653 -0.139971 0.720275 -0.132241 -0.863824 -0.11254 0.0632739 -0.0863872 -0.186384 -0.811493 -0.156099 0.356858 0.05059 -0.205105 -0.120442 -0.504021 -0.321239 1.36101 1.92404 -0.166152 1.13139 1.79809 0.509601 -0.161409 -0.130355 -0.0359151 -0.489062 0.207823 -0.867709 -1.32877 -2.37852 -0.479051 1.15762 -1.21732 -0.0688307 0.676224 0.439622 0.0258268
internal_weight=0 88 6228 6209 72 85 30 6124 1548 847 249 231 598 701 55 37 561 517 73 44 444 310 134 4576 120 4456 1318 943 3138 145 2993 261 200 2732 2129 603 480 61 47 2054 75 86 145 867 687 609 213 396 78 61 34 99 58 123 73 38 375 90
internal_count=6316 88 6228 6209 72 85 30 6124 1548 847 249 231 598 701 55 37 561 517 73 44 444 310 134 4576 120 4456 1318 943 3138 145 2993 261 200 2732 2129 603 480 61 47 2054 75 86 145 867 687 609 213 396 78 61 34 99 58 123 73 38 375 90
is_linear=0
shrinkage=0.201098


Tree=19
num_leaves=59
num_cat=0
split_feature=17 18 4 11 20 3 28 0 21 15 5 1 0 24 7 5 31 27 23 6 20 4 28 29 20 28 13 29 30 28 28 31 30 26 23 29 20 30 30 0 22 14 25 12 10 23 26 11 8 0 31 25 29 31 29 4 31 1
